{"learner":{"attributes":{"best_iteration":"44","best_score":"94.57307238192172","scikit_learn":"{\"_estimator_type\": \"regressor\"}"},"feature_names":[],"feature_types":[],"gradient_booster":{"model":{"cats":{"enc":[],"feature_segments":[],"sorted_idx":[]},"gbtree_model_param":{"num_parallel_tree":"1","num_trees":"95"},"iteration_indptr":[0,1,2,3,4,5,6,7,8,9,10,11,12,13,14,15,16,17,18,19,20,21,22,23,24,25,26,27,28,29,30,31,32,33,34,35,36,37,38,39,40,41,42,43,44,45,46,47,48,49,50,51,52,53,54,55,56,57,58,59,60,61,62,63,64,65,66,67,68,69,70,71,72,73,74,75,76,77,78,79,80,81,82,83,84,85,86,87,88,89,90,91,92,93,94,95],"tree_info":[0,0,0,0,0,0,0,0,0,0,0,0,0,0,0,0,0,0,0,0,0,0,0,0,0,0,0,0,0,0,0,0,0,0,0,0,0,0,0,0,0,0,0,0,0,0,0,0,0,0,0,0,0,0,0,0,0,0,0,0,0,0,0,0,0,0,0,0,0,0,0,0,0,0,0,0,0,0,0,0,0,0,0,0,0,0,0,0,0,0,0,0,0,0,0],"trees":[{"base_weights":[-2.11736E0,-1.5537307E1,1.4225294E2,-3.109111E1,2.3346933E1,1.5497313E2,4.3371816E0,-4.7932014E1,-1.4496177E1,4.7001865E1,2.4839957E0,5.5925384E0,9.413858E0,-1.3751968E0,-4.960582E1,1.2978486E1,-1.961072E1,6.1345104E1,4.1559377E-1,9.318762E-1,-4.0767756E0,-2.593291E0,-1.7940372E0,-8.6885595E-1,2.074001E0,-1.6992441E0,-1.4043808E1,8.7318164E-1,7.396658E1,-7.768239E-1,3.3403366E0,-3.2421264E-1,-1.208721E0,2.4894283E0,4.361983E0,4.0056178E-1,-2.8898504E-1],"categories":[],"categories_nodes":[],"categories_segments":[],"categories_sizes":[],"default_left":[0,0,0,0,0,0,0,0,0,0,0,0,0,0,0,0,0,0,0,0,0,0,0,0,0,0,0,0,0,0,0,0,0,0,0,0,0],"id":0,"left_children":[1,3,5,7,9,11,-1,13,15,17,19,-1,-1,-1,21,23,25,27,-1,-1,29,-1,-1,-1,-1,-1,31,-1,33,-1,35,-1,-1,-1,-1,-1,-1],"loss_changes":[4.5557162E5,1.3075741E5,6.78875E2,4.234411E4,3.0480953E4,4.833125E2,0E0,1.2342812E3,1.1355627E4,1.5583363E4,3.6792876E3,0E0,0E0,0E0,2.7929688E2,1.1968162E4,4.884041E3,1.0339109E4,0E0,0E0,2.1768442E3,0E0,0E0,0E0,0E0,0E0,3.6723926E3,0E0,7.911328E2,0E0,7.278829E2,0E0,0E0,0E0,0E0,0E0,0E0],"parents":[2147483647,0,0,1,1,2,2,3,3,4,4,5,5,7,7,8,8,9,9,10,10,14,14,15,15,16,16,17,17,20,20,26,26,28,28,30,30],"right_children":[2,4,6,8,10,12,-1,14,16,18,20,-1,-1,-1,22,24,26,28,-1,-1,30,-1,-1,-1,-1,-1,32,-1,34,-1,36,-1,-1,-1,-1,-1,-1],"split_conditions":[9.159778E-1,8.697723E-2,4.036E1,1.409E2,6.944521E-1,3.9971283E1,4.3371816E0,2.219E1,1.269E1,3.562E2,2.1310682E1,5.5925384E0,9.413858E0,-1.3751968E0,1.6705227E1,3.656E1,7.613556E0,8.17E0,4.1559377E-1,9.318762E-1,1.06E0,-2.593291E0,-1.7940372E0,-8.6885595E-1,2.074001E0,-1.6992441E0,2.326E2,8.7318164E-1,3.448E1,-7.768239E-1,2.3565E2,-3.2421264E-1,-1.208721E0,2.4894283E0,4.361983E0,4.0056178E-1,-2.8898504E-1],"split_indices":[40,40,2,21,39,28,0,4,2,22,31,0,0,0,37,9,28,4,0,0,10,0,0,0,0,0,22,0,4,0,11,0,0,0,0,0,0],"split_type":[0,0,0,0,0,0,0,0,0,0,0,0,0,0,0,0,0,0,0,0,0,0,0,0,0,0,0,0,0,0,0,0,0,0,0,0,0],"sum_hessian":[2.33E2,2.14E2,1.9E1,1.53E2,6.1E1,1.4E1,5E0,7.5E1,7.8E1,2.8E1,3.3E1,8E0,6E0,7E0,6.8E1,1.2E1,6.6E1,2E1,8E0,9E0,2.4E1,5.6E1,1.2E1,6E0,6E0,1.7E1,4.9E1,5E0,1.5E1,9E0,1.5E1,2.9E1,2E1,7E0,8E0,1E1,5E0],"tree_param":{"num_deleted":"0","num_feature":"54","num_nodes":"37","size_leaf_vector":"1"}},{"base_weights":[-3.6357036E0,-1.8210196E1,9.756274E1,-4.463755E1,-2.5307946E0,1.3698055E2,4.6385033E1,-2.4387138E0,-3.1514633E1,-1.3705889E1,1.5228427E1,7.639314E0,4.126949E0,4.2080245E0,5.925118E-1,-1.7108933E0,-9.3015206E-1,-2.3810375E1,4.281597E-1,5.8431373E0,3.364514E0,-2.7175312E1,1.307136E-2,1.0159801E0,-6.954899E0,2.0372707E1,-3.3767035E0,-5.4163253E-1,-1.476635E0,3.902588E-1,-5.7718694E-1,1.417255E0,-1.4813232E-2,7.5599885E-1,-3.930089E-1],"categories":[],"categories_nodes":[],"categories_segments":[],"categories_sizes":[],"default_left":[0,0,0,0,0,0,0,0,0,0,0,0,0,0,0,0,0,0,0,0,0,0,0,0,0,0,0,0,0,0,0,0,0,0,0],"id":1,"left_children":[1,3,5,7,9,11,13,-1,15,17,19,-1,-1,-1,-1,-1,-1,21,23,25,-1,27,-1,-1,29,31,33,-1,-1,-1,-1,-1,-1,-1,-1],"loss_changes":[3.63131E5,8.897552E4,5.6182844E4,2.8057656E3,2.7199412E4,2.0175E3,1.8571193E4,0E0,1.3131055E2,1.2006849E4,2.5503441E4,0E0,0E0,0E0,0E0,0E0,0E0,3.9761074E3,5.42827E3,6.230967E3,0E0,1.3366973E3,0E0,0E0,1.9188544E3,2.974458E3,2.5237983E3,0E0,0E0,0E0,0E0,0E0,0E0,0E0,0E0],"parents":[2147483647,0,0,1,1,2,2,3,3,4,4,5,5,6,6,8,8,9,9,10,10,17,17,18,18,19,19,21,21,24,24,25,25,26,26],"right_children":[2,4,6,8,10,12,14,-1,16,18,20,-1,-1,-1,-1,-1,-1,22,24,26,-1,28,-1,-1,30,32,34,-1,-1,-1,-1,-1,-1,-1,-1],"split_conditions":[2.8341E2,1.0146E2,4.1105375E-1,1.5682708E1,8.697723E-2,5.26E1,1.4073E2,-2.4387138E0,1.429E2,1.2944E2,5.68E1,7.639314E0,4.126949E0,4.2080245E0,5.925118E-1,-1.7108933E0,-9.3015206E-1,9.888537E-1,1.698E1,2.1310682E1,3.364514E0,2.0929792E1,1.307136E-2,1.0159801E0,7.38E0,8.406E1,2.04E1,-5.4163253E-1,-1.476635E0,3.902588E-1,-5.7718694E-1,1.417255E0,-1.4813232E-2,7.5599885E-1,-3.930089E-1],"split_indices":[35,38,39,37,40,4,16,0,22,35,2,0,0,0,0,0,0,39,4,31,0,37,0,0,1,18,7,0,0,0,0,0,0,0,0],"split_type":[0,0,0,0,0,0,0,0,0,0,0,0,0,0,0,0,0,0,0,0,0,0,0,0,0,0,0,0,0,0,0,0,0,0,0],"sum_hessian":[2.44E2,2.14E2,3E1,7.9E1,1.35E2,1.6E1,1.4E1,5.8E1,2.1E1,8.3E1,5.2E1,1.1E1,5E0,6E0,8E0,1.6E1,5E0,4.8E1,3.5E1,4.5E1,7E0,4.2E1,6E0,9E0,2.6E1,1.7E1,2.8E1,6E0,3.6E1,6E0,2E1,1.2E1,5E0,5E0,2.3E1],"tree_param":{"num_deleted":"0","num_feature":"54","num_nodes":"35","size_leaf_vector":"1"}},{"base_weights":[2.5440216E0,-1.2912201E1,1.4347604E2,-3.8820866E1,4.458063E0,9.950125E0,5.695577E0,-4.134274E1,-4.2171407E-1,-9.131042E-1,3.5038807E0,-2.340951E0,-3.280766E1,6.922069E0,-2.5432878E1,-1.7998365E0,-7.454486E-1,2.681298E1,2.1823487E0,-3.0089367E1,-1.4654452E1,2.5149605E0,5.439133E-1,1.1727425E0,-1.8909147E-1,-1.6447426E0,-9.030383E-1,-1.0117561E0,-3.3156872E-1],"categories":[],"categories_nodes":[],"categories_segments":[],"categories_sizes":[],"default_left":[0,0,0,0,0,0,0,0,0,0,0,0,0,0,0,0,0,0,0,0,0,0,0,0,0,0,0,0,0],"id":2,"left_children":[1,3,5,7,9,-1,-1,11,-1,13,-1,-1,15,17,19,-1,-1,21,23,25,27,-1,-1,-1,-1,-1,-1,-1,-1],"loss_changes":[5.2899556E5,9.87319E4,1.6730031E4,6.3948438E3,4.658786E4,0E0,0E0,2.2499531E3,0E0,2.38064E4,0E0,0E0,1.4611328E3,8.803557E3,1.064748E3,0E0,0E0,6.1892676E3,9.857923E3,8.081641E1,3.583291E2,0E0,0E0,0E0,0E0,0E0,0E0,0E0,0E0],"parents":[2147483647,0,0,1,1,2,2,3,3,4,4,7,7,9,9,12,12,13,13,14,14,17,17,18,18,19,19,20,20],"right_children":[2,4,6,8,10,-1,-1,12,-1,14,-1,-1,16,18,20,-1,-1,22,24,26,28,-1,-1,-1,-1,-1,-1,-1,-1],"split_conditions":[9.159778E-1,2.1616167E1,2.6531E2,1.754E2,5.038E1,9.950125E0,5.695577E0,1.1217831E1,-4.2171407E-1,3.172E1,3.5038807E0,-2.340951E0,1.44E2,6.944521E-1,-7.6834315E-1,-1.7998365E0,-7.454486E-1,1.13E0,6.342E1,3.764E1,6.541E1,2.5149605E0,5.439133E-1,1.1727425E0,-1.8909147E-1,-1.6447426E0,-9.030383E-1,-1.0117561E0,-3.3156872E-1],"split_indices":[40,37,0,21,1,0,0,31,0,8,0,0,21,39,40,0,0,6,18,9,18,0,0,0,0,0,0,0,0],"split_type":[0,0,0,0,0,0,0,0,0,0,0,0,0,0,0,0,0,0,0,0,0,0,0,0,0,0,0,0,0],"sum_hessian":[2.41E2,2.18E2,2.3E1,8.7E1,1.31E2,6E0,1.7E1,8E1,7E0,1.22E2,9E0,4.6E1,3.4E1,9.3E1,2.9E1,2.8E1,6E0,1.7E1,7.6E1,1.9E1,1E1,6E0,1.1E1,1.6E1,6E1,1.4E1,5E0,5E0,5E0],"tree_param":{"num_deleted":"0","num_feature":"54","num_nodes":"29","size_leaf_vector":"1"}},{"base_weights":[3.1107564E0,-1.2095193E1,1.4258762E2,-3.5136097E1,6.7335367E0,5.0487566E0,8.751027E0,-4.0443493E1,-1.9506836E1,1.532816E0,3.7075653E0,-2.2538142E0,-1.5955306E0,-1.5324782E0,-8.562581E0,-1.738605E0,2.7900515E0,1.887755E-1,-1.0720016E0,-1.3283723E1,5.5516887E0,6.0731566E-1,-1.0119065E0,1.4845375E0,7.128512E-2],"categories":[],"categories_nodes":[],"categories_segments":[],"categories_sizes":[],"default_left":[0,0,0,0,0,0,0,0,0,0,0,0,0,0,0,0,0,0,0,0,0,0,0,0,0],"id":3,"left_children":[1,3,5,7,9,-1,-1,11,13,15,-1,-1,-1,-1,17,19,-1,-1,-1,21,23,-1,-1,-1,-1],"loss_changes":[4.7468038E5,8.787045E4,1.20188125E4,6.7595938E3,3.915589E4,0E0,0E0,1.2101641E3,2.7862822E3,1.8738107E4,0E0,0E0,0E0,0E0,2.3053115E3,8.490477E3,0E0,0E0,0E0,7.1429995E3,6.132711E3,0E0,0E0,0E0,0E0],"parents":[2147483647,0,0,1,1,2,2,3,3,4,4,7,7,8,8,9,9,14,14,15,15,19,19,20,20],"right_children":[2,4,6,8,10,-1,-1,12,14,16,-1,-1,-1,-1,18,20,-1,-1,-1,22,24,-1,-1,-1,-1],"split_conditions":[9.159778E-1,5.6998573E1,9.8795E2,1.5E2,7.021E1,5.0487566E0,8.751027E0,1.5682708E1,1.0349353E1,8.034226E1,3.7075653E0,-2.2538142E0,-1.5955306E0,-1.5324782E0,1.9820597E1,9.107E1,2.7900515E0,1.887755E-1,-1.0720016E0,4.858E1,2.3521967E1,6.0731566E-1,-1.0119065E0,1.4845375E0,7.128512E-2],"split_indices":[40,33,13,21,3,0,0,37,28,37,0,0,0,0,28,29,0,0,0,16,37,0,0,0,0],"split_type":[0,0,0,0,0,0,0,0,0,0,0,0,0,0,0,0,0,0,0,0,0,0,0,0,0],"sum_hessian":[2.22E2,2.01E2,2.1E1,9E1,1.11E2,1.1E1,1E1,6.6E1,2.4E1,1.04E2,7E0,4E1,2.6E1,1.1E1,1.3E1,9.9E1,5E0,7E0,6E0,3.8E1,6.1E1,8E0,3E1,8E0,5.3E1],"tree_param":{"num_deleted":"0","num_feature":"54","num_nodes":"25","size_leaf_vector":"1"}},{"base_weights":[-9.152269E-1,-1.12200575E1,1.15197876E2,-3.27245E1,6.888107E0,6.446796E0,3.661377E0,-3.9019756E1,-1.4725124E1,2.1983478E0,3.525564E0,-4.2149296E1,-1.4387743E0,-2.2956646E1,-4.094513E0,-2.4023108E1,9.795301E0,-1.5876476E0,-2.2893414E0,-7.7980185E-1,-1.569911E0,4.061093E-1,-6.3726115E-1,-2.7641092E1,-3.9796525E-1,3.8365948E1,-1.2442344E0,-1.5479352E0,-8.528571E-1,9.705872E-1,3.3899713E0,-1.874362E-1,1.15866E0],"categories":[],"categories_nodes":[],"categories_segments":[],"categories_sizes":[],"default_left":[0,0,0,0,0,0,0,0,0,0,0,0,0,0,0,0,0,0,0,0,0,0,0,0,0,0,0,0,0,0,0,0,0],"id":4,"left_children":[1,3,5,7,9,-1,-1,11,13,15,-1,17,-1,19,21,23,25,-1,-1,-1,-1,-1,-1,27,-1,29,31,-1,-1,-1,-1,-1,-1],"loss_changes":[2.7888653E5,8.355828E4,1.5135625E3,1.0529875E4,3.475514E4,0E0,0E0,1.0954453E3,2.2686685E3,2.2147664E4,0E0,5.504375E2,0E0,4.4233936E2,1.4773997E3,1.2329619E3,2.717271E4,0E0,0E0,0E0,0E0,0E0,0E0,1.7420312E2,0E0,1.2073211E4,3.9395215E3,0E0,0E0,0E0,0E0,0E0,0E0],"parents":[2147483647,0,0,1,1,2,2,3,3,4,4,7,7,8,8,9,9,11,11,13,13,14,14,15,15,16,16,23,23,25,25,26,26],"right_children":[2,4,6,8,10,-1,-1,12,14,16,-1,18,-1,20,22,24,26,-1,-1,-1,-1,-1,-1,28,-1,30,32,-1,-1,-1,-1,-1,-1],"split_conditions":[9.159778E-1,2.27601E1,5.26E1,1.44E2,8.034226E1,6.446796E0,3.661377E0,1.6705227E1,1.1018922E1,-6.6045654E-1,3.525564E0,1.0566E2,-1.4387743E0,3.835E1,1.7468248E1,8.014E1,7.504072E1,-1.5876476E0,-2.2893414E0,-7.7980185E-1,-1.569911E0,4.061093E-1,-6.3726115E-1,7.818315E-1,-3.9796525E-1,2.215E2,3.837E1,-1.5479352E0,-8.528571E-1,9.705872E-1,3.3899713E0,-1.874362E-1,1.15866E0],"split_indices":[40,37,4,21,37,0,0,37,28,40,0,12,0,7,28,30,33,0,0,0,0,0,0,43,0,21,1,0,0,0,0,0,0],"split_type":[0,0,0,0,0,0,0,0,0,0,0,0,0,0,0,0,0,0,0,0,0,0,0,0,0,0,0,0,0,0,0,0,0],"sum_hessian":[2.31E2,2.13E2,1.8E1,9.7E1,1.16E2,1.2E1,6E0,7.1E1,2.6E1,1.09E2,7E0,5.2E1,1.9E1,1.4E1,1.2E1,2.4E1,8.5E1,1.6E1,3.6E1,9E0,5E0,5E0,7E0,1.9E1,5E0,2.3E1,6.2E1,1.3E1,6E0,1.5E1,8E0,5.7E1,5E0],"tree_param":{"num_deleted":"0","num_feature":"54","num_nodes":"33","size_leaf_vector":"1"}},{"base_weights":[-2.5368235E0,-1.6839838E1,8.249128E1,-3.7248302E1,-4.424664E0,1.1585308E2,3.980355E1,-3.99041E1,-2.4141901E1,-1.2232611E1,9.872164E0,7.0028415E0,3.804374E0,3.6653988E0,2.799614E-1,-2.1727395E0,-1.5314988E0,-1.4510078E0,-5.993912E-1,3.9394248E0,-1.8055529E1,3.4512028E1,-2.7768416E0,1.4039526E0,-9.197672E0,-2.3586504E1,-1.0626726E1,2.3093612E0,4.650681E-1,-9.69308E-1,2.1832445E0,-9.433994E-1,2.2747722E-1,-1.3983701E0,-6.1411077E-1,-1.2015684E0,-2.8262395E-1,-1.4906557E-1,5.561047E-1],"categories":[],"categories_nodes":[],"categories_segments":[],"categories_sizes":[],"default_left":[0,0,0,0,0,0,0,0,0,0,0,0,0,0,0,0,0,0,0,0,0,0,0,0,0,0,0,0,0,0,0,0,0,0,0,0,0,0,0],"id":5,"left_children":[1,3,5,7,9,11,13,15,17,19,21,-1,-1,-1,-1,-1,-1,-1,-1,23,25,27,29,-1,31,33,35,-1,-1,-1,37,-1,-1,-1,-1,-1,-1,-1,-1],"loss_changes":[2.7867322E5,4.9496617E4,4.238525E4,1.6124297E3,1.3851115E4,6.668E3,1.7925473E4,6.4475E2,5.4147266E2,7.6046045E3,1.3809307E4,0E0,0E0,0E0,0E0,0E0,0E0,0E0,0E0,7.235004E3,2.1735723E3,3.9854883E3,2.5138345E3,0E0,2.0799397E3,1.2907559E3,1.6644692E3,0E0,0E0,0E0,1.1411229E3,0E0,0E0,0E0,0E0,0E0,0E0,0E0,0E0],"parents":[2147483647,0,0,1,1,2,2,3,3,4,4,5,5,6,6,7,7,8,8,9,9,10,10,19,19,20,20,21,21,22,22,24,24,25,25,26,26,30,30],"right_children":[2,4,6,8,10,12,14,16,18,20,22,-1,-1,-1,-1,-1,-1,-1,-1,24,26,28,30,-1,32,34,36,-1,-1,-1,38,-1,-1,-1,-1,-1,-1,-1,-1],"split_conditions":[2.8341E2,1.434E2,3.953118E-1,-4.887854E-1,1.0299E2,3.6E1,1.3979E2,1.59355545E1,1.4307685E1,2.118E1,1.4597E2,7.0028415E0,3.804374E0,3.6653988E0,2.799614E-1,-2.1727395E0,-1.5314988E0,-1.4510078E0,-5.993912E-1,6.127E1,1.906183E1,1.2617E2,8.821429E1,1.4039526E0,7.685E1,7.818315E-1,1.55E2,2.3093612E0,4.650681E-1,-9.69308E-1,1.1823396E3,-9.433994E-1,2.2747722E-1,-1.3983701E0,-6.1411077E-1,-1.2015684E0,-2.8262395E-1,-1.4906557E-1,5.561047E-1],"split_indices":[35,21,39,40,29,3,15,37,31,4,35,0,0,0,0,0,0,0,0,27,31,29,30,0,17,43,23,0,0,0,50,0,0,0,0,0,0,0,0],"split_type":[0,0,0,0,0,0,0,0,0,0,0,0,0,0,0,0,0,0,0,0,0,0,0,0,0,0,0,0,0,0,0,0,0,0,0,0,0,0,0],"sum_hessian":[2.27E2,1.95E2,3.2E1,7.3E1,1.22E2,1.7E1,1.5E1,5.9E1,1.4E1,7.9E1,4.3E1,9E0,8E0,7E0,8E0,4E1,1.9E1,9E0,5E0,2.1E1,5.8E1,1.4E1,2.9E1,7E0,1.4E1,3.2E1,2.6E1,9E0,5E0,6E0,2.3E1,8E0,6E0,2.2E1,1E1,6E0,2E1,1.5E1,8E0],"tree_param":{"num_deleted":"0","num_feature":"54","num_nodes":"39","size_leaf_vector":"1"}},{"base_weights":[6.068977E-1,-1.0234216E1,1.24165245E2,-2.201171E1,2.1654104E1,8.796027E0,9.518545E1,-2.9813498E1,-1.9767702E-1,8.790263E0,5.8088257E1,5.522697E0,3.0978305E0,-3.4809013E1,-2.0053164E1,-1.7899776E1,7.553169E0,2.0348047E1,9.14809E-1,1.4884287E0,3.4127305E0,-3.778866E1,-1.3140987E0,-2.3120209E1,1.6124128E-1,-1.1109827E0,-4.2183334E-1,2.188665E0,-7.754959E-1,3.6598307E-1,2.7337967E1,-7.3253303E0,1.5064612E1,-2.007123E0,-1.280835E0,-1.2486849E0,-4.3818662E-1,-3.1884018E-1,8.069606E-1,1.6698973E0,7.8558314E-1,-9.995312E-2,-8.085248E-1,2.2950546E-1,1.1514174E0],"categories":[],"categories_nodes":[],"categories_segments":[],"categories_sizes":[],"default_left":[0,0,0,0,0,0,0,0,0,0,0,0,0,0,0,0,0,0,0,0,0,0,0,0,0,0,0,0,0,0,0,0,0,0,0,0,0,0,0,0,0,0,0,0,0],"id":6,"left_children":[1,3,5,7,9,-1,11,13,15,17,19,-1,-1,21,23,25,27,29,31,-1,-1,33,-1,35,-1,-1,-1,-1,37,-1,39,41,43,-1,-1,-1,-1,-1,-1,-1,-1,-1,-1,-1,-1],"loss_changes":[3.3212972E5,8.610535E4,1.3252094E4,2.8415586E4,2.8547744E4,0E0,7.6696875E2,5.2991953E3,6.309481E3,4.259457E3,2.5746836E3,0E0,0E0,1.0394453E3,3.2159238E3,3.8485254E2,9.687235E3,1.5301748E3,3.4916477E3,0E0,0E0,6.047578E2,0E0,8.189121E2,0E0,0E0,0E0,0E0,2.6610178E3,0E0,3.207246E2,8.62797E2,8.11875E2,0E0,0E0,0E0,0E0,0E0,0E0,0E0,0E0,0E0,0E0,0E0,0E0],"parents":[2147483647,0,0,1,1,2,2,3,3,4,4,6,6,7,7,8,8,9,9,10,10,13,13,14,14,15,15,16,16,17,17,18,18,21,21,23,23,28,28,30,30,31,31,32,32],"right_children":[2,4,6,8,10,-1,12,14,16,18,20,-1,-1,22,24,26,28,30,32,-1,-1,34,-1,36,-1,-1,-1,-1,38,-1,40,42,44,-1,-1,-1,-1,-1,-1,-1,-1,-1,-1,-1,-1],"split_conditions":[9.159778E-1,8.697723E-2,2.6531E2,7.1127576E-1,4.423E1,8.796027E0,3.746E1,1.44E2,2.1843637E1,8.4968575E1,6.975E1,5.522697E0,3.0978305E0,1.6705227E1,7.335E1,9.888537E-1,1.195E1,5.552E1,3.052E1,1.4884287E0,3.4127305E0,1.722E1,-1.3140987E0,9.602E1,1.6124128E-1,-1.1109827E0,-4.2183334E-1,2.188665E0,1.0904E2,3.6598307E-1,8.121E1,3.939E2,7.159598E1,-2.007123E0,-1.280835E0,-1.2486849E0,-4.3818662E-1,-3.1884018E-1,8.069606E-1,1.6698973E0,7.8558314E-1,-9.995312E-2,-8.085248E-1,2.2950546E-1,1.1514174E0],"split_indices":[40,40,0,39,3,0,3,21,34,33,19,0,0,37,9,39,3,9,3,0,0,1,0,15,0,0,0,0,19,0,19,26,37,0,0,0,0,0,0,0,0,0,0,0,0],"split_type":[0,0,0,0,0,0,0,0,0,0,0,0,0,0,0,0,0,0,0,0,0,0,0,0,0,0,0,0,0,0,0,0,0,0,0,0,0,0,0,0,0,0,0,0,0],"sum_hessian":[2.46E2,2.27E2,1.9E1,1.66E2,6.1E1,5E0,1.4E1,1.22E2,4.4E1,4.6E1,1.5E1,8E0,6E0,7.9E1,4.3E1,1.3E1,3.1E1,1.8E1,2.8E1,5E0,1E1,5.6E1,2.3E1,3.8E1,5E0,8E0,5E0,5E0,2.6E1,7E0,1.1E1,1.8E1,1E1,4.5E1,1.1E1,3.3E1,5E0,2E1,6E0,6E0,5E0,1.2E1,6E0,5E0,5E0],"tree_param":{"num_deleted":"0","num_feature":"54","num_nodes":"45","size_leaf_vector":"1"}},{"base_weights":[1.1440723E0,-1.410592E1,9.1264786E1,-3.3499557E1,-1.5351609E0,1.2254908E2,4.3468082E1,-3.4882435E1,-5.4304063E-1,-5.8662195E0,3.5563503E1,1.4001616E2,3.5053957E0,3.641044E0,4.340888E-1,-9.0449774E-1,-1.7918555E0,2.7605357E0,-1.6069471E1,2.795764E0,7.9271173E-1,4.056028E0,8.186127E0,1.6107359E0,-1.0383698E0,-1.9526518E1,2.4764834E-1,-7.811025E-1,2.948507E-1,-2.800542E-1,-1.1232737E0],"categories":[],"categories_nodes":[],"categories_segments":[],"categories_sizes":[],"default_left":[0,0,0,0,0,0,0,0,0,0,0,0,0,0,0,0,0,0,0,0,0,0,0,0,0,0,0,0,0,0,0],"id":7,"left_children":[1,3,5,7,9,11,13,15,-1,17,19,21,-1,-1,-1,-1,-1,23,25,-1,-1,-1,-1,-1,27,29,-1,-1,-1,-1,-1],"loss_changes":[3.2288297E5,4.8950918E4,4.551275E4,2.0943672E3,1.9971832E4,8.503656E3,1.4683914E4,5.3802344E2,0E0,9.8146875E3,4.328049E3,6.2655625E3,0E0,0E0,0E0,0E0,0E0,6.8589644E3,3.803168E3,0E0,0E0,0E0,0E0,0E0,5.655011E3,1.6749219E3,0E0,0E0,0E0,0E0,0E0],"parents":[2147483647,0,0,1,1,2,2,3,3,4,4,5,5,6,6,7,7,9,9,10,10,11,11,17,17,18,18,24,24,25,25],"right_children":[2,4,6,8,10,12,14,16,-1,18,20,22,-1,-1,-1,-1,-1,24,26,-1,-1,-1,-1,-1,28,30,-1,-1,-1,-1,-1],"split_conditions":[7.614175E-1,1.434E2,4.1105375E-1,5.5611427E1,1E1,2.316E1,1.4073E2,1.52E1,-5.4304063E-1,3.759E1,5.959E1,9.8795E2,3.5053957E0,3.641044E0,4.340888E-1,-9.0449774E-1,-1.7918555E0,1.195E1,2.81E2,2.795764E0,7.9271173E-1,4.056028E0,8.186127E0,1.6107359E0,2.1977E2,4.867E1,2.4764834E-1,-7.811025E-1,2.948507E-1,-2.800542E-1,-1.1232737E0],"split_indices":[40,22,39,33,45,1,16,2,0,7,9,13,0,0,0,0,0,3,22,0,0,0,0,0,11,16,0,0,0,0,0],"split_type":[0,0,0,0,0,0,0,0,0,0,0,0,0,0,0,0,0,0,0,0,0,0,0,0,0,0,0,0,0,0,0],"sum_hessian":[2.33E2,2E2,3.3E1,7.8E1,1.22E2,1.9E1,1.4E1,7.3E1,5E0,1.1E2,1.2E1,1.3E1,6E0,7E0,7E0,5E0,6.8E1,6E1,5E1,5E0,7E0,5E0,8E0,6E0,5.4E1,4.3E1,7E0,1.7E1,3.7E1,8E0,3.5E1],"tree_param":{"num_deleted":"0","num_feature":"54","num_nodes":"31","size_leaf_vector":"1"}},{"base_weights":[3.3683507E0,-1.1047741E1,8.9759636E1,-2.8185682E1,3.122529E0,1.1105556E2,4.501181E1,-3.4285786E1,-1.9015656E1,2.2550688E0,-7.6453376E-1,8.486216E0,8.211381E1,4.009107E0,4.217778E-1,-1.8471568E0,-1.0632117E0,-7.661144E0,-2.5594004E1,4.5529113E0,-2.1730215E1,2.9704826E0,5.140889E0,-7.395515E-1,1.3001508E-1,-1.6000966E0,-2.0042982E1,1.4258214E1,-4.7720394E-1,-1.3759172E0,-1.4492805E1,-6.335119E-1,-1.3329473E0,1.4884742E0,-1.135749E-1,9.016577E-1,-1.8430112E-1,-1.01913E0,-3.093772E-1],"categories":[],"categories_nodes":[],"categories_segments":[],"categories_sizes":[],"default_left":[0,0,0,0,0,0,0,0,0,0,0,0,0,0,0,0,0,0,0,0,0,0,0,0,0,0,0,0,0,0,0,0,0,0,0,0,0,0,0],"id":8,"left_children":[1,3,5,7,9,11,13,15,17,-1,19,-1,21,-1,-1,-1,-1,23,25,27,29,-1,-1,-1,-1,-1,31,33,35,-1,37,-1,-1,-1,-1,-1,-1,-1,-1],"loss_changes":[2.7872134E5,4.671507E4,2.5495469E4,4.2146562E3,1.7330969E4,2.1720797E4,1.4760404E4,9.791758E2,2.5675967E3,0E0,1.1024354E4,0E0,1.4126953E3,0E0,0E0,0E0,0E0,1.135905E3,1.7670898E2,3.8634888E3,4.390039E2,0E0,0E0,0E0,0E0,0E0,3.9389258E2,6.9903364E3,3.214479E3,0E0,4.119607E2,0E0,0E0,0E0,0E0,0E0,0E0,0E0,0E0],"parents":[2147483647,0,0,1,1,2,2,3,3,4,4,5,5,6,6,7,7,8,8,10,10,12,12,17,17,18,18,19,19,20,20,26,26,27,27,28,28,30,30],"right_children":[2,4,6,8,10,12,14,16,18,-1,20,-1,22,-1,-1,-1,-1,24,26,28,30,-1,-1,-1,-1,-1,32,34,36,-1,38,-1,-1,-1,-1,-1,-1,-1,-1],"split_conditions":[2.4745E2,2.1616167E1,4.1105375E-1,1.255226E1,8.5E-1,2.9873E2,3.132E2,-3.2716033E-1,2.508E1,2.2550688E0,3.244E1,8.486216E0,1.213E1,4.009107E0,4.217778E-1,-1.8471568E0,-1.0632117E0,1.193E1,1.5682708E1,1.894E1,9.8606E2,2.9704826E0,5.140889E0,-7.395515E-1,1.3001508E-1,-1.6000966E0,6.008E1,1.494E1,1.568E2,-1.3759172E0,6.234898E-1,-6.335119E-1,-1.3329473E0,1.4884742E0,-1.135749E-1,9.016577E-1,-1.8430112E-1,-1.01913E0,-3.093772E-1],"split_indices":[32,37,39,31,10,0,22,39,4,0,8,0,8,0,0,0,0,1,37,4,13,0,0,0,0,0,20,1,24,0,44,0,0,0,0,0,0,0,0],"split_type":[0,0,0,0,0,0,0,0,0,0,0,0,0,0,0,0,0,0,0,0,0,0,0,0,0,0,0,0,0,0,0,0,0,0,0,0,0,0,0],"sum_hessian":[2.22E2,1.91E2,3.1E1,8.6E1,1.05E2,2E1,1.1E1,5E1,3.6E1,8E0,9.7E1,5E0,1.5E1,5E0,6E0,4E1,1E1,1.4E1,2.2E1,7.8E1,1.9E1,9E0,6E0,8E0,6E0,8E0,1.4E1,2.6E1,5.2E1,9E0,1E1,8E0,6E0,1.3E1,1.3E1,7E0,4.5E1,5E0,5E0],"tree_param":{"num_deleted":"0","num_feature":"54","num_nodes":"39","size_leaf_vector":"1"}},{"base_weights":[6.810972E-1,-1.0142418E1,1.03239586E2,-2.6213661E1,3.200877E0,7.5794196E0,3.862917E0,-3.0533432E1,-1.5260404E1,-8.1776077E-1,2.6427467E0,-3.2707584E1,-1.0915608E0,-2.4681395E1,-4.1939864E0,-3.187872E0,1.7594658E0,-1.7254194E0,-1.0666603E0,-1.492755E0,-8.670083E-1,7.7174073E-1,-7.7759343E-1,1.0628794E1,-9.579362E0,-5.4546934E-1,8.837759E-1,-6.36609E-1,2.3084803E-1],"categories":[],"categories_nodes":[],"categories_segments":[],"categories_sizes":[],"default_left":[0,0,0,0,0,0,0,0,0,0,0,0,0,0,0,0,0,0,0,0,0,0,0,0,0,0,0,0,0],"id":9,"left_children":[1,3,5,7,9,-1,-1,11,13,15,-1,17,-1,19,21,23,-1,-1,-1,-1,-1,-1,-1,25,27,-1,-1,-1,-1],"loss_changes":[2.674575E5,4.6832555E4,1.7180266E4,4.218289E3,2.3988225E4,0E0,0E0,6.1035156E2,3.0241846E3,9.670346E3,0E0,3.6991016E2,0E0,9.000879E1,3.5841646E3,9.46258E3,0E0,0E0,0E0,0E0,0E0,0E0,0E0,5.353133E3,3.326151E3,0E0,0E0,0E0,0E0],"parents":[2147483647,0,0,1,1,2,2,3,3,4,4,7,7,8,8,9,9,11,11,13,13,14,14,15,15,23,23,24,24],"right_children":[2,4,6,8,10,-1,-1,12,14,16,-1,18,-1,20,22,24,-1,-1,-1,-1,-1,-1,-1,26,28,-1,-1,-1,-1],"split_conditions":[9.159778E-1,5.5471428E1,2.6531E2,1.409E2,7.854E1,7.5794196E0,3.862917E0,1.6662354E1,1.1018922E1,6.9497185E1,2.6427467E0,3.876E1,-1.0915608E0,2.4953E2,1.6342388E1,2.116E1,1.7594658E0,-1.7254194E0,-1.0666603E0,-1.492755E0,-8.670083E-1,7.7174073E-1,-7.7759343E-1,8.496224E0,2.9702398E1,-5.4546934E-1,8.837759E-1,-6.36609E-1,2.3084803E-1],"split_indices":[40,33,0,21,3,0,0,37,28,34,0,3,0,11,28,4,0,0,0,0,0,0,0,28,28,0,0,0,0],"split_type":[0,0,0,0,0,0,0,0,0,0,0,0,0,0,0,0,0,0,0,0,0,0,0,0,0,0,0,0,0],"sum_hessian":[2.39E2,2.17E2,2.2E1,9.8E1,1.19E2,6E0,1.6E1,6.9E1,2.9E1,1.11E2,8E0,5.3E1,1.6E1,1.5E1,1.4E1,1.05E2,6E0,4.4E1,9E0,7E0,8E0,5E0,9E0,3.3E1,7.2E1,8E0,2.5E1,5.9E1,1.3E1],"tree_param":{"num_deleted":"0","num_feature":"54","num_nodes":"29","size_leaf_vector":"1"}},{"base_weights":[2.223463E0,-7.281636E0,9.671596E1,-2.6421516E1,6.315528E0,7.095736E0,3.4587734E0,-2.9852497E1,-1.343511E1,2.217409E0,4.403835E1,-6.2145704E-1,-3.1038015E1,-1.533057E-2,-1.7790836E1,-1.928105E1,7.6868215E0,8.569402E-1,3.0401955E0,-1.6226953E0,-9.4683313E-1,-1.199343E0,-3.6414868E-1,-1.1848902E0,-5.5847466E-1,4.4324646E0,2.2820494E0,5.3734654E-1,-1.9395359E-1],"categories":[],"categories_nodes":[],"categories_segments":[],"categories_sizes":[],"default_left":[0,0,0,0,0,0,0,0,0,0,0,0,0,0,0,0,0,0,0,0,0,0,0,0,0,0,0,0,0],"id":10,"left_children":[1,3,5,7,9,-1,-1,11,13,15,17,-1,19,-1,21,23,25,-1,-1,-1,-1,-1,-1,-1,-1,27,-1,-1,-1],"loss_changes":[2.0638302E5,5.4558723E4,1.6323719E4,3.4753047E3,1.8917242E4,0E0,0E0,1.0188164E3,1.1382283E3,1.3317612E4,4.3697246E3,0E0,4.6488672E2,0E0,8.019087E2,5.5932324E2,1.0914175E4,0E0,0E0,0E0,0E0,0E0,0E0,0E0,0E0,4.450254E3,0E0,0E0,0E0],"parents":[2147483647,0,0,1,1,2,2,3,3,4,4,7,7,8,8,9,9,10,10,12,12,14,14,15,15,16,16,25,25],"right_children":[2,4,6,8,10,-1,-1,12,14,16,18,-1,20,-1,22,24,26,-1,-1,-1,-1,-1,-1,-1,-1,28,-1,-1,-1],"split_conditions":[9.159778E-1,2.1616167E1,3.559E2,1.409E2,7.156428E1,7.095736E0,3.4587734E0,2.219E1,1.353E2,-6.6045654E-1,9.1E-1,-6.2145704E-1,1.6705227E1,-1.533057E-2,2.4953E2,2.399E2,6.014E1,8.569402E-1,3.0401955E0,-1.6226953E0,-9.4683313E-1,-1.199343E0,-3.6414868E-1,-1.1848902E0,-5.5847466E-1,8.406E1,2.2820494E0,5.3734654E-1,-1.9395359E-1],"split_indices":[40,37,14,21,34,0,0,4,24,40,10,0,37,0,11,14,2,0,0,0,0,0,0,0,0,18,0,0,0],"split_type":[0,0,0,0,0,0,0,0,0,0,0,0,0,0,0,0,0,0,0,0,0,0,0,0,0,0,0,0,0],"sum_hessian":[2.28E2,2.08E2,2E1,8.6E1,1.22E2,6E0,1.4E1,6.7E1,1.9E1,1.11E2,1.1E1,5E0,6.2E1,5E0,1.4E1,2.2E1,8.9E1,5E0,6E0,5.4E1,8E0,8E0,6E0,1.3E1,9E0,8.3E1,6E0,4.7E1,3.6E1],"tree_param":{"num_deleted":"0","num_feature":"54","num_nodes":"29","size_leaf_vector":"1"}},{"base_weights":[6.876982E-1,8.335213E1,-1.00811E1,1.02763214E2,1.906793E0,-2.4377264E1,1.0166081E0,7.440562E0,7.568812E1,-2.8542387E1,-1.3540104E1,7.5838885E0,-2.1301542E1,4.5982695E0,2.5992248E0,-3.0922167E1,-1.8231009E1,-1.8494808E1,5.792537E-2,2.4429045E1,8.82394E-1,-1.1832125E0,-4.3471226E-1,-2.295664E1,-1.6596478E0,-5.475005E-1,-1.0388254E0,-2.3103447E1,-2.9885182E-1,3.32283E1,-5.953197E-1,-2.522167E0,1.5698694E0,-5.5205625E-1,-1.3905143E0,-1.4148879E0,-8.24819E-1,2.3796194E0,7.2688144E-1,1.0130588E0,-2.6379365E-1],"categories":[],"categories_nodes":[],"categories_segments":[],"categories_sizes":[],"default_left":[0,0,0,0,0,0,0,0,0,0,0,0,0,0,0,0,0,0,0,0,0,0,0,0,0,0,0,0,0,0,0,0,0,0,0,0,0,0,0,0,0],"id":11,"left_children":[1,3,5,7,-1,9,11,-1,13,15,17,19,21,-1,-1,23,25,27,-1,29,31,-1,-1,33,-1,-1,-1,35,-1,37,-1,39,-1,-1,-1,-1,-1,-1,-1,-1,-1],"loss_changes":[2.1626786E5,2.0656547E4,3.413553E4,1.2425094E4,0E0,3.8565195E3,1.8043035E4,0E0,6.2085156E2,1.0803633E3,2.0605903E3,1.0702777E4,6.2830273E2,0E0,0E0,1.9666797E2,5.0504395E1,1.0733989E3,0E0,9.028199E3,7.247611E3,0E0,0E0,5.604487E2,0E0,0E0,0E0,4.797705E1,0E0,5.2145586E3,0E0,4.0594287E3,0E0,0E0,0E0,0E0,0E0,0E0,0E0,0E0,0E0],"parents":[2147483647,0,0,1,1,2,2,3,3,5,5,6,6,8,8,9,9,10,10,11,11,12,12,15,15,16,16,17,17,19,19,20,20,23,23,27,27,29,29,31,31],"right_children":[2,4,6,8,-1,10,12,-1,14,16,18,20,22,-1,-1,24,26,28,-1,30,32,-1,-1,34,-1,-1,-1,36,-1,38,-1,40,-1,-1,-1,-1,-1,-1,-1,-1,-1],"split_conditions":[1.408E1,4.1105375E-1,2.1616167E1,7.978E1,1.906793E0,1.409E2,3.244E1,7.440562E0,2.965E1,1.6705227E1,7.335E1,6.975E1,1.2768E2,4.5982695E0,2.5992248E0,3.1832E1,6.234898E-1,2.5352E2,5.792537E-2,3.099E1,7.535294E1,-1.1832125E0,-4.3471226E-1,1.1418463E1,-1.6596478E0,-5.475005E-1,-1.0388254E0,1.754E2,-2.9885182E-1,1.3979E2,-5.953197E-1,4.858E1,1.5698694E0,-5.5205625E-1,-1.3905143E0,-1.4148879E0,-8.24819E-1,2.3796194E0,7.2688144E-1,1.0130588E0,-2.6379365E-1],"split_indices":[8,39,37,9,0,21,8,0,2,37,9,18,20,0,0,36,44,11,0,8,37,0,0,34,0,0,0,21,0,38,0,16,0,0,0,0,0,0,0,0,0],"split_type":[0,0,0,0,0,0,0,0,0,0,0,0,0,0,0,0,0,0,0,0,0,0,0,0,0,0,0,0,0,0,0,0,0,0,0,0,0,0,0,0,0],"sum_hessian":[2.41E2,2.7E1,2.14E2,1.8E1,9E0,9.3E1,1.21E2,5E0,1.3E1,6.6E1,2.7E1,9.4E1,2.7E1,6E0,7E0,5.2E1,1.4E1,2E1,7E0,2.6E1,6.8E1,2.2E1,5E0,1.4E1,3.8E1,5E0,9E0,1.4E1,6E0,2.1E1,5E0,6.2E1,6E0,5E0,9E0,6E0,8E0,1.1E1,1E1,6E0,5.6E1],"tree_param":{"num_deleted":"0","num_feature":"54","num_nodes":"41","size_leaf_vector":"1"}},{"base_weights":[-9.969444E-1,-8.308847E0,8.4770195E1,-1.6769325E1,1.3771862E1,6.591048E1,5.575228E0,-2.325941E1,-1.6298927E-1,7.24627E0,2.4610004E0,2.097346E0,4.0229125E0,-2.6612848E1,-1.7624418E1,1.6280367E1,-7.583763E0,-7.3757404E-1,1.1081173E1,-6.9412994E-1,-2.8103683E1,-1.15268424E-1,-2.046031E1,-1.55966E-1,1.5610024E0,-1.3131776E1,3.7185657E-1,1.3843485E0,6.0200543E0,-1.5228709E0,-1.0248485E0,-1.367328E0,-8.247552E-1,-8.461499E-1,2.1526081E-2,-4.231567E-1,4.9715534E-1],"categories":[],"categories_nodes":[],"categories_segments":[],"categories_sizes":[],"default_left":[0,0,0,0,0,0,0,0,0,0,0,0,0,0,0,0,0,0,0,0,0,0,0,0,0,0,0,0,0,0,0,0,0,0,0,0,0],"id":12,"left_children":[1,3,5,7,9,11,-1,13,15,17,-1,-1,-1,19,21,23,25,-1,27,-1,29,-1,31,-1,-1,33,-1,-1,35,-1,-1,-1,-1,-1,-1,-1,-1],"loss_changes":[1.4368794E5,3.9648562E4,1.7263438E3,1.648602E4,1.3291228E4,1.1570391E3,0E0,1.6095938E3,5.492453E3,4.465785E3,0E0,0E0,0E0,8.814219E2,1.8643291E3,4.154937E3,2.681082E3,0E0,3.531255E3,0E0,4.320586E2,0E0,5.592158E2,0E0,0E0,1.1898931E3,0E0,0E0,2.0727905E3,0E0,0E0,0E0,0E0,0E0,0E0,0E0,0E0],"parents":[2147483647,0,0,1,1,2,2,3,3,4,4,5,5,7,7,8,8,9,9,13,13,14,14,15,15,16,16,18,18,20,20,22,22,25,25,28,28],"right_children":[2,4,6,8,10,12,-1,14,16,18,-1,-1,-1,20,22,24,26,-1,28,-1,30,-1,32,-1,-1,34,-1,-1,36,-1,-1,-1,-1,-1,-1,-1,-1],"split_conditions":[9.159778E-1,8.697723E-2,1.213E1,1.0385E2,6.301E1,1.05E0,5.575228E0,1.371E2,3.443E1,9.130064E2,2.4610004E0,2.097346E0,4.0229125E0,2.219E1,7.86E0,1.7769E2,2.296E2,-7.3757404E-1,1.698E2,-6.9412994E-1,1.3792517E1,-1.15268424E-1,4.838E1,-1.55966E-1,1.5610024E0,1.8227E2,3.7185657E-1,1.3843485E0,4.4703072E-1,-1.5228709E0,-1.0248485E0,-1.367328E0,-8.247552E-1,-8.461499E-1,2.1526081E-2,-4.231567E-1,4.9715534E-1],"split_indices":[40,40,8,32,3,10,0,22,7,50,0,0,0,4,5,12,26,0,14,0,34,0,19,0,0,35,0,0,49,0,0,0,0,0,0,0,0],"split_type":[0,0,0,0,0,0,0,0,0,0,0,0,0,0,0,0,0,0,0,0,0,0,0,0,0,0,0,0,0,0,0,0,0,0,0,0,0],"sum_hessian":[2.27E2,2.1E2,1.7E1,1.52E2,5.8E1,1.2E1,5E0,1.09E2,4.3E1,5E1,8E0,6E0,6E0,6.6E1,4.3E1,1.3E1,3E1,7E0,4.3E1,8E0,5.8E1,7E0,3.6E1,6E0,7E0,2.2E1,8E0,9E0,3.4E1,4.2E1,1.6E1,1.1E1,2.5E1,1.7E1,5E0,7E0,2.7E1],"tree_param":{"num_deleted":"0","num_feature":"54","num_nodes":"37","size_leaf_vector":"1"}},{"base_weights":[1.6048763E0,-9.869953E0,6.7929436E1,-2.2405941E1,1.3662046E-1,9.1228E1,3.1648315E1,-2.5416462E1,-1.1876637E1,1.6943073E0,-2.5766146E0,6.5214157E0,3.4188054E0,3.0355058E0,1.1495624E-1,-7.082769E-1,-2.6212582E1,2.0753662E-1,-1.6559282E1,8.753848E0,-9.499948E0,-2.090049E1,-2.8345148E1,-1.8714693E1,-4.564672E-1,-1.0373128E1,1.4864239E1,-1.0953958E0,-4.4478045E0,-7.924981E-1,-1.2104656E0,-1.4938544E0,-8.762644E-1,-1.1310709E0,-6.0672206E-1,-2.4870263E-1,-7.0216745E-1,1.3177742E0,5.0378777E-2,-6.106824E-1,1.18374206E-1],"categories":[],"categories_nodes":[],"categories_segments":[],"categories_sizes":[],"default_left":[0,0,0,0,0,0,0,0,0,0,0,0,0,0,0,0,0,0,0,0,0,0,0,0,0,0,0,0,0,0,0,0,0,0,0,0,0,0,0,0,0],"id":13,"left_children":[1,3,5,7,9,11,13,15,17,-1,19,-1,-1,-1,-1,-1,21,-1,23,25,27,29,31,33,-1,35,37,-1,39,-1,-1,-1,-1,-1,-1,-1,-1,-1,-1,-1,-1],"loss_changes":[1.9093619E5,2.6847713E4,2.8388812E4,2.7095117E3,1.1075759E4,1.0789453E4,1.3507464E4,2.825547E2,1.7948938E3,0E0,8.868953E3,0E0,0E0,0E0,0E0,0E0,1.6657812E2,0E0,1.1740967E2,5.17974E3,4.290636E3,6.435547E-1,2.2228906E2,5.969629E1,0E0,1.4812146E2,5.228044E3,0E0,2.728166E3,0E0,0E0,0E0,0E0,0E0,0E0,0E0,0E0,0E0,0E0,0E0,0E0],"parents":[2147483647,0,0,1,1,2,2,3,3,4,4,5,5,6,6,7,7,8,8,10,10,16,16,18,18,19,19,20,20,21,21,22,22,23,23,25,25,26,26,28,28],"right_children":[2,4,6,8,10,12,14,16,18,-1,20,-1,-1,-1,-1,-1,22,-1,24,26,28,30,32,34,-1,36,38,-1,40,-1,-1,-1,-1,-1,-1,-1,-1,-1,-1,-1,-1],"split_conditions":[1.6383714E2,2.2206902E1,4.1105375E-1,1.434E2,8.2E-1,2.6531E2,1.4073E2,2.219E1,1.268E2,1.6943073E0,2.118E1,6.5214157E0,3.4188054E0,3.0355058E0,1.1495624E-1,-7.082769E-1,1.0566E2,2.0753662E-1,1.1018922E1,7.613556E0,6.350683E-1,4.029E1,1.5941845E1,1.7926E2,-4.564672E-1,5.063401E0,7.664429E1,-1.0953958E0,7.2551805E-1,-7.924981E-1,-1.2104656E0,-1.4938544E0,-8.762644E-1,-1.1310709E0,-6.0672206E-1,-2.4870263E-1,-7.0216745E-1,1.3177742E0,5.0378777E-2,-6.106824E-1,1.18374206E-1],"split_indices":[33,37,39,21,10,0,16,4,24,0,4,0,0,0,0,0,12,0,28,28,39,17,28,12,0,28,33,0,48,0,0,0,0,0,0,0,0,0,0,0,0],"split_type":[0,0,0,0,0,0,0,0,0,0,0,0,0,0,0,0,0,0,0,0,0,0,0,0,0,0,0,0,0,0,0,0,0,0,0,0,0,0,0,0,0],"sum_hessian":[2.49E2,2.13E2,3.6E1,9.4E1,1.19E2,2.1E1,1.5E1,7.2E1,2.2E1,8E0,1.11E2,6E0,1.5E1,7E0,8E0,6E0,6.6E1,5E0,1.7E1,4.2E1,6.9E1,2.2E1,4.4E1,1.2E1,5E0,1E1,3.2E1,1.9E1,5E1,1.1E1,1.1E1,3.7E1,7E0,6E0,6E0,5E0,5E0,1.7E1,1.5E1,2.3E1,2.7E1],"tree_param":{"num_deleted":"0","num_feature":"54","num_nodes":"41","size_leaf_vector":"1"}},{"base_weights":[6.856878E-1,-8.038907E0,8.789898E1,-1.7331022E1,9.2726965E0,6.2419267E0,6.480059E1,-2.4397127E1,-9.802222E0,2.638038E0,3.751852E1,3.6474495E0,2.0209913E0,-5.911414E-1,-2.5391235E1,5.626879E-1,-1.3204893E1,6.8189726E0,-1.3323795E1,2.4112813E0,9.9610186E-1,-2.6847427E1,-1.6843786E1,-7.7684145E0,-1.856096E1,-8.330402E0,1.1423539E1,-2.854055E-1,-8.685042E-1,-1.0350218E0,-1.4836837E0,-3.9158115E-1,-1.1081121E0,4.7364083E-1,-8.214806E-1,-1.0528324E0,-4.6888515E-1,-7.802941E-1,7.7302866E-2,2.884853E-1,2.030785E0],"categories":[],"categories_nodes":[],"categories_segments":[],"categories_sizes":[],"default_left":[0,0,0,0,0,0,0,0,0,0,0,0,0,0,0,0,0,0,0,0,0,0,0,0,0,0,0,0,0,0,0,0,0,0,0,0,0,0,0,0,0],"id":14,"left_children":[1,3,5,7,9,-1,11,13,15,17,19,-1,-1,-1,21,-1,23,25,27,-1,-1,29,31,33,35,37,39,-1,-1,-1,-1,-1,-1,-1,-1,-1,-1,-1,-1,-1,-1],"loss_changes":[1.7571375E5,3.39416E4,9.828531E3,7.04916E3,1.3768728E4,0E0,3.1382812E1,5.748164E2,5.020572E3,4.161713E3,1.6769512E3,0E0,0E0,0E0,3.443789E2,0E0,1.5737812E3,3.5132217E3,3.0144824E2,0E0,0E0,3.065078E2,4.0160327E2,4.7848555E3,4.6717383E2,8.8639954E2,6.037469E3,0E0,0E0,0E0,0E0,0E0,0E0,0E0,0E0,0E0,0E0,0E0,0E0,0E0,0E0],"parents":[2147483647,0,0,1,1,2,2,3,3,4,4,6,6,7,7,8,8,9,9,10,10,14,14,16,16,17,17,18,18,21,21,22,22,23,23,24,24,25,25,26,26],"right_children":[2,4,6,8,10,-1,12,14,16,18,20,-1,-1,-1,22,-1,24,26,28,-1,-1,30,32,34,36,38,40,-1,-1,-1,-1,-1,-1,-1,-1,-1,-1,-1,-1,-1,-1],"split_conditions":[9.159778E-1,7.615E1,2.6531E2,1.388E2,4.04E1,6.2419267E0,5.26E1,2.264E1,1.108E2,3.978E1,1.078E2,3.6474495E0,2.0209913E0,-5.911414E-1,1.6625553E1,5.626879E-1,6.0206665E1,7.195E1,2.866E1,2.4112813E0,9.9610186E-1,1.0566E2,8.932363E0,3.172E1,7.657E1,7.935E1,2.99E1,-2.854055E-1,-8.685042E-1,-1.0350218E0,-1.4836837E0,-3.9158115E-1,-1.1081121E0,4.7364083E-1,-8.214806E-1,-1.0528324E0,-4.6888515E-1,-7.802941E-1,7.7302866E-2,2.884853E-1,2.030785E0],"split_indices":[40,27,0,21,1,0,4,4,26,3,16,0,0,0,37,0,27,20,4,0,0,12,28,8,16,19,8,0,0,0,0,0,0,0,0,0,0,0,0,0,0],"split_type":[0,0,0,0,0,0,0,0,0,0,0,0,0,0,0,0,0,0,0,0,0,0,0,0,0,0,0,0,0,0,0,0,0,0,0,0,0,0,0,0,0],"sum_hessian":[2.29E2,2.09E2,2E1,1.36E2,7.3E1,6E0,1.4E1,6.9E1,6.7E1,6E1,1.3E1,9E0,5E0,6E0,6.3E1,9E0,5.8E1,4.8E1,1.2E1,7E0,6E0,5.2E1,1.1E1,3E1,2.8E1,1.1E1,3.7E1,5E0,7E0,1.9E1,3.3E1,5E0,6E0,1E1,2E1,2.1E1,7E0,6E0,5E0,3.2E1,5E0],"tree_param":{"num_deleted":"0","num_feature":"54","num_nodes":"41","size_leaf_vector":"1"}},{"base_weights":[1.622282E0,-8.001849E0,6.135939E1,-2.0231531E1,2.744072E0,9.094325E1,4.2433678E1,-2.4730516E1,-1.35931225E1,3.0982285E1,-1.0298144E0,2.9801157E0,5.6175237E0,3.6227205E-1,5.5176426E1,-2.6109182E1,-6.59744E-1,-1.7356676E1,-3.05148E0,7.342998E-1,2.1426268E0,1.4121238E1,-6.4119725E0,1.7644418E0,3.5326455E0,-2.7530725E1,-7.691215E-1,-1.9208178E1,-3.3746517E-1,1.1059977E-1,-3.5635525E-1,3.1699587E1,-8.8285726E-1,-1.5099933E0,-1.5763372E1,-8.6617357E-1,-1.5089568E0,-6.350159E-1,-1.051672E0,4.0491024E-1,2.3700416E0,-5.5793405E-1,3.6037725E-1,-6.902146E-1,1.4252178E-1,-1.082362E0,-4.7970518E-1],"categories":[],"categories_nodes":[],"categories_segments":[],"categories_sizes":[],"default_left":[0,0,0,0,0,0,0,0,0,0,0,0,0,0,0,0,0,0,0,0,0,0,0,0,0,0,0,0,0,0,0,0,0,0,0,0,0,0,0,0,0,0,0,0,0,0,0],"id":15,"left_children":[1,3,5,7,9,11,13,15,17,19,21,-1,-1,-1,23,25,-1,27,29,-1,-1,31,33,-1,-1,35,-1,37,-1,-1,-1,39,41,43,45,-1,-1,-1,-1,-1,-1,-1,-1,-1,-1,-1,-1],"loss_changes":[1.367465E5,2.6996453E4,1.4617516E4,2.5309805E3,1.1754365E4,1.3547266E3,9.46491E3,5.4610547E2,1.5736709E3,1.8854023E3,8.081991E3,0E0,0E0,0E0,2.4313828E3,3.236875E2,0E0,4.5954492E2,2.7318854E2,0E0,0E0,6.885414E3,3.3225447E3,0E0,0E0,6.125781E2,0E0,2.9831055E1,0E0,0E0,0E0,4.0629912E3,1.32746E3,2.6661604E3,6.9979346E2,0E0,0E0,0E0,0E0,0E0,0E0,0E0,0E0,0E0,0E0,0E0,0E0],"parents":[2147483647,0,0,1,1,2,2,3,3,4,4,5,5,6,6,7,7,8,8,9,9,10,10,14,14,15,15,17,17,18,18,21,21,22,22,25,25,27,27,31,31,32,32,33,33,34,34],"right_children":[2,4,6,8,10,12,14,16,18,20,22,-1,-1,-1,24,26,-1,28,30,-1,-1,32,34,-1,-1,36,-1,38,-1,-1,-1,40,42,44,46,-1,-1,-1,-1,-1,-1,-1,-1,-1,-1,-1,-1],"split_conditions":[2.9665625E2,2.2743612E1,1.725E1,1.3855854E1,6.3583668E1,2.0551E2,3.153E1,9.02E0,1.11E1,6.523E1,1.995E1,2.9801157E0,5.6175237E0,3.6227205E-1,5.878E1,1.6625553E1,-6.59744E-1,1.8775E2,-2.3328854E-1,7.342998E-1,2.1426268E0,1.1717E2,3.241E1,1.7644418E0,3.5326455E0,1.0749111E1,-7.691215E-1,1.012E2,-3.3746517E-1,1.1059977E-1,-3.5635525E-1,1.0789229E3,2.153E2,1.9502E2,2.8549E2,-8.6617357E-1,-1.5089568E0,-6.350159E-1,-1.051672E0,4.0491024E-1,2.3700416E0,-5.5793405E-1,3.6037725E-1,-6.902146E-1,1.4252178E-1,-1.082362E0,-4.7970518E-1],"split_indices":[35,37,1,31,36,16,4,5,1,16,4,0,0,0,12,37,0,12,40,0,0,32,8,0,0,37,0,25,0,0,0,50,24,11,0,0,0,0,0,0,0,0,0,0,0,0,0],"split_type":[0,0,0,0,0,0,0,0,0,0,0,0,0,0,0,0,0,0,0,0,0,0,0,0,0,0,0,0,0,0,0,0,0,0,0,0,0,0,0,0,0,0,0,0,0,0,0],"sum_hessian":[2.36E2,2.04E2,3.2E1,9.5E1,1.09E2,1.1E1,2.1E1,5.5E1,4E1,1.2E1,9.7E1,6E0,5E0,6E0,1.5E1,4.8E1,7E0,2.9E1,1.1E1,6E0,6E0,2.5E1,7.2E1,8E0,7E0,4.1E1,7E0,2.4E1,5E0,5E0,6E0,1.1E1,1.4E1,4.8E1,2.4E1,1E1,3.1E1,7E0,1.7E1,5E0,6E0,6E0,8E0,1.2E1,3.6E1,1.1E1,1.3E1],"tree_param":{"num_deleted":"0","num_feature":"54","num_nodes":"47","size_leaf_vector":"1"}},{"base_weights":[-3.4792718E-1,-8.146569E0,6.08548E1,-2.0370077E1,1.4904935E0,8.322983E1,2.2777048E1,-2.3505312E1,-1.364478E1,6.1413765E0,-1.6399994E1,2.0195782E0,5.603027E0,2.1048105E0,-1.6914178E-2,-2.5323166E1,-1.4123635E1,-1.5919427E1,-3.6380392E-1,1.9842716E1,1.4477769E-1,-1.9268257E1,-2.291915E-1,-1.7925821E1,-2.7769936E1,-1.1306298E0,-2.4148612E-1,-4.5699635E-1,-1.7375755E1,-4.9587664E-1,2.8409946E1,-5.0017E0,7.573217E0,-1.118281E0,-4.4148508E-1,-1.0288919E0,-5.259079E-1,-1.4523404E0,-8.3786297E-1,-6.3796896E-1,-1.0487127E0,8.3047837E-1,2.0454721E0,2.1572287E-1,-6.1983305E-1,1.0920935E0,-3.8727317E-2],"categories":[],"categories_nodes":[],"categories_segments":[],"categories_sizes":[],"default_left":[0,0,0,0,0,0,0,0,0,0,0,0,0,0,0,0,0,0,0,0,0,0,0,0,0,0,0,0,0,0,0,0,0,0,0,0,0,0,0,0,0,0,0,0,0,0,0],"id":16,"left_children":[1,3,5,7,9,11,13,15,17,19,21,-1,-1,-1,-1,23,25,27,-1,29,31,33,-1,35,37,-1,-1,-1,39,-1,41,43,45,-1,-1,-1,-1,-1,-1,-1,-1,-1,-1,-1,-1,-1,-1],"loss_changes":[1.0979705E5,2.40613E4,2.0256031E4,1.5769648E3,9.669475E3,1.5234617E4,4.926496E3,6.656172E2,3.3325195E2,7.55598E3,7.250825E2,0E0,0E0,0E0,0E0,3.8908203E2,8.375354E2,5.8396484E1,0E0,7.420716E3,2.5228481E3,4.1682568E2,0E0,7.823779E1,5.4179688E0,0E0,0E0,0E0,1.4786133E1,0E0,2.5654863E3,2.740297E3,3.2329238E3,0E0,0E0,0E0,0E0,0E0,0E0,0E0,0E0,0E0,0E0,0E0,0E0,0E0,0E0],"parents":[2147483647,0,0,1,1,2,2,3,3,4,4,5,5,6,6,7,7,8,8,9,9,10,10,15,15,16,16,17,17,19,19,20,20,21,21,23,23,24,24,28,28,30,30,31,31,32,32],"right_children":[2,4,6,8,10,12,14,16,18,20,22,-1,-1,-1,-1,24,26,28,-1,30,32,34,-1,36,38,-1,-1,-1,40,-1,42,44,46,-1,-1,-1,-1,-1,-1,-1,-1,-1,-1,-1,-1,-1,-1],"split_conditions":[1.7355286E2,2.1616167E1,3.895E2,1.59355545E1,3.244E1,3.895E2,4.72E0,1.2395782E1,1.716E2,6.975E1,7.818315E-1,2.0195782E0,5.603027E0,2.1048105E0,-1.6914178E-2,1.0218E2,1.11E0,-2.2252093E-1,-3.6380392E-1,9.05E0,2.326E2,1.0012E2,-2.291915E-1,9.021E1,8.46E0,-1.1306298E0,-2.4148612E-1,-4.5699635E-1,4.8865715E1,-4.9587664E-1,2.215E2,1.24E0,2.939E2,-1.118281E0,-4.4148508E-1,-1.0288919E0,-5.259079E-1,-1.4523404E0,-8.3786297E-1,-6.3796896E-1,-1.0487127E0,8.3047837E-1,2.0454721E0,2.1572287E-1,-6.1983305E-1,1.0920935E0,-3.8727317E-2],"split_indices":[33,37,22,37,8,24,5,28,21,18,43,0,0,0,0,12,6,44,0,4,21,19,0,0,5,0,0,0,30,0,21,6,26,0,0,0,0,0,0,0,0,0,0,0,0,0,0],"split_type":[0,0,0,0,0,0,0,0,0,0,0,0,0,0,0,0,0,0,0,0,0,0,0,0,0,0,0,0,0,0,0,0,0,0,0,0,0,0,0,0,0,0,0,0,0,0,0],"sum_hessian":[2.28E2,2.03E2,2.5E1,8.9E1,1.14E2,1.5E1,1E1,5.9E1,3E1,9.1E1,2.3E1,7E0,8E0,5E0,5E0,4.8E1,1.1E1,2.1E1,9E0,2.7E1,6.4E1,1.8E1,5E0,1.4E1,3.4E1,5E0,6E0,5E0,1.6E1,6E0,2.1E1,3.8E1,2.6E1,1.3E1,5E0,9E0,5E0,2.9E1,5E0,9E0,7E0,1.2E1,9E0,1.7E1,2.1E1,9E0,1.7E1],"tree_param":{"num_deleted":"0","num_feature":"54","num_nodes":"47","size_leaf_vector":"1"}},{"base_weights":[2.5177443E-1,7.758791E1,-6.9171934E0,5.9307528E0,2.476404E0,-1.3819609E1,1.169494E1,-1.7322147E1,-3.6267638E-1,2.6988392E1,2.1803677E-1,-1.998934E1,-1.0066249E1,8.969456E-1,-4.4162636E0,4.295466E1,4.214198E0,-6.748635E0,1.0154851E1,-4.351382E-1,-2.1035362E1,3.4441024E-1,-1.5760446E1,-1.2307613E1,8.180937E0,1.344541E0,2.9945655E0,-3.49632E-1,7.359335E-1,2.1957658E-1,-1.0754792E1,1.1690449E0,1.0458502E-2,-7.376066E-1,-1.1473824E0,3.945015E-1,-2.678928E-1,-2.0759991E-1,-9.46523E-1,-8.556959E-1,-1.498308E-1,9.1608685E-1,-1.6616768E-1,-1.6959546E-2,-8.83042E-1],"categories":[],"categories_nodes":[],"categories_segments":[],"categories_sizes":[],"default_left":[0,0,0,0,0,0,0,0,0,0,0,0,0,0,0,0,0,0,0,0,0,0,0,0,0,0,0,0,0,0,0,0,0,0,0,0,0,0,0,0,0,0,0,0,0],"id":17,"left_children":[1,3,5,-1,-1,7,9,11,13,15,17,19,21,-1,23,25,27,29,31,-1,33,35,37,39,41,-1,-1,-1,-1,-1,43,-1,-1,-1,-1,-1,-1,-1,-1,-1,-1,-1,-1,-1,-1],"loss_changes":[1.2417242E5,1.5998305E4,2.6497695E4,0E0,0E0,7.0637363E3,9.823317E3,2.1017734E3,2.4532097E3,8.545834E3,2.3530066E3,8.322539E2,2.0209595E3,0E0,2.7847285E3,2.1984219E3,1.3978634E3,9.3981525E2,1.8366978E3,0E0,5.986719E2,6.0162634E2,7.30978E2,7.0949194E2,1.3441797E3,0E0,0E0,0E0,0E0,0E0,1.072969E3,0E0,0E0,0E0,0E0,0E0,0E0,0E0,0E0,0E0,0E0,0E0,0E0,0E0,0E0],"parents":[2147483647,0,0,1,1,2,2,5,5,6,6,7,7,8,8,9,9,10,10,11,11,12,12,14,14,15,15,16,16,17,17,18,18,20,20,21,21,22,22,23,23,24,24,30,30],"right_children":[2,4,6,-1,-1,8,10,12,14,16,18,20,22,-1,24,26,28,30,32,-1,34,36,38,40,42,-1,-1,-1,-1,-1,44,-1,-1,-1,-1,-1,-1,-1,-1,-1,-1,-1,-1,-1,-1],"split_conditions":[1.275E1,3.559E2,1.2119346E-1,5.9307528E0,2.476404E0,1.1379E2,6.6929036E-1,1.852E2,5.188E1,1.3979E2,9.248026E-1,2.152E1,2.174E2,8.969456E-1,9.8277855E1,9.602E1,9.8742E2,1.699E2,1.0603E2,-4.351382E-1,1.0566E2,4.379E1,3.024E1,2.064E1,1.753E2,1.344541E0,2.9945655E0,-3.49632E-1,7.359335E-1,2.1957658E-1,2.102E1,1.1690449E0,1.0458502E-2,-7.376066E-1,-1.1473824E0,3.945015E-1,-2.678928E-1,-2.0759991E-1,-9.46523E-1,-8.556959E-1,-1.498308E-1,9.1608685E-1,-1.6616768E-1,-1.6959546E-2,-8.83042E-1],"split_indices":[8,14,40,0,0,32,39,21,16,29,39,4,21,0,33,17,13,21,12,0,12,16,7,3,12,0,0,0,0,0,7,0,0,0,0,0,0,0,0,0,0,0,0,0,0],"split_type":[0,0,0,0,0,0,0,0,0,0,0,0,0,0,0,0,0,0,0,0,0,0,0,0,0,0,0,0,0,0,0,0,0,0,0,0,0,0,0,0,0,0,0,0,0],"sum_hessian":[2.22E2,1.8E1,2.04E2,6E0,1.2E1,1.49E2,5.5E1,1.18E2,3.1E1,2.3E1,3.2E1,8.5E1,3.3E1,5E0,2.6E1,1.3E1,1E1,1.9E1,1.3E1,8E0,7.7E1,1.2E1,2.1E1,1.6E1,1E1,8E0,5E0,5E0,5E0,5E0,1.4E1,5E0,8E0,2E1,5.7E1,5E0,7E0,5E0,1.6E1,1E1,6E0,5E0,5E0,6E0,8E0],"tree_param":{"num_deleted":"0","num_feature":"54","num_nodes":"45","size_leaf_vector":"1"}},{"base_weights":[-1.1040264E0,-9.387964E0,4.389747E1,-1.904337E1,-1.220579E0,6.0930447E1,2.2278402E1,-2.140364E1,-1.268259E1,-1.5988511E1,4.7028685E0,1.371067E0,7.0939316E1,2.2127876E0,-1.0871625E-1,-1.5743621E1,-2.3361294E1,2.2032833E-2,-1.7540663E1,-3.1288612E-1,-1.768436E1,1.2513677E1,-6.1839585E0,1.9233267E0,4.5242796E0,-8.820159E-1,-4.3470287E-1,-2.5627134E1,-6.547362E-1,-9.964301E-1,-4.5226786E-1,-5.740513E-1,-9.9641114E-1,-6.270771E0,1.822295E1,-9.694624E-1,-9.743102E-1,-9.857011E-1,-1.4538134E0,-6.362607E-1,6.144002E-2,1.3316443E0,2.1532026E-1,2.929264E-1,-3.136688E-1],"categories":[],"categories_nodes":[],"categories_segments":[],"categories_sizes":[],"default_left":[0,0,0,0,0,0,0,0,0,0,0,0,0,0,0,0,0,0,0,0,0,0,0,0,0,0,0,0,0,0,0,0,0,0,0,0,0,0,0,0,0,0,0,0,0],"id":18,"left_children":[1,3,5,7,9,11,13,15,17,19,21,-1,23,-1,-1,25,27,-1,29,-1,31,33,35,-1,-1,-1,-1,37,-1,-1,-1,-1,-1,39,41,-1,43,-1,-1,-1,-1,-1,-1,-1,-1],"loss_changes":[8.391697E4,1.4960045E4,1.1530859E4,1.0346914E3,9.172808E3,4.427133E3,9.23213E3,3.1919336E2,1.6653252E3,3.8439502E2,6.455004E3,0E0,5.4054375E3,0E0,0E0,1.0068164E2,6.879668E2,0E0,2.0517822E2,0E0,1.19188965E2,4.833075E3,2.182546E3,0E0,0E0,0E0,0E0,1.4061914E2,0E0,0E0,0E0,0E0,0E0,5.480979E2,3.8645742E3,0E0,9.057366E2,0E0,0E0,0E0,0E0,0E0,0E0,0E0,0E0],"parents":[2147483647,0,0,1,1,2,2,3,3,4,4,5,5,6,6,7,7,8,8,9,9,10,10,12,12,15,15,16,16,18,18,20,20,21,21,22,22,27,27,33,33,34,34,36,36],"right_children":[2,4,6,8,10,12,14,16,18,20,22,-1,24,-1,-1,26,28,-1,30,-1,32,34,36,-1,-1,-1,-1,38,-1,-1,-1,-1,-1,40,42,-1,44,-1,-1,-1,-1,-1,-1,-1,-1],"split_conditions":[2.8341E2,2.1477072E1,3.008021E2,1.364E2,3.764E1,3.008021E2,3.634816E-1,1.0566E2,7.86E0,3.415E1,8.775E1,1.371067E0,1.851847E1,2.2127876E0,-1.0871625E-1,1.743E1,1.6705227E1,2.2032833E-2,2.4953E2,-3.1288612E-1,4.253E1,9.214566E0,1.836E2,1.9233267E0,4.5242796E0,-8.820159E-1,-4.3470287E-1,3.169E1,-6.547362E-1,-9.964301E-1,-4.5226786E-1,-5.740513E-1,-9.9641114E-1,7.671E1,7.8795E1,-9.694624E-1,2.498E2,-9.857011E-1,-1.4538134E0,-6.362607E-1,6.144002E-2,1.3316443E0,2.1532026E-1,2.929264E-1,-3.136688E-1],"split_indices":[35,37,32,22,9,35,39,12,5,9,18,0,28,0,0,1,37,0,11,0,7,28,22,0,0,0,0,33,0,0,0,0,0,19,33,0,22,0,0,0,0,0,0,0,0],"split_type":[0,0,0,0,0,0,0,0,0,0,0,0,0,0,0,0,0,0,0,0,0,0,0,0,0,0,0,0,0,0,0,0,0,0,0,0,0,0,0,0,0,0,0,0,0],"sum_hessian":[2.23E2,1.89E2,3.4E1,8.6E1,1.03E2,1.8E1,1.6E1,6.1E1,2.5E1,2.9E1,7.4E1,5E0,1.3E1,8E0,8E0,1.8E1,4.3E1,7E0,1.8E1,5E0,2.4E1,4.3E1,3.1E1,6E0,7E0,1.3E1,5E0,3.4E1,9E0,1.3E1,5E0,8E0,1.6E1,1E1,3.3E1,8E0,2.3E1,1.5E1,1.9E1,5E0,5E0,2E1,1.3E1,1E1,1.3E1],"tree_param":{"num_deleted":"0","num_feature":"54","num_nodes":"45","size_leaf_vector":"1"}},{"base_weights":[2.6749468E0,5.9076744E1,-5.909027E0,4.392843E1,5.236917E0,-1.7996353E1,6.789166E-1,5.624186E1,9.9170506E-1,-1.9676678E1,-1.0299341E1,7.42825E0,-9.97732E0,3.260524E0,1.5212876E0,-1.3539481E1,-2.150269E1,-2.4953969E-2,-7.5747824E-1,2.3203339E1,8.853621E-1,-1.2943476E1,2.8162396E-1,-8.148944E-1,-3.1129107E-1,-2.2762127E1,-6.57369E-1,7.995084E-2,3.3905563E1,-1.4767105E1,5.1959305E0,-1.9902527E1,-9.383146E0,-1.2009782E0,-7.060692E-1,9.3266135E-1,2.3413122E0,-1.14908375E-1,-1.1136459E0,9.429245E-1,-1.3594818E-3,-1.1573077E0,-5.86E-1,-9.161855E-2,-7.746822E-1],"categories":[],"categories_nodes":[],"categories_segments":[],"categories_sizes":[],"default_left":[0,0,0,0,0,0,0,0,0,0,0,0,0,0,0,0,0,0,0,0,0,0,0,0,0,0,0,0,0,0,0,0,0,0,0,0,0,0,0,0,0,0,0,0,0],"id":19,"left_children":[1,3,5,7,-1,9,11,13,-1,15,17,19,21,-1,-1,23,25,-1,-1,27,29,31,-1,-1,-1,33,-1,-1,35,37,39,41,43,-1,-1,-1,-1,-1,-1,-1,-1,-1,-1,-1,-1],"loss_changes":[1.1364054E5,1.6841602E4,1.6256865E4,6.301586E3,0E0,7.285547E2,9.639805E3,1.7204805E3,0E0,3.588457E2,7.054409E2,8.443058E3,2.480561E3,0E0,0E0,2.2131738E2,1.5322461E2,0E0,0E0,5.4949277E3,4.0575195E3,9.0341895E2,0E0,0E0,0E0,5.1958984E1,0E0,0E0,2.279668E3,1.165477E3,3.3544883E3,1.00302246E2,1.4019187E3,0E0,0E0,0E0,0E0,0E0,0E0,0E0,0E0,0E0,0E0,0E0,0E0],"parents":[2147483647,0,0,1,1,2,2,3,3,5,5,6,6,7,7,9,9,10,10,11,11,12,12,15,15,16,16,19,19,20,20,21,21,25,25,28,28,29,29,30,30,31,31,32,32],"right_children":[2,4,6,8,-1,10,12,14,-1,16,18,20,22,-1,-1,24,26,-1,-1,28,30,32,-1,-1,-1,34,-1,-1,36,38,40,42,44,-1,-1,-1,-1,-1,-1,-1,-1,-1,-1,-1,-1],"split_conditions":[1.408E1,9.8908E2,1.44E2,1.275E1,5.236917E0,1.5478E2,3.121E1,3.746E1,9.9170506E-1,-7.729048E-1,9.140079E0,7.953067E1,4.0510082E1,3.260524E0,1.5212876E0,-9.3888384E-1,3.334E1,-2.4953969E-2,-7.5747824E-1,2.2743612E1,7.615E1,7.83956E0,2.8162396E-1,-8.148944E-1,-3.1129107E-1,8.145E1,-6.57369E-1,7.995084E-2,2.215E2,6.7223335E1,1.923E2,3.55E1,1.4192975E1,-1.2009782E0,-7.060692E-1,9.3266135E-1,2.3413122E0,-1.14908375E-1,-1.1136459E0,9.429245E-1,-1.3594818E-3,-1.1573077E0,-5.86E-1,-9.161855E-2,-7.746822E-1],"split_indices":[8,13,21,8,0,0,8,3,0,48,28,36,31,0,0,48,7,0,0,37,27,28,0,0,0,9,0,0,21,27,23,8,28,0,0,0,0,0,0,0,0,0,0,0,0],"split_type":[0,0,0,0,0,0,0,0,0,0,0,0,0,0,0,0,0,0,0,0,0,0,0,0,0,0,0,0,0,0,0,0,0,0,0,0,0,0,0,0,0,0,0,0,0],"sum_hessian":[2.33E2,3E1,2.03E2,2.4E1,6E0,7.1E1,1.32E2,1.5E1,9E0,5.7E1,1.4E1,8.1E1,5.1E1,1E1,5E0,1.5E1,4.2E1,5E0,9E0,2.3E1,5.8E1,4.3E1,8E0,1E1,5E0,3.5E1,7E0,8E0,1.5E1,1.2E1,4.6E1,1.3E1,3E1,2.9E1,6E0,8E0,7E0,5E0,7E0,1.2E1,3.4E1,8E0,5E0,1.4E1,1.6E1],"tree_param":{"num_deleted":"0","num_feature":"54","num_nodes":"45","size_leaf_vector":"1"}},{"base_weights":[1.2722808E0,-6.427131E0,5.353131E1,-1.5385514E1,9.4647604E-1,8.8803764E1,3.029298E1,-1.7732523E1,-7.431784E0,1.6063356E1,-3.2831938E0,6.083942E0,2.0564032E0,4.0208435E1,1.0540453E-1,-2.1442116E1,-1.5968226E1,2.1076095E-1,-1.1105328E1,3.0220757E1,-5.4450864E-1,-1.2002689E1,2.3723917E0,1.4028009E0,2.5867827E0,-1.2195257E0,-7.1696293E-1,-9.681241E0,-1.769882E1,-1.4862412E1,-1.8074302E-1,3.8398655E1,5.095574E-1,-8.675795E0,-1.1797799E0,1.5315471E1,-2.6665463E0,-7.1572405E-1,-9.450238E-2,-9.2941475E-1,-4.9284536E-1,-4.6786627E-1,-8.9452153E-1,1.1426629E0,2.377214E0,-6.555634E-1,1.07239485E-1,1.4579724E-1,1.1628914E0,5.917085E-1,-3.705617E-1],"categories":[],"categories_nodes":[],"categories_segments":[],"categories_sizes":[],"default_left":[0,0,0,0,0,0,0,0,0,0,0,0,0,0,0,0,0,0,0,0,0,0,0,0,0,0,0,0,0,0,0,0,0,0,0,0,0,0,0,0,0,0,0,0,0,0,0,0,0,0,0],"id":20,"left_children":[1,3,5,7,9,11,13,15,17,19,21,-1,-1,23,-1,25,27,-1,29,31,-1,33,35,-1,-1,-1,-1,37,39,41,-1,43,-1,45,-1,47,49,-1,-1,-1,-1,-1,-1,-1,-1,-1,-1,-1,-1,-1,-1],"loss_changes":[9.087591E4,1.3027516E4,2.1080383E4,1.5296211E3,7.022135E3,1.2236359E4,5.22509E3,1.026543E2,9.8809814E2,9.487314E3,4.2694663E3,0E0,0E0,5.0967383E2,0E0,4.8157227E1,3.7266504E2,0E0,4.2469385E2,2.2294756E3,0E0,1.1066152E3,3.4974663E3,0E0,0E0,0E0,0E0,4.422251E2,8.183496E1,1.5958008E1,0E0,4.773545E2,0E0,1.3719644E3,0E0,1.4094031E3,2.770959E3,0E0,0E0,0E0,0E0,0E0,0E0,0E0,0E0,0E0,0E0,0E0,0E0,0E0,0E0],"parents":[2147483647,0,0,1,1,2,2,3,3,4,4,5,5,6,6,7,7,8,8,9,9,10,10,13,13,15,15,16,16,18,18,19,19,21,21,22,22,27,27,28,28,29,29,31,31,33,33,35,35,36,36],"right_children":[2,4,6,8,10,12,14,16,18,20,22,-1,-1,24,-1,26,28,-1,30,32,-1,34,36,-1,-1,-1,-1,38,40,42,-1,44,-1,46,-1,48,50,-1,-1,-1,-1,-1,-1,-1,-1,-1,-1,-1,-1,-1,-1],"split_conditions":[7.832659E-1,2.2206902E1,2.0551E2,1.44E2,1.3979E2,2.3947E2,4.1105375E-1,-2.2252093E-1,1.4883602E1,3.084E1,9.107E1,6.083942E0,2.0564032E0,9.8743E2,1.0540453E-1,9.818407E-1,-8.702939E-1,2.1076095E-1,2.879E1,9.85E0,-5.4450864E-1,8.949E1,1.982E2,1.4028009E0,2.5867827E0,-1.2195257E0,-7.1696293E-1,1.1483E2,2.476118E3,9.8601E2,-1.8074302E-1,7.5E0,5.095574E-1,3.9852158E1,-1.1797799E0,6.234898E-1,1.991E2,-7.1572405E-1,-9.450238E-2,-9.2941475E-1,-4.9284536E-1,-4.6786627E-1,-8.9452153E-1,1.1426629E0,2.377214E0,-6.555634E-1,1.07239485E-1,1.4579724E-1,1.1628914E0,5.917085E-1,-3.705617E-1],"split_indices":[40,37,15,21,38,11,39,44,34,8,29,0,0,13,0,49,39,0,2,5,0,29,23,0,0,0,0,12,50,13,0,5,0,37,0,44,21,0,0,0,0,0,0,0,0,0,0,0,0,0,0],"split_type":[0,0,0,0,0,0,0,0,0,0,0,0,0,0,0,0,0,0,0,0,0,0,0,0,0,0,0,0,0,0,0,0,0,0,0,0,0,0,0,0,0,0,0,0,0,0,0,0,0,0,0],"sum_hessian":[2.24E2,1.96E2,2.8E1,8.8E1,1.08E2,1E1,1.8E1,6.7E1,2.1E1,2.3E1,8.5E1,5E0,5E0,1.3E1,5E0,1.8E1,4.9E1,5E0,1.6E1,1.5E1,8E0,3.3E1,5.2E1,8E0,5E0,1.1E1,7E0,1.2E1,3.7E1,1E1,6E0,1E1,5E0,2.7E1,6E0,1.4E1,3.8E1,7E0,5E0,3.2E1,5E0,5E0,5E0,5E0,5E0,1.9E1,8E0,6E0,8E0,9E0,2.9E1],"tree_param":{"num_deleted":"0","num_feature":"54","num_nodes":"51","size_leaf_vector":"1"}},{"base_weights":[-7.302156E-1,-8.152616E0,4.5400757E1,-1.2768447E1,4.056359E0,7.886672E1,2.742135E1,5.374257E-2,-1.5109431E1,2.7521217E1,-3.5019228E0,1.8942705E0,5.3351793E0,4.4383217E1,8.174373E0,-6.880485E-1,6.551622E0,-1.7900587E1,-9.500902E0,6.660802E-1,2.2116885E0,1.9211574E0,-8.53696E0,2.8290138E0,1.3794067E0,1.4233279E0,-5.1933485E-1,9.0018845E-1,-2.8142413E-1,-7.7614665E0,-1.9504925E1,-1.1493446E1,1.3365196E-1,-5.372308E0,5.605273E-1,-8.5125077E-1,-5.233332E0,5.6738663E-2,-6.731731E-1,-1.3628113E0,-9.043997E-1,-2.2189379E-1,-7.101786E-1,7.300377E-2,-4.912528E-1,1.4955425E-1,-5.3694844E-1],"categories":[],"categories_nodes":[],"categories_segments":[],"categories_sizes":[],"default_left":[0,0,0,0,0,0,0,0,0,0,0,0,0,0,0,0,0,0,0,0,0,0,0,0,0,0,0,0,0,0,0,0,0,0,0,0,0,0,0,0,0,0,0,0,0,0,0],"id":21,"left_children":[1,3,5,7,9,11,13,15,17,19,21,-1,-1,23,25,-1,27,29,31,-1,-1,33,35,-1,-1,-1,-1,-1,-1,37,39,41,-1,43,-1,-1,45,-1,-1,-1,-1,-1,-1,-1,-1,-1,-1],"loss_changes":[8.151953E4,1.16044795E4,1.7693406E4,4.4732793E3,1.0205556E4,8.506203E3,7.145881E3,2.2445486E3,1.8023691E3,2.7330996E3,1.2178389E3,0E0,0E0,8.972656E2,4.81541E3,0E0,2.4726357E3,1.1987383E3,1.0980359E3,0E0,0E0,1.550767E3,5.55854E2,0E0,0E0,0E0,0E0,0E0,0E0,6.747203E2,2.867871E2,6.635825E2,0E0,4.0984283E2,0E0,0E0,8.4717303E2,0E0,0E0,0E0,0E0,0E0,0E0,0E0,0E0,0E0,0E0],"parents":[2147483647,0,0,1,1,2,2,3,3,4,4,5,5,6,6,7,7,8,8,9,9,10,10,13,13,14,14,16,16,17,17,18,18,21,21,22,22,29,29,30,30,31,31,33,33,36,36],"right_children":[2,4,6,8,10,12,14,16,18,20,22,-1,-1,24,26,-1,28,30,32,-1,-1,34,36,-1,-1,-1,-1,-1,-1,38,40,42,-1,44,-1,-1,46,-1,-1,-1,-1,-1,-1,-1,-1,-1,-1],"split_conditions":[2.8341E2,7.9236664E1,1.9264583E2,2.152E1,7.504072E1,9.8736E2,4.1105375E-1,9.35E0,2.2652E2,9.057E1,1.74E1,1.8942705E0,5.3351793E0,1.669E1,7.696E1,-6.880485E-1,6.127E1,4.548E1,5.03E1,6.660802E-1,2.2116885E0,9.107E1,2.052E1,2.8290138E0,1.3794067E0,1.4233279E0,-5.1933485E-1,9.0018845E-1,-2.8142413E-1,8.5709E1,8.8E-1,2.501E1,1.3365196E-1,0E0,5.605273E-1,-8.5125077E-1,2.786E1,5.6738663E-2,-6.731731E-1,-1.3628113E0,-9.043997E-1,-2.2189379E-1,-7.101786E-1,7.300377E-2,-4.912528E-1,1.4955425E-1,-5.3694844E-1],"split_indices":[35,27,20,4,33,13,39,1,11,27,1,0,0,7,9,0,27,9,2,0,0,20,3,0,0,0,0,0,0,36,10,4,0,43,0,0,4,0,0,0,0,0,0,0,0,0,0],"split_type":[0,0,0,0,0,0,0,0,0,0,0,0,0,0,0,0,0,0,0,0,0,0,0,0,0,0,0,0,0,0,0,0,0,0,0,0,0,0,0,0,0,0,0,0,0,0,0],"sum_hessian":[2.36E2,2.04E2,3.2E1,1.48E2,5.6E1,1E1,2.2E1,2.3E1,1.25E2,1.3E1,4.3E1,5E0,5E0,1.1E1,1.1E1,7E0,1.6E1,8.2E1,4.3E1,8E0,5E0,2.1E1,2.2E1,5E0,6E0,5E0,6E0,8E0,8E0,1.2E1,7E1,3.7E1,6E0,1.2E1,9E0,5E0,1.7E1,5E0,7E0,8E0,6.2E1,1.1E1,2.6E1,5E0,7E0,7E0,1E1],"tree_param":{"num_deleted":"0","num_feature":"54","num_nodes":"47","size_leaf_vector":"1"}},{"base_weights":[-5.0370693E-1,-6.8181925E0,3.8512344E1,-1.4842052E1,7.529259E-1,5.7681763E1,2.034271E1,-1.5719148E1,9.056619E-2,6.5150447E0,-1.0184587E1,4.0427413E0,1.7846222E0,9.718914E-2,1.8353684E0,-1.9617336E1,-1.2875953E1,2.721409E1,-8.886024E-1,-1.8359625E1,-5.1991816E0,-1.1394223E0,-1.4173048E1,-9.330195E0,-1.6222248E1,6.103785E-1,3.7018147E1,-1.11385145E1,4.545757E0,-1.0763407E0,-5.274452E-1,-9.618674E0,3.901577E-1,-8.5101146E-1,-3.058256E-1,-5.8190745E-1,1.11298464E-1,-9.196318E-1,-5.1296246E-1,8.8806105E-1,2.5052688E0,1.1779594E-2,-7.608761E-1,9.015692E-1,2.4371352E-3,-1.8402396E-1,-6.80613E-1,-2.2566402E-1,2.2686839E-1],"categories":[],"categories_nodes":[],"categories_segments":[],"categories_sizes":[],"default_left":[0,0,0,0,0,0,0,0,0,0,0,0,0,0,0,0,0,0,0,0,0,0,0,0,0,0,0,0,0,0,0,0,0,0,0,0,0,0,0,0,0,0,0,0,0,0,0,0,0],"id":22,"left_children":[1,3,5,7,9,11,13,15,-1,17,19,-1,-1,-1,-1,21,23,25,27,29,31,-1,33,35,37,-1,39,41,43,-1,-1,45,47,-1,-1,-1,-1,-1,-1,-1,-1,-1,-1,-1,-1,-1,-1,-1,-1],"loss_changes":[6.0129598E4,1.276859E4,1.066884E4,1.5183477E3,6.9358867E3,5.2670547E3,5.649401E3,8.224883E2,0E0,1.105807E4,1.4532681E3,0E0,0E0,0E0,0E0,3.5033203E2,5.486865E2,2.3434697E3,3.0585251E3,1.1924805E2,6.213039E2,0E0,2.8584863E2,8.527102E2,1.8662402E2,0E0,1.8822861E3,8.850918E2,2.1823428E3,0E0,0E0,2.8190613E2,2.6450543E2,0E0,0E0,0E0,0E0,0E0,0E0,0E0,0E0,0E0,0E0,0E0,0E0,0E0,0E0,0E0,0E0],"parents":[2147483647,0,0,1,1,2,2,3,3,4,4,5,5,6,6,7,7,9,9,10,10,15,15,16,16,17,17,18,18,19,19,20,20,22,22,23,23,24,24,26,26,27,27,28,28,31,31,32,32],"right_children":[2,4,6,8,10,12,14,16,-1,18,20,-1,-1,-1,-1,22,24,26,28,30,32,-1,34,36,38,-1,40,42,44,-1,-1,46,48,-1,-1,-1,-1,-1,-1,-1,-1,-1,-1,-1,-1,-1,-1,-1,-1],"split_conditions":[2.8341E2,-4.887854E-1,1.9861E2,4.0510082E1,6.467E1,8.165E1,5.83E1,-3.2716033E-1,9.056619E-2,7.953067E1,8.0673685E0,4.0427413E0,1.7846222E0,9.718914E-2,1.8353684E0,9.8601E2,5.3034286E1,6.445E1,7.542333E1,1.336E2,2.41E1,-1.1394223E0,1.2E0,8.37E1,9.8609E2,6.103785E-1,7.77E0,7.498214E1,1.568E2,-1.0763407E0,-5.274452E-1,7.131E1,1.359E2,-8.5101146E-1,-3.058256E-1,-5.8190745E-1,1.11298464E-1,-9.196318E-1,-5.1296246E-1,8.8806105E-1,2.5052688E0,1.1779594E-2,-7.608761E-1,9.015692E-1,2.4371352E-3,-1.8402396E-1,-6.80613E-1,-2.2566402E-1,2.2686839E-1],"split_indices":[35,40,20,31,9,9,12,39,0,36,28,0,0,0,0,13,30,30,27,25,1,0,6,20,13,0,5,33,24,0,0,9,26,0,0,0,0,0,0,0,0,0,0,0,0,0,0,0,0],"split_type":[0,0,0,0,0,0,0,0,0,0,0,0,0,0,0,0,0,0,0,0,0,0,0,0,0,0,0,0,0,0,0,0,0,0,0,0,0,0,0,0,0,0,0,0,0,0,0,0,0],"sum_hessian":[2.42E2,2.09E2,3.3E1,1.01E2,1.08E2,1.5E1,1.8E1,9.6E1,5E0,7.1E1,3.7E1,6E0,9E0,9E0,9E0,3.8E1,5.8E1,1.8E1,5.3E1,1.3E1,2.4E1,2.2E1,1.6E1,3E1,2.8E1,8E0,1E1,1.8E1,3.5E1,8E0,5E0,1.3E1,1.1E1,1.1E1,5E0,2.5E1,5E0,1.9E1,9E0,5E0,5E0,5E0,1.3E1,8E0,2.7E1,6E0,7E0,5E0,6E0],"tree_param":{"num_deleted":"0","num_feature":"54","num_nodes":"49","size_leaf_vector":"1"}},{"base_weights":[1.1394136E0,-4.4275165E0,6.0730835E1,-9.83857E0,9.957004E0,3.4902664E1,5.370054E0,-1.4968715E1,-5.011592E0,3.5395123E1,4.384382E0,7.3825854E-1,2.1747446E0,-1.860092E1,-1.0962293E1,-1.1797361E1,-1.5323002E0,9.546216E-1,2.2899313E0,-1.0024325E0,2.2925184E0,-1.18899555E1,-2.1052406E1,1.7035644E-1,-1.3112413E1,-1.9625463E-1,-7.304706E-1,-1.1044424E1,2.3543286E0,7.2983336E-1,-3.207008E0,-7.4395573E-1,-2.961376E-1,-1.1822245E0,-7.81296E-1,-2.771245E-1,-7.5750387E-1,-1.0064582E0,-1.3360956E-1,-1.881628E-1,4.3255576E-1,-3.2512683E-1,4.7995502E-1],"categories":[],"categories_nodes":[],"categories_segments":[],"categories_sizes":[],"default_left":[0,0,0,0,0,0,0,0,0,0,0,0,0,0,0,0,0,0,0,0,0,0,0,0,0,0,0,0,0,0,0,0,0,0,0,0,0,0,0,0,0,0,0],"id":23,"left_children":[1,3,5,7,9,11,-1,13,15,17,19,-1,-1,21,23,25,27,-1,-1,29,-1,31,33,-1,35,-1,-1,37,39,-1,41,-1,-1,-1,-1,-1,-1,-1,-1,-1,-1,-1,-1],"loss_changes":[8.15455E4,1.7610928E4,2.1564977E4,3.9861309E3,8.633749E3,1.9531836E3,0E0,9.4571094E2,2.0123545E3,9.91249E2,1.1661178E4,0E0,0E0,4.077627E2,1.2805151E3,5.846362E2,2.1702678E3,0E0,0E0,1.6631132E3,0E0,1.4375452E2,2.4378906E1,0E0,4.559043E2,0E0,0E0,1.2392231E3,1.6504438E3,0E0,1.83494E3,0E0,0E0,0E0,0E0,0E0,0E0,0E0,0E0,0E0,0E0,0E0,0E0],"parents":[2147483647,0,0,1,1,2,2,3,3,4,4,5,5,7,7,8,8,9,9,10,10,13,13,14,14,15,15,16,16,19,19,21,21,22,22,24,24,27,27,28,28,30,30],"right_children":[2,4,6,8,10,12,-1,14,16,18,20,-1,-1,22,24,26,28,-1,-1,30,-1,32,34,-1,36,-1,-1,38,40,-1,42,-1,-1,-1,-1,-1,-1,-1,-1,-1,-1,-1,-1],"split_conditions":[9.159778E-1,1.0299E2,1.213E1,1.466E2,7.664429E1,8.224E1,5.370054E0,1.0647068E1,-7.792391E-1,5.852E1,7.071381E1,7.3825854E-1,2.1747446E0,1.0477E2,5.183E1,4.6986668E1,2.6531124E-1,9.546216E-1,2.2899313E0,1.708E2,2.2925184E0,8.909E1,7.45E0,1.7035644E-1,1.3411251E1,-1.9625463E-1,-7.304706E-1,1.040899E0,5.465912E-1,7.2983336E-1,4.1683E2,-7.4395573E-1,-2.961376E-1,-1.1822245E0,-7.81296E-1,-2.771245E-1,-7.5750387E-1,-1.0064582E0,-1.3360956E-1,-1.881628E-1,4.3255576E-1,-3.2512683E-1,4.7995502E-1],"split_indices":[40,29,8,23,33,9,0,31,40,18,31,0,0,12,32,27,48,0,0,23,0,12,5,0,31,0,0,49,49,0,0,0,0,0,0,0,0,0,0,0,0,0,0],"split_type":[0,0,0,0,0,0,0,0,0,0,0,0,0,0,0,0,0,0,0,0,0,0,0,0,0,0,0,0,0,0,0,0,0,0,0,0,0,0,0,0,0,0,0],"sum_hessian":[2.44E2,2.24E2,2E1,1.63E2,6.1E1,1.4E1,6E0,7.8E1,8.5E1,1E1,5.1E1,5E0,9E0,3.9E1,3.9E1,2.8E1,5.7E1,5E0,5E0,4.6E1,5E0,1.2E1,2.7E1,5E0,3.4E1,8E0,2E1,1.6E1,4.1E1,5E0,4.1E1,7E0,5E0,1.6E1,1.1E1,8E0,2.6E1,7E0,9E0,2.1E1,2E1,3.3E1,8E0],"tree_param":{"num_deleted":"0","num_feature":"54","num_nodes":"43","size_leaf_vector":"1"}},{"base_weights":[1.1020213E0,-4.318941E0,5.427592E1,-1.0120009E1,7.4237514E0,4.857992E0,3.594772E1,2.2956572E0,-1.2980337E1,3.2492774E0,1.6490282E0,7.72629E-1,4.5722103E1,-4.9521837E-1,7.6708856E0,-1.4189845E1,-2.1197062E0,2.095148E1,-2.2360764E0,1.3845567E0,2.8066363E0,1.3805465E0,-8.1652474E-1,-9.933616E-1,-1.219229E1,-5.72084E-1,3.7525418E-1,-3.0846104E-2,1.7699482E0,1.5557778E0,-8.852923E0,3.2168314E-1,-3.1824172E-1,-7.340258E-1,-3.7364787E-1,2.900224E-1,-3.0010217E-1,-2.131745E-1,-7.02839E-1],"categories":[],"categories_nodes":[],"categories_segments":[],"categories_sizes":[],"default_left":[0,0,0,0,0,0,0,0,0,0,0,0,0,0,0,0,0,0,0,0,0,0,0,0,0,0,0,0,0,0,0,0,0,0,0,0,0,0,0],"id":24,"left_children":[1,3,5,7,9,-1,11,13,15,17,-1,-1,19,-1,21,23,25,27,29,-1,-1,-1,31,-1,33,-1,-1,-1,-1,35,37,-1,-1,-1,-1,-1,-1,-1,-1],"loss_changes":[6.855055E4,1.4789084E4,1.3799E4,5.179164E3,7.574247E3,0E0,2.699043E3,1.9121571E3,1.5199727E3,6.1643286E3,0E0,0E0,5.104707E2,0E0,3.4073315E3,9.599082E2,1.2522573E3,4.6959746E3,1.2431891E3,0E0,0E0,0E0,6.4434344E2,0E0,8.41458E2,0E0,0E0,0E0,0E0,1.0613893E3,3.699585E2,0E0,0E0,0E0,0E0,0E0,0E0,0E0,0E0],"parents":[2147483647,0,0,1,1,2,2,3,3,4,4,6,6,7,7,8,8,9,9,12,12,14,14,15,15,16,16,17,17,18,18,22,22,24,24,29,29,30,30],"right_children":[2,4,6,8,10,-1,12,14,16,18,-1,-1,20,-1,22,24,26,28,30,-1,-1,-1,32,-1,34,-1,-1,-1,-1,36,38,-1,-1,-1,-1,-1,-1,-1,-1],"split_conditions":[9.159778E-1,7.9236664E1,2.6531E2,2.219E1,8.034226E1,4.857992E0,3.722E2,1.057E1,5.03E1,7.8795E1,1.6490282E0,7.72629E-1,1.201E1,-4.9521837E-1,1.448E1,8.852492E0,3.994E1,1.0299E2,2.926E1,1.3845567E0,2.8066363E0,1.3805465E0,6.346E1,-9.933616E-1,1.5929E2,-5.72084E-1,3.7525418E-1,-3.0846104E-2,1.7699482E0,5.865E1,1.0146E2,3.2168314E-1,-3.1824172E-1,-7.340258E-1,-3.7364787E-1,2.900224E-1,-3.0010217E-1,-2.131745E-1,-7.02839E-1],"split_indices":[40,27,0,4,37,0,14,1,2,33,0,0,8,0,1,31,9,29,2,0,0,0,15,0,12,0,0,0,0,9,17,0,0,0,0,0,0,0,0],"split_type":[0,0,0,0,0,0,0,0,0,0,0,0,0,0,0,0,0,0,0,0,0,0,0,0,0,0,0,0,0,0,0,0,0,0,0,0,0,0,0],"sum_hessian":[2.36E2,2.15E2,2.1E1,1.44E2,7.1E1,5E0,1.6E1,2.7E1,1.17E2,6.2E1,9E0,6E0,1E1,8E0,1.9E1,1.05E2,1.2E1,1.4E1,4.8E1,5E0,5E0,5E0,1.4E1,2.5E1,8E1,6E0,6E0,6E0,8E0,3.1E1,1.7E1,6E0,8E0,5.1E1,2.9E1,2E1,1.1E1,1E1,7E0],"tree_param":{"num_deleted":"0","num_feature":"54","num_nodes":"39","size_leaf_vector":"1"}},{"base_weights":[-7.504179E-1,-6.0690227E0,2.9966972E1,-1.2459356E1,4.4467047E-1,4.3341652E1,1.6422943E1,-1.412802E1,2.1525791E-1,-1.6323979E0,1.239732E0,1.0081898E0,3.0851884E0,2.5768747E1,1.7568542E-2,-1.7722284E1,-1.1855804E1,4.970961E0,-6.405161E0,1.524863E0,7.9786795E-1,-1.0167693E0,-5.9684306E-1,-8.509968E0,-1.5629975E1,1.2521342E0,1.3880671E0,-1.3917119E1,-9.7545743E-1,-4.9856788E-1,-1.4130275E-3,-4.485703E-1,-8.552608E-1,4.7652507E-1,-2.2470279E-1,-9.1729164E-1,-1.6600262E-1,-2.8982374E-1,3.4436873E-1],"categories":[],"categories_nodes":[],"categories_segments":[],"categories_sizes":[],"default_left":[0,0,0,0,0,0,0,0,0,0,0,0,0,0,0,0,0,0,0,0,0,0,0,0,0,0,0,0,0,0,0,0,0,0,0,0,0,0,0],"id":25,"left_children":[1,3,5,7,9,11,13,15,-1,17,-1,-1,-1,19,-1,21,23,25,27,-1,-1,-1,-1,29,31,-1,33,35,37,-1,-1,-1,-1,-1,-1,-1,-1,-1,-1],"loss_changes":[3.8738055E4,8.413725E3,5.6283496E3,2.914208E3,5.1487065E3,5.990924E3,2.8447788E3,5.4941406E2,0E0,2.994369E3,0E0,0E0,0E0,7.0063965E1,0E0,2.7126758E2,6.246553E2,2.8418333E3,2.2297485E3,0E0,0E0,0E0,0E0,4.2115088E2,1.11762695E2,0E0,1.7191486E3,1.0185127E3,1.2908485E3,0E0,0E0,0E0,0E0,0E0,0E0,0E0,0E0,0E0,0E0],"parents":[2147483647,0,0,1,1,2,2,3,3,4,4,5,5,6,6,7,7,9,9,13,13,15,15,16,16,17,17,18,18,23,23,24,24,26,26,27,27,28,28],"right_children":[2,4,6,8,10,12,14,16,-1,18,-1,-1,-1,20,-1,22,24,26,28,-1,-1,-1,-1,30,32,-1,34,36,38,-1,-1,-1,-1,-1,-1,-1,-1,-1,-1],"split_conditions":[2.8341E2,-4.887854E-1,1.9386333E2,9.214429E1,6.168E1,2.2315E2,2.3415E2,4.4504E1,2.1525791E-1,2.219E1,1.239732E0,1.0081898E0,3.0851884E0,1.9861E2,1.7568542E-2,9.8601E2,5.1692856E1,-3.0369502E-1,2.2393E2,1.524863E0,7.9786795E-1,-1.0167693E0,-5.9684306E-1,1.1206516E0,7.17E0,1.2521342E0,2.0960077E1,1.1E0,2.265E2,-4.9856788E-1,-1.4130275E-3,-4.485703E-1,-8.552608E-1,4.7652507E-1,-2.2470279E-1,-9.1729164E-1,-1.6600262E-1,-2.8982374E-1,3.4436873E-1],"split_indices":[35,40,27,30,2,18,18,36,0,4,0,0,0,20,0,13,30,40,11,0,0,0,0,49,5,0,34,10,25,0,0,0,0,0,0,0,0,0,0],"split_type":[0,0,0,0,0,0,0,0,0,0,0,0,0,0,0,0,0,0,0,0,0,0,0,0,0,0,0,0,0,0,0,0,0,0,0,0,0,0,0],"sum_hessian":[2.35E2,2.01E2,3.4E1,1.01E2,1E2,1.6E1,1.8E1,9.2E1,9E0,9.3E1,7E0,8E0,8E0,1.1E1,7E0,3.3E1,5.9E1,3.9E1,5.4E1,6E0,5E0,2.1E1,1.2E1,3.3E1,2.6E1,5E0,3.4E1,2.2E1,3.2E1,2.8E1,5E0,6E0,2E1,1.4E1,2E1,1.5E1,7E0,2E1,1.2E1],"tree_param":{"num_deleted":"0","num_feature":"54","num_nodes":"39","size_leaf_vector":"1"}},{"base_weights":[-1.5061183E-1,5.459761E1,-4.6679378E0,4.80516E0,2.9295015E1,-9.298084E0,7.900277E0,1.833046E0,9.3981904E-1,-1.1570984E1,-4.841447E-1,2.566568E0,2.2307978E1,-1.2164534E1,8.669462E-2,5.5602927E0,-9.7460375E0,-1.0330983E1,6.919896E0,1.4711753E0,4.9862933E-1,-1.6015442E1,-1.0552706E1,-4.169922E0,8.9580506E-1,-1.5655728E-1,-6.744476E-1,-5.8233388E-2,-8.8877344E-1,-1.6931677E-1,1.1100001E1,-5.815232E-1,-9.3899214E-1,-4.831065E-2,-6.1471856E-1,-4.111042E-1,6.262939E-2,8.427906E-2,8.5158646E-1],"categories":[],"categories_nodes":[],"categories_segments":[],"categories_sizes":[],"default_left":[0,0,0,0,0,0,0,0,0,0,0,0,0,0,0,0,0,0,0,0,0,0,0,0,0,0,0,0,0,0,0,0,0,0,0,0,0,0,0],"id":26,"left_children":[1,3,5,-1,7,9,11,-1,-1,13,15,17,19,21,-1,23,25,27,29,-1,-1,31,33,35,-1,-1,-1,-1,-1,-1,37,-1,-1,-1,-1,-1,-1,-1,-1],"loss_changes":[5.5158914E4,1.5038039E4,1.2061148E4,0E0,2.3889062E2,3.019412E3,4.246149E3,0E0,0E0,9.687451E2,1.8456445E3,2.4296748E3,1.0231636E3,5.448008E2,0E0,2.4792021E3,2.7963074E2,7.299209E2,1.4161844E3,0E0,0E0,1.6948047E2,1.390623E3,2.739735E2,0E0,0E0,0E0,0E0,0E0,0E0,1.255699E3,0E0,0E0,0E0,0E0,0E0,0E0,0E0,0E0],"parents":[2147483647,0,0,1,1,2,2,4,4,5,5,6,6,9,9,10,10,11,11,12,12,13,13,15,15,16,16,17,17,18,18,21,21,22,22,23,23,30,30],"right_children":[2,4,6,-1,8,10,12,-1,-1,14,16,18,20,22,-1,24,26,28,30,-1,-1,32,34,36,-1,-1,-1,-1,-1,-1,38,-1,-1,-1,-1,-1,-1,-1,-1],"split_conditions":[1.275E1,2.6531E2,1.2119346E-1,4.80516E0,4.72E0,9.602E1,4.358E1,1.833046E0,9.3981904E-1,3.161E2,2.799E1,1.701E2,5.532419E-1,3.983E1,8.669462E-2,7.314E1,1.0146E2,1.982E2,1.345E1,1.4711753E0,4.9862933E-1,2.7583334E1,3.473143E1,6.37E1,8.9580506E-1,-1.5655728E-1,-6.744476E-1,-5.8233388E-2,-8.8877344E-1,-1.6931677E-1,2.2767E2,-5.815232E-1,-9.3899214E-1,-4.831065E-2,-6.1471856E-1,-4.111042E-1,6.262939E-2,8.427906E-2,8.5158646E-1],"split_indices":[8,0,40,0,5,29,2,0,0,24,4,22,49,29,0,20,29,24,2,0,0,27,33,19,0,0,0,0,0,0,0,0,0,0,0,0,0,0,0],"split_type":[0,0,0,0,0,0,0,0,0,0,0,0,0,0,0,0,0,0,0,0,0,0,0,0,0,0,0,0,0,0,0,0,0,0,0,0,0,0,0],"sum_hessian":[2.21E2,1.6E1,2.05E2,5E0,1.1E1,1.5E2,5.5E1,5E0,6E0,1.19E2,3.1E1,4.1E1,1.4E1,1.14E2,5E0,1.9E1,1.2E1,1E1,3.1E1,8E0,6E0,3.1E1,8.3E1,1.1E1,8E0,5E0,7E0,5E0,5E0,9E0,2.2E1,1.4E1,1.7E1,1.3E1,7E1,6E0,5E0,9E0,1.3E1],"tree_param":{"num_deleted":"0","num_feature":"54","num_nodes":"39","size_leaf_vector":"1"}},{"base_weights":[8.517127E-1,4.3847363E1,-4.5995536E0,3.0553274E1,4.375007E0,-1.2665468E1,7.317896E-1,3.96777E1,7.361875E-1,-1.3413877E1,-1.0078208E-2,4.5414934E0,-5.759342E0,9.722282E-1,2.4378912E0,-1.1720514E1,-1.7321756E1,2.0632254E1,-7.2692955E-1,-8.56539E0,2.8859751E0,-9.843179E-1,-1.049358E1,-1.0472187E0,-6.12783E-1,1.0984344E1,1.9179442E0,-9.777944E0,3.513031E0,-5.7941294E0,-7.4204177E-1,6.323678E-1,-3.6438438E-1,-6.019079E-1,-2.9881418E-1,8.7705535E-1,-8.871593E-2,-2.560831E-1,-8.3520967E-1,4.946332E-1,-2.1245289E-1,-6.814624E-1,-1.5188837E-1],"categories":[],"categories_nodes":[],"categories_segments":[],"categories_sizes":[],"default_left":[0,0,0,0,0,0,0,0,0,0,0,0,0,0,0,0,0,0,0,0,0,0,0,0,0,0,0,0,0,0,0,0,0,0,0,0,0,0,0,0,0,0,0],"id":27,"left_children":[1,3,5,7,-1,9,11,13,-1,15,-1,17,19,-1,-1,21,23,25,27,29,31,-1,33,-1,-1,35,-1,37,39,41,-1,-1,-1,-1,-1,-1,-1,-1,-1,-1,-1,-1,-1],"loss_changes":[5.83281E4,1.3575652E4,9.512746E3,2.7378105E3,0E0,8.181709E2,3.3398809E3,1.623998E3,0E0,3.462295E2,0E0,7.2206973E3,1.237678E3,0E0,0E0,3.8960742E2,1.6542139E2,3.1701768E3,2.5287866E3,5.74864E2,1.383187E3,0E0,3.1180957E2,0E0,0E0,1.2859562E3,0E0,5.91709E2,2.2704019E3,5.632974E2,0E0,0E0,0E0,0E0,0E0,0E0,0E0,0E0,0E0,0E0,0E0,0E0,0E0],"parents":[2147483647,0,0,1,1,2,2,3,3,5,5,6,6,7,7,9,9,11,11,12,12,15,15,16,16,17,17,18,18,19,19,20,20,22,22,25,25,27,27,28,28,29,29],"right_children":[2,4,6,8,-1,10,12,14,-1,16,-1,18,20,-1,-1,22,24,26,28,30,32,-1,34,-1,-1,36,-1,38,40,42,-1,-1,-1,-1,-1,-1,-1,-1,-1,-1,-1,-1,-1],"split_conditions":[1.408E1,9.8908E2,1.409E2,2.3074E2,4.375007E0,6.3265713E1,3.121E1,2.2572159E2,7.361875E-1,4.7025E1,-1.0078208E-2,7.953067E1,8.377E1,9.722282E-1,2.4378912E0,5.48E1,1.6895748E1,2.215E2,9.191E1,7.242E1,1.3969835E3,-9.843179E-1,1.2E2,-1.0472187E0,-6.12783E-1,1.6686E2,1.9179442E0,8.949E1,2.634E2,9.3E-1,-7.4204177E-1,6.323678E-1,-3.6438438E-1,-6.019079E-1,-2.9881418E-1,8.7705535E-1,-8.871593E-2,-2.560831E-1,-8.3520967E-1,4.946332E-1,-2.1245289E-1,-6.814624E-1,-1.5188837E-1],"split_indices":[8,13,21,19,0,30,8,36,0,33,0,36,20,0,0,24,34,21,29,20,50,0,14,0,0,12,0,29,22,10,0,0,0,0,0,0,0,0,0,0,0,0,0],"split_type":[0,0,0,0,0,0,0,0,0,0,0,0,0,0,0,0,0,0,0,0,0,0,0,0,0,0,0,0,0,0,0,0,0,0,0,0,0,0,0,0,0,0,0],"sum_hessian":[2.47E2,2.7E1,2.2E2,2.2E1,5E0,8.7E1,1.33E2,1.3E1,9E0,8.2E1,5E0,8.4E1,4.9E1,5E0,8E0,6E1,2.2E1,2E1,6.4E1,3.7E1,1.2E1,6E0,5.4E1,1.1E1,1.1E1,1.4E1,6E0,2E1,4.4E1,2.7E1,1E1,6E0,6E0,3.9E1,1.5E1,9E0,5E0,1.3E1,7E0,2.4E1,2E1,6E0,2.1E1],"tree_param":{"num_deleted":"0","num_feature":"54","num_nodes":"43","size_leaf_vector":"1"}},{"base_weights":[1.3597666E0,5.389024E1,-3.259298E0,2.5852655E1,4.7128034E0,-9.09942E0,6.5671296E0,1.7201048E0,7.415665E-1,7.0126004E0,-1.0660816E1,-7.2073567E-1,8.543267E0,-3.2973358E-1,8.837089E-1,-1.1602299E1,4.4236237E-1,5.578203E0,2.2656649E1,-1.5522102E1,-9.998489E0,-6.186927E0,8.345618E0,6.5616316E-1,1.5001411E0,-5.4716486E-1,-8.74664E-1,-5.501858E-1,-2.1290903E-1,-4.537211E-1,-8.93514E-2,2.793821E-1,9.2714804E-1],"categories":[],"categories_nodes":[],"categories_segments":[],"categories_sizes":[],"default_left":[0,0,0,0,0,0,0,0,0,0,0,0,0,0,0,0,0,0,0,0,0,0,0,0,0,0,0,0,0,0,0,0,0],"id":28,"left_children":[1,3,5,7,-1,9,11,-1,-1,13,15,-1,17,-1,-1,19,-1,21,23,25,27,29,31,-1,-1,-1,-1,-1,-1,-1,-1,-1,-1],"loss_changes":[5.4042094E4,1.7934914E4,1.1824201E4,6.2048584E2,0E0,3.320046E3,3.3158003E3,0E0,0E0,1.8574552E3,2.2698955E3,0E0,2.8447598E3,0E0,0E0,5.551904E2,0E0,2.0051737E3,4.4667236E2,8.836084E1,4.3208105E2,1.3624002E2,1.2744666E3,0E0,0E0,0E0,0E0,0E0,0E0,0E0,0E0,0E0,0E0],"parents":[2147483647,0,0,1,1,2,2,3,3,5,5,6,6,9,9,10,10,12,12,15,15,17,17,18,18,19,19,20,20,21,21,22,22],"right_children":[2,4,6,8,-1,10,12,-1,-1,14,16,-1,18,-1,-1,20,-1,22,24,26,28,30,32,-1,-1,-1,-1,-1,-1,-1,-1,-1,-1],"split_conditions":[1.275E1,1.213E1,9.107E1,4.632E1,4.7128034E0,1.364E1,3.656E1,1.7201048E0,7.415665E-1,9.214566E0,1.98E0,-7.2073567E-1,4.04E1,-3.2973358E-1,8.837089E-1,9.001428E0,4.4236237E-1,5.3222716E-1,9.794E1,2.8568571E1,2.4327E2,2.812E1,3.003E1,6.5616316E-1,1.5001411E0,-5.4716486E-1,-8.74664E-1,-5.501858E-1,-2.1290903E-1,-4.537211E-1,-8.93514E-2,2.793821E-1,9.2714804E-1],"split_indices":[8,8,29,4,0,4,9,0,0,28,6,0,1,0,0,31,0,39,17,30,11,3,8,0,0,0,0,0,0,0,0,0,0],"split_type":[0,0,0,0,0,0,0,0,0,0,0,0,0,0,0,0,0,0,0,0,0,0,0,0,0,0,0,0,0,0,0,0,0],"sum_hessian":[2.21E2,1.7E1,2.04E2,1.1E1,6E0,1.28E2,7.6E1,5E0,6E0,1.1E1,1.17E2,6E0,7E1,5E0,6E0,1.12E2,5E0,5.9E1,1.1E1,3E1,8.2E1,1.1E1,4.8E1,6E0,5E0,1.1E1,1.9E1,6.9E1,1.3E1,6E0,5E0,3.9E1,9E0],"tree_param":{"num_deleted":"0","num_feature":"54","num_nodes":"33","size_leaf_vector":"1"}},{"base_weights":[-2.2555373E0,-4.302811E0,1.9540557E0,-1.2426245E1,3.9435807E-1,-1.3351105E1,6.798496E-2,-1.0318674E0,1.7343555E1,-1.0986872E1,-1.5546192E1,8.14047E0,-3.2719512E0,5.4603934E-1,1.0437866E0,-6.9304953E0,-1.4696723E1,-1.2300673E1,-1.7973492E1,-3.0408138E-1,1.2062538E0,-4.371476E0,5.371832E-1,-5.2172345E-1,-2.4166374E-1,-8.1482786E-1,-4.1238418E-1,-6.7881346E-1,-3.637084E-1,-5.514503E-1,-9.83294E-1,3.7244326E-1,-5.4631865E-1,-6.285029E-1,-1.6019061E-1],"categories":[],"categories_nodes":[],"categories_segments":[],"categories_sizes":[],"default_left":[0,0,0,0,0,0,0,0,0,0,0,0,0,0,0,0,0,0,0,0,0,0,0,0,0,0,0,0,0,0,0,0,0,0,0],"id":29,"left_children":[1,3,-1,5,7,9,-1,11,13,15,17,19,21,-1,-1,23,25,27,29,31,-1,33,-1,-1,-1,-1,-1,-1,-1,-1,-1,-1,-1,-1,-1],"loss_changes":[1.97171E4,8.437629E3,0E0,1.0509102E3,3.4263425E3,2.2361328E2,0E0,2.7182668E3,2.15708E1,5.000869E2,7.039453E1,3.5168896E3,1.6804807E3,0E0,0E0,1.0388806E2,7.193945E1,2.306836E1,6.407715E0,1.5637621E3,0E0,9.0747375E2,0E0,0E0,0E0,0E0,0E0,0E0,0E0,0E0,0E0,0E0,0E0,0E0,0E0],"parents":[2147483647,0,0,1,1,3,3,4,4,5,5,7,7,8,8,9,9,10,10,11,11,12,12,15,15,16,16,17,17,18,18,19,19,21,21],"right_children":[2,4,-1,6,8,10,-1,12,14,16,18,20,22,-1,-1,24,26,28,30,32,-1,34,-1,-1,-1,-1,-1,-1,-1,-1,-1,-1,-1,-1,-1],"split_conditions":[7.071381E1,1.44E2,1.9540557E0,5.9437615E-1,9.159778E-1,3.646E1,6.798496E-2,1.698E1,1.65E0,1.132E1,1.1653E2,1.17E1,7.03E1,5.4603934E-1,1.0437866E0,1.012E2,3.183E1,1.3891E2,-7.818315E-1,8.1116027E-1,1.2062538E0,9.51746E0,5.371832E-1,-5.2172345E-1,-2.4166374E-1,-8.1482786E-1,-4.1238418E-1,-6.7881346E-1,-3.637084E-1,-5.514503E-1,-9.83294E-1,3.7244326E-1,-5.4631865E-1,-6.285029E-1,-1.6019061E-1],"split_indices":[31,21,0,39,40,18,0,4,6,1,12,4,1,0,0,22,18,0,43,39,0,31,0,0,0,0,0,0,0,0,0,0,0,0,0],"split_type":[0,0,0,0,0,0,0,0,0,0,0,0,0,0,0,0,0,0,0,0,0,0,0,0,0,0,0,0,0,0,0,0,0,0,0],"sum_hessian":[2.3E2,2.2E2,1E1,8E1,1.4E2,7.5E1,5E0,1.3E2,1E1,3.9E1,3.6E1,2.5E1,1.05E2,5E0,5E0,2E1,1.9E1,1.8E1,1.8E1,1.7E1,8E0,9.8E1,7E0,6E0,1.4E1,1.4E1,5E0,1.3E1,5E0,5E0,1.3E1,1E1,7E0,1.1E1,8.7E1],"tree_param":{"num_deleted":"0","num_feature":"54","num_nodes":"35","size_leaf_vector":"1"}},{"base_weights":[-5.3939575E-1,-4.6456294E0,4.7168507E1,-5.9579024E0,1.4534982E0,1.0269772E0,3.575765E0,-1.0857864E1,-1.327862E0,-1.178385E1,1.431676E-1,-2.7934294E0,1.1659786E0,-1.3462402E1,-9.646738E0,7.714125E-1,-4.5456214E0,-3.416435E-1,-7.4935406E-1,-6.955147E-2,-5.4568326E-1,-5.4436857E-1,-4.0700477E-2],"categories":[],"categories_nodes":[],"categories_segments":[],"categories_sizes":[],"default_left":[0,0,0,0,0,0,0,0,0,0,0,0,0,0,0,0,0,0,0,0,0,0,0],"id":30,"left_children":[1,3,5,7,-1,-1,-1,9,11,13,-1,15,-1,17,19,-1,21,-1,-1,-1,-1,-1,-1],"loss_changes":[4.449248E4,9.420204E3,1.0201047E4,4.56836E3,0E0,0E0,0E0,1.2788955E3,3.8580012E3,2.001582E2,0E0,3.2629194E3,0E0,3.928828E2,4.4503174E2,0E0,2.168313E3,0E0,0E0,0E0,0E0,0E0,0E0],"parents":[2147483647,0,0,1,1,2,2,3,3,7,7,8,8,9,9,11,11,13,13,14,14,16,16],"right_children":[2,4,6,8,-1,-1,-1,10,12,14,-1,16,-1,18,20,-1,22,-1,-1,-1,-1,-1,-1],"split_conditions":[9.159778E-1,8.034226E1,3.225587E1,-4.887854E-1,1.4534982E0,1.0269772E0,3.575765E0,9.214429E1,2.34E0,1.6998283E1,1.431676E-1,-4.0024394E-1,1.1659786E0,9.442E1,1.7378641E1,7.714125E-1,6.046233E-1,-3.416435E-1,-7.4935406E-1,-6.955147E-2,-5.4568326E-1,-5.4436857E-1,-4.0700477E-2],"split_indices":[40,37,28,40,0,0,0,30,6,37,0,40,0,12,37,0,48,0,0,0,0,0,0],"split_type":[0,0,0,0,0,0,0,0,0,0,0,0,0,0,0,0,0,0,0,0,0,0,0],"sum_hessian":[2.25E2,2.08E2,1.7E1,2.01E2,7E0,9E0,8E0,9.7E1,1.04E2,9.1E1,6E0,9.9E1,5E0,4.8E1,4.3E1,8E0,9.1E1,1E1,3.8E1,6E0,3.7E1,3.3E1,5.8E1],"tree_param":{"num_deleted":"0","num_feature":"54","num_nodes":"23","size_leaf_vector":"1"}},{"base_weights":[-1.6038316E0,-6.4014087E0,1.0060934E1,-2.5834966E0,-9.87852E0,2.4344547E1,3.160925E0,8.981595E0,-4.557375E0,-1.1738712E1,-6.1995096E0,1.5384089E1,2.283754E0,1.1543926E0,2.38961E-1,9.637386E-1,-5.6210656E-2,-5.869727E0,1.8862379E-1,-1.401423E1,-7.5849943E0,2.3732157E-1,-9.589844E0,2.102522E1,7.6890565E-2,-3.3290339E0,9.277256E-1,-3.8990653E0,-1.429367E1,-9.771541E0,-8.1886894E-1,-9.951594E0,-1.09974764E-1,-1.2283029E1,-1.8682103E-1,5.882052E-1,1.2979859E0,-9.405034E-1,3.9417508E-1,-4.51578E-1,2.2808218E-2,-3.9309952E-1,-9.171535E-1,-6.692603E-1,-1.06008686E-1,-6.000918E-1,-2.9469562E-1,-6.9483185E-1,-3.6387882E-1,2.5016004E-1,-3.008937E-1],"categories":[],"categories_nodes":[],"categories_segments":[],"categories_sizes":[],"default_left":[0,0,0,0,0,0,0,0,0,0,0,0,0,0,0,0,0,0,0,0,0,0,0,0,0,0,0,0,0,0,0,0,0,0,0,0,0,0,0,0,0,0,0,0,0,0,0,0,0,0,0],"id":31,"left_children":[1,3,5,7,9,11,13,15,17,19,21,23,-1,-1,25,-1,-1,27,-1,29,31,-1,33,35,-1,37,-1,39,41,43,-1,45,-1,47,-1,-1,-1,-1,49,-1,-1,-1,-1,-1,-1,-1,-1,-1,-1,-1,-1],"loss_changes":[1.304773E4,2.1649038E3,6.624928E3,1.8671794E3,5.1578125E2,3.5022207E3,2.7310938E3,1.2699196E3,7.7643066E2,4.2300635E2,1.1959401E3,1.2955149E3,0E0,0E0,2.8064602E3,0E0,0E0,9.4031274E2,0E0,1.9088184E2,2.5850854E2,0E0,3.3244995E2,2.4299512E2,0E0,2.0824229E3,0E0,1.1217794E3,1.4227612E2,3.863634E2,0E0,5.405066E1,0E0,2.8095703E1,0E0,0E0,0E0,0E0,9.167076E2,0E0,0E0,0E0,0E0,0E0,0E0,0E0,0E0,0E0,0E0,0E0,0E0],"parents":[2147483647,0,0,1,1,2,2,3,3,4,4,5,5,6,6,7,7,8,8,9,9,10,10,11,11,14,14,17,17,19,19,20,20,22,22,23,23,25,25,27,27,28,28,29,29,31,31,33,33,38,38],"right_children":[2,4,6,8,10,12,14,16,18,20,22,24,-1,-1,26,-1,-1,28,-1,30,32,-1,34,36,-1,38,-1,40,42,44,-1,46,-1,48,-1,-1,-1,-1,50,-1,-1,-1,-1,-1,-1,-1,-1,-1,-1,-1,-1],"split_conditions":[1.0299E2,2.0157816E3,4.1105375E-1,1.364E1,4.029E1,9.749279E-1,2.3577343E1,3.415E1,9.762E1,1.4218093E1,3.2916668E1,3.1703032E1,2.283754E0,1.1543926E0,2.1962E2,9.637386E-1,-5.6210656E-2,1.6040339E1,1.8862379E-1,3.1521334E1,4.767E1,2.3732157E-1,1.0550408E0,1.6144E2,7.6890565E-2,9.4E-1,9.277256E-1,2.169E1,9.05E1,1.005301E1,-8.1886894E-1,9.17E1,-1.09974764E-1,1.5941845E1,-1.8682103E-1,5.882052E-1,1.2979859E0,-9.405034E-1,2.799E1,-4.51578E-1,2.2808218E-2,-3.9309952E-1,-9.171535E-1,-6.692603E-1,-1.06008686E-1,-6.000918E-1,-2.9469562E-1,-6.9483185E-1,-3.6387882E-1,2.5016004E-1,-3.008937E-1],"split_indices":[29,50,39,4,15,43,37,7,29,37,36,28,0,0,19,0,0,28,0,36,20,0,49,20,0,10,0,3,20,37,0,21,0,28,0,0,0,0,4,0,0,0,0,0,0,0,0,0,0,0,0],"split_type":[0,0,0,0,0,0,0,0,0,0,0,0,0,0,0,0,0,0,0,0,0,0,0,0,0,0,0,0,0,0,0,0,0,0,0,0,0,0,0,0,0,0,0,0,0,0,0,0,0,0,0],"sum_hessian":[2.31E2,1.64E2,6.7E1,7.9E1,8.5E1,2.1E1,4.6E1,1.1E1,6.8E1,5.5E1,3E1,1.6E1,5E0,5E0,4.1E1,5E0,6E0,5.9E1,9E0,3.4E1,2.1E1,7E0,2.3E1,1.1E1,5E0,3.5E1,6E0,4.9E1,1E1,1.4E1,2E1,1.4E1,7E0,1.5E1,8E0,5E0,6E0,6E0,2.9E1,2.2E1,2.7E1,5E0,5E0,9E0,5E0,8E0,6E0,1E1,5E0,1.7E1,1.2E1],"tree_param":{"num_deleted":"0","num_feature":"54","num_nodes":"51","size_leaf_vector":"1"}},{"base_weights":[1.0087188E0,-2.938168E0,4.6448692E1,-7.016863E0,6.2221236E0,2.4258898E1,4.0511394E0,-1.1504154E1,-3.2473402E0,2.301549E0,2.1179943E1,1.6844715E0,7.0768183E-1,-1.2779619E1,-7.4750533E0,-1.9429062E-1,-1.0871868E1,6.4447393E0,-8.200274E0,5.068197E-1,1.4097779E0,-9.975057E0,-1.6023132E1,-9.704946E0,-1.13298014E-1,-4.5437827E0,7.189382E0,-6.789511E-1,-7.9682574E0,1.3179195E1,-9.4867647E-1,-7.450578E-1,1.8162584E-2,-2.1021084E-1,-5.7743037E-1,-4.8521087E-1,-9.470391E-1,-2.4037693E-1,-6.082441E-1,2.0732968E-1,-3.841725E-1,8.701067E-1,-1.811242E-1,-5.28035E-1,-1.9335726E-1,9.2296994E-1,-9.1321126E-4,-2.7877635E-1,2.662933E-1],"categories":[],"categories_nodes":[],"categories_segments":[],"categories_sizes":[],"default_left":[0,0,0,0,0,0,0,0,0,0,0,0,0,0,0,0,0,0,0,0,0,0,0,0,0,0,0,0,0,0,0,0,0,0,0,0,0,0,0,0,0,0,0,0,0,0,0,0,0],"id":32,"left_children":[1,3,5,7,9,11,-1,13,15,17,19,-1,-1,21,23,25,27,29,31,-1,-1,33,35,37,-1,39,41,-1,43,45,47,-1,-1,-1,-1,-1,-1,-1,-1,-1,-1,-1,-1,-1,-1,-1,-1,-1,-1],"loss_changes":[4.2641574E4,8.225945E3,1.2611129E4,2.5337139E3,3.9389941E3,7.620469E2,0E0,2.590625E2,1.9532451E3,2.4459568E3,7.9888086E2,0E0,0E0,3.0409668E2,1.9870764E2,1.9916958E3,8.0451416E1,2.0041284E3,9.235438E2,0E0,0E0,2.2386841E2,2.2179492E2,9.813196E1,0E0,1.0959707E3,2.6026736E3,0E0,1.08006775E2,1.4637275E3,6.103219E2,0E0,0E0,0E0,0E0,0E0,0E0,0E0,0E0,0E0,0E0,0E0,0E0,0E0,0E0,0E0,0E0,0E0,0E0],"parents":[2147483647,0,0,1,1,2,2,3,3,4,4,5,5,7,7,8,8,9,9,10,10,13,13,14,14,15,15,16,16,17,17,18,18,21,21,22,22,23,23,25,25,26,26,28,28,29,29,30,30],"right_children":[2,4,6,8,10,12,-1,14,16,18,20,-1,-1,22,24,26,28,30,32,-1,-1,34,36,38,-1,40,42,-1,44,46,48,-1,-1,-1,-1,-1,-1,-1,-1,-1,-1,-1,-1,-1,-1,-1,-1,-1,-1],"split_conditions":[9.159778E-1,9.794E1,2.3074E2,1.409E2,4.04E1,2.3074E2,4.0511394E0,1.59355545E1,2.236E2,1.3979E2,3.58E1,1.6844715E0,7.0768183E-1,3.4134285E1,4.3388373E-1,9.8602E2,1.8144E2,4.3388373E-1,2.474E1,5.068197E-1,1.4097779E0,-8.702939E-1,1.0566E2,1.123E2,-1.13298014E-1,9.394E1,9.861E2,-6.789511E-1,6.234898E-1,3.099E1,1.3342E2,-7.450578E-1,1.8162584E-2,-2.1021084E-1,-5.7743037E-1,-4.8521087E-1,-9.470391E-1,-2.4037693E-1,-6.082441E-1,2.0732968E-1,-3.841725E-1,8.701067E-1,-1.811242E-1,-5.28035E-1,-1.9335726E-1,9.2296994E-1,-9.1321126E-4,-2.7877635E-1,2.662933E-1],"split_indices":[40,29,17,21,1,19,0,37,22,15,4,0,0,30,43,13,12,43,1,0,0,39,12,23,0,35,13,0,44,8,32,0,0,0,0,0,0,0,0,0,0,0,0,0,0,0,0,0,0],"split_type":[0,0,0,0,0,0,0,0,0,0,0,0,0,0,0,0,0,0,0,0,0,0,0,0,0,0,0,0,0,0,0,0,0,0,0,0,0,0,0,0,0,0,0,0,0,0,0,0,0],"sum_hessian":[2.36E2,2.18E2,1.8E1,1.51E2,6.7E1,1.2E1,6E0,6.8E1,8.3E1,5.4E1,1.3E1,5E0,7E0,5E1,1.8E1,6E1,2.3E1,3.9E1,1.5E1,6E0,7E0,2.9E1,2.1E1,1.2E1,6E0,3.8E1,2.2E1,1E1,1.3E1,2E1,1.9E1,8E0,7E0,7E0,2.2E1,8E0,1.3E1,5E0,7E0,1E1,2.8E1,1.1E1,1.1E1,7E0,6E0,1.4E1,6E0,1.1E1,8E0],"tree_param":{"num_deleted":"0","num_feature":"54","num_nodes":"49","size_leaf_vector":"1"}},{"base_weights":[8.161988E-1,-3.4879565E0,2.8558615E1,-6.1369762E0,5.5139136E0,5.9196598E1,1.1150213E1,-7.7729297E0,3.116473E0,1.352425E0,-4.5526907E-1,1.3502614E0,4.076093E0,1.8996696E1,-3.628284E-1,-8.409662E0,1.5738189E-1,7.9795456E-1,-2.051016E0,-5.403466E-1,2.32035E0,-4.3034043E-2,1.4505727E0,-1.1384712E1,-6.653034E0,-4.9982343E0,1.6471803E-1,-1.9871718E0,9.941267E0,-4.0962276E-1,-7.482705E-1,-2.278571E-1,-5.5827737E-1,3.77491E-2,-4.6077648E-1,3.180951E-1,-2.5971615E-1,1.5572606E-1,7.5555676E-1],"categories":[],"categories_nodes":[],"categories_segments":[],"categories_sizes":[],"default_left":[0,0,0,0,0,0,0,0,0,0,0,0,0,0,0,0,0,0,0,0,0,0,0,0,0,0,0,0,0,0,0,0,0,0,0,0,0,0,0],"id":33,"left_children":[1,3,5,7,9,11,13,15,17,-1,19,-1,-1,21,-1,23,-1,-1,25,-1,27,-1,-1,29,31,33,-1,35,37,-1,-1,-1,-1,-1,-1,-1,-1,-1,-1],"loss_changes":[2.7563373E4,4.8030654E3,1.5874053E4,2.370647E3,5.925332E3,5.7039766E3,3.1708499E3,9.4433154E2,1.6254705E3,0E0,1.08817E3,0E0,0E0,3.0079712E3,0E0,5.775137E2,0E0,0E0,3.0003787E2,0E0,1.004573E3,0E0,0E0,3.9177002E2,7.151941E2,2.9811368E2,0E0,5.685806E2,3.411632E2,0E0,0E0,0E0,0E0,0E0,0E0,0E0,0E0,0E0,0E0],"parents":[2147483647,0,0,1,1,2,2,3,3,4,4,5,5,6,6,7,7,8,8,10,10,13,13,15,15,18,18,20,20,23,23,24,24,25,25,27,27,28,28],"right_children":[2,4,6,8,10,12,14,16,18,-1,20,-1,-1,22,-1,24,-1,-1,26,-1,28,-1,-1,30,32,34,-1,36,38,-1,-1,-1,-1,-1,-1,-1,-1,-1,-1],"split_conditions":[1.8848929E2,1.0299E2,1.8005E2,1.2119346E-1,7.664429E1,1.629E2,2.507236E2,9.588286E1,6.221E1,1.352425E0,3.583E1,1.3502614E0,4.076093E0,2.3158429E2,-3.628284E-1,1.128E2,1.5738189E-1,7.9795456E-1,5.586E1,-5.403466E-1,1.4561E2,-4.3034043E-2,1.4505727E0,3.183E1,2.215E2,7.671E1,1.6471803E-1,1.0342574E3,7.975E1,-4.0962276E-1,-7.482705E-1,-2.278571E-1,-5.5827737E-1,3.77491E-2,-4.6077648E-1,3.180951E-1,-2.5971615E-1,1.5572606E-1,7.5555676E-1],"split_indices":[33,29,15,40,33,17,33,33,20,0,9,0,0,33,0,23,0,0,9,0,12,0,0,17,22,15,0,50,15,0,0,0,0,0,0,0,0,0,0],"split_type":[0,0,0,0,0,0,0,0,0,0,0,0,0,0,0,0,0,0,0,0,0,0,0,0,0,0,0,0,0,0,0,0,0,0,0,0,0,0,0],"sum_hessian":[2.29E2,1.99E2,3E1,1.54E2,4.5E1,1E1,2E1,1.31E2,2.3E1,9E0,3.6E1,5E0,5E0,1.4E1,6E0,1.24E2,7E0,6E0,1.7E1,7E0,2.9E1,5E0,9E0,4.4E1,8E1,1.1E1,6E0,1.9E1,1E1,2.5E1,1.9E1,5.6E1,2.4E1,5E0,6E0,5E0,1.4E1,5E0,5E0],"tree_param":{"num_deleted":"0","num_feature":"54","num_nodes":"39","size_leaf_vector":"1"}},{"base_weights":[-5.311435E-1,-3.3287237E0,3.0417435E1,-6.7684846E0,4.113878E0,5.4649645E-1,2.34316E0,-7.9382353E0,7.9143874E-2,1.967979E1,7.048626E-1,-8.594561E0,3.146264E-1,8.092482E0,-5.173055E-1,1.9786558E-1,1.7371359E0,-2.5807133E0,9.0748084E-1,-9.653973E0,-5.010365E0,7.218185E-1,1.1615024E-1,-6.844094E-1,-3.5045698E-1,-5.113477E-1,3.6135674E-3,2.5571346E-1,-4.9110824E-1,8.28777E-2,-5.170224E-1],"categories":[],"categories_nodes":[],"categories_segments":[],"categories_sizes":[],"default_left":[0,0,0,0,0,0,0,0,0,0,0,0,0,0,0,0,0,0,0,0,0,0,0,0,0,0,0,0,0,0,0],"id":34,"left_children":[1,3,5,7,9,-1,-1,11,13,15,17,19,-1,21,-1,-1,-1,23,-1,25,27,-1,-1,-1,29,-1,-1,-1,-1,-1,-1],"loss_changes":[1.9841748E4,5.404006E3,5.577039E3,1.1540718E3,3.5414458E3,0E0,0E0,1.2029023E3,1.9216293E3,2.7044312E3,3.2565383E3,3.9969238E2,0E0,4.4227612E2,0E0,0E0,0E0,1.1842837E3,0E0,5.0230566E2,1.4630466E3,0E0,0E0,0E0,8.396003E2,0E0,0E0,0E0,0E0,0E0,0E0],"parents":[2147483647,0,0,1,1,2,2,3,3,4,4,7,7,8,8,9,9,10,10,11,11,13,13,17,17,19,19,20,20,24,24],"right_children":[2,4,6,8,10,-1,-1,12,14,16,18,20,-1,22,-1,-1,-1,24,-1,26,28,-1,-1,-1,30,-1,-1,-1,-1,-1,-1],"split_conditions":[9.159778E-1,9.602E1,4.9500284E-1,1.2119346E-1,7.664429E1,5.4649645E-1,2.34316E0,1.2835584E0,1.0849267E2,5.694E1,8.034226E1,3.941E1,3.146264E-1,8.065E1,-5.173055E-1,1.9786558E-1,1.7371359E0,9.4E-1,9.0748084E-1,1.61E0,3.4134285E1,7.218185E-1,1.1615024E-1,-6.844094E-1,4.767E1,-5.113477E-1,3.6135674E-3,2.5571346E-1,-4.9110824E-1,8.28777E-2,-5.170224E-1],"split_indices":[40,29,49,40,33,0,0,49,36,18,37,3,0,19,0,0,0,10,0,10,30,0,0,0,3,0,0,0,0,0,0],"split_type":[0,0,0,0,0,0,0,0,0,0,0,0,0,0,0,0,0,0,0,0,0,0,0,0,0,0,0,0,0,0,0],"sum_hessian":[2.27E2,2.09E2,1.8E1,1.43E2,6.6E1,9E0,9E0,1.22E2,2.1E1,1.1E1,5.5E1,1.17E2,5E0,1.2E1,9E0,6E0,5E0,4.7E1,8E0,8.9E1,2.8E1,5E0,7E0,7E0,4E1,8.4E1,5E0,9E0,1.9E1,3.4E1,6E0],"tree_param":{"num_deleted":"0","num_feature":"54","num_nodes":"31","size_leaf_vector":"1"}},{"base_weights":[-1.3655164E0,-4.3871107E0,2.1067238E1,1.6557928E0,-6.306289E0,3.228423E1,-6.150368E-2,5.2864075E0,-6.1627502E0,-6.807485E0,3.512029E-1,1.9871483E1,2.6898906E0,1.0240826E1,-6.0038147E0,-4.523646E-1,-5.80792E-2,-8.983638E0,-3.502337E0,1.4282699E0,2.4838422E-1,1.5007347E1,3.145697E-2,-4.7200963E-1,-7.834005E-2,-9.438389E-1,-8.029545E0,-5.179171E0,3.2875928E-1,1.1430188E0,4.0047464E-1,-4.3284652E-1,-3.542546E-3,-3.8015926E-1,-2.8443659E-2],"categories":[],"categories_nodes":[],"categories_segments":[],"categories_sizes":[],"default_left":[0,0,0,0,0,0,0,0,0,0,0,0,0,0,0,0,0,0,0,0,0,0,0,0,0,0,0,0,0,0,0,0,0,0,0],"id":35,"left_children":[1,3,5,7,9,11,-1,13,15,17,-1,19,-1,21,23,-1,-1,25,27,-1,-1,29,-1,-1,-1,-1,31,33,-1,-1,-1,-1,-1,-1,-1],"loss_changes":[1.541131E4,2.329924E3,6.7926484E3,1.4234985E3,1.0633457E3,3.7377246E3,0E0,1.9633245E3,2.2030798E2,1.025835E3,0E0,1.5425366E3,0E0,1.0901016E3,1.5292892E2,0E0,0E0,6.790576E2,1.0479541E3,0E0,0E0,6.9617017E2,0E0,0E0,0E0,0E0,4.0882666E2,5.767969E2,0E0,0E0,0E0,0E0,0E0,0E0,0E0],"parents":[2147483647,0,0,1,1,2,2,3,3,4,4,5,5,7,7,8,8,9,9,11,11,13,13,14,14,17,17,18,18,21,21,26,26,27,27],"right_children":[2,4,6,8,10,12,-1,14,16,18,-1,20,-1,22,24,-1,-1,26,28,-1,-1,30,-1,-1,-1,-1,32,34,-1,-1,-1,-1,-1,-1,-1],"split_conditions":[1.7355286E2,2.152E1,2.3289098E2,1.257E1,7.854E1,2.0456667E2,-6.150368E-2,1.9636592E3,1.115115E3,2.2393E2,3.512029E-1,1.9192667E2,2.6898906E0,1.1717E2,2.3608E2,-4.523646E-1,-5.80792E-2,8.8E-1,1.45E0,1.4282699E0,2.4838422E-1,2.2515E2,3.145697E-2,-4.7200963E-1,-7.834005E-2,-9.438389E-1,1.331E1,3.695E1,3.2875928E-1,1.1430188E0,4.0047464E-1,-4.3284652E-1,-3.542546E-3,-3.8015926E-1,-2.8443659E-2],"split_indices":[33,4,27,5,3,27,0,50,50,11,0,27,0,29,11,0,0,10,10,0,0,11,0,0,0,0,5,3,0,0,0,0,0,0,0],"split_type":[0,0,0,0,0,0,0,0,0,0,0,0,0,0,0,0,0,0,0,0,0,0,0,0,0,0,0,0,0,0,0,0,0,0,0],"sum_hessian":[2.25E2,1.99E2,2.6E1,4.8E1,1.51E2,1.7E1,9E0,3.3E1,1.5E1,1.46E2,5E0,1.2E1,5E0,2.3E1,1E1,9E0,6E0,8.7E1,5.9E1,7E0,5E0,1.5E1,8E0,5E0,5E0,6E0,8.1E1,5.1E1,8E0,6E0,9E0,7.5E1,6E0,3.3E1,1.8E1],"tree_param":{"num_deleted":"0","num_feature":"54","num_nodes":"35","size_leaf_vector":"1"}},{"base_weights":[-2.862984E-1,-3.4515438E0,1.928935E1,-8.2974615E0,6.031159E-1,2.2320006E0,1.0747248E1,-2.0327458E0,-9.7738905E0,5.348565E0,-3.1726868E0,1.7686283E1,-3.5381824E-1,-7.1563053E0,2.953343E-1,-7.5446844E0,-1.2533614E1,6.397531E-1,2.020649E1,-5.208216E0,5.912331E0,-5.175182E-2,2.640651E1,-5.194234E-1,-1.0963656E-1,-1.1886751E1,-4.081455E0,-8.601258E0,-1.4771476E1,-6.128253E0,5.1251006E0,2.776951E-1,1.6966714E0,-1.3021692E0,-9.064179E0,-3.710645E-2,5.385768E-1,7.0797616E-1,1.6145468E0,-3.9256883E-1,-7.366726E-1,-3.1062403E-1,1.2951271E-1,-6.1536187E-1,-2.141685E-1,-8.808303E-1,-4.8264095E-1,-4.7938243E-1,-1.5539742E-2,7.1844894E-1,2.3678197E-2,3.2461065E-1,-2.4628548E-1,-5.452698E-1,-2.5138474E-1],"categories":[],"categories_nodes":[],"categories_segments":[],"categories_sizes":[],"default_left":[0,0,0,0,0,0,0,0,0,0,0,0,0,0,0,0,0,0,0,0,0,0,0,0,0,0,0,0,0,0,0,0,0,0,0,0,0,0,0,0,0,0,0,0,0,0,0,0,0,0,0,0,0,0,0],"id":36,"left_children":[1,3,5,7,9,-1,11,13,15,17,19,21,-1,23,-1,25,27,29,31,33,35,-1,37,-1,-1,39,41,43,45,47,49,-1,-1,51,53,-1,-1,-1,-1,-1,-1,-1,-1,-1,-1,-1,-1,-1,-1,-1,-1,-1,-1,-1,-1],"loss_changes":[1.4689547E4,4.013308E3,6.666324E3,8.4032666E2,2.0237719E3,0E0,3.3407998E3,8.15155E2,3.668374E2,3.4852314E3,1.1958406E3,3.1291602E3,0E0,1.6973785E2,0E0,6.1313794E2,1.5454883E2,1.2153256E3,2.2251592E3,7.7139905E2,3.9601846E2,0E0,4.7963965E2,0E0,0E0,1.0258472E2,3.857491E2,1.7131165E2,1.06651855E2,3.1901837E2,1.0251532E3,0E0,0E0,7.945468E2,1.3840405E2,0E0,0E0,0E0,0E0,0E0,0E0,0E0,0E0,0E0,0E0,0E0,0E0,0E0,0E0,0E0,0E0,0E0,0E0,0E0,0E0],"parents":[2147483647,0,0,1,1,2,2,3,3,4,4,6,6,7,7,8,8,9,9,10,10,11,11,13,13,15,15,16,16,17,17,18,18,19,19,20,20,22,22,25,25,26,26,27,27,28,28,29,29,30,30,33,33,34,34],"right_children":[2,4,6,8,10,-1,12,14,16,18,20,22,-1,24,-1,26,28,30,32,34,36,-1,38,-1,-1,40,42,44,46,48,50,-1,-1,52,54,-1,-1,-1,-1,-1,-1,-1,-1,-1,-1,-1,-1,-1,-1,-1,-1,-1,-1,-1,-1],"split_conditions":[1.8848929E2,1.555E2,1.629E2,2.314E1,3.443E1,2.2320006E0,2.507236E2,2.4046E2,4.392E1,3.241E1,9.239E1,2.3158429E2,-3.5381824E-1,4.021E1,2.953343E-1,4.021E1,4.698857E1,9.191E1,2.296E2,2.265E2,9.1365546E-1,-5.175182E-2,2.0551E2,-5.194234E-1,-1.0963656E-1,2.938857E1,2.991E1,7.02E0,4.3388373E-1,1.2119346E-1,2.4896227E1,2.776951E-1,1.6966714E0,4.825E1,-4.9253273E-1,-3.710645E-2,5.385768E-1,7.0797616E-1,1.6145468E0,-3.9256883E-1,-7.366726E-1,-3.1062403E-1,1.2951271E-1,-6.1536187E-1,-2.141685E-1,-8.808303E-1,-4.8264095E-1,-4.7938243E-1,-1.5539742E-2,7.1844894E-1,2.3678197E-2,3.2461065E-1,-2.4628548E-1,-5.452698E-1,-2.5138474E-1],"split_indices":[33,22,15,4,7,0,33,11,19,7,30,33,0,20,0,29,30,29,21,22,49,0,16,0,0,30,7,5,43,40,34,0,0,15,40,0,0,0,0,0,0,0,0,0,0,0,0,0,0,0,0,0,0,0,0],"split_type":[0,0,0,0,0,0,0,0,0,0,0,0,0,0,0,0,0,0,0,0,0,0,0,0,0,0,0,0,0,0,0,0,0,0,0,0,0,0,0,0,0,0,0,0,0,0,0,0,0,0,0,0,0,0,0],"sum_hessian":[2.35E2,2.03E2,3.2E1,9.2E1,1.11E2,7E0,2.5E1,1.8E1,7.4E1,4.9E1,6.2E1,1.8E1,7E0,1.1E1,7E0,4.3E1,3.1E1,3.8E1,1.1E1,5.1E1,1.1E1,6E0,1.2E1,6E0,5E0,1.8E1,2.5E1,1.3E1,1.8E1,1.5E1,2.3E1,6E0,5E0,2.6E1,2.5E1,5E0,6E0,5E0,7E0,9E0,9E0,1.9E1,6E0,6E0,7E0,1E1,8E0,9E0,6E0,7E0,1.6E1,8E0,1.8E1,1.6E1,9E0],"tree_param":{"num_deleted":"0","num_feature":"54","num_nodes":"55","size_leaf_vector":"1"}},{"base_weights":[-1.0855137E0,-3.6357443E0,1.9161911E1,-6.2409244E0,9.978485E-1,2.0711374E0,4.940129E0,-9.001556E0,-4.214313E0,6.941402E0,-3.3474143E0,8.7403244E-1,-2.7931497E-1,-5.877796E0,-1.1408763E1,-1.1712425E0,-8.117955E0,-1.23659424E-1,1.0732902E1,3.0376112E-1,-5.61009E0,-8.890514E0,-9.6131533E-1,-1.4930241E1,-6.891936E0,-6.288552E0,3.9969907E0,-3.771523E0,-1.1771922E1,5.1148973E0,1.1421679E0,3.1643283E-1,-7.739844E0,-2.8844082E-1,-5.645556E-1,-3.3093813E-1,2.4281757E-1,-8.906976E-1,-4.9098927E-1,-4.103801E-1,-2.3573892E-1,-4.5435172E-1,4.724121E-3,-1.4908944E-1,5.321344E-1,-2.7733833E-1,2.0377541E-2,-6.7728513E-1,-2.983372E-1,-4.0384702E-2,4.209414E-1,-6.082935E-1,-1.6896218E-1],"categories":[],"categories_nodes":[],"categories_segments":[],"categories_sizes":[],"default_left":[0,0,0,0,0,0,0,0,0,0,0,0,0,0,0,0,0,0,0,0,0,0,0,0,0,0,0,0,0,0,0,0,0,0,0,0,0,0,0,0,0,0,0,0,0,0,0,0,0,0,0,0,0],"id":37,"left_children":[1,3,5,7,9,-1,11,13,15,17,19,-1,-1,21,23,25,27,-1,29,-1,31,33,35,37,39,41,43,45,47,49,-1,-1,51,-1,-1,-1,-1,-1,-1,-1,-1,-1,-1,-1,-1,-1,-1,-1,-1,-1,-1,-1,-1],"loss_changes":[1.1997493E4,2.4929236E3,8.026675E3,7.0056885E2,1.9602084E3,0E0,2.341769E3,3.465166E2,9.170586E2,1.1687979E3,9.7217883E2,0E0,0E0,3.7656476E2,3.7427905E2,1.2152704E3,4.9558032E2,0E0,1.4480005E3,0E0,9.643402E2,5.47666E1,3.9418762E2,6.0864258E1,4.269104E0,4.117033E2,1.0984479E3,1.2838144E2,1.0452417E2,3.3945297E2,0E0,0E0,5.571926E2,0E0,0E0,0E0,0E0,0E0,0E0,0E0,0E0,0E0,0E0,0E0,0E0,0E0,0E0,0E0,0E0,0E0,0E0,0E0,0E0],"parents":[2147483647,0,0,1,1,2,2,3,3,4,4,6,6,7,7,8,8,9,9,10,10,13,13,14,14,15,15,16,16,18,18,20,20,21,21,22,22,23,23,24,24,25,25,26,26,27,27,28,28,29,29,32,32],"right_children":[2,4,6,8,10,-1,12,14,16,18,20,-1,-1,22,24,26,28,-1,30,-1,32,34,36,38,40,42,44,46,48,50,-1,-1,52,-1,-1,-1,-1,-1,-1,-1,-1,-1,-1,-1,-1,-1,-1,-1,-1,-1,-1,-1,-1],"split_conditions":[2.2165367E2,7.615E1,1.9264583E2,4.3956665E1,2.215E2,2.0711374E0,-4.3388373E-1,3.4915E1,7.042E1,2.072E2,1.28E1,8.7403244E-1,-2.7931497E-1,4.021E1,1.6625553E1,7.83956E0,7.459E1,-1.23659424E-1,6.597973E-1,3.0376112E-1,1.923E2,2.358E1,8.108E1,7.388E1,4.254E1,7.818315E-1,1.497E2,7.944E1,1E0,4.0161946E-1,1.1421679E0,3.1643283E-1,1.866E1,-2.8844082E-1,-5.645556E-1,-3.3093813E-1,2.4281757E-1,-8.906976E-1,-4.9098927E-1,-4.103801E-1,-2.3573892E-1,-4.5435172E-1,4.724121E-3,-1.4908944E-1,5.321344E-1,-2.7733833E-1,2.0377541E-2,-6.7728513E-1,-2.983372E-1,-4.0384702E-2,4.209414E-1,-6.082935E-1,-1.6896218E-1],"split_indices":[36,27,20,27,23,0,43,33,29,11,3,0,0,29,37,28,20,0,49,0,21,15,0,9,20,43,21,15,41,49,0,0,1,0,0,0,0,0,0,0,0,0,0,0,0,0,0,0,0,0,0,0,0],"split_type":[0,0,0,0,0,0,0,0,0,0,0,0,0,0,0,0,0,0,0,0,0,0,0,0,0,0,0,0,0,0,0,0,0,0,0,0,0,0,0,0,0,0,0,0,0,0,0,0,0,0,0,0,0],"sum_hessian":[2.3E2,2.05E2,2.5E1,1.31E2,7.4E1,9E0,1.6E1,5.4E1,7.7E1,3.1E1,4.3E1,7E0,9E0,2.5E1,2.9E1,4.4E1,3.3E1,9E0,2.2E1,8E0,3.5E1,1.5E1,1E1,1.5E1,1.4E1,2.2E1,2.2E1,1.6E1,1.7E1,1.6E1,6E0,5E0,3E1,8E0,7E0,5E0,5E0,8E0,7E0,7E0,7E0,1.5E1,7E0,1.1E1,1.1E1,1.1E1,5E0,1.2E1,5E0,6E0,1E1,1.4E1,1.6E1],"tree_param":{"num_deleted":"0","num_feature":"54","num_nodes":"53","size_leaf_vector":"1"}},{"base_weights":[1.2790215E0,-1.9037818E0,3.1667618E1,-5.23539E0,5.620334E0,3.1066906E0,1.7259912E1,-8.442767E0,-1.9600214E0,2.170423E0,1.8772104E1,2.5213334E-1,1.518699E0,-9.470915E0,-5.441902E0,-8.397925E0,1.1137074E0,4.5863395E0,-6.29819E-1,1.2935222E0,2.4979544E-1,-7.190436E-1,-8.090905E0,-2.6692227E-2,-7.2490587E0,-9.975004E0,-1.8998793E-1,9.646187E0,-2.8367212E0,2.115702E0,7.5286794E-1,-1.7174836E-1,-4.4903547E-1,-4.3581602E-1,-1.6754517E-1,-6.669562E-1,-2.974898E-1,8.511557E-1,1.3900134E-1,3.4949213E-1,-2.6812905E-1,4.234522E-1,-8.1553034E-2],"categories":[],"categories_nodes":[],"categories_segments":[],"categories_sizes":[],"default_left":[0,0,0,0,0,0,0,0,0,0,0,0,0,0,0,0,0,0,0,0,0,0,0,0,0,0,0,0,0,0,0,0,0,0,0,0,0,0,0,0,0,0,0],"id":38,"left_children":[1,3,5,7,9,-1,11,13,15,17,19,-1,-1,21,23,25,27,29,-1,-1,-1,-1,31,-1,33,35,-1,37,39,41,-1,-1,-1,-1,-1,-1,-1,-1,-1,-1,-1,-1,-1],"loss_changes":[2.3466754E4,5.544255E3,9.023379E3,1.5907695E3,3.0445823E3,0E0,2.5705361E3,1.8603125E2,1.5330575E3,2.0199164E3,1.2397876E3,0E0,0E0,2.6308984E2,1.912619E2,1.4338916E2,1.8138319E3,1.2099077E3,0E0,0E0,0E0,0E0,1.5972363E2,0E0,6.2306335E1,1.6437805E2,0E0,8.13745E2,9.558429E2,9.65992E2,0E0,0E0,0E0,0E0,0E0,0E0,0E0,0E0,0E0,0E0,0E0,0E0,0E0],"parents":[2147483647,0,0,1,1,2,2,3,3,4,4,6,6,7,7,8,8,9,9,10,10,13,13,14,14,15,15,16,16,17,17,22,22,24,24,25,25,27,27,28,28,29,29],"right_children":[2,4,6,8,10,-1,12,14,16,18,20,-1,-1,22,24,26,28,30,-1,-1,-1,-1,32,-1,34,36,-1,38,40,42,-1,-1,-1,-1,-1,-1,-1,-1,-1,-1,-1,-1,-1],"split_conditions":[9.159778E-1,9.602E1,2.9873E2,1.409E2,4.04E1,3.1066906E0,2.2315E2,1.59355545E1,7.613556E0,1.9861E2,6.029879E-1,2.5213334E-1,1.518699E0,2.2998884E3,5.630935E0,7.818315E-1,2.197E1,1.7526042E2,-6.29819E-1,1.2935222E0,2.4979544E-1,-7.190436E-1,2.386064E3,-2.6692227E-2,4.3388373E-1,8.084033E1,-1.8998793E-1,1.691E2,4.825E1,2.215E2,7.5286794E-1,-1.7174836E-1,-4.4903547E-1,-4.3581602E-1,-1.6754517E-1,-6.669562E-1,-2.974898E-1,8.511557E-1,1.3900134E-1,3.4949213E-1,-2.6812905E-1,4.234522E-1,-8.1553034E-2],"split_indices":[40,29,0,21,1,0,15,37,28,17,39,0,0,50,28,43,4,20,0,0,0,0,50,0,43,36,0,22,19,23,0,0,0,0,0,0,0,0,0,0,0,0,0],"split_type":[0,0,0,0,0,0,0,0,0,0,0,0,0,0,0,0,0,0,0,0,0,0,0,0,0,0,0,0,0,0,0,0,0,0,0,0,0,0,0,0,0,0,0],"sum_hessian":[2.41E2,2.19E2,2.2E1,1.52E2,6.7E1,6E0,1.6E1,7.6E1,7.6E1,5.4E1,1.3E1,9E0,7E0,5.5E1,2.1E1,2.4E1,5.2E1,4.7E1,7E0,8E0,5E0,1E1,4.5E1,6E0,1.5E1,1.7E1,7E0,1.6E1,3.6E1,3.9E1,8E0,8E0,3.7E1,1E1,5E0,8E0,9E0,7E0,9E0,7E0,2.9E1,1.4E1,2.5E1],"tree_param":{"num_deleted":"0","num_feature":"54","num_nodes":"43","size_leaf_vector":"1"}},{"base_weights":[1.1713156E0,-1.9999985E0,3.1316814E1,-4.5810065E0,5.07699E0,1.2853733E1,2.9304485E0,1.131394E0,-6.006807E0,2.0063309E1,1.2246401E0,1.01396516E-1,1.2468188E0,8.662916E0,-4.1972413E0,-7.3330135E0,-2.7583044E0,1.531174E0,2.1996127E-1,-1.627025E0,7.843172E-1,9.2200613E-1,-1.8742965E-1,-7.695036E0,3.5028458E-3,-8.00075E0,1.7300181E-1,3.2667145E-1,-5.7636056E0,2.6834795E0,-7.870295E0,-5.074889E-1,-1.9788939E-1,-3.0205092E-1,-5.0517076E-1,-3.7350258E-1,1.153594E-1,2.9347506E-1,-1.8163629E-1,-2.0339186E-1,-5.81979E-1],"categories":[],"categories_nodes":[],"categories_segments":[],"categories_sizes":[],"default_left":[0,0,0,0,0,0,0,0,0,0,0,0,0,0,0,0,0,0,0,0,0,0,0,0,0,0,0,0,0,0,0,0,0,0,0,0,0,0,0,0,0],"id":39,"left_children":[1,3,5,7,9,11,-1,13,15,17,19,-1,-1,21,23,25,27,-1,-1,29,-1,-1,-1,31,-1,33,-1,-1,35,37,39,-1,-1,-1,-1,-1,-1,-1,-1,-1,-1],"loss_changes":[2.3102438E4,4.0234604E3,1.0836293E4,1.3180994E3,3.38165E3,1.9114956E3,0E0,1.3607407E3,5.355293E2,1.8502646E3,2.005039E3,0E0,0E0,1.7680228E3,2.9906177E2,6.835112E2,1.12671E3,0E0,0E0,1.1244971E3,0E0,0E0,0E0,6.0743103E1,0E0,2.933418E2,0E0,0E0,4.3040613E2,5.2441144E2,1.9630542E2,0E0,0E0,0E0,0E0,0E0,0E0,0E0,0E0,0E0,0E0],"parents":[2147483647,0,0,1,1,2,2,3,3,4,4,5,5,7,7,8,8,9,9,10,10,13,13,14,14,15,15,16,16,19,19,23,23,25,25,28,28,29,29,30,30],"right_children":[2,4,6,8,10,12,-1,14,16,18,20,-1,-1,22,24,26,28,-1,-1,30,-1,-1,-1,32,-1,34,-1,-1,36,38,40,-1,-1,-1,-1,-1,-1,-1,-1,-1,-1],"split_conditions":[9.159778E-1,1.0299E2,1.213E1,2.152E1,1.1717E2,4.4105713E1,2.9304485E0,6.1633335E1,1.836E2,3.436E1,7.346936E1,1.01396516E-1,1.2468188E0,3.068E1,7.685E1,1E0,2.021E2,1.531174E0,2.1996127E-1,2.841E1,7.843172E-1,9.2200613E-1,-1.8742965E-1,9.05E0,3.5028458E-3,4.329E1,1.7300181E-1,3.2667145E-1,9.762E1,1.6144E2,1.2495E2,-5.074889E-1,-1.9788939E-1,-3.0205092E-1,-5.0517076E-1,-3.7350258E-1,1.153594E-1,2.9347506E-1,-1.8163629E-1,-2.0339186E-1,-5.81979E-1],"split_indices":[40,29,8,4,32,31,0,27,21,7,37,0,0,8,17,41,21,0,0,4,0,0,0,4,0,19,0,0,29,16,16,0,0,0,0,0,0,0,0,0,0],"split_type":[0,0,0,0,0,0,0,0,0,0,0,0,0,0,0,0,0,0,0,0,0,0,0,0,0,0,0,0,0,0,0,0,0,0,0,0,0,0,0,0,0],"sum_hessian":[2.4E2,2.18E2,2.2E1,1.6E2,5.8E1,1.4E1,8E0,3.2E1,1.28E2,1.1E1,4.7E1,8E0,6E0,1.3E1,1.9E1,9E1,3.8E1,6E0,5E0,4E1,7E0,7E0,6E0,1E1,9E0,8.5E1,5E0,9E0,2.9E1,2.4E1,1.6E1,5E0,5E0,4.6E1,3.9E1,2.4E1,5E0,1.6E1,8E0,9E0,7E0],"tree_param":{"num_deleted":"0","num_feature":"54","num_nodes":"41","size_leaf_vector":"1"}},{"base_weights":[-1.3153593E-1,-1.6946673E0,2.4842079E0,-5.376934E0,4.015366E0,4.4945188E0,-6.368482E0,1.4137911E1,1.569552E0,6.063443E-1,-3.2155284E-1,-8.007768E0,-3.2059689E0,1.5604013E-1,1.8468306E1,7.4332076E-1,-3.248437E-1,-1.0635847E1,-4.5950284E0,-5.9054174E0,3.0003793E0,1.3138298E0,4.5685798E-1,-4.9731812E0,4.4789057E0,-8.199067E-1,-4.4733772E-1,-3.2249507E-1,2.1379212E-1,-4.5609582E-2,-3.8012657E-1,4.3324763E-1,-1.951022E-1,-3.7691054E-1,3.91291E-1,-2.8801504E-1,4.697461E-1],"categories":[],"categories_nodes":[],"categories_segments":[],"categories_sizes":[],"default_left":[0,0,0,0,0,0,0,0,0,0,0,0,0,0,0,0,0,0,0,0,0,0,0,0,0,0,0,0,0,0,0,0,0,0,0,0,0],"id":40,"left_children":[1,3,-1,5,7,9,11,13,15,-1,-1,17,19,-1,21,-1,23,25,27,29,31,-1,-1,33,35,-1,-1,-1,-1,-1,-1,-1,-1,-1,-1,-1,-1],"loss_changes":[1.7916078E4,4.710359E3,0E0,1.3597937E3,2.156502E3,1.1620327E3,6.171753E2,7.534075E2,1.8184746E3,0E0,0E0,6.776133E2,7.5488196E2,0E0,6.3423E2,0E0,1.4513593E3,2.9127637E2,6.363894E2,2.5576135E2,5.812009E2,0E0,0E0,1.1423767E3,1.664873E3,0E0,0E0,0E0,0E0,0E0,0E0,0E0,0E0,0E0,0E0,0E0,0E0],"parents":[2147483647,0,0,1,1,3,3,4,4,5,5,6,6,7,7,8,8,11,11,12,12,14,14,16,16,17,17,18,18,19,19,20,20,23,23,24,24],"right_children":[2,4,-1,6,8,10,12,14,16,-1,-1,18,20,-1,22,-1,24,26,28,30,32,-1,-1,34,36,-1,-1,-1,-1,-1,-1,-1,-1,-1,-1,-1,-1],"split_conditions":[9.905454E-1,7.615E1,2.4842079E0,1.364E1,3.634816E-1,2.7008E2,2.293E2,2.839E2,7.664429E1,6.063443E-1,-3.2155284E-1,1.18E0,4.045E1,1.5604013E-1,1.8435E2,7.4332076E-1,7.0238024E-1,8.8E-1,5.804E1,2.3905E2,4.812E1,1.3138298E0,4.5685798E-1,3.839E2,2.143E1,-8.199067E-1,-4.4733772E-1,-3.2249507E-1,2.1379212E-1,-4.5609582E-2,-3.8012657E-1,4.3324763E-1,-1.951022E-1,-3.7691054E-1,3.91291E-1,-2.8801504E-1,4.697461E-1],"split_indices":[40,27,0,4,39,0,11,23,33,0,0,10,3,0,17,0,48,10,18,11,20,0,0,25,3,0,0,0,0,0,0,0,0,0,0,0,0],"split_type":[0,0,0,0,0,0,0,0,0,0,0,0,0,0,0,0,0,0,0,0,0,0,0,0,0,0,0,0,0,0,0,0,0,0,0,0,0],"sum_hessian":[2.28E2,2.22E2,6E0,1.35E2,8.7E1,1.2E1,1.23E2,1.6E1,7.1E1,7E0,5E0,8E1,4.3E1,5E0,1.1E1,8E0,6.3E1,4.4E1,3.6E1,3E1,1.3E1,5E0,6E0,3.2E1,3.1E1,8E0,3.6E1,3E1,6E0,8E0,2.2E1,7E0,6E0,2.7E1,5E0,1E1,2.1E1],"tree_param":{"num_deleted":"0","num_feature":"54","num_nodes":"37","size_leaf_vector":"1"}},{"base_weights":[1.8280749E-1,-4.20589E0,9.067635E0,-6.2064185E0,6.746648E-1,1.8080774E1,3.5879922E0,-1.7651784E0,-7.1798315E0,-5.0045204E0,4.56808E0,9.778798E0,2.198086E0,1.0295969E0,9.761125E-1,-6.7562737E0,3.8401237E0,-7.888633E0,