{"learner":{"attributes":{"best_iteration":"96","best_score":"40.10856773613964","scikit_learn":"{\"_estimator_type\": \"regressor\"}"},"feature_names":[],"feature_types":[],"gradient_booster":{"model":{"cats":{"enc":[],"feature_segments":[],"sorted_idx":[]},"gbtree_model_param":{"num_parallel_tree":"1","num_trees":"147"},"iteration_indptr":[0,1,2,3,4,5,6,7,8,9,10,11,12,13,14,15,16,17,18,19,20,21,22,23,24,25,26,27,28,29,30,31,32,33,34,35,36,37,38,39,40,41,42,43,44,45,46,47,48,49,50,51,52,53,54,55,56,57,58,59,60,61,62,63,64,65,66,67,68,69,70,71,72,73,74,75,76,77,78,79,80,81,82,83,84,85,86,87,88,89,90,91,92,93,94,95,96,97,98,99,100,101,102,103,104,105,106,107,108,109,110,111,112,113,114,115,116,117,118,119,120,121,122,123,124,125,126,127,128,129,130,131,132,133,134,135,136,137,138,139,140,141,142,143,144,145,146,147],"tree_info":[0,0,0,0,0,0,0,0,0,0,0,0,0,0,0,0,0,0,0,0,0,0,0,0,0,0,0,0,0,0,0,0,0,0,0,0,0,0,0,0,0,0,0,0,0,0,0,0,0,0,0,0,0,0,0,0,0,0,0,0,0,0,0,0,0,0,0,0,0,0,0,0,0,0,0,0,0,0,0,0,0,0,0,0,0,0,0,0,0,0,0,0,0,0,0,0,0,0,0,0,0,0,0,0,0,0,0,0,0,0,0,0,0,0,0,0,0,0,0,0,0,0,0,0,0,0,0,0,0,0,0,0,0,0,0,0,0,0,0,0,0,0,0,0,0,0,0],"trees":[{"base_weights":[1.2701385E-2,-4.9799267E1,1.09030716E2,-6.745692E1,-5.4206085E0,7.2943115E1,1.7603978E2,-7.327052E1,-3.9964115E1,1.6360231E1,-3.335704E1,3.7125885E1,1.0218434E2,2.4093056E1,1.6860364E2,3.4853527E1,-7.469392E1,-2.5202211E1,-5.6211754E1,1.2355127E0,3.1289112E1,-4.5940777E1,-5.7134995E0,4.9017456E1,-2.4658628E0,3.6958295E2,9.957539E1,1.9338428E2,1.1111789E2,-7.577438E1,2.9201715E2,-8.4092705E1,-6.596615E1,-3.8800266E1,-4.3862195E0,-6.0469875E1,-2.5990166E1,-1.0826576E1,1.3735628E1,7.320333E1,2.3602322E1,-6.035747E1,-3.79958E1,-3.4375183E1,5.897772E0,3.683436E1,8.134562E1,-3.585599E1,1.3872816E1,1.1009567E1,2.3952671E1,7.590667E1,1.2096559E2,1.4521861E2,2.1457489E2,1.2416209E2,6.327388E1,-3.9747102E0,-2.7498374E0,2.239863E1,-2.8612382E0,-4.3983674E0,-3.842161E0,-1.9866968E0,-3.4659417E0,-2.3008044E0,-1.1448205E0,-7.3007417E-1,2.6956947E0,-2.6323326E0,-3.6026444E0,-7.3922473E-1,-3.5085022E0,-1.2023057E0,-1.2054888E-1,3.5941734E0,5.2828944E-1,2.8576536E0,5.658113E0,2.105622E0,7.498329E-1,-3.2414386E0,-2.2333088E0,-1.3361678E0,-2.4258747E0,1.4709358E0,-1.8813406E0,-3.72381E-1,1.6508465E0,-7.492189E-1,2.0750716E0,4.857334E0,1.3527845E0,-2.4344654E0,-7.703363E-1,1.365438E-1,2.584374E0,2.4499822E0,4.2985616E0,5.510329E0,8.309302E0,8.695322E0,5.7872767E0,1.2521335E1,9.736326E0,5.930921E0,1.1008949E1,1.2225622E0,4.2174277E0],"categories":[],"categories_nodes":[],"categories_segments":[],"categories_sizes":[],"default_left":[0,0,0,0,0,0,0,0,0,0,0,0,0,0,0,0,0,0,0,0,0,0,0,0,0,0,0,0,0,0,0,0,0,0,0,0,0,0,0,0,0,0,0,0,0,0,0,0,0,0,0,0,0,0,0,0,0,0,0,0,0,0,0,0,0,0,0,0,0,0,0,0,0,0,0,0,0,0,0,0,0,0,0,0,0,0,0,0,0,0,0,0,0,0,0,0,0,0,0,0,0,0,0,0,0,0,0,0,0],"id":0,"left_children":[1,3,5,7,9,11,13,15,17,19,21,23,25,-1,27,29,31,33,35,37,39,41,43,45,47,49,51,53,55,57,59,61,63,65,67,69,71,73,75,77,79,81,83,85,87,89,91,93,95,-1,-1,97,99,101,103,105,107,-1,-1,-1,-1,-1,-1,-1,-1,-1,-1,-1,-1,-1,-1,-1,-1,-1,-1,-1,-1,-1,-1,-1,-1,-1,-1,-1,-1,-1,-1,-1,-1,-1,-1,-1,-1,-1,-1,-1,-1,-1,-1,-1,-1,-1,-1,-1,-1,-1,-1,-1,-1],"loss_changes":[1.2202114E8,1.2085452E7,1.70282E7,1.7605E6,2.6723768E6,4.795118E6,5.526776E6,1.404048E6,4.6100625E5,5.572238E5,6.690185E5,9.7045625E5,1.722618E6,0E0,3.410208E6,3.407615E6,7.3174E5,2.862835E5,1.164345E5,1.8515272E5,3.9842712E5,1.49129E5,2.008803E5,6.2126725E5,2.6072505E5,2.87012E5,1.256006E6,1.685588E6,4.46478E5,2.120375E3,1.9864172E6,1.14696E5,4.07526E5,6.917919E4,2.3960319E5,6.897175E4,5.589507E4,6.947347E4,1.1038508E5,1.1667181E5,1.6678419E5,2.9939625E4,1.00111E5,3.720042E4,1.5586969E5,2.794655E5,3.68816E5,4.0451688E4,1.3510538E5,0E0,0E0,3.177775E5,6.19522E5,4.17003E5,7.8096E5,2.77818E5,1.2720906E5,0E0,0E0,0E0,0E0,0E0,0E0,0E0,0E0,0E0,0E0,0E0,0E0,0E0,0E0,0E0,0E0,0E0,0E0,0E0,0E0,0E0,0E0,0E0,0E0,0E0,0E0,0E0,0E0,0E0,0E0,0E0,0E0,0E0,0E0,0E0,0E0,0E0,0E0,0E0,0E0,0E0,0E0,0E0,0E0,0E0,0E0,0E0,0E0,0E0,0E0,0E0,0E0],"parents":[2147483647,0,0,1,1,2,2,3,3,4,4,5,5,6,6,7,7,8,8,9,9,10,10,11,11,12,12,14,14,15,15,16,16,17,17,18,18,19,19,20,20,21,21,22,22,23,23,24,24,25,25,26,26,27,27,28,28,29,29,30,30,31,31,32,32,33,33,34,34,35,35,36,36,37,37,38,38,39,39,40,40,41,41,42,42,43,43,44,44,45,45,46,46,47,47,48,48,51,51,52,52,53,53,54,54,55,55,56,56],"right_children":[2,4,6,8,10,12,14,16,18,20,22,24,26,-1,28,30,32,34,36,38,40,42,44,46,48,50,52,54,56,58,60,62,64,66,68,70,72,74,76,78,80,82,84,86,88,90,92,94,96,-1,-1,98,100,102,104,106,108,-1,-1,-1,-1,-1,-1,-1,-1,-1,-1,-1,-1,-1,-1,-1,-1,-1,-1,-1,-1,-1,-1,-1,-1,-1,-1,-1,-1,-1,-1,-1,-1,-1,-1,-1,-1,-1,-1,-1,-1,-1,-1,-1,-1,-1,-1,-1,-1,-1,-1,-1,-1],"split_conditions":[1.365E2,7.4E1,2.65E2,7.625E1,2.482E1,8.660254E-1,-9.640935E-1,3.3333334E-1,1.3118976E3,2.855E2,9.75E1,2.772E1,1E0,2.4093056E1,2.4893981E-1,5.72E1,3.5E1,2.812E2,2.9343396E-1,9.975E1,1.132E1,1.316E2,-4.6230483E-1,2.07E2,-4.6230483E-1,3.19E2,2.94E2,4.6025E2,1.1915905E3,3.35E1,8.75E-1,-7.5189576E-2,2.45E1,5.9E1,8.760579E-1,1.7952983E3,7.5515515E-1,5.92E1,8.38E0,3.829E2,5.1584367E-2,7.411742E-2,3.035E1,2.635E1,1.6175E2,-6.60399E-1,1.2E0,7.465881E-1,1.7525E2,1.1009567E1,2.3952671E1,1.37E2,4.49E2,6.75E-1,2.022E3,3.678E1,1.8E0,-3.9747102E0,-2.7498374E0,2.239863E1,-2.8612382E0,-4.3983674E0,-3.842161E0,-1.9866968E0,-3.4659417E0,-2.3008044E0,-1.1448205E0,-7.3007417E-1,2.6956947E0,-2.6323326E0,-3.6026444E0,-7.3922473E-1,-3.5085022E0,-1.2023057E0,-1.2054888E-1,3.5941734E0,5.2828944E-1,2.8576536E0,5.658113E0,2.105622E0,7.498329E-1,-3.2414386E0,-2.2333088E0,-1.3361678E0,-2.4258747E0,1.4709358E0,-1.8813406E0,-3.72381E-1,1.6508465E0,-7.492189E-1,2.0750716E0,4.857334E0,1.3527845E0,-2.4344654E0,-7.703363E-1,1.365438E-1,2.584374E0,2.4499822E0,4.2985616E0,5.510329E0,8.309302E0,8.695322E0,5.7872767E0,1.2521335E1,9.736326E0,5.930921E0,1.1008949E1,1.2225622E0,4.2174277E0],"split_indices":[15,15,15,21,8,44,42,30,55,27,21,8,56,0,41,4,15,27,42,15,8,27,42,15,42,27,0,0,55,15,10,41,8,15,42,55,54,9,8,28,41,42,8,8,21,53,10,41,21,0,0,21,0,10,50,5,6,0,0,0,0,0,0,0,0,0,0,0,0,0,0,0,0,0,0,0,0,0,0,0,0,0,0,0,0,0,0,0,0,0,0,0,0,0,0,0,0,0,0,0,0,0,0,0,0,0,0,0,0],"split_type":[0,0,0,0,0,0,0,0,0,0,0,0,0,0,0,0,0,0,0,0,0,0,0,0,0,0,0,0,0,0,0,0,0,0,0,0,0,0,0,0,0,0,0,0,0,0,0,0,0,0,0,0,0,0,0,0,0,0,0,0,0,0,0,0,0,0,0,0,0,0,0,0,0,0,0,0,0,0,0,0,0,0,0,0,0,0,0,0,0,0,0,0,0,0,0,0,0,0,0,0,0,0,0,0,0,0,0,0,0],"sum_hessian":[2.2468E4,1.5422E4,7.046E3,1.1032E4,4.39E3,4.581E3,2.465E3,9.105E3,1.927E3,2.467E3,1.923E3,2.06E3,2.521E3,5.7E1,2.408E3,1.18E2,8.987E3,1.011E3,9.16E2,1.226E3,1.241E3,1.321E3,6.02E2,1.584E3,4.76E2,2.3E1,2.498E3,1.681E3,7.27E2,8.3E1,3.5E1,4.323E3,4.664E3,6.11E2,4E2,8.02E2,1.14E2,6.24E2,6.02E2,1.91E2,1.05E3,4.67E2,8.54E2,1.73E2,4.29E2,1.152E3,4.32E2,1.56E2,3.2E2,1.1E1,1.2E1,1.188E3,1.31E3,5.16E2,1.165E3,5.7E2,1.57E2,6.8E1,1.5E1,2.4E1,1.1E1,2.81E3,1.513E3,5.3E2,4.134E3,4.19E2,1.92E2,3.41E2,5.9E1,4.82E2,3.2E2,9.2E1,2.2E1,2.42E2,3.82E2,3E1,5.72E2,1.38E2,5.3E1,3.32E2,7.18E2,3.61E2,1.06E2,4.14E2,4.4E2,8E0,1.65E2,2.88E2,1.41E2,9.5E1,1.057E3,3.34E2,9.8E1,9.5E1,6.1E1,2.48E2,7.2E1,3.25E2,8.63E2,1.061E3,2.49E2,2.59E2,2.57E2,4.11E2,7.54E2,5.41E2,2.9E1,5.6E1,1.01E2],"tree_param":{"num_deleted":"0","num_feature":"59","num_nodes":"109","size_leaf_vector":"1"}},{"base_weights":[3.8722834E-1,-4.6791534E1,1.03536896E2,-6.405629E1,-4.3512573E0,6.870434E1,1.6817604E2,-6.864007E1,-2.8534828E1,-2.6451519E1,1.8089745E1,1.8276186E1,8.453724E1,2.2941069E1,1.6051483E2,3.3501034E1,-6.977963E1,-1.3559647E1,-4.9117764E1,-4.0944435E1,-8.068183E0,6.725704E1,1.1753317E1,4.6879417E-1,4.2736298E1,3.8736017E2,8.268343E1,1.210052E2,1.9073137E2,-6.7030174E1,2.8536984E2,-7.763597E1,-5.926404E1,-3.100638E1,8.22339E0,-5.440612E1,-2.4066254E1,-5.1098873E1,-2.650973E1,-2.3672958E1,7.396681E0,5.081216E1,1.121516E2,-1.1133752E-1,2.8901127E1,-3.964159E1,8.550418E0,3.2095528E1,8.416554E1,1.0572353E1,2.5083723E1,5.4277725E1,9.517452E1,1.07799614E2,1.688292E2,1.6403221E2,2.2690971E2,-3.5409076E0,-9.2461836E-1,2.1340387E1,-2.7165258E0,-4.2004046E0,-3.697834E0,-3.2694263E0,-2.3552542E0,-1.9521679E0,-8.0041295E-1,-7.952541E-1,1.1306425E0,-3.3457172E0,-2.3234024E0,-5.4380405E-1,-2.66277E0,-2.197378E0,-3.2525635E0,-1.7434534E0,2.2013736E-1,-1.5228306E0,-3.544289E-1,6.641564E-1,-9.602979E-1,-1.1223848E-1,3.483374E0,4.782438E0,8.990945E0,-1.3521616E0,2.908592E-1,-1.5294951E0,1.6275879E0,-1.0171604E0,-2.7209802E0,-2.9699736E0,6.1542237E-1,2.709483E-1,2.1535647E0,5.721204E0,1.7229254E0,1.31347E0,3.1979377E0,4.111954E0,5.9805603E0,1.1199893E0,5.69392E0,1.5453117E1,7.4072785E0,1.884558E1,7.914493E0,1.1754877E1,5.3965793E0],"categories":[],"categories_nodes":[],"categories_segments":[],"categories_sizes":[],"default_left":[0,0,0,0,0,0,0,0,0,0,0,0,0,0,0,0,0,0,0,0,0,0,0,0,0,0,0,0,0,0,0,0,0,0,0,0,0,0,0,0,0,0,0,0,0,0,0,0,0,0,0,0,0,0,0,0,0,0,0,0,0,0,0,0,0,0,0,0,0,0,0,0,0,0,0,0,0,0,0,0,0,0,0,0,0,0,0,0,0,0,0,0,0,0,0,0,0,0,0,0,0,0,0,0,0,0,0,0,0],"id":1,"left_children":[1,3,5,7,9,11,13,15,17,19,21,23,25,-1,27,29,31,33,35,37,39,41,43,45,47,49,51,53,55,57,59,61,63,65,67,69,71,73,75,77,79,81,83,85,87,89,91,93,95,-1,-1,97,99,101,103,105,107,-1,-1,-1,-1,-1,-1,-1,-1,-1,-1,-1,-1,-1,-1,-1,-1,-1,-1,-1,-1,-1,-1,-1,-1,-1,-1,-1,-1,-1,-1,-1,-1,-1,-1,-1,-1,-1,-1,-1,-1,-1,-1,-1,-1,-1,-1,-1,-1,-1,-1,-1,-1],"loss_changes":[1.0958323E8,1.1320996E7,1.5900128E7,1.786324E6,2.216888E6,3.666416E6,5.4352E6,1.134524E6,3.867832E5,5.99666E5,6.9021625E5,4.7867228E5,1.930536E6,0E0,2.856476E6,2.7537615E6,7.90148E5,2.7730625E5,6.877325E4,1.8318475E5,2.4005281E5,1.8108762E5,3.999915E5,2.0682697E5,2.0140712E5,3.1621925E5,1.228182E6,6.43659E5,1.281276E6,1.30315E4,1.5126305E6,1.22804E5,3.03576E5,4.81935E4,1.13198266E5,4.0181625E4,3.561172E4,7.0777375E4,1.350424E5,5.5472906E4,7.8552625E4,1.8723222E5,5.7619625E4,1.8584922E5,1.7560831E5,2.9408453E4,1.3632603E5,1.08101E5,1.3743894E5,0E0,0E0,2.8682275E5,7.5291E5,4.25211E5,6.06833E5,9.04836E5,5.36724E5,0E0,0E0,0E0,0E0,0E0,0E0,0E0,0E0,0E0,0E0,0E0,0E0,0E0,0E0,0E0,0E0,0E0,0E0,0E0,0E0,0E0,0E0,0E0,0E0,0E0,0E0,0E0,0E0,0E0,0E0,0E0,0E0,0E0,0E0,0E0,0E0,0E0,0E0,0E0,0E0,0E0,0E0,0E0,0E0,0E0,0E0,0E0,0E0,0E0,0E0,0E0,0E0],"parents":[2147483647,0,0,1,1,2,2,3,3,4,4,5,5,6,6,7,7,8,8,9,9,10,10,11,11,12,12,14,14,15,15,16,16,17,17,18,18,19,19,20,20,21,21,22,22,23,23,24,24,25,25,26,26,27,27,28,28,29,29,30,30,31,31,32,32,33,33,34,34,35,35,36,36,37,37,38,38,39,39,40,40,41,41,42,42,43,43,44,44,45,45,46,46,47,47,48,48,51,51,52,52,53,53,54,54,55,55,56,56],"right_children":[2,4,6,8,10,12,14,16,18,20,22,24,26,-1,28,30,32,34,36,38,40,42,44,46,48,50,52,54,56,58,60,62,64,66,68,70,72,74,76,78,80,82,84,86,88,90,92,94,96,-1,-1,98,100,102,104,106,108,-1,-1,-1,-1,-1,-1,-1,-1,-1,-1,-1,-1,-1,-1,-1,-1,-1,-1,-1,-1,-1,-1,-1,-1,-1,-1,-1,-1,-1,-1,-1,-1,-1,-1,-1,-1,-1,-1,-1,-1,-1,-1,-1,-1,-1,-1,-1,-1,-1,-1,-1,-1],"split_conditions":[1.365E2,7.4E1,2.65E2,9.55E1,9.675E1,4.179029E-1,-9.640935E-1,3.3333334E-1,1.3118976E3,2.228204E-1,8.148E2,1.37E2,1E0,2.2941069E1,1.1E1,5.72E1,4E1,1.085E2,2.9343396E-1,7.15E1,5.655E1,4.5614222E-1,1.4133E2,-6.474428E-1,2.095E2,1.4175E2,1.45E2,9.701047E-1,5.448E2,7.111702E1,2.4585452E0,2.9302084E1,-1.3185851E-1,2.08E1,4.025E0,3.65E1,3.6756933E-1,1.901832E3,5.098684E1,3.1E0,2.024E3,6.053E1,4.305E1,-2.4365015E-1,-4.6230483E-1,8.2072914E1,2.9341146E1,9.785E2,6.88E0,1.0572353E1,2.5083723E1,5.0375E1,3.825E2,-4.6230483E-1,2.022E3,5.385836E-1,9.946781E-1,-3.5409076E0,-9.2461836E-1,2.1340387E1,-2.7165258E0,-4.2004046E0,-3.697834E0,-3.2694263E0,-2.3552542E0,-1.9521679E0,-8.0041295E-1,-7.952541E-1,1.1306425E0,-3.3457172E0,-2.3234024E0,-5.4380405E-1,-2.66277E0,-2.197378E0,-3.2525635E0,-1.7434534E0,2.2013736E-1,-1.5228306E0,-3.544289E-1,6.641564E-1,-9.602979E-1,-1.1223848E-1,3.483374E0,4.782438E0,8.990945E0,-1.3521616E0,2.908592E-1,-1.5294951E0,1.6275879E0,-1.0171604E0,-2.7209802E0,-2.9699736E0,6.1542237E-1,2.709483E-1,2.1535647E0,5.721204E0,1.7229254E0,1.31347E0,3.1979377E0,4.111954E0,5.9805603E0,1.1199893E0,5.69392E0,1.5453117E1,7.4072785E0,1.884558E1,7.914493E0,1.1754877E1,5.3965793E0],"split_indices":[15,15,15,21,21,42,42,30,55,42,55,21,56,0,49,4,15,20,42,20,9,54,20,42,15,21,21,42,0,39,33,38,42,2,5,15,54,55,39,1,50,9,7,53,42,38,39,13,7,0,0,9,22,42,50,42,42,0,0,0,0,0,0,0,0,0,0,0,0,0,0,0,0,0,0,0,0,0,0,0,0,0,0,0,0,0,0,0,0,0,0,0,0,0,0,0,0,0,0,0,0,0,0,0,0,0,0,0,0],"split_type":[0,0,0,0,0,0,0,0,0,0,0,0,0,0,0,0,0,0,0,0,0,0,0,0,0,0,0,0,0,0,0,0,0,0,0,0,0,0,0,0,0,0,0,0,0,0,0,0,0,0,0,0,0,0,0,0,0,0,0,0,0,0,0,0,0,0,0,0,0,0,0,0,0,0,0,0,0,0,0,0,0,0,0,0,0,0,0,0,0,0,0,0,0,0,0,0,0,0,0,0,0,0,0,0,0,0,0,0,0],"sum_hessian":[2.2516E4,1.545E4,7.066E3,1.0982E4,4.468E3,4.593E3,2.473E3,9.726E3,1.256E3,2.251E3,2.217E3,1.098E3,3.495E3,6.2E1,2.411E3,1.07E2,9.619E3,7.28E2,5.28E2,1.258E3,9.93E2,2.52E2,1.965E3,6.36E2,4.62E2,2E1,3.475E3,1.047E3,1.364E3,7.7E1,3E1,5.502E3,4.117E3,4.04E2,3.24E2,4.35E2,9.3E1,7.37E2,5.21E2,4.94E2,4.99E2,1.86E2,6.6E1,1.162E3,8.03E2,1.06E2,5.3E2,3.69E2,9.3E1,9E0,1.1E1,1.063E3,2.412E3,8.23E2,2.24E2,7.88E2,5.76E2,7.1E1,6E0,2.1E1,9E0,2.006E3,3.496E3,2.735E3,1.382E3,2.62E2,1.42E2,1.21E2,2.03E2,1.66E2,2.69E2,6.5E1,2.8E1,4.9E2,2.47E2,4.1E2,1.11E2,3.5E2,1.44E2,4.09E2,9E1,4.9E1,1.37E2,5.5E1,1.1E1,2.09E2,9.53E2,4.6E1,7.57E2,4.7E1,5.9E1,2.7E1,5.03E2,1.08E2,2.61E2,5.7E1,3.6E1,2.74E2,7.89E2,1.58E3,8.32E2,5.5E1,7.68E2,2.7E1,1.97E2,1.9E1,7.69E2,5.38E2,3.8E1],"tree_param":{"num_deleted":"0","num_feature":"59","num_nodes":"109","size_leaf_vector":"1"}},{"base_weights":[-1.7679973E-1,-4.4584183E1,9.75182E1,-6.1146152E1,-4.8285494E0,5.9865974E1,1.5109303E2,-6.580085E1,-3.1019398E1,1.561821E1,-3.1123636E1,1.3679636E1,7.5321846E1,2.1788372E1,1.4511531E2,3.607556E1,-6.6742355E1,-4.1234566E1,-9.232075E0,1.693118E0,2.8644648E1,-4.2116558E1,-5.859401E0,-3.6206677E0,3.631713E1,9.052924E1,4.6128326E1,1.6891637E2,9.333545E1,-7.1387856E1,3.3820804E2,-7.417393E1,-5.801898E1,-5.860809E1,-3.4498734E1,-1.8399015E1,4.0496334E1,-1.1447426E1,1.2505404E1,4.3922215E1,9.980983E0,-5.036113E1,-2.794899E1,-3.1160015E1,5.5886154E0,1.8120691E1,-2.0143675E1,2.6126827E1,6.559753E1,2.998798E2,8.8400055E1,8.4990364E1,2.9783014E1,1.4561913E2,2.0804893E2,6.5019745E1,1.101582E2,-3.9356961E0,-2.7293746E0,2.10883E1,1.558304E0,-3.9064744E0,-3.353073E0,-1.8128775E0,-3.0753965E0,-3.1894162E0,-1.5660108E0,-3.6793296E0,-1.5731419E0,-1.5254687E0,4.001716E-1,1.4419928E0,8.292686E0,-3.2399604E-1,-1.3876067E0,6.2661753E0,4.881967E-1,1.9774662E0,4.6764274E0,1.0356306E0,-3.509563E-1,-2.0567E0,-2.789255E0,-1.7272347E0,-2.9658347E-1,8.3002055E-1,-1.7698525E0,-2.5955483E-1,1.5362657E0,-3.1777852E0,1.1039761E0,-1.8293055E0,-4.5963738E-2,1.9991568E0,1.319607E-1,4.084919E0,-3.0893695E-1,9.99645E0,1.8991886E1,3.8497002E0,6.1753383E0,-1.4462692E0,4.622533E0,7.5676036E-1,2.7220082E0,2.5942762E0,7.5769744E0,1.2325613E1,9.338722E0,1.4070148E0,3.7937627E0,6.6632195E0,4.139527E0],"categories":[],"categories_nodes":[],"categories_segments":[],"categories_sizes":[],"default_left":[0,0,0,0,0,0,0,0,0,0,0,0,0,0,0,0,0,0,0,0,0,0,0,0,0,0,0,0,0,0,0,0,0,0,0,0,0,0,0,0,0,0,0,0,0,0,0,0,0,0,0,0,0,0,0,0,0,0,0,0,0,0,0,0,0,0,0,0,0,0,0,0,0,0,0,0,0,0,0,0,0,0,0,0,0,0,0,0,0,0,0,0,0,0,0,0,0,0,0,0,0,0,0,0,0,0,0,0,0,0,0,0,0],"id":2,"left_children":[1,3,5,7,9,11,13,15,17,19,21,23,25,-1,27,29,31,33,35,37,39,41,43,45,47,49,51,53,55,57,59,61,63,65,67,69,71,73,75,77,79,81,83,85,87,89,91,93,95,97,99,101,103,105,107,109,111,-1,-1,-1,-1,-1,-1,-1,-1,-1,-1,-1,-1,-1,-1,-1,-1,-1,-1,-1,-1,-1,-1,-1,-1,-1,-1,-1,-1,-1,-1,-1,-1,-1,-1,-1,-1,-1,-1,-1,-1,-1,-1,-1,-1,-1,-1,-1,-1,-1,-1,-1,-1,-1,-1,-1,-1],"loss_changes":[9.733155E7,1.0155354E7,1.4133632E7,1.5248E6,2.439801E6,2.939318E6,4.859804E6,9.06908E5,3.2433612E5,4.630512E5,5.5104275E5,4.050827E5,1.365878E6,0E0,3.478128E6,2.8488765E6,6.01452E5,1.14184125E5,2.1363052E5,1.7561111E5,3.7565512E5,1.601345E5,1.7482817E5,2.1123458E5,1.3195862E5,8.77464E5,6.70158E5,1.739276E6,4.19169E5,3.7034062E3,5.7693875E5,1.36612E5,3.24473E5,3.7016875E4,8.28875E4,1.2654269E5,1.0188631E5,4.501465E4,2.0847328E5,1.5357012E5,1.086965E5,4.1397E4,7.4002375E4,3.863175E4,1.12881516E5,8.353242E4,1.0554242E5,1.0859533E5,1.3340553E5,8.3896625E4,7.94952E5,2.686755E5,2.689723E5,6.6916E5,5.44762E5,1.3238075E5,3.430895E5,0E0,0E0,0E0,0E0,0E0,0E0,0E0,0E0,0E0,0E0,0E0,0E0,0E0,0E0,0E0,0E0,0E0,0E0,0E0,0E0,0E0,0E0,0E0,0E0,0E0,0E0,0E0,0E0,0E0,0E0,0E0,0E0,0E0,0E0,0E0,0E0,0E0,0E0,0E0,0E0,0E0,0E0,0E0,0E0,0E0,0E0,0E0,0E0,0E0,0E0,0E0,0E0,0E0,0E0,0E0,0E0],"parents":[2147483647,0,0,1,1,2,2,3,3,4,4,5,5,6,6,7,7,8,8,9,9,10,10,11,11,12,12,14,14,15,15,16,16,17,17,18,18,19,19,20,20,21,21,22,22,23,23,24,24,25,25,26,26,27,27,28,28,29,29,30,30,31,31,32,32,33,33,34,34,35,35,36,36,37,37,38,38,39,39,40,40,41,41,42,42,43,43,44,44,45,45,46,46,47,47,48,48,49,49,50,50,51,51,52,52,53,53,54,54,55,55,56,56],"right_children":[2,4,6,8,10,12,14,16,18,20,22,24,26,-1,28,30,32,34,36,38,40,42,44,46,48,50,52,54,56,58,60,62,64,66,68,70,72,74,76,78,80,82,84,86,88,90,92,94,96,98,100,102,104,106,108,110,112,-1,-1,-1,-1,-1,-1,-1,-1,-1,-1,-1,-1,-1,-1,-1,-1,-1,-1,-1,-1,-1,-1,-1,-1,-1,-1,-1,-1,-1,-1,-1,-1,-1,-1,-1,-1,-1,-1,-1,-1,-1,-1,-1,-1,-1,-1,-1,-1,-1,-1,-1,-1,-1,-1,-1,-1],"split_conditions":[1.365E2,7.25E1,2.46E2,8.8E1,2.482E1,4.179029E-1,-9.640935E-1,1.1283954E0,1.085E2,2.556E2,9.75E1,1.35E2,3.634816E-1,2.1788372E1,2.4893981E-1,2.525E1,3.8E1,-7.105196E-1,8.760579E-1,9.675E1,5.175855E-1,7.425E1,-4.4698343E-1,2.5339048E1,2.0833333E2,1E0,1.268E1,5.46E2,1.8966667E2,1.168E1,1.04E2,-2.3651127E-2,2.4911903E1,3.3325E1,2.15E1,8.916402E-1,2.024E3,2.27E1,9.75E1,2.024E3,3.803E1,2.955E1,5.8910717E1,2.635E1,1.66E2,-5.5205756E-1,8.550745E-1,2.668E1,2.76E2,3.179E2,3.823E2,-5.7369107E-1,1.9966667E2,3.6613354E1,2.022E3,3.995E2,7.88E1,-3.9356961E0,-2.7293746E0,2.10883E1,1.558304E0,-3.9064744E0,-3.353073E0,-1.8128775E0,-3.0753965E0,-3.1894162E0,-1.5660108E0,-3.6793296E0,-1.5731419E0,-1.5254687E0,4.001716E-1,1.4419928E0,8.292686E0,-3.2399604E-1,-1.3876067E0,6.2661753E0,4.881967E-1,1.9774662E0,4.6764274E0,1.0356306E0,-3.509563E-1,-2.0567E0,-2.789255E0,-1.7272347E0,-2.9658347E-1,8.3002055E-1,-1.7698525E0,-2.5955483E-1,1.5362657E0,-3.1777852E0,1.1039761E0,-1.8293055E0,-4.5963738E-2,1.9991568E0,1.319607E-1,4.084919E0,-3.0893695E-1,9.99645E0,1.8991886E1,3.8497002E0,6.1753383E0,-1.4462692E0,4.622533E0,7.5676036E-1,2.7220082E0,2.5942762E0,7.5769744E0,1.2325613E1,9.338722E0,1.4070148E0,3.7937627E0,6.6632195E0,4.139527E0],"split_indices":[15,15,15,21,8,42,42,33,20,14,21,21,41,0,41,7,15,42,42,21,41,20,42,8,31,56,8,0,20,7,26,41,8,3,29,41,50,8,21,50,2,8,39,8,21,53,41,8,37,28,14,53,20,39,50,0,4,0,0,0,0,0,0,0,0,0,0,0,0,0,0,0,0,0,0,0,0,0,0,0,0,0,0,0,0,0,0,0,0,0,0,0,0,0,0,0,0,0,0,0,0,0,0,0,0,0,0,0,0,0,0,0,0],"split_type":[0,0,0,0,0,0,0,0,0,0,0,0,0,0,0,0,0,0,0,0,0,0,0,0,0,0,0,0,0,0,0,0,0,0,0,0,0,0,0,0,0,0,0,0,0,0,0,0,0,0,0,0,0,0,0,0,0,0,0,0,0,0,0,0,0,0,0,0,0,0,0,0,0,0,0,0,0,0,0,0,0,0,0,0,0,0,0,0,0,0,0,0,0,0,0,0,0,0,0,0,0,0,0,0,0,0,0,0,0,0,0,0,0],"sum_hessian":[2.2433E4,1.5423E4,7.01E3,1.0887E4,4.536E3,4.118E3,2.892E3,9.429E3,1.458E3,2.552E3,1.984E3,1.033E3,3.085E3,5.8E1,2.834E3,8.6E1,9.343E3,9.92E2,4.66E2,1.234E3,1.318E3,1.382E3,6.02E2,5.86E2,4.47E2,2.027E3,1.058E3,1.94E3,8.94E2,6.4E1,2.2E1,5.041E3,4.302E3,2.75E2,7.17E2,3.94E2,7.2E1,5.57E2,6.77E2,7.24E2,5.94E2,8.72E2,5.1E2,1.87E2,4.15E2,2.53E2,3.33E2,3.33E2,1.14E2,1.9E1,2.008E3,3.12E2,7.46E2,1.219E3,7.21E2,3.35E2,5.59E2,4.2E1,2.2E1,1.7E1,5E0,3.233E3,1.808E3,5.96E2,3.706E3,2.3E2,4.5E1,5E1,6.67E2,2.7E2,1.24E2,6.7E1,5E0,4.28E2,1.29E2,1.5E1,6.62E2,6.67E2,5.7E1,3.64E2,2.3E2,3.26E2,5.46E2,3.92E2,1.18E2,1.5E1,1.72E2,2.91E2,1.24E2,1.1E1,2.42E2,1.79E2,1.54E2,2.09E2,1.24E2,9.3E1,2.1E1,1E1,9E0,1.518E3,4.9E2,1.9E1,2.93E2,4.69E2,2.77E2,7.3E1,1.146E3,2.53E2,4.68E2,7.7E1,2.58E2,3.01E2,2.58E2],"tree_param":{"num_deleted":"0","num_feature":"59","num_nodes":"113","size_leaf_vector":"1"}},{"base_weights":[-2.9229045E-1,-4.278284E1,9.369866E1,-5.799796E1,-5.7625227E0,6.0155666E1,1.4407611E2,-6.3456E1,-3.478516E1,1.4807483E1,-2.7050186E1,2.9749327E1,8.6100716E1,2.0729132E1,1.3794312E2,3.540647E1,-6.4446075E1,-2.122559E1,-4.8588127E1,4.0810275E0,3.144575E1,-4.354747E1,-1.1574692E1,4.319149E1,2.200062E0,3.3480185E2,8.39441E1,1.0127324E2,1.6840407E2,-6.666775E1,2.953002E2,-6.926617E1,-5.291086E1,-3.0481663E1,-1.9454583E0,-4.014311E1,-6.286124E1,5.32337E1,2.2002282E0,7.129024E1,2.2903587E1,-3.8142097E1,-5.8993103E1,-1.8929464E1,2.1329916E1,3.7125675E1,9.050817E1,-3.0149233E1,1.468093E1,1.043061E1,2.0380568E1,7.709114E1,1.3818292E2,1.3067784E2,8.079297E1,1.2733386E2,1.9267041E2,-2.724706E0,-3.7039201E0,-2.2829792E0,2.0268744E1,-3.7070317E0,-3.2126718E0,-1.0963187E0,-2.794852E0,4.6129756E0,-1.574294E0,9.9141806E-1,-8.332636E-1,-2.4239993E0,-1.3994173E0,-3.3751466E0,-1.6474644E0,-5.548137E-1,4.0173044E0,-1.0412742E0,2.6878336E-1,2.5332522E0,5.329297E0,6.291853E-1,2.1337187E0,-1.6432537E0,-2.593084E0,-3.205729E0,-2.2769952E0,-1.0478396E0,1.5255989E0,8.02966E0,8.5543424E-1,-1.2905312E0,2.0653205E0,1.4400371E0,5.2778506E0,1.3775001E-1,-1.9168243E0,-1.2582564E-1,1.6816744E0,2.4911325E0,4.295528E0,6.104611E0,1.1084731E1,5.4516435E0,8.791667E0,5.083204E0,2.3924015E0,7.288505E0,4.9802437E0,9.9990425E0,4.537028E0],"categories":[],"categories_nodes":[],"categories_segments":[],"categories_sizes":[],"default_left":[0,0,0,0,0,0,0,0,0,0,0,0,0,0,0,0,0,0,0,0,0,0,0,0,0,0,0,0,0,0,0,0,0,0,0,0,0,0,0,0,0,0,0,0,0,0,0,0,0,0,0,0,0,0,0,0,0,0,0,0,0,0,0,0,0,0,0,0,0,0,0,0,0,0,0,0,0,0,0,0,0,0,0,0,0,0,0,0,0,0,0,0,0,0,0,0,0,0,0,0,0,0,0,0,0,0,0,0,0],"id":3,"left_children":[1,3,5,7,9,11,13,15,17,19,21,23,25,-1,27,29,31,33,35,37,39,41,43,45,47,49,51,53,55,57,59,61,63,65,67,69,71,73,75,77,79,81,83,85,87,89,91,93,95,-1,-1,97,99,101,103,105,107,-1,-1,-1,-1,-1,-1,-1,-1,-1,-1,-1,-1,-1,-1,-1,-1,-1,-1,-1,-1,-1,-1,-1,-1,-1,-1,-1,-1,-1,-1,-1,-1,-1,-1,-1,-1,-1,-1,-1,-1,-1,-1,-1,-1,-1,-1,-1,-1,-1,-1,-1,-1],"loss_changes":[8.905214E7,8.649218E6,1.1721996E7,1.376632E6,1.9595086E6,3.286338E6,4.544928E6,8.6462E5,3.871435E5,4.0606853E5,5.609086E5,7.11293E5,1.178154E6,0E0,3.014484E6,2.3541905E6,4.81344E5,1.86965E5,1.21268E5,1.2792101E5,3.0196656E5,8.6582625E4,2.7532244E5,3.6717525E5,2.5520716E5,8.953575E4,8.18602E5,7.32575E5,1.451464E6,1.736875E3,9.5678475E5,1.45482E5,2.370265E5,9.017219E4,1.0962319E5,6.430675E4,5.0535625E4,8.9842625E4,9.772278E4,1.0889275E5,1.4963069E5,5.556275E4,1.59589375E4,9.375684E4,1.1952783E5,3.026015E5,1.3253925E5,4.7519203E4,1.4871125E5,0E0,0E0,4.72614E5,3.0753E5,4.7441E5,4.97082E5,2.68185E5,6.741E5,0E0,0E0,0E0,0E0,0E0,0E0,0E0,0E0,0E0,0E0,0E0,0E0,0E0,0E0,0E0,0E0,0E0,0E0,0E0,0E0,0E0,0E0,0E0,0E0,0E0,0E0,0E0,0E0,0E0,0E0,0E0,0E0,0E0,0E0,0E0,0E0,0E0,0E0,0E0,0E0,0E0,0E0,0E0,0E0,0E0,0E0,0E0,0E0,0E0,0E0,0E0,0E0],"parents":[2147483647,0,0,1,1,2,2,3,3,4,4,5,5,6,6,7,7,8,8,9,9,10,10,11,11,12,12,14,14,15,15,16,16,17,17,18,18,19,19,20,20,21,21,22,22,23,23,24,24,25,25,26,26,27,27,28,28,29,29,30,30,31,31,32,32,33,33,34,34,35,35,36,36,37,37,38,38,39,39,40,40,41,41,42,42,43,43,44,44,45,45,46,46,47,47,48,48,51,51,52,52,53,53,54,54,55,55,56,56],"right_children":[2,4,6,8,10,12,14,16,18,20,22,24,26,-1,28,30,32,34,36,38,40,42,44,46,48,50,52,54,56,58,60,62,64,66,68,70,72,74,76,78,80,82,84,86,88,90,92,94,96,-1,-1,98,100,102,104,106,108,-1,-1,-1,-1,-1,-1,-1,-1,-1,-1,-1,-1,-1,-1,-1,-1,-1,-1,-1,-1,-1,-1,-1,-1,-1,-1,-1,-1,-1,-1,-1,-1,-1,-1,-1,-1,-1,-1,-1,-1,-1,-1,-1,-1,-1,-1,-1,-1,-1,-1,-1,-1],"split_conditions":[1.365E2,7.325E1,2.49E2,7.267E1,2.372E1,8.660254E-1,-9.640935E-1,1.1283954E0,1.3118976E3,1.33E2,7.425E1,2.588E1,1E0,2.0729132E1,1.1E1,3.725E1,4.625E1,1.125E2,1.80624E3,8.38E0,1.132E1,1.901832E3,1.6E2,1.9852083E2,-4.6230483E-1,1.4175E2,4.2975E2,9.74872E2,4.6025E2,-5E-1,1.7825E1,2.925E1,2.218E1,1E0,1.2E0,6.092E1,2.784E2,1.881E2,-2.1514107E-1,1E1,4E0,3.388E1,-2.9959476E-1,2.1E2,8.667E1,-7.724126E-1,1.0857143E0,2.86E1,3.162E2,1.043061E1,2.0380568E1,1.37E2,1.509375E3,1.8E1,1.012E1,7.5E-1,9.946781E-1,-2.724706E0,-3.7039201E0,-2.2829792E0,2.0268744E1,-3.7070317E0,-3.2126718E0,-1.0963187E0,-2.794852E0,4.6129756E0,-1.574294E0,9.9141806E-1,-8.332636E-1,-2.4239993E0,-1.3994173E0,-3.3751466E0,-1.6474644E0,-5.548137E-1,4.0173044E0,-1.0412742E0,2.6878336E-1,2.5332522E0,5.329297E0,6.291853E-1,2.1337187E0,-1.6432537E0,-2.593084E0,-3.205729E0,-2.2769952E0,-1.0478396E0,1.5255989E0,8.02966E0,8.5543424E-1,-1.2905312E0,2.0653205E0,1.4400371E0,5.2778506E0,1.3775001E-1,-1.9168243E0,-1.2582564E-1,1.6816744E0,2.4911325E0,4.295528E0,6.104611E0,1.1084731E1,5.4516435E0,8.791667E0,5.083204E0,2.3924015E0,7.288505E0,4.9802437E0,9.9990425E0,4.537028E0],"split_indices":[15,15,15,21,8,44,42,33,55,20,20,8,56,0,49,15,15,20,55,8,8,55,21,38,42,21,0,55,0,44,7,15,8,56,10,9,11,28,53,51,49,8,42,20,37,53,6,8,28,0,0,21,55,51,7,10,42,0,0,0,0,0,0,0,0,0,0,0,0,0,0,0,0,0,0,0,0,0,0,0,0,0,0,0,0,0,0,0,0,0,0,0,0,0,0,0,0,0,0,0,0,0,0,0,0,0,0,0,0],"split_type":[0,0,0,0,0,0,0,0,0,0,0,0,0,0,0,0,0,0,0,0,0,0,0,0,0,0,0,0,0,0,0,0,0,0,0,0,0,0,0,0,0,0,0,0,0,0,0,0,0,0,0,0,0,0,0,0,0,0,0,0,0,0,0,0,0,0,0,0,0,0,0,0,0,0,0,0,0,0,0,0,0,0,0,0,0,0,0,0,0,0,0,0,0,0,0,0,0,0,0,0,0,0,0,0,0,0,0,0,0],"sum_hessian":[2.2296E4,1.5355E4,6.941E3,1.0882E4,4.473E3,4.168E3,2.773E3,8.809E3,2.073E3,2.275E3,2.198E3,1.92E3,2.248E3,6E1,2.713E3,8.7E1,8.722E3,1.047E3,1.026E3,1.384E3,8.91E2,1.063E3,1.135E3,1.29E3,6.3E2,1.8E1,2.23E3,1.233E3,1.48E3,6.3E1,2.4E1,6.148E3,2.574E3,7.07E2,3.4E2,6.47E2,3.79E2,5E1,1.334E3,1.56E2,7.35E2,7.9E2,2.73E2,9.28E2,2.07E2,1.145E3,1.45E2,1.75E2,4.55E2,8E0,1E1,1.982E3,2.48E2,5.04E2,7.29E2,5.52E2,9.28E2,2.7E1,3.6E1,6E0,1.8E1,3.11E3,3.038E3,2.27E2,2.347E3,5E0,7.02E2,1.37E2,2.03E2,3.82E2,2.65E2,3.27E2,5.2E1,1.5E1,3.5E1,1.61E2,1.173E3,1E2,5.6E1,4.84E2,2.51E2,5.73E2,2.17E2,1.95E2,7.8E1,8.92E2,3.6E1,5E0,2.02E2,7.1E1,1.074E3,2.9E1,1.16E2,3.5E1,1.4E2,2.39E2,2.16E2,4.86E2,1.496E3,2.1E2,3.8E1,3.43E2,1.61E2,4.45E2,2.84E2,3.29E2,2.23E2,8.65E2,6.3E1],"tree_param":{"num_deleted":"0","num_feature":"59","num_nodes":"109","size_leaf_vector":"1"}},{"base_weights":[1.775105E-1,-3.9908287E1,8.987677E1,-5.5065025E1,-4.079691E0,6.1483154E1,1.4395616E2,-5.9258488E1,-2.9095629E1,-2.3586767E1,1.5480046E1,3.1585777E1,8.449124E1,1.9692675E1,1.3766025E2,3.1321983E1,-6.038752E1,-3.814225E1,-4.3737674E0,-3.7515404E1,-9.601383E0,4.7241093E1,8.067648E0,1.9957838E1,5.8801914E1,7.1893585E1,1.245751E2,1.5797505E2,8.8488396E1,2.52397E2,-5.2274754E1,-6.597779E1,-5.0584526E1,-3.2814472E1,-5.8472504E1,8.609768E0,-4.1798885E1,-4.5805313E1,-2.3586721E1,-1.8611317E1,8.969729E0,3.0508009E1,8.119601E1,-7.9875054E0,1.5890505E1,3.2651176E1,2.7265263E0,2.9700317E1,7.93227E1,6.980054E1,3.5694427E2,2.1975752E2,1.1699584E2,8.0519066E1,1.6627185E2,1.0065426E2,4.4293365E1,-2.4895897E0,1.960094E1,-2.9832668E0,1.930054E0,-3.4193153E0,-2.804896E0,-2.7836595E0,-2.0228527E0,-1.9922352E0,-1.282272E0,-2.1930792E0,-3.1936972E0,1.6941359E0,-7.2460204E-1,-2.5654027E0,-1.0657307E0,-2.9829624E0,-2.043032E0,1.6112839E0,-1.3910728E0,-2.9947397E-1,-1.4592556E0,9.9421567E-1,-4.0263644E-1,8.050804E-2,2.285055E0,2.8920653E0,5.930845E0,-1.9195607E0,-7.71239E-2,1.3904923E0,2.5857523E-1,1.2524589E0,3.4735413E0,-1.8372822E0,4.866553E-1,-3.9480543E-1,2.0935323E0,4.9493656E0,2.1881886E0,2.6855915E0,4.0748286E0,9.017394E0,2.3342405E1,1.9225613E0,1.2650974E1,4.389262E0,6.7310534E0,1.8097075E0,5.4322166E0,6.5039024E0,9.148598E0,3.1424522E0,5.4990253E0,3.7940377E-1,3.4825287E0],"categories":[],"categories_nodes":[],"categories_segments":[],"categories_sizes":[],"default_left":[0,0,0,0,0,0,0,0,0,0,0,0,0,0,0,0,0,0,0,0,0,0,0,0,0,0,0,0,0,0,0,0,0,0,0,0,0,0,0,0,0,0,0,0,0,0,0,0,0,0,0,0,0,0,0,0,0,0,0,0,0,0,0,0,0,0,0,0,0,0,0,0,0,0,0,0,0,0,0,0,0,0,0,0,0,0,0,0,0,0,0,0,0,0,0,0,0,0,0,0,0,0,0,0,0,0,0,0,0,0,0,0,0],"id":4,"left_children":[1,3,5,7,9,11,13,15,17,19,21,23,25,-1,27,29,31,33,35,37,39,41,43,45,47,49,51,53,55,57,59,61,63,65,67,69,71,73,75,77,79,81,83,85,87,89,91,93,95,97,99,101,103,105,107,109,111,-1,-1,-1,-1,-1,-1,-1,-1,-1,-1,-1,-1,-1,-1,-1,-1,-1,-1,-1,-1,-1,-1,-1,-1,-1,-1,-1,-1,-1,-1,-1,-1,-1,-1,-1,-1,-1,-1,-1,-1,-1,-1,-1,-1,-1,-1,-1,-1,-1,-1,-1,-1,-1,-1,-1,-1],"loss_changes":[8.057168E7,8.40991E6,1.0618412E7,1.183454E6,1.757418E6,3.120312E6,3.69346E6,9.60044E5,3.38662E5,4.488425E5,5.410977E5,6.241664E5,1.286272E6,0E0,2.3085E6,2.1570072E6,5.03796E5,1.1820275E5,1.9812539E5,1.3228462E5,1.9292478E5,2.44677E5,2.3449128E5,3.0306088E5,3.5058188E5,1.140888E6,4.15795E5,1.043104E6,3.62233E5,1.3696681E6,5.9391312E4,1.3632E5,1.71163E5,4.3380562E4,1.5271125E4,1.7739784E5,1.9359156E4,4.709025E4,1.03236375E5,1.0339072E5,7.020409E4,1.2856734E5,1.18114375E5,1.1986384E5,1.6019928E5,2.2162225E5,1.6325438E5,1.1289059E5,2.376095E5,3.60869E5,1.8752562E5,2.556175E5,2.811285E5,1.9677825E5,8.73188E5,1.81366E5,1.3815234E5,0E0,0E0,0E0,0E0,0E0,0E0,0E0,0E0,0E0,0E0,0E0,0E0,0E0,0E0,0E0,0E0,0E0,0E0,0E0,0E0,0E0,0E0,0E0,0E0,0E0,0E0,0E0,0E0,0E0,0E0,0E0,0E0,0E0,0E0,0E0,0E0,0E0,0E0,0E0,0E0,0E0,0E0,0E0,0E0,0E0,0E0,0E0,0E0,0E0,0E0,0E0,0E0,0E0,0E0,0E0,0E0],"parents":[2147483647,0,0,1,1,2,2,3,3,4,4,5,5,6,6,7,7,8,8,9,9,10,10,11,11,12,12,14,14,15,15,16,16,17,17,18,18,19,19,20,20,21,21,22,22,23,23,24,24,25,25,26,26,27,27,28,28,29,29,30,30,31,31,32,32,33,33,34,34,35,35,36,36,37,37,38,38,39,39,40,40,41,41,42,42,43,43,44,44,45,45,46,46,47,47,48,48,49,49,50,50,51,51,52,52,53,53,54,54,55,55,56,56],"right_children":[2,4,6,8,10,12,14,16,18,20,22,24,26,-1,28,30,32,34,36,38,40,42,44,46,48,50,52,54,56,58,60,62,64,66,68,70,72,74,76,78,80,82,84,86,88,90,92,94,96,98,100,102,104,106,108,110,112,-1,-1,-1,-1,-1,-1,-1,-1,-1,-1,-1,-1,-1,-1,-1,-1,-1,-1,-1,-1,-1,-1,-1,-1,-1,-1,-1,-1,-1,-1,-1,-1,-1,-1,-1,-1,-1,-1,-1,-1,-1,-1,-1,-1,-1,-1,-1,-1,-1,-1,-1,-1,-1,-1,-1,-1],"split_conditions":[1.38E2,7.325E1,2.6775E2,7.925E1,9.675E1,8.660254E-1,-9.640935E-1,3.3333334E-1,1.2825E2,9.1260724E-2,9.0015E2,1.8966667E2,3.954E2,1.9692675E1,2.4893981E-1,9.6375E2,4.25E1,1.786299E3,1.3590637E3,7.232617E-1,2.59E2,1.975E2,9.7908E2,1E0,2.275E2,1E0,-8.247651E-1,5.339922E1,1.1915905E3,3.7645832E1,4.303E1,6.081215E-1,-1.3185851E-1,5.265806E-2,-9.8091614E-1,1.32E0,2.72E1,-4.905607E-1,2.4E1,1.4025E2,1.85E2,5.655E1,9.75E-1,2.023E3,1.075E0,6.748633E-1,-4.2764622E-1,-2.4365015E-1,1.05E0,4.38E0,1.95E1,1.85E2,2.5881904E-1,1.1331188E1,4.555E2,4.233E2,5.8133006E-1,-2.4895897E0,1.960094E1,-2.9832668E0,1.930054E0,-3.4193153E0,-2.804896E0,-2.7836595E0,-2.0228527E0,-1.9922352E0,-1.282272E0,-2.1930792E0,-3.1936972E0,1.6941359E0,-7.2460204E-1,-2.5654027E0,-1.0657307E0,-2.9829624E0,-2.043032E0,1.6112839E0,-1.3910728E0,-2.9947397E-1,-1.4592556E0,9.9421567E-1,-4.0263644E-1,8.050804E-2,2.285055E0,2.8920653E0,5.930845E0,-1.9195607E0,-7.71239E-2,1.3904923E0,2.5857523E-1,1.2524589E0,3.4735413E0,-1.8372822E0,4.866553E-1,-3.9480543E-1,2.0935323E0,4.9493656E0,2.1881886E0,2.6855915E0,4.0748286E0,9.017394E0,2.3342405E1,1.9225613E0,1.2650974E1,4.389262E0,6.7310534E0,1.8097075E0,5.4322166E0,6.5039024E0,9.148598E0,3.1424522E0,5.4990253E0,3.7940377E-1,3.4825287E0],"split_indices":[15,15,15,20,21,44,42,30,21,42,55,20,14,0,41,13,15,55,55,41,14,21,13,10,37,57,41,39,55,38,3,41,42,42,42,10,3,53,19,37,37,9,6,50,10,42,42,53,10,1,2,37,48,30,14,14,42,0,0,0,0,0,0,0,0,0,0,0,0,0,0,0,0,0,0,0,0,0,0,0,0,0,0,0,0,0,0,0,0,0,0,0,0,0,0,0,0,0,0,0,0,0,0,0,0,0,0,0,0,0,0,0,0],"split_type":[0,0,0,0,0,0,0,0,0,0,0,0,0,0,0,0,0,0,0,0,0,0,0,0,0,0,0,0,0,0,0,0,0,0,0,0,0,0,0,0,0,0,0,0,0,0,0,0,0,0,0,0,0,0,0,0,0,0,0,0,0,0,0,0,0,0,0,0,0,0,0,0,0,0,0,0,0,0,0,0,0,0,0,0,0,0,0,0,0,0,0,0,0,0,0,0,0,0,0,0,0,0,0,0,0,0,0,0,0,0,0,0,0],"sum_hessian":[2.2406E4,1.5486E4,6.92E3,1.0882E4,4.604E3,4.539E3,2.381E3,9.368E3,1.514E3,2.305E3,2.299E3,1.975E3,2.564E3,5.7E1,2.324E3,1.15E2,9.253E3,1.108E3,4.06E2,1.154E3,1.151E3,4.34E2,1.865E3,1.385E3,5.9E2,1.953E3,6.11E2,1.643E3,6.81E2,3.1E1,8.4E1,5.889E3,3.364E3,8.8E2,2.28E2,3.02E2,1.04E2,7.22E2,4.32E2,7.75E2,3.76E2,2.92E2,1.42E2,6.11E2,1.254E3,7.97E2,5.88E2,2.45E2,3.45E2,1.94E3,1.3E1,4.3E1,5.68E2,1.6E2,1.483E3,5.33E2,1.48E2,1E1,2.1E1,7.8E1,6E0,4.73E3,1.159E3,2.236E3,1.128E3,4.42E2,4.38E2,6.4E1,1.64E2,1.44E2,1.58E2,7E1,3.4E1,1.87E2,5.35E2,3E1,4.02E2,3.54E2,4.21E2,2.29E2,1.47E2,1.01E2,1.91E2,8.9E1,5.3E1,1.06E2,5.05E2,5.93E2,6.61E2,6.62E2,1.35E2,8.8E1,5E2,6E1,1.85E2,2.21E2,1.24E2,8.19E2,1.121E3,6E0,7E0,7E0,3.6E1,2.16E2,3.52E2,6.3E1,9.7E1,4.71E2,1.012E3,1.07E2,4.26E2,6.1E1,8.7E1],"tree_param":{"num_deleted":"0","num_feature":"59","num_nodes":"113","size_leaf_vector":"1"}},{"base_weights":[2.6955742E-2,-3.8328144E1,8.4355675E1,-5.236118E1,-4.3940415E0,5.6183567E1,1.367361E2,-5.76356E1,-3.2672012E1,1.4531763E1,-2.5434435E1,2.8035997E1,7.877954E1,1.875109E1,1.303977E2,2.3792501E1,-5.8673748E1,-4.2145626E1,-1.598341E1,4.282067E0,3.4454308E1,-3.0904799E1,1.4176248E1,1.1763657E1,4.6758266E1,2.9367096E2,7.703657E1,1.4910461E2,8.798936E1,-5.9740826E1,2.2666147E2,-6.5207504E1,-5.2267834E1,-5.3642647E1,-3.4875217E1,-2.1723528E1,2.1755774E1,-4.924153E0,2.0894934E1,6.8359245E1,2.5633942E1,-4.083607E1,-1.8845757E1,7.3688226E0,9.908351E0,2.9873854E1,-6.4347453E0,-1.0344567E1,5.3003464E1,9.544598E0,1.886804E1,6.6857254E1,1.1246262E2,1.08367195E2,1.6676714E2,-1.2996506E1,9.171623E1,-1.4130749E0,-3.07549E0,1.7637056E1,-2.3051698E0,-3.2716026E0,1.3136157E0,-1.6445836E0,-2.7283516E0,-2.971998E0,-1.9801897E0,4.8857794E0,-1.7860672E0,-1.5289503E0,-9.150337E-2,5.463585E-1,4.8001E0,2.0236595E0,-3.3451232E-1,1.62751E0,1.953052E-1,4.9734864E0,2.231919E0,9.49189E-1,2.663068E0,-2.518504E0,-1.7358958E0,-1.2017452E0,-2.2274556E-2,-2.616827E0,8.180195E-1,2.4026113E0,5.7597333E-1,-1.7770443E0,4.7011025E-2,-3.0298793E0,2.470942E-1,1.9701853E0,4.024917E0,2.4017413E0,3.9175203E0,4.0118785E0,6.5095897E0,4.0686274E0,6.449601E0,9.8609E0,7.4860673E0,2.123865E0,-1.3767488E0,8.950236E0,4.2189956E0],"categories":[],"categories_nodes":[],"categories_segments":[],"categories_sizes":[],"default_left":[0,0,0,0,0,0,0,0,0,0,0,0,0,0,0,0,0,0,0,0,0,0,0,0,0,0,0,0,0,0,0,0,0,0,0,0,0,0,0,0,0,0,0,0,0,0,0,0,0,0,0,0,0,0,0,0,0,0,0,0,0,0,0,0,0,0,0,0,0,0,0,0,0,0,0,0,0,0,0,0,0,0,0,0,0,0,0,0,0,0,0,0,0,0,0,0,0,0,0,0,0,0,0,0,0,0,0],"id":5,"left_children":[1,3,5,7,9,11,13,15,17,19,21,23,25,-1,27,29,31,33,35,37,39,41,43,45,47,49,51,53,55,57,59,61,63,65,67,69,71,73,75,77,79,81,83,-1,85,87,89,91,93,-1,-1,95,97,99,101,103,105,-1,-1,-1,-1,-1,-1,-1,-1,-1,-1,-1,-1,-1,-1,-1,-1,-1,-1,-1,-1,-1,-1,-1,-1,-1,-1,-1,-1,-1,-1,-1,-1,-1,-1,-1,-1,-1,-1,-1,-1,-1,-1,-1,-1,-1,-1,-1,-1,-1,-1],"loss_changes":[7.255488E7,7.342276E6,1.0341168E7,1.130902E6,1.7970768E6,2.899321E6,3.654472E6,7.28562E5,3.6406625E5,4.8503172E5,4.634935E5,6.1881375E5,9.24989E5,0E0,1.882936E6,1.8606898E6,3.52106E5,1.210875E5,1.817897E5,2.4022136E5,2.3958431E5,2.2414275E5,1.4634575E5,3.591012E5,3.37553E5,9.9996125E4,8.97981E5,1.174184E6,2.774415E5,2.6051875E3,1.1167458E6,8.8012E4,1.89502E5,4.387425E4,1.0490925E5,1.2801684E5,8.819308E4,8.1328664E4,1.1075806E5,1.180625E5,1.1694147E5,5.8273375E4,8.114872E4,0E0,1.0246269E5,1.8162094E5,1.1680671E5,7.250935E4,3.15411E5,0E0,0E0,4.18727E5,3.089235E5,2.70111E5,5.69466E5,2.2945227E4,4.38283E5,0E0,0E0,0E0,0E0,0E0,0E0,0E0,0E0,0E0,0E0,0E0,0E0,0E0,0E0,0E0,0E0,0E0,0E0,0E0,0E0,0E0,0E0,0E0,0E0,0E0,0E0,0E0,0E0,0E0,0E0,0E0,0E0,0E0,0E0,0E0,0E0,0E0,0E0,0E0,0E0,0E0,0E0,0E0,0E0,0E0,0E0,0E0,0E0,0E0,0E0],"parents":[2147483647,0,0,1,1,2,2,3,3,4,4,5,5,6,6,7,7,8,8,9,9,10,10,11,11,12,12,14,14,15,15,16,16,17,17,18,18,19,19,20,20,21,21,22,22,23,23,24,24,25,25,26,26,27,27,28,28,29,29,30,30,31,31,32,32,33,33,34,34,35,35,36,36,37,37,38,38,39,39,40,40,41,41,42,42,44,44,45,45,46,46,47,47,48,48,51,51,52,52,53,53,54,54,55,55,56,56],"right_children":[2,4,6,8,10,12,14,16,18,20,22,24,26,-1,28,30,32,34,36,38,40,42,44,46,48,50,52,54,56,58,60,62,64,66,68,70,72,74,76,78,80,82,84,-1,86,88,90,92,94,-1,-1,96,98,100,102,104,106,-1,-1,-1,-1,-1,-1,-1,-1,-1,-1,-1,-1,-1,-1,-1,-1,-1,-1,-1,-1,-1,-1,-1,-1,-1,-1,-1,-1,-1,-1,-1,-1,-1,-1,-1,-1,-1,-1,-1,-1,-1,-1,-1,-1,-1,-1,-1,-1,-1,-1],"split_conditions":[1.365E2,7.325E1,2.65E2,6.925E1,2.412E1,8.660254E-1,-9.640935E-1,3.3333334E-1,8.8E1,1.4133E2,1.5233E2,1.4666667E2,1E0,1.875109E1,2.4893981E-1,5.72E1,3.5E1,-2.4365015E-1,8.760579E-1,2.812E2,1.205E1,7.525E1,1.108E2,2.4E1,-7.724126E-1,7.32E0,3.954E2,4.496E2,-4.6230483E-1,-9.928872E-1,9.72425E2,1.323E2,2.45E1,6.990793E-1,1E0,8.916402E-1,1.9852083E2,8.625E0,7.306445E-1,5E-1,3.204E2,4.8E0,1.072E1,7.3688226E0,-7.572198E-1,7.905634E-1,-6.474428E-1,1.64E1,2.07E2,9.544598E0,1.886804E1,3.875E0,2.5881904E-1,4.375E1,2.022E3,8.734315E1,-3.8044736E-1,-1.4130749E0,-3.07549E0,1.7637056E1,-2.3051698E0,-3.2716026E0,1.3136157E0,-1.6445836E0,-2.7283516E0,-2.971998E0,-1.9801897E0,4.8857794E0,-1.7860672E0,-1.5289503E0,-9.150337E-2,5.463585E-1,4.8001E0,2.0236595E0,-3.3451232E-1,1.62751E0,1.953052E-1,4.9734864E0,2.231919E0,9.49189E-1,2.663068E0,-2.518504E0,-1.7358958E0,-1.2017452E0,-2.2274556E-2,-2.616827E0,8.180195E-1,2.4026113E0,5.7597333E-1,-1.7770443E0,4.7011025E-2,-3.0298793E0,2.470942E-1,1.9701853E0,4.024917E0,2.4017413E0,3.9175203E0,4.0118785E0,6.5095897E0,4.0686274E0,6.449601E0,9.8609E0,7.4860673E0,2.123865E0,-1.3767488E0,8.950236E0,4.2189956E0],"split_indices":[15,15,15,21,8,44,42,30,20,20,21,21,56,0,41,4,15,53,42,14,8,20,25,8,53,1,14,14,42,41,13,4,8,41,56,41,38,8,41,47,14,5,5,0,42,41,42,8,15,0,0,1,48,3,50,39,42,0,0,0,0,0,0,0,0,0,0,0,0,0,0,0,0,0,0,0,0,0,0,0,0,0,0,0,0,0,0,0,0,0,0,0,0,0,0,0,0,0,0,0,0,0,0,0,0,0,0],"split_type":[0,0,0,0,0,0,0,0,0,0,0,0,0,0,0,0,0,0,0,0,0,0,0,0,0,0,0,0,0,0,0,0,0,0,0,0,0,0,0,0,0,0,0,0,0,0,0,0,0,0,0,0,0,0,0,0,0,0,0,0,0,0,0,0,0,0,0,0,0,0,0,0,0,0,0,0,0,0,0,0,0,0,0,0,0,0,0,0,0,0,0,0,0,0,0,0,0,0,0,0,0,0,0,0,0,0,0],"sum_hessian":[2.243E4,1.5418E4,7.012E3,1.0907E4,4.511E3,4.561E3,2.451E3,8.601E3,2.306E3,2.375E3,2.136E3,2.032E3,2.529E3,6.2E1,2.389E3,1.08E2,8.493E3,1.47E3,8.36E2,1.569E3,8.06E2,1.877E3,2.59E2,1.088E3,9.44E2,1.9E1,2.51E3,1.656E3,7.33E2,7.7E1,3.1E1,4.2E3,4.293E3,5.67E2,9.03E2,7.26E2,1.1E2,1.01E3,5.59E2,1.65E2,6.41E2,1.028E3,8.49E2,7E0,2.52E2,5.45E2,5.43E2,9.3E1,8.51E2,1E1,9E0,1.952E3,5.58E2,5.03E2,1.153E3,2.6E1,7.07E2,5E0,7.2E1,2.1E1,1E1,4.19E3,1E1,4.57E2,3.836E3,3.99E2,1.68E2,5E0,8.98E2,5.02E2,2.24E2,9.7E1,1.3E1,3.7E1,9.73E2,3.31E2,2.28E2,7E1,9.5E1,5.18E2,1.23E2,3.99E2,6.29E2,6.62E2,1.87E2,2.3E1,2.29E2,2.73E2,2.72E2,1.09E2,4.34E2,2.1E1,7.2E1,5.71E2,2.8E2,7.42E2,1.21E3,2E2,3.58E2,2.2E2,2.83E2,4.1E2,7.43E2,5E0,2.1E1,5.3E1,6.54E2],"tree_param":{"num_deleted":"0","num_feature":"59","num_nodes":"107","size_leaf_vector":"1"}},{"base_weights":[-2.5080448E-1,-3.683816E1,8.015911E1,-4.998034E1,-4.2144833E0,4.87586E1,1.22680305E2,-2.0627651E1,-5.314969E1,-2.1873177E1,1.3759453E1,2.3857344E1,7.0400826E1,1.7780489E1,1.18345535E2,-2.8694584E1,-1.2731965E0,-5.9990295E1,-4.47893E1,-6.737788E0,-3.669454E1,5.236065E1,8.666471E0,1.1242603E1,4.5221233E1,4.4620888E1,8.310852E1,1.4419814E2,8.839497E1,-3.6052053E0,-2.5461218E1,-1.6485996E1,1.735277E1,-6.250195E1,-4.7432335E1,1.7084822E1,-4.599244E1,-3.429213E1,-2.8471684E0,-5.3065113E1,-3.1543287E1,3.5611866E1,7.53509E1,-5.49149E0,1.7766674E1,2.4298815E1,-1.2217348E1,3.8828598E1,1.0201762E2,3.763106E1,8.120198E1,2.7179404E2,8.094227E1,1.335694E2,2.1984114E2,1.07378746E2,4.8591198E1,3.4859005E-1,-1.5101714E0,-1.1942432E0,7.450018E-1,4.026851E0,3.8049707E-1,-3.316906E0,-2.9263313E0,9.204007E-3,-2.7699525E0,-2.4355857E0,-1.494575E0,-1.1824893E0,-2.3030765E0,-5.762322E-1,5.713264E-1,-8.453917E-1,-2.7872717E0,-1.335061E0,-2.264918E0,6.0574474E0,1.3305457E0,2.2582023E0,5.6463184E0,-1.8734416E0,-7.342492E-2,5.547846E-1,2.4401143E0,3.1780527E0,9.0970993E-1,-1.1847123E0,2.0446351E-1,2.1846642E0,-1.3421311E0,6.46891E0,2.9437041E0,2.8189821E0,1.3395844E0,2.6334522E0,7.2050033E0,8.13333E0,1.6929844E1,3.7251203E0,6.132326E0,4.717403E0,7.3869233E0,7.931356E0,1.3201568E1,4.685348E0,9.275181E0,2.7673376E0,-2.6514955E0],"categories":[],"categories_nodes":[],"categories_segments":[],"categories_sizes":[],"default_left":[0,0,0,0,0,0,0,0,0,0,0,0,0,0,0,0,0,0,0,0,0,0,0,0,0,0,0,0,0,0,0,0,0,0,0,0,0,0,0,0,0,0,0,0,0,0,0,0,0,0,0,0,0,0,0,0,0,0,0,0,0,0,0,0,0,0,0,0,0,0,0,0,0,0,0,0,0,0,0,0,0,0,0,0,0,0,0,0,0,0,0,0,0,0,0,0,0,0,0,0,0,0,0,0,0,0,0,0,0],"id":6,"left_children":[1,3,5,7,9,11,13,15,17,19,21,23,25,-1,27,29,31,33,35,37,39,41,43,45,47,49,51,53,55,-1,57,59,61,63,65,-1,67,69,71,73,75,77,79,81,83,85,87,89,91,93,95,97,99,101,103,105,107,-1,-1,-1,-1,-1,-1,-1,-1,-1,-1,-1,-1,-1,-1,-1,-1,-1,-1,-1,-1,-1,-1,-1,-1,-1,-1,-1,-1,-1,-1,-1,-1,-1,-1,-1,-1,-1,-1,-1,-1,-1,-1,-1,-1,-1,-1,-1,-1,-1,-1,-1,-1],"loss_changes":[6.6079964E7,6.618346E6,9.372376E6,1.022592E6,1.4076359E6,2.176629E6,2.969832E6,1.6764828E5,5.65268E5,5.0157238E5,4.3166253E5,5.06421E5,7.0457E5,0E0,2.255952E6,1.0455619E5,9.010901E4,1.69218E5,2.095647E6,1.1868383E5,9.3617875E4,9.5891625E4,2.5043434E5,3.629538E5,2.4946762E5,1.8002238E5,5.69449E5,1.233704E6,1.022432E6,0E0,1.0895009E5,4.099457E4,8.741697E4,6.5442E4,3.4673262E5,0E0,1.93816E5,1.6070469E4,1.20523266E5,2.5127125E4,5.6202312E4,1.1226345E5,1.1626825E5,9.78435E4,2.4438453E5,1.8124075E5,7.944823E4,2.0211944E5,7.501325E4,1.2103281E5,1.970025E5,6.1561875E4,3.75454E5,7.52968E5,4.77488E5,9.65276E5,3.0568456E5,0E0,0E0,0E0,0E0,0E0,0E0,0E0,0E0,0E0,0E0,0E0,0E0,0E0,0E0,0E0,0E0,0E0,0E0,0E0,0E0,0E0,0E0,0E0,0E0,0E0,0E0,0E0,0E0,0E0,0E0,0E0,0E0,0E0,0E0,0E0,0E0,0E0,0E0,0E0,0E0,0E0,0E0,0E0,0E0,0E0,0E0,0E0,0E0,0E0,0E0,0E0,0E0],"parents":[2147483647,0,0,1,1,2,2,3,3,4,4,5,5,6,6,7,7,8,8,9,9,10,10,11,11,12,12,14,14,15,15,16,16,17,17,18,18,19,19,20,20,21,21,22,22,23,23,24,24,25,25,26,26,27,27,28,28,30,30,31,31,32,32,33,33,34,34,36,36,37,37,38,38,39,39,40,40,41,41,42,42,43,43,44,44,45,45,46,46,47,47,48,48,49,49,50,50,51,51,52,52,53,53,54,54,55,55,56,56],"right_children":[2,4,6,8,10,12,14,16,18,20,22,24,26,-1,28,30,32,34,36,38,40,42,44,46,48,50,52,54,56,-1,58,60,62,64,66,-1,68,70,72,74,76,78,80,82,84,86,88,90,92,94,96,98,100,102,104,106,108,-1,-1,-1,-1,-1,-1,-1,-1,-1,-1,-1,-1,-1,-1,-1,-1,-1,-1,-1,-1,-1,-1,-1,-1,-1,-1,-1,-1,-1,-1,-1,-1,-1,-1,-1,-1,-1,-1,-1,-1,-1,-1,-1,-1,-1,-1,-1,-1,-1,-1,-1,-1],"split_conditions":[1.365E2,7.4E1,2.4233E2,2.218E1,9.675E1,8.660254E-1,-9.640935E-1,4.909399E1,3.9E1,2.635E1,1.132E1,1.66E2,3.825E0,1.7780489E1,-9.2331335E-2,2.125E1,1.3E2,6.350683E-1,1.8392924E0,3.525E1,3.92E0,1.93E2,2.411E2,2.615E1,2.1933333E2,9.749279E-1,1E0,-1.9443122E-1,1.08732E3,-3.6052053E0,9.66127E-2,1.838E2,8.950216E2,2.533E1,1E1,1.7084822E1,8.7E1,2.328E1,2.624E2,-9.975591E-1,3.388E1,2.272245E1,9.75E-1,9.795E1,1.1E1,1.47E1,8.916402E-1,8.217133E-1,7.818315E-1,8.718125E2,2.8175E2,1.61E2,4.177E2,4.309E2,2.55E0,1.1215E2,4.3911166E2,3.4859005E-1,-1.5101714E0,-1.1942432E0,7.450018E-1,4.026851E0,3.8049707E-1,-3.316906E0,-2.9263313E0,9.204007E-3,-2.7699525E0,-2.4355857E0,-1.494575E0,-1.1824893E0,-2.3030765E0,-5.762322E-1,5.713264E-1,-8.453917E-1,-2.7872717E0,-1.335061E0,-2.264918E0,6.0574474E0,1.3305457E0,2.2582023E0,5.6463184E0,-1.8734416E0,-7.342492E-2,5.547846E-1,2.4401143E0,3.1780527E0,9.0970993E-1,-1.1847123E0,2.0446351E-1,2.1846642E0,-1.3421311E0,6.46891E0,2.9437041E0,2.8189821E0,1.3395844E0,2.6334522E0,7.2050033E0,8.13333E0,1.6929844E1,3.7251203E0,6.132326E0,4.717403E0,7.3869233E0,7.931356E0,1.3201568E1,4.685348E0,9.275181E0,2.7673376E0,-2.6514955E0],"split_indices":[15,15,15,8,21,44,42,39,15,8,8,21,1,0,41,32,21,41,36,21,5,21,14,8,38,45,56,41,55,0,41,14,55,15,51,0,21,8,14,41,8,39,6,11,49,8,41,42,45,55,0,15,14,14,6,4,32,0,0,0,0,0,0,0,0,0,0,0,0,0,0,0,0,0,0,0,0,0,0,0,0,0,0,0,0,0,0,0,0,0,0,0,0,0,0,0,0,0,0,0,0,0,0,0,0,0,0,0,0],"split_type":[0,0,0,0,0,0,0,0,0,0,0,0,0,0,0,0,0,0,0,0,0,0,0,0,0,0,0,0,0,0,0,0,0,0,0,0,0,0,0,0,0,0,0,0,0,0,0,0,0,0,0,0,0,0,0,0,0,0,0,0,0,0,0,0,0,0,0,0,0,0,0,0,0,0,0,0,0,0,0,0,0,0,0,0,0,0,0,0,0,0,0,0,0,0,0,0,0,0,0,0,0,0,0,0,0,0,0,0,0],"sum_hessian":[2.2459E4,1.5436E4,7.023E3,1.1003E4,4.433E3,4.041E3,2.982E3,1.073E3,9.93E3,2.236E3,2.197E3,1.88E3,2.161E3,5.3E1,2.929E3,7.57E2,3.16E2,5.458E3,4.472E3,1.107E3,1.129E3,2.55E2,1.942E3,1.183E3,6.97E2,7.15E2,1.446E3,1.57E3,1.359E3,5.1E1,7.06E2,1.74E2,1.42E2,4.545E3,9.13E2,1.3E1,4.459E3,1.36E2,9.71E2,2.68E2,8.61E2,1.49E2,1.06E2,7.6E2,1.182E3,7.6E2,4.23E2,6.28E2,6.9E1,6.02E2,1.13E2,1.5E1,1.431E3,1.379E3,1.91E2,9.19E2,4.4E2,9E1,6.16E2,1.41E2,3.3E1,1.8E1,1.24E2,2.305E3,2.24E3,1.31E2,7.82E2,3.813E3,6.46E2,7.3E1,6.3E1,6.04E2,3.67E2,1.9E1,2.49E2,6.39E2,2.22E2,1.3E1,1.36E2,6E1,4.6E1,8.4E1,6.76E2,9.74E2,2.08E2,1.01E2,6.59E2,2.48E2,1.75E2,5.85E2,4.3E1,4.1E1,2.8E1,2.19E2,3.83E2,7.9E1,3.4E1,7E0,8E0,1.242E3,1.89E2,3.68E2,1.011E3,8.2E1,1.09E2,7.84E2,1.35E2,4.13E2,2.7E1],"tree_param":{"num_deleted":"0","num_feature":"59","num_nodes":"109","size_leaf_vector":"1"}},{"base_weights":[-2.6521835E-1,-3.4745552E1,7.568408E1,-4.613442E1,-4.4857284E-1,5.7058372E1,1.3997932E2,-2.3139412E1,-5.01907E1,1.3572748E1,-2.0911352E1,7.5523026E1,2.9735315E1,1.6949093E1,1.3172658E2,-4.2759697E1,-1.5775151E1,2.0547323E1,-5.1072857E1,4.0782623E0,2.7316555E1,-2.796506E1,-1.0380104E0,6.2199913E1,1.0657371E2,7.416372E1,2.151488E1,1.4749988E2,8.384808E1,-6.786423E1,-3.7099674E1,-2.1292849E1,5.970566E0,-4.01351E1,2.5760056E2,-5.8635185E1,-4.408203E1,-3.952144E0,1.8488066E1,5.523554E1,1.5382643E1,-3.609922E1,-1.8698748E1,-3.3368298E1,8.654151E0,3.5930836E1,7.24858E1,3.3368232E0,1.13001205E2,3.5726326E1,1.0261338E2,-7.6966143E0,3.1285648E1,3.1401743E1,1.5371722E2,2.3172056E1,9.641465E1,-3.4955742E0,-1.7386054E0,-1.1448783E0,-2.27692E0,6.5234566E0,-1.1088852E0,4.660032E-2,3.2815444E0,-2.3879323E0,1.5863962E0,1.6911587E1,-2.7051728E0,-2.968712E0,-1.0401276E0,-2.3191195E0,-1.1849836E0,-1.6383832E0,-5.3461935E-2,5.104218E0,7.705972E-1,6.582451E-1,3.1213844E0,5.0976195E0,6.106419E-1,-1.5224417E0,-2.3451424E0,-1.2949942E0,5.98043E-2,4.4234094E-1,-1.9500893E0,-1.3222627E-1,1.7346096E0,2.8999386E0,8.650467E-1,1.1561513E1,3.5185757E0,-2.2809637E0,1.0737723E0,5.191585E0,9.027823E0,1.847829E-1,2.5851974E0,5.834214E0,2.148853E0,-1.4081991E0,3.273445E-1,1.6281879E-1,2.2520442E0,-4.196172E0,2.9789417E0,8.55372E0,6.132936E0,1.8620323E0,-2.1619995E0,4.3003707E0,8.948977E0],"categories":[],"categories_nodes":[],"categories_segments":[],"categories_sizes":[],"default_left":[0,0,0,0,0,0,0,0,0,0,0,0,0,0,0,0,0,0,0,0,0,0,0,0,0,0,0,0,0,0,0,0,0,0,0,0,0,0,0,0,0,0,0,0,0,0,0,0,0,0,0,0,0,0,0,0,0,0,0,0,0,0,0,0,0,0,0,0,0,0,0,0,0,0,0,0,0,0,0,0,0,0,0,0,0,0,0,0,0,0,0,0,0,0,0,0,0,0,0,0,0,0,0,0,0,0,0,0,0,0,0,0,0],"id":7,"left_children":[1,3,5,7,9,11,13,15,17,19,21,23,25,-1,27,29,31,33,35,37,39,41,43,45,47,49,51,53,55,57,59,61,63,65,67,69,71,73,75,77,79,81,83,85,87,89,91,93,95,97,99,101,103,105,107,109,111,-1,-1,-1,-1,-1,-1,-1,-1,-1,-1,-1,-1,-1,-1,-1,-1,-1,-1,-1,-1,-1,-1,-1,-1,-1,-1,-1,-1,-1,-1,-1,-1,-1,-1,-1,-1,-1,-1,-1,-1,-1,-1,-1,-1,-1,-1,-1,-1,-1,-1,-1,-1,-1,-1,-1,-1],"loss_changes":[5.8759684E7,6.027776E6,8.382008E6,1.079418E6,1.1043335E6,2.739266E6,2.538708E6,2.5059169E5,6.15522E5,2.9792856E5,2.1935375E5,1.33456E6,7.9933375E5,0E0,1.129496E6,6.4834E4,1.5202975E5,1.7653045E6,5.116E5,1.5652188E5,3.1000975E5,8.6381625E4,1.2907577E5,6.11022E5,6.44599E5,3.703215E5,5.288364E5,8.15162E5,2.852245E5,3.395375E3,4.5578062E4,1.3852372E5,7.719357E4,5.520464E4,6.4662575E5,1.29311E5,2.36053E5,7.215489E4,1.2288842E5,8.359744E4,1.7849292E5,3.6053375E4,7.768083E4,2.293779E4,9.335169E4,2.6252675E5,5.31143E5,5.2483473E4,5.48048E5,7.503967E4,1.5945588E5,1.3574445E5,5.349956E5,1.9672225E5,5.60154E5,6.3275668E4,2.526995E5,0E0,0E0,0E0,0E0,0E0,0E0,0E0,0E0,0E0,0E0,0E0,0E0,0E0,0E0,0E0,0E0,0E0,0E0,0E0,0E0,0E0,0E0,0E0,0E0,0E0,0E0,0E0,0E0,0E0,0E0,0E0,0E0,0E0,0E0,0E0,0E0,0E0,0E0,0E0,0E0,0E0,0E0,0E0,0E0,0E0,0E0,0E0,0E0,0E0,0E0,0E0,0E0,0E0,0E0,0E0,0E0],"parents":[2147483647,0,0,1,1,2,2,3,3,4,4,5,5,6,6,7,7,8,8,9,9,10,10,11,11,12,12,14,14,15,15,16,16,17,17,18,18,19,19,20,20,21,21,22,22,23,23,24,24,25,25,26,26,27,27,28,28,29,29,30,30,31,31,32,32,33,33,34,34,35,35,36,36,37,37,38,38,39,39,40,40,41,41,42,42,43,43,44,44,45,45,46,46,47,47,48,48,49,49,50,50,51,51,52,52,53,53,54,54,55,55,56,56],"right_children":[2,4,6,8,10,12,14,16,18,20,22,24,26,-1,28,30,32,34,36,38,40,42,44,46,48,50,52,54,56,58,60,62,64,66,68,70,72,74,76,78,80,82,84,86,88,90,92,94,96,98,100,102,104,106,108,110,112,-1,-1,-1,-1,-1,-1,-1,-1,-1,-1,-1,-1,-1,-1,-1,-1,-1,-1,-1,-1,-1,-1,-1,-1,-1,-1,-1,-1,-1,-1,-1,-1,-1,-1,-1,-1,-1,-1,-1,-1,-1,-1,-1,-1,-1,-1,-1,-1,-1,-1,-1,-1,-1,-1,-1,-1],"split_conditions":[1.365E2,8E1,3.09E2,2.4E1,2.498E1,3.953118E-1,-9.640935E-1,3.6E1,1.1283954E0,2.898E2,3.022E2,4.083E2,9.44034E2,1.6949093E1,2.4893981E-1,1.6375E1,5.9296448E1,3.725E1,1.083E2,3.058E2,9.983024E2,1.767E2,-5.331371E-1,3.135E2,3.9036822E-1,3.399E2,9.78025E2,4.785758E1,1.5955208E2,1.432E1,9E0,1.1283954E0,9.701047E-1,5.6725E1,2.75E0,9.035E1,2.966E2,1.1582E2,-2.6877248E0,3.525E1,7E0,1.786299E3,5.8910717E1,2.758E1,7.818315E-1,1.7675E1,1E0,5.888158E1,9.749279E-1,4.335E1,2.7485416E2,1.94475E2,7.02E0,-2.5881904E-1,6.234898E-1,4.944E2,8.916402E-1,-3.4955742E0,-1.7386054E0,-1.1448783E0,-2.27692E0,6.5234566E0,-1.1088852E0,4.660032E-2,3.2815444E0,-2.3879323E0,1.5863962E0,1.6911587E1,-2.7051728E0,-2.968712E0,-1.0401276E0,-2.3191195E0,-1.1849836E0,-1.6383832E0,-5.3461935E-2,5.104218E0,7.705972E-1,6.582451E-1,3.1213844E0,5.0976195E0,6.106419E-1,-1.5224417E0,-2.3451424E0,-1.2949942E0,5.98043E-2,4.4234094E-1,-1.9500893E0,-1.3222627E-1,1.7346096E0,2.8999386E0,8.650467E-1,1.1561513E1,3.5185757E0,-2.2809637E0,1.0737723E0,5.191585E0,9.027823E0,1.847829E-1,2.5851974E0,5.834214E0,2.148853E0,-1.4081991E0,3.273445E-1,1.6281879E-1,2.2520442E0,-4.196172E0,2.9789417E0,8.55372E0,6.132936E0,1.8620323E0,-2.1619995E0,4.3003707E0,8.948977E0],"split_indices":[15,15,15,8,8,41,42,15,33,14,28,14,55,0,41,32,39,15,14,27,55,27,42,28,42,27,13,39,38,2,51,33,42,7,1,4,28,11,53,4,56,55,39,8,45,8,56,3,45,9,35,11,1,48,46,24,41,0,0,0,0,0,0,0,0,0,0,0,0,0,0,0,0,0,0,0,0,0,0,0,0,0,0,0,0,0,0,0,0,0,0,0,0,0,0,0,0,0,0,0,0,0,0,0,0,0,0,0,0,0,0,0,0],"split_type":[0,0,0,0,0,0,0,0,0,0,0,0,0,0,0,0,0,0,0,0,0,0,0,0,0,0,0,0,0,0,0,0,0,0,0,0,0,0,0,0,0,0,0,0,0,0,0,0,0,0,0,0,0,0,0,0,0,0,0,0,0,0,0,0,0,0,0,0,0,0,0,0,0,0,0,0,0,0,0,0,0,0,0,0,0,0,0,0,0,0,0,0,0,0,0,0,0,0,0,0,0,0,0,0,0,0,0,0,0,0,0,0,0],"sum_hessian":[2.2436E4,1.5431E4,7.005E3,1.1584E4,3.847E3,5.433E3,1.572E3,1.738E3,9.846E3,2.283E3,1.564E3,3.241E3,2.192E3,6.1E1,1.511E3,4.73E2,1.265E3,1.21E2,9.725E3,1.351E3,9.32E2,1.154E3,4.1E2,2.27E3,9.71E2,3.41E2,1.851E3,1.135E3,3.76E2,8.5E1,3.88E2,1.009E3,2.56E2,9.7E1,2.4E1,4.668E3,5.057E3,8.68E2,4.83E2,2.78E2,6.54E2,6.13E2,5.41E2,9.4E1,3.16E2,6.4E2,1.63E3,5.7E1,9.14E2,1.46E2,1.95E2,4.64E2,1.387E3,5.8E1,1.077E3,6.5E1,3.11E2,7.9E1,6E0,1.46E2,2.42E2,5E0,1.004E3,2.37E2,1.9E1,8.8E1,9E0,1.9E1,5E0,4.578E3,9E1,4.543E3,5.14E2,7.8E1,7.9E2,1.6E1,4.67E2,4.1E1,2.37E2,2.2E1,6.32E2,4.05E2,2.08E2,3.97E2,1.44E2,1.1E1,8.3E1,2.21E2,9.5E1,2.92E2,3.48E2,2E1,1.61E3,1.5E1,4.2E1,8.07E2,1.07E2,4.9E1,9.7E1,1.57E2,3.8E1,1.9E2,2.74E2,4.57E2,9.3E2,1.1E1,4.7E1,6.88E2,3.89E2,5.4E1,1.1E1,2.78E2,3.3E1],"tree_param":{"num_deleted":"0","num_feature":"59","num_nodes":"113","size_leaf_vector":"1"}},{"base_weights":[2.8412595E-1,-3.4206284E1,7.043796E1,-4.5747448E1,-6.9453597E0,4.558597E1,1.1913674E2,-5.4435196E1,-3.659951E1,8.544338E0,-2.1354338E1,2.1016739E1,6.6969055E1,1.6097086E1,1.1425915E2,-5.787177E1,-4.8467415E1,1.9208656E2,-3.7889668E1,-2.815509E0,2.6513708E1,-3.811724E1,-1.2673286E1,3.1011953E1,-4.471099E0,6.496997E1,2.8925836E2,8.1029594E1,1.3182492E2,-5.8847908E1,-3.757858E1,-3.310704E1,-5.179859E1,1.6306252E1,-2.8448427E0,-1.1260634E1,-4.1684498E1,-1.8663914E1,4.6270294E0,3.6215103E1,4.4683104E0,-4.3818443E1,-1.4324491E1,-2.5531736E1,-4.85013E0,1.895208E1,4.9072784E1,-8.906115E0,4.7097534E1,4.5828266E1,8.038219E1,9.386855E0,2.1316032E1,1.21210106E2,6.9268425E1,1.448426E2,9.214312E1,-3.159578E0,-2.7784574E0,-6.484034E-1,-2.1579087E0,-6.6216624E-1,-2.132633E0,-2.74731E0,-2.1785076E0,-9.514378E-1,6.456322E-1,-2.3442247E0,-1.7762015E0,-1.0700186E0,1.8704468E0,1.4604901E-1,2.5379512E0,2.6806965E0,1.2857193E0,5.988053E0,-5.984596E-2,-2.5600998E0,-1.59914E0,-1.2992886E0,1.4610497E0,2.4988065E0,-1.3340596E0,-7.0877737E-1,6.820254E-1,-5.8608603E-2,1.3331652E0,3.3397682E0,1.1809975E0,-1.0062935E0,5.1476157E-1,1.2017677E0,5.63306E0,1.3576425E0,3.063723E0,1.7363003E0,4.385541E0,5.1272635E0,1.1504622E1,4.37182E0,2.1319642E0,8.113154E0,5.8089232E0,5.310735E0,2.4135098E0],"categories":[],"categories_nodes":[],"categories_segments":[],"categories_sizes":[],"default_left":[0,0,0,0,0,0,0,0,0,0,0,0,0,0,0,0,0,0,0,0,0,0,0,0,0,0,0,0,0,0,0,0,0,0,0,0,0,0,0,0,0,0,0,0,0,0,0,0,0,0,0,0,0,0,0,0,0,0,0,0,0,0,0,0,0,0,0,0,0,0,0,0,0,0,0,0,0,0,0,0,0,0,0,0,0,0,0,0,0,0,0,0,0,0,0,0,0,0,0,0,0,0,0,0,0],"id":8,"left_children":[1,3,5,7,9,11,13,15,17,19,21,23,25,-1,27,29,31,33,35,37,39,41,43,45,47,49,51,53,55,57,59,61,63,-1,-1,65,67,69,71,73,75,77,79,81,83,85,87,89,91,93,95,-1,-1,97,99,101,103,-1,-1,-1,-1,-1,-1,-1,-1,-1,-1,-1,-1,-1,-1,-1,-1,-1,-1,-1,-1,-1,-1,-1,-1,-1,-1,-1,-1,-1,-1,-1,-1,-1,-1,-1,-1,-1,-1,-1,-1,-1,-1,-1,-1,-1,-1,-1,-1],"loss_changes":[5.4178024E7,4.722486E6,8.9263E6,8.3615E5,9.9695225E5,2.566582E6,2.429296E6,1.08085E5,1.5237925E6,4.39565E5,3.3624938E5,5.799641E5,1.142358E6,0E0,1.411218E6,6.5653E4,9.97E4,9.863829E5,5.16112E5,1.5578347E5,1.7820669E5,1.06398E5,1.533821E5,3.5519162E5,1.472498E5,7.60703E5,2.4000262E5,3.909255E5,8.09026E5,4.3017E4,2.1410984E4,6.693681E4,3.97455E4,0E0,0E0,1.20237734E5,1.416565E5,6.555269E4,7.060614E4,1.0440475E5,1.6735227E5,5.3941875E4,7.895994E4,5.1412875E4,1.6400461E5,1.5242056E5,2.93435E5,1.2774436E5,7.440627E4,3.323775E5,4.76766E5,0E0,0E0,3.625365E5,3.1364325E5,5.78862E5,2.393485E5,0E0,0E0,0E0,0E0,0E0,0E0,0E0,0E0,0E0,0E0,0E0,0E0,0E0,0E0,0E0,0E0,0E0,0E0,0E0,0E0,0E0,0E0,0E0,0E0,0E0,0E0,0E0,0E0,0E0,0E0,0E0,0E0,0E0,0E0,0E0,0E0,0E0,0E0,0E0,0E0,0E0,0E0,0E0,0E0,0E0,0E0,0E0,0E0],"parents":[2147483647,0,0,1,1,2,2,3,3,4,4,5,5,6,6,7,7,8,8,9,9,10,10,11,11,12,12,14,14,15,15,16,16,17,17,18,18,19,19,20,20,21,21,22,22,23,23,24,24,25,25,26,26,27,27,28,28,29,29,30,30,31,31,32,32,35,35,36,36,37,37,38,38,39,39,40,40,41,41,42,42,43,43,44,44,45,45,46,46,47,47,48,48,49,49,50,50,53,53,54,54,55,55,56,56],"right_children":[2,4,6,8,10,12,14,16,18,20,22,24,26,-1,28,30,32,34,36,38,40,42,44,46,48,50,52,54,56,58,60,62,64,-1,-1,66,68,70,72,74,76,78,80,82,84,86,88,90,92,94,96,-1,-1,98,100,102,104,-1,-1,-1,-1,-1,-1,-1,-1,-1,-1,-1,-1,-1,-1,-1,-1,-1,-1,-1,-1,-1,-1,-1,-1,-1,-1,-1,-1,-1,-1,-1,-1,-1,-1,-1,-1,-1,-1,-1,-1,-1,-1,-1,-1,-1,-1,-1,-1],"split_conditions":[1.295E2,7.35E1,2.65E2,3.975E1,2.285E1,8.660254E-1,-9.640935E-1,-2.3651127E-2,6.68E1,2.556E2,4.6E0,2.6775E1,1E0,1.6097086E1,4.496E2,1.4250833E-1,2.498E1,1.9819022E0,2.19E1,1.36E2,7.306445E-1,2.0166667E2,-4.159484E-1,2.17E2,2.0699333E2,2.517E1,1.575E2,-5.5568194E-1,2.4893981E-1,2.25E1,1.1E1,9E0,2.5881904E-1,1.6306252E1,-2.8448427E0,9.7166664E1,4.6E0,2.1323958E2,9.325E1,9.244896E2,-1.3185851E-1,1.742E1,2.659E2,2.4833334E1,1.2375E2,9.78025E2,9.25E-1,9.5597935E-1,9.8808E2,2.4225E2,-4.499901E-1,9.386855E0,2.1316032E1,9.749279E-1,1.005836E3,6.234898E-1,1.18312E3,-3.159578E0,-2.7784574E0,-6.484034E-1,-2.1579087E0,-6.6216624E-1,-2.132633E0,-2.74731E0,-2.1785076E0,-9.514378E-1,6.456322E-1,-2.3442247E0,-1.7762015E0,-1.0700186E0,1.8704468E0,1.4604901E-1,2.5379512E0,2.6806965E0,1.2857193E0,5.988053E0,-5.984596E-2,-2.5600998E0,-1.59914E0,-1.2992886E0,1.4610497E0,2.4988065E0,-1.3340596E0,-7.0877737E-1,6.820254E-1,-5.8608603E-2,1.3331652E0,3.3397682E0,1.1809975E0,-1.0062935E0,5.1476157E-1,1.2017677E0,5.63306E0,1.3576425E0,3.063723E0,1.7363003E0,4.385541E0,5.1272635E0,1.1504622E1,4.37182E0,2.1319642E0,8.113154E0,5.8089232E0,5.310735E0,2.4135098E0],"split_indices":[15,20,15,15,8,44,42,41,22,14,5,8,57,0,14,42,8,33,8,14,41,40,42,37,38,2,20,41,41,15,51,51,48,0,0,32,5,38,9,55,42,2,22,32,20,13,10,41,13,0,53,0,0,45,55,46,55,0,0,0,0,0,0,0,0,0,0,0,0,0,0,0,0,0,0,0,0,0,0,0,0,0,0,0,0,0,0,0,0,0,0,0,0,0,0,0,0,0,0,0,0,0,0,0,0],"split_type":[0,0,0,0,0,0,0,0,0,0,0,0,0,0,0,0,0,0,0,0,0,0,0,0,0,0,0,0,0,0,0,0,0,0,0,0,0,0,0,0,0,0,0,0,0,0,0,0,0,0,0,0,0,0,0,0,0,0,0,0,0,0,0,0,0,0,0,0,0,0,0,0,0,0,0,0,0,0,0,0,0,0,0,0,0,0,0,0,0,0,0,0,0,0,0,0,0,0,0,0,0,0,0,0,0],"sum_hessian":[2.2389E4,1.501E4,7.379E3,1.0545E4,4.465E3,4.887E3,2.492E3,5.406E3,5.139E3,2.152E3,2.313E3,2.275E3,2.612E3,5.7E1,2.435E3,3.425E3,1.981E3,2.8E1,5.111E3,1.319E3,8.33E2,7.88E2,1.525E3,1.634E3,6.41E2,2.59E3,2.2E1,8.44E2,1.591E3,3.266E3,1.59E2,3.55E2,1.626E3,1.8E1,1E1,6.38E2,4.473E3,4.21E2,8.98E2,5.78E2,2.55E2,6.35E2,1.53E2,5.76E2,9.49E2,9.81E2,6.53E2,5.91E2,5E1,1.157E3,1.433E3,1.4E1,8E0,1.89E2,6.55E2,1.196E3,3.95E2,1.397E3,1.869E3,3E1,1.29E2,1.16E2,2.39E2,1.172E3,4.54E2,4.83E2,1.55E2,2.422E3,2.051E3,4.02E2,1.9E1,8.67E2,3.1E1,2.16E2,3.62E2,1.1E1,2.44E2,3.89E2,2.46E2,1.21E2,3.2E1,8E0,5.68E2,6.31E2,3.18E2,2.72E2,7.09E2,3.84E2,2.69E2,3.73E2,2.18E2,3.8E1,1.2E1,5.25E2,6.32E2,1.99E2,1.234E3,1.63E2,2.6E1,3.88E2,2.67E2,7.41E2,4.55E2,2.98E2,9.7E1],"tree_param":{"num_deleted":"0","num_feature":"59","num_nodes":"105","size_leaf_vector":"1"}},{"base_weights":[-2.4206083E-1,-3.1418274E1,6.777517E1,-4.399953E1,-6.054117E0,4.8736137E1,1.1786151E2,-4.6631516E1,-1.7638113E1,9.713199E0,-2.3865744E1,2.3900976E1,6.470304E1,1.5323433E1,1.1155868E2,2.7300259E1,-4.7355526E1,-5.9568725E0,-3.2691418E1,-1.1643127E0,2.1325104E1,-3.1124054E1,-2.7515543E0,9.60036E0,3.8584232E1,1.2444679E2,6.084691E1,6.1900383E1,1.3063486E2,-4.6862854E1,2.4860263E2,-5.098898E1,-3.807341E1,-2.3705866E1,5.1820235E0,-4.849756E1,-2.6819975E1,-6.7908874E0,1.5832271E1,3.2849075E1,6.9972234E0,-3.7997036E1,-2.4090925E1,-6.805284E0,3.8425404E1,6.6624306E1,5.030641E0,1.1311045E1,4.9578526E1,2.1028532E2,7.36291E1,4.973567E1,7.741411E1,2.4102823E1,8.957201E1,1.4705511E2,1.02417076E2,-2.5698044E0,-9.1439885E-1,1.5218386E1,1.9936804E0,-2.7226074E0,-2.2805827E0,-1.151422E0,-2.100303E0,2.8402743E0,-1.3650103E0,-2.3899415E0,5.079702E-1,-1.5432462E0,-2.7873857E0,1.5289686E0,-1.4979652E0,-1.5915459E0,-2.0286813E-1,5.960199E-1,4.136807E0,1.5158837E0,4.977201E0,8.7904066E-1,-5.272805E-1,-2.0006063E0,-1.1608107E0,-1.6965216E0,-8.0119896E-1,-1.082178E0,2.6984173E-1,6.585177E0,7.6759816E-3,4.645814E-1,3.9247906E0,8.2238454E-1,-4.0762004E-1,-4.405676E-2,3.4194036E0,3.896906E-1,3.086126E0,1.8101898E1,8.599294E0,4.8577905E0,8.344097E-1,3.1755424E0,1.6824267E0,4.840953E0,3.2925313E0,8.4506255E-1,5.239084E0,-7.963271E-1,5.0654793E0,6.7263513E0,1.1274598E1,5.383692E0,-2.2310605E0],"categories":[],"categories_nodes":[],"categories_segments":[],"categories_sizes":[],"default_left":[0,0,0,0,0,0,0,0,0,0,0,0,0,0,0,0,0,0,0,0,0,0,0,0,0,0,0,0,0,0,0,0,0,0,0,0,0,0,0,0,0,0,0,0,0,0,0,0,0,0,0,0,0,0,0,0,0,0,0,0,0,0,0,0,0,0,0,0,0,0,0,0,0,0,0,0,0,0,0,0,0,0,0,0,0,0,0,0,0,0,0,0,0,0,0,0,0,0,0,0,0,0,0,0,0,0,0,0,0,0,0,0,0],"id":9,"left_children":[1,3,5,7,9,11,13,15,17,19,21,23,25,-1,27,29,31,33,35,37,39,41,43,45,47,49,51,53,55,57,59,61,63,65,67,69,71,73,75,77,79,81,83,85,87,89,91,93,95,97,99,101,103,105,107,109,111,-1,-1,-1,-1,-1,-1,-1,-1,-1,-1,-1,-1,-1,-1,-1,-1,-1,-1,-1,-1,-1,-1,-1,-1,-1,-1,-1,-1,-1,-1,-1,-1,-1,-1,-1,-1,-1,-1,-1,-1,-1,-1,-1,-1,-1,-1,-1,-1,-1,-1,-1,-1,-1,-1,-1,-1],"loss_changes":[4.7416948E7,4.892694E6,6.696126E6,7.10282E5,1.428311E6,2.018433E6,2.266058E6,5.0006E5,1.6368928E5,3.4080556E5,3.6588338E5,4.1853888E5,7.06606E5,0E0,1.767138E6,1.5051852E6,3.09284E5,1.0411524E5,3.6470875E4,1.3341928E5,2.15244E5,8.498225E4,1.0241669E5,2.633752E5,2.9449112E5,8.0023275E5,5.32565E5,5.43811E5,6.11842E5,7.9981094E3,2.5557888E5,1.20964E5,1.5286575E5,6.0295992E4,8.59263E4,1.2213844E4,5.4794594E4,7.1603875E4,8.983037E4,1.19047375E5,1.0842875E5,2.5787875E4,6.938547E4,1.0114739E5,1.963259E5,5.03175E4,1.4131381E5,1.9769397E5,3.5522975E5,3.387655E5,1.5779488E5,3.850035E5,2.557105E5,1.2721427E5,3.7434075E5,8.07878E5,3.9205E5,0E0,0E0,0E0,0E0,0E0,0E0,0E0,0E0,0E0,0E0,0E0,0E0,0E0,0E0,0E0,0E0,0E0,0E0,0E0,0E0,0E0,0E0,0E0,0E0,0E0,0E0,0E0,0E0,0E0,0E0,0E0,0E0,0E0,0E0,0E0,0E0,0E0,0E0,0E0,0E0,0E0,0E0,0E0,0E0,0E0,0E0,0E0,0E0,0E0,0E0,0E0,0E0,0E0,0E0,0E0,0E0],"parents":[2147483647,0,0,1,1,2,2,3,3,4,4,5,5,6,6,7,7,8,8,9,9,10,10,11,11,12,12,14,14,15,15,16,16,17,17,18,18,19,19,20,20,21,21,22,22,23,23,24,24,25,25,26,26,27,27,28,28,29,29,30,30,31,31,32,32,33,33,34,34,35,35,36,36,37,37,38,38,39,39,40,40,41,41,42,42,43,43,44,44,45,45,46,46,47,47,48,48,49,49,50,50,51,51,52,52,53,53,54,54,55,55,56,56],"right_children":[2,4,6,8,10,12,14,16,18,20,22,24,26,-1,28,30,32,34,36,38,40,42,44,46,48,50,52,54,56,58,60,62,64,66,68,70,72,74,76,78,80,82,84,86,88,90,92,94,96,98,100,102,104,106,108,110,112,-1,-1,-1,-1,-1,-1,-1,-1,-1,-1,-1,-1,-1,-1,-1,-1,-1,-1,-1,-1,-1,-1,-1,-1,-1,-1,-1,-1,-1,-1,-1,-1,-1,-1,-1,-1,-1,-1,-1,-1,-1,-1,-1,-1,-1,-1,-1,-1,-1,-1,-1,-1,-1,-1,-1,-1],"split_conditions":[1.365E2,6.75E1,4.522E2,1.0225E2,2.482E1,8.660254E-1,-9.640935E-1,1.1283954E0,1.30134E3,2.556E2,1.0225E2,1.4175E2,1E1,1.5323433E1,8.660254E-1,3.725E1,4.625E1,2.26E2,3.35E1,3.162E2,5.0835645E-1,5.425E1,2.1526389E2,1.35E1,-2.2252093E-1,1E1,3.823E2,1.67E2,6.234898E-1,3.35E1,6.45E1,-5.587876E-2,2.5975E1,9.66275E2,-6.85894E-1,9.6565E2,4.08E1,1.1582E2,9.948E2,3.925E2,3.803E1,3.38313E-1,1.635E1,9.7918E2,-7.944973E-1,2.317E2,2.53E1,2.3533333E2,9.785E2,-8.247651E-1,3.2304166E2,9.44034E2,8.77605E2,2.07E2,-4.6230483E-1,4.065E2,4.649479E2,-2.5698044E0,-9.1439885E-1,1.5218386E1,1.9936804E0,-2.7226074E0,-2.2805827E0,-1.151422E0,-2.100303E0,2.8402743E0,-1.3650103E0,-2.3899415E0,5.079702E-1,-1.5432462E0,-2.7873857E0,1.5289686E0,-1.4979652E0,-1.5915459E0,-2.0286813E-1,5.960199E-1,4.136807E0,1.5158837E0,4.977201E0,8.7904066E-1,-5.272805E-1,-2.0006063E0,-1.1608107E0,-1.6965216E0,-8.0119896E-1,-1.082178E0,2.6984173E-1,6.585177E0,7.6759816E-3,4.645814E-1,3.9247906E0,8.2238454E-1,-4.0762004E-1,-4.405676E-2,3.4194036E0,3.896906E-1,3.086126E0,1.8101898E1,8.599294E0,4.8577905E0,8.344097E-1,3.1755424E0,1.6824267E0,4.840953E0,3.2925313E0,8.4506255E-1,5.239084E0,-7.963271E-1,5.0654793E0,6.7263513E0,1.1274598E1,5.383692E0,-2.2310605E0],"split_indices":[15,15,14,21,8,44,42,33,55,14,21,21,56,0,44,15,15,27,31,27,41,21,38,8,46,51,14,38,46,15,0,41,8,13,42,13,27,11,13,21,2,42,2,13,41,27,8,15,13,41,38,55,55,18,42,21,38,0,0,0,0,0,0,0,0,0,0,0,0,0,0,0,0,0,0,0,0,0,0,0,0,0,0,0,0,0,0,0,0,0,0,0,0,0,0,0,0,0,0,0,0,0,0,0,0,0,0,0,0,0,0,0,0],"split_type":[0,0,0,0,0,0,0,0,0,0,0,0,0,0,0,0,0,0,0,0,0,0,0,0,0,0,0,0,0,0,0,0,0,0,0,0,0,0,0,0,0,0,0,0,0,0,0,0,0,0,0,0,0,0,0,0,0,0,0,0,0,0,0,0,0,0,0,0,0,0,0,0,0,0,0,0,0,0,0,0,0,0,0,0,0,0,0,0,0,0,0,0,0,0,0,0,0,0,0,0,0,0,0,0,0,0,0,0,0,0,0,0,0],"sum_hessian":[2.2359E4,1.5332E4,7.027E3,1.0248E4,5.084E3,5.093E3,1.934E3,9.317E3,9.31E2,2.697E3,2.387E3,1.994E3,3.099E3,6.1E1,1.873E3,9E1,9.227E3,5.25E2,4.06E2,1.393E3,1.304E3,1.776E3,6.11E2,1.011E3,9.83E2,1.86E2,2.913E3,5.21E2,1.352E3,6.8E1,2.2E1,6.628E3,2.599E3,2.02E2,3.23E2,1.08E2,2.98E2,1.047E3,3.46E2,7.22E2,5.82E2,8.96E2,8.8E2,5.57E2,5.4E1,7.4E1,9.37E2,2.83E2,7E2,6.8E1,1.18E2,1.746E3,1.167E3,2.21E2,3E2,8.52E2,5E2,5.8E1,1E1,1.7E1,5E0,4.026E3,2.602E3,5.4E2,2.059E3,8E0,1.94E2,2.7E1,2.96E2,3.3E1,7.5E1,1.5E1,2.83E2,1.02E2,9.45E2,3.28E2,1.8E1,6.97E2,2.5E1,3.63E2,2.19E2,7.87E2,1.09E2,3.95E2,4.85E2,2.51E2,3.06E2,1.5E1,3.9E1,1.3E1,6.1E1,5.02E2,4.35E2,2.34E2,4.9E1,1.58E2,5.42E2,1.2E1,5.6E1,8.3E1,3.5E1,9.39E2,8.07E2,4.33E2,7.34E2,2.04E2,1.7E1,3E1,2.7E2,7.37E2,1.15E2,4.83E2,1.7E1],"tree_param":{"num_deleted":"0","num_feature":"59","num_nodes":"113","size_leaf_vector":"1"}},{"base_weights":[9.2147835E-2,-3.0889547E1,6.3496048E1,-3.9968044E1,-1.9802257E0,4.8084732E1,1.2430283E2,-4.5795162E1,-2.56346E1,-1.0936437E1,1.837807E1,6.526473E1,2.4390772E1,1.459684E2,8.565367E1,3.297876E1,-4.6785637E1,-8.95785E0,-3.39276E1,-2.397664E1,1.92658E0,5.88763E1,1.25735855E1,5.3591328E1,9.481005E1,8.550675E0,4.8562443E1,1.2292095E2,2.1478792E2,6.840171E1,1.3927211E2,-4.092047E1,2.2974532E2,-5.264469E1,-4.3420322E1,-1.9643486E1,-1.2781596E0,-4.3790462E1,-2.9911047E1,-3.2411213E1,-1.4826147E1,1.8874996E1,-9.767684E0,3.716671E1,7.883934E1,-1.4218378E1,1.9543362E1,3.125669E1,6.558077E1,6.9740534E0,1.00213615E2,-2.4538036E1,1.3938935E1,7.8026634E1,3.858122E1,1.4131981E2,6.683209E1,1.7042194E2,2.797765E2,7.893226E1,-2.5494568E1,1.7039598E2,8.771953E1,-2.3201609E0,-5.6012547E-1,1.4488548E1,-1.9321955E0,-2.64611E0,3.5556E0,-2.3690498E0,-1.8863169E0,-2.170655E0,-7.6440823E-1,4.0185857E0,-1.2809858E-1,-9.6765834E-1,-2.2522404E0,-8.914687E-1,-1.6506732E0,-1.8531265E0,-7.412786E-1,-2.0409172E0,-5.2830637E-1,5.0886664E0,8.009352E-1,-1.1148093E0,-2.50628E-2,2.531461E0,3.3582494E-1,2.0940278E0,5.680408E0,-1.5744616E0,7.1873575E-1,-9.06442E-1,1.3141961E0,2.607831E0,6.8866444E-1,3.4314957E0,9.944319E-1,-2.4138546E0,1.0617894E0,4.6070714E0,7.70343E0,-1.8566878E0,3.220984E-2,-6.060961E-1,1.0745099E0,2.551034E0,5.4042454E0,4.3668476E-1,2.30523E0,4.1551185E0,7.981047E0,4.8575673E0,1.6079801E0,6.2500706E0,1.0768066E1,3.9493606E0,1.450269E1,8.194295E-1,4.602272E0,6.170251E-1,-3.3865087E0,5.8619876E0,1.045672E1,5.503463E0,2.955251E-1],"categories":[],"categories_nodes":[],"categories_segments":[],"categories_sizes":[],"default_left":[0,0,0,0,0,0,0,0,0,0,0,0,0,0,0,0,0,0,0,0,0,0,0,0,0,0,0,0,0,0,0,0,0,0,0,0,0,0,0,0,0,0,0,0,0,0,0,0,0,0,0,0,0,0,0,0,0,0,0,0,0,0,0,0,0,0,0,0,0,0,0,0,0,0,0,0,0,0,0,0,0,0,0,0,0,0,0,0,0,0,0,0,0,0,0,0,0,0,0,0,0,0,0,0,0,0,0,0,0,0,0,0,0,0,0,0,0,0,0,0,0,0,0,0,0,0,0],"id":10,"left_children":[1,3,5,7,9,11,13,15,17,19,21,23,25,27,29,31,33,35,37,39,41,43,45,47,49,51,53,55,57,59,61,63,65,67,69,71,73,75,77,79,81,83,85,87,89,91,93,95,97,99,101,103,105,107,109,111,113,115,117,119,121,123,125,-1,-1,-1,-1,-1,-1,-1,-1,-1,-1,-1,-1,-1,-1,-1,-1,-1,-1,-1,-1,-1,-1,-1,-1,-1,-1,-1,-1,-1,-1,-1,-1,-1,-1,-1,-1,-1,-1,-1,-1,-1,-1,-1,-1,-1,-1,-1,-1,-1,-1,-1,-1,-1,-1,-1,-1,-1,-1,-1,-1,-1,-1,-1,-1],"loss_changes":[4.414703E7,3.962177E6,6.907106E6,9.58418E5,6.5824156E5,2.394784E6,1.235994E6,6.38762E5,4.59268E5,4.205612E5,2.585435E5,1.1717E6,9.475996E5,1.486752E6,4.8813625E5,1.4925728E6,1.56756E5,9.065382E4,8.659525E4,9.5609125E4,2.5051002E5,5.6877562E4,1.8066294E5,6.534755E5,4.57316E5,2.6724303E5,2.851965E5,7.30479E5,6.38542E5,4.0642312E5,1.9364E5,1.1700391E4,4.6228462E5,1.046645E5,1.13881E5,4.7164516E4,6.771198E4,1.8746E4,5.8633625E4,5.237275E4,6.589434E4,1.2054919E5,8.682746E4,2.753561E4,8.647797E4,9.921808E4,1.9524212E5,3.1243112E5,2.20436E5,4.5939895E4,3.80972E5,6.663347E4,2.53729E5,1.9498825E5,1.6442025E5,5.61011E5,1.8504838E5,2.6700775E5,1.731295E5,3.0030525E5,6.795127E4,1.4021625E5,9.259831E4,0E0,0E0,0E0,0E0,0E0,0E0,0E0,0E0,0E0,0E0,0E0,0E0,0E0,0E0,0E0,0E0,0E0,0E0,0E0,0E0,0E0,0E0,0E0,0E0,0E0,0E0,0E0,0E0,0E0,0E0,0E0,0E0,0E0,0E0,0E0,0E0,0E0,0E0,0E0,0E0,0E0,0E0,0E0,0E0,0E0,0E0,0E0,0E0,0E0,0E0,0E0,0E0,0E0,0E0,0E0,0E0,0E0,0E0,0E0,0E0,0E0,0E0,0E0,0E0],"parents":[2147483647,0,0,1,1,2,2,3,3,4,4,5,5,6,6,7,7,8,8,9,9,10,10,11,11,12,12,13,13,14,14,15,15,16,16,17,17,18,18,19,19,20,20,21,21,22,22,23,23,24,24,25,25,26,26,27,27,28,28,29,29,30,30,31,31,32,32,33,33,34,34,35,35,36,36,37,37,38,38,39,39,40,40,41,41,42,42,43,43,44,44,45,45,46,46,47,47,48,48,49,49,50,50,51,51,52,52,53,53,54,54,55,55,56,56,57,57,58,58,59,59,60,60,61,61,62,62],"right_children":[2,4,6,8,10,12,14,16,18,20,22,24,26,28,30,32,34,36,38,40,42,44,46,48,50,52,54,56,58,60,62,64,66,68,70,72,74,76,78,80,82,84,86,88,90,92,94,96,98,100,102,104,106,108,110,112,114,116,118,120,122,124,126,-1,-1,-1,-1,-1,-1,-1,-1,-1,-1,-1,-1,-1,-1,-1,-1,-1,-1,-1,-1,-1,-1,-1,-1,-1,-1,-1,-1,-1,-1,-1,-1,-1,-1,-1,-1,-1,-1,-1,-1,-1,-1,-1,-1,-1,-1,-1,-1,-1,-1,-1,-1,-1,-1,-1,-1,-1,-1,-1,-1,-1,-1,-1,-1],"split_conditions":[1.295E2,8.6E1,3.15E2,5.6666668E1,1.5233E2,3.634816E-1,-9.2331335E-2,3.3333334E-1,2.5975E1,2.027E2,1.132E1,4.129E2,1.8566667E2,-2.7591294E-1,2E1,3.725E1,2.725E1,1.764E2,3.6E0,1.417E2,2.1125E1,1.8175979E-1,2.97E0,1.5033333E2,-9.1640866E-1,-5.5205756E-1,1.238E1,-5.4310524E-1,6.08E2,3.9685416E2,3.0471924E-1,6.1E1,4E1,1.3883E2,6.123234E-17,-6.733502E-2,8.38E0,-9.975591E-1,2.867E1,8.8372034E-1,4.2E1,-1.7584242E0,9.7775E2,1.88E2,3.0225E2,1.104175E2,-9.998976E-1,1.7675E1,4.9825E2,5.888158E1,9.749279E-1,1.699E2,9.77675E2,6.003333E1,1.2708E2,0E0,8E0,5.985E2,1.1593E2,1.67E2,9.9032E2,6.231838E-2,1.395E1,-2.3201609E0,-5.6012547E-1,1.4488548E1,-1.9321955E0,-2.64611E0,3.5556E0,-2.3690498E0,-1.8863169E0,-2.170655E0,-7.6440823E-1,4.0185857E0,-1.2809858E-1,-9.6765834E-1,-2.2522404E0,-8.914687E-1,-1.6506732E0,-1.8531265E0,-7.412786E-1,-2.0409172E0,-5.2830637E-1,5.0886664E0,8.009352E-1,-1.1148093E0,-2.50628E-2,2.531461E0,3.3582494E-1,2.0940278E0,5.680408E0,-1.5744616E0,7.1873575E-1,-9.06442E-1,1.3141961E0,2.607831E0,6.8866444E-1,3.4314957E0,9.944319E-1,-2.4138546E0,1.0617894E0,4.6070714E0,7.70343E0,-1.8566878E0,3.220984E-2,-6.060961E-1,1.0745099E0,2.551034E0,5.4042454E0,4.3668476E-1,2.30523E0,4.1551185E0,7.981047E0,4.8575673E0,1.6079801E0,6.2500706E0,1.0768066E1,3.9493606E0,1.450269E1,8.194295E-1,4.602272E0,6.170251E-1,-3.3865087E0,5.8619876E0,1.045672E1,5.503463E0,2.955251E-1],"split_indices":[15,20,15,15,21,41,41,30,8,14,8,14,20,41,51,15,15,14,5,14,8,41,5,21,41,53,8,41,40,35,41,21,15,4,48,53,8,41,8,41,21,53,13,0,40,35,53,8,40,3,45,12,13,36,11,47,51,0,3,38,13,41,8,0,0,0,0,0,0,0,0,0,0,0,0,0,0,0,0,0,0,0,0,0,0,0,0,0,0,0,0,0,0,0,0,0,0,0,0,0,0,0,0,0,0,0,0,0,0,0,0,0,0,0,0,0,0,0,0,0,0,0,0,0,0,0,0],"split_type":[0,0,0,0,0,0,0,0,0,0,0,0,0,0,0,0,0,0,0,0,0,0,0,0,0,0,0,0,0,0,0,0,0,0,0,0,0,0,0,0,0,0,0,0,0,0,0,0,0,0,0,0,0,0,0,0,0,0,0,0,0,0,0,0,0,0,0,0,0,0,0,0,0,0,0,0,0,0,0,0,0,0,0,0,0,0,0,0,0,0,0,0,0,0,0,0,0,0,0,0,0,0,0,0,0,0,0,0,0,0,0,0,0,0,0,0,0,0,0,0,0,0,0,0,0,0,0],"sum_hessian":[2.2472E4,1.5096E4,7.376E3,1.1488E4,3.608E3,5.886E3,1.49E3,8.166E3,3.322E3,2.506E3,1.102E3,3.411E3,2.475E3,9.53E2,5.37E2,1.01E2,8.065E3,1.104E3,2.218E3,1.244E3,1.262E3,1.37E2,9.65E2,2.447E3,9.64E2,1.496E3,9.79E2,7.16E2,2.37E2,4.08E2,1.29E2,7.4E1,2.7E1,2.937E3,5.128E3,4.61E2,6.43E2,6.39E2,1.579E3,6.46E2,5.98E2,5.15E2,7.47E2,6.7E1,7E1,1.99E2,7.66E2,8.56E2,1.591E3,5.6E1,9.08E2,2.09E2,1.287E3,2.46E2,7.33E2,5.38E2,1.78E2,1.43E2,9.4E1,3.67E2,4.1E1,7.9E1,5E1,6.2E1,1.2E1,2.2E1,5E0,2.931E3,6E0,3.02E3,2.108E3,7E1,3.91E2,9E0,6.34E2,3.2E1,6.07E2,3.24E2,1.255E3,5.1E2,1.36E2,8.3E1,5.15E2,1.6E1,4.99E2,3.17E2,4.3E2,4.6E1,2.1E1,3.5E1,3.5E1,1.24E2,7.5E1,1.16E2,6.5E2,3.89E2,4.67E2,1.491E3,1E2,1.1E1,4.5E1,7.92E2,1.16E2,1.39E2,7E1,2.89E2,9.98E2,1.31E2,1.15E2,1.48E2,5.85E2,1.3E2,4.08E2,9.4E1,8.4E1,7.3E1,7E1,5E0,8.9E1,6.4E1,3.03E2,2.2E1,1.9E1,3.5E1,4.4E1,3.9E1,1.1E1],"tree_param":{"num_deleted":"0","num_feature":"59","num_nodes":"127","size_leaf_vector":"1"}},{"base_weights":[5.9391454E-2,-2.5504715E1,6.868611E1,-3.73523E1,4.0501194E0,5.2849136E1,1.15986244E2,-4.2607872E1,-2.0582888E1,-5.29623E0,2.5727335E1,2.2594116E1,6.431584E1,1.3859787E1,1.089793E2,2.0311363E1,-4.3362034E1,-3.4073615E0,-2.9682259E1,-3.3258102E1,-1.947339E-1,8.260172E0,4.3608677E1,3.3886684E1,-6.4210925E0,8.248511E1,5.1818893E1,1.2140032E2,6.826808E1,-3.921881E1,1.959448E2,-4.6150578E1,-3.497666E1,-1.2707419E1,7.5304756E0,-2.493016E1,-3.86633E1,-2.578065E1,-4.121412E1,-1.6644222E1,5.757586E0,2.9983368E1,-5.904415E-1,6.776776E1,3.0610289E1,4.105201E1,1.0270548E1,2.9391384E1,-1.6518745E1,5.504461E1,9.339845E1,1.405934E2,4.9901196E1,-1.4657672E1,1.2489601E2,5.9794323E1,1.4657167E2,-2.164518E0,9.106E-1,1.4136325E1,-2.2751293E0,-2.3359041E0,-8.6802036E-1,-2.0679274E0,-1.3036687E0,-1.3978605E0,-2.4127117E-1,2.7587298E-1,7.694829E0,-8.375458E-1,-1.5385118E0,-2.1482446E0,-1.2133236E0,-2.1461565E0,-7.915744E-1,-1.5997244E0,-2.3508728E0,-6.236481E-1,-2.3609066E0,-5.4440673E-2,9.073456E-1,9.241875E-2,2.1866977E0,3.914996E0,-2.3278688E-1,2.849726E0,7.4227686E0,-3.8528818E-1,1.9716727E0,2.6743755E-1,2.356199E0,-2.09892E0,1.442085E0,-5.7014316E-1,3.4215496E0,-1.6130213E0,-1.1406088E-1,1.6827987E0,3.7910955E0,4.3135886E0,6.960744E0,5.762674E0,1.2360411E1,2.9407945E0,1.7383083E0,6.6402016E0,-5.6075583E0,6.6537356E0,3.1612113E0,4.5297256E-1,3.5168636E0,1.0055382E1,2.9096882E0],"categories":[],"categories_nodes":[],"categories_segments":[],"categories_sizes":[],"default_left":[0,0,0,0,0,0,0,0,0,0,0,0,0,0,0,0,0,0,0,0,0,0,0,0,0,0,0,0,0,0,0,0,0,0,0,0,0,0,0,0,0,0,0,0,0,0,0,0,0,0,0,0,0,0,0,0,0,0,0,0,0,0,0,0,0,0,0,0,0,0,0,0,0,0,0,0,0,0,0,0,0,0,0,0,0,0,0,0,0,0,0,0,0,0,0,0,0,0,0,0,0,0,0,0,0,0,0,0,0,0,0,0,0],"id":11,"left_children":[1,3,5,7,9,11,13,15,17,19,21,23,25,-1,27,29,31,33,35,37,39,41,43,45,47,49,51,53,55,57,59,61,63,65,67,69,71,73,75,77,79,81,83,85,87,89,91,93,95,97,99,101,103,105,107,109,111,-1,-1,-1,-1,-1,-1,-1,-1,-1,-1,-1,-1,-1,-1,-1,-1,-1,-1,-1,-1,-1,-1,-1,-1,-1,-1,-1,-1,-1,-1,-1,-1,-1,-1,-1,-1,-1,-1,-1,-1,-1,-1,-1,-1,-1,-1,-1,-1,-1,-1,-1,-1,-1,-1,-1,-1],"loss_changes":[3.9398124E7,5.729361E6,4.55958E6,1.028515E6,9.489254E5,1.583301E6,1.6958E6,4.22817E5,4.35782E5,4.6687844E5,4.4034644E5,4.1208156E5,7.4775E5,0E0,7.33034E5,1.1159665E6,2.03852E5,9.846136E4,7.6839625E4,2.8980312E4,2.7121588E5,1.3748619E5,2.1680412E5,1.5271994E5,1.2813806E5,3.98542E5,3.27511E5,5.3547E5,2.2015225E5,1.9494977E4,5.786016E5,1.06876E5,1.2375475E5,6.272908E4,1.3026451E5,5.6566688E4,3.7910938E4,4.4175984E4,1.1497344E4,9.327444E4,1.7254825E5,8.000178E4,1.6360728E5,2.0277088E5,1.5412512E5,1.5019962E5,2.0691923E5,1.2500243E5,6.1784266E4,1.6898575E5,3.02428E5,8.227444E4,2.576845E5,4.3181425E5,5.43394E5,1.6678488E5,1.4734931E5,0E0,0E0,0E0,0E0,0E0,0E0,0E0,0E0,0E0,0E0,0E0,0E0,0E0,0E0,0E0,0E0,0E0,0E0,0E0,0E0,0E0,0E0,0E0,0E0,0E0,0E0,0E0,0E0,0E0,0E0,0E0,0E0,0E0,0E0,0E0,0E0,0E0,0E0,0E0,0E0,0E0,0E0,0E0,0E0,0E0,0E0,0E0,0E0,0E0,0E0,0E0,0E0,0E0,0E0,0E0,0E0],"parents":[2147483647,0,0,1,1,2,2,3,3,4,4,5,5,6,6,7,7,8,8,9,9,10,10,11,11,12,12,14,14,15,15,16,16,17,17,18,18,19,19,20,20,21,21,22,22,23,23,24,24,25,25,26,26,27,27,28,28,29,29,30,30,31,31,32,32,33,33,34,34,35,35,36,36,37,37,38,38,39,39,40,40,41,41,42,42,43,43,44,44,45,45,46,46,47,47,48,48,49,49,50,50,51,51,52,52,53,53,54,54,55,55,56,56],"right_children":[2,4,6,8,10,12,14,16,18,20,22,24,26,-1,28,30,32,34,36,38,40,42,44,46,48,50,52,54,56,58,60,62,64,66,68,70,72,74,76,78,80,82,84,86,88,90,92,94,96,98,100,102,104,106,108,110,112,-1,-1,-1,-1,-1,-1,-1,-1,-1,-1,-1,-1,-1,-1,-1,-1,-1,-1,-1,-1,-1,-1,-1,-1,-1,-1,-1,-1,-1,-1,-1,-1,-1,-1,-1,-1,-1,-1,-1,-1,-1,-1,-1,-1,-1,-1,-1,-1,-1,-1,-1,-1,-1,-1,-1,-1],"split_conditions":[1.555E2,8.6E1,3.15E2,6.4E1,8.660254E-1,1.37E2,-9.640935E-1,3.3333334E-1,2.51E1,-6.474428E-1,2.06E1,2.518E1,6.2E-1,1.3859787E1,2.4893981E-1,3.725E1,4.967E1,5E-1,1.786299E3,5.25E1,7.25E1,1.152E1,9.15756E2,7.905634E-1,6.5E-1,2.0167E2,3.3333334E-1,4.527447E-1,3.678E1,7.2E1,4E1,6.0897464E-1,4.175E0,9.78025E2,7.371439E1,3.048E1,-1.0196189E-1,3.6E0,1.0475E2,1.776544E3,7.0710677E-1,1.3175E2,5.3E1,9.17E0,1.68E2,9.55E1,-2.2252093E-1,1.965E2,1.0975E2,1.1E1,9.749279E-1,4.502E1,3.953118E-1,7E0,9.959246E-1,1.6484375E2,-6.7682765E-2,-2.164518E0,9.106E-1,1.4136325E1,-2.2751293E0,-2.3359041E0,-8.6802036E-1,-2.0679274E0,-1.3036687E0,-1.3978605E0,-2.4127117E-1,2.7587298E-1,7.694829E0,-8.375458E-1,-1.5385118E0,-2.1482446E0,-1.2133236E0,-2.1461565E0,-7.915744E-1,-1.5997244E0,-2.3508728E0,-6.236481E-1,-2.3609066E0,-5.4440673E-2,9.073456E-1,9.241875E-2,2.1866977E0,3.914996E0,-2.3278688E-1,2.849726E0,7.4227686E0,-3.8528818E-1,1.9716727E0,2.6743755E-1,2.356199E0,-2.09892E0,1.442085E0,-5.7014316E-1,3.4215496E0,-1.6130213E0,-1.1406088E-1,1.6827987E0,3.7910955E0,4.3135886E0,6.960744E0,5.762674E0,1.2360411E1,2.9407945E0,1.7383083E0,6.6402016E0,-5.6075583E0,6.6537356E0,3.1612113E0,4.5297256E-1,3.5168636E0,1.0055382E1,2.9096882E0],"split_indices":[15,20,15,15,44,21,42,30,8,42,2,8,10,0,41,15,20,47,55,18,15,8,55,41,10,15,30,42,5,4,17,42,5,13,39,8,42,5,20,55,47,21,19,5,0,20,46,15,20,49,45,4,41,51,42,38,42,0,0,0,0,0,0,0,0,0,0,0,0,0,0,0,0,0,0,0,0,0,0,0,0,0,0,0,0,0,0,0,0,0,0,0,0,0,0,0,0,0,0,0,0,0,0,0,0,0,0,0,0,0,0,0,0],"split_type":[0,0,0,0,0,0,0,0,0,0,0,0,0,0,0,0,0,0,0,0,0,0,0,0,0,0,0,0,0,0,0,0,0,0,0,0,0,0,0,0,0,0,0,0,0,0,0,0,0,0,0,0,0,0,0,0,0,0,0,0,0,0,0,0,0,0,0,0,0,0,0,0,0,0,0,0,0,0,0,0,0,0,0,0,0,0,0,0,0,0,0,0,0,0,0,0,0,0,0,0,0,0,0,0,0,0,0,0,0,0,0,0,0],"sum_hessian":[2.2455E4,1.6361E4,6.094E3,1.1679E4,4.682E3,4.567E3,1.527E3,8.891E3,2.788E3,3.272E3,1.41E3,1.256E3,3.311E3,6.2E1,1.465E3,1.05E2,8.786E3,9.66E2,1.822E3,5.04E2,2.768E3,7.14E2,6.96E2,9.04E2,3.52E2,1.347E3,1.964E3,1.121E3,3.44E2,7.9E1,2.6E1,6.59E3,2.196E3,5.22E2,4.44E2,1.194E3,6.28E2,2.62E2,2.42E2,7.35E2,2.033E3,2.06E2,5.08E2,2.42E2,4.54E2,6.93E2,2.11E2,7.7E1,2.75E2,3.85E2,9.62E2,4E1,1.924E3,2.8E1,1.093E3,3.12E2,3.2E1,7.4E1,5E0,1.9E1,7E0,6.462E3,1.28E2,1.277E3,9.19E2,1.77E2,3.45E2,4.39E2,5E0,4.99E2,6.95E2,4.82E2,1.46E2,9.5E1,1.67E2,9.6E1,1.46E2,6.48E2,8.7E1,1.31E3,7.23E2,6.8E1,1.38E2,2.4E1,4.84E2,2.15E2,2.7E1,8.5E1,3.69E2,1.01E2,5.92E2,5.5E1,1.56E2,3.8E1,3.9E1,1.3E2,1.45E2,1.91E2,1.94E2,8.35E2,1.27E2,3.4E1,6E0,1.209E3,7.15E2,1.1E1,1.7E1,9.64E2,1.29E2,5.4E1,2.58E2,1.9E1,1.3E1],"tree_param":{"num_deleted":"0","num_feature":"59","num_nodes":"113","size_leaf_vector":"1"}},{"base_weights":[6.1218183E-2,-2.4191977E1,6.7146675E1,-3.5402836E1,4.6557436E0,4.5486362E1,9.986414E1,-3.9030464E1,-1.4551165E1,1.8019733E1,-1.0866914E1,5.8273705E1,2.3563965E1,1.1864966E2,5.7091145E1,2.6043139E1,-3.9741302E1,-7.4664197E0,-3.0886568E1,9.188915E0,3.1925152E1,-2.1986233E1,-3.3464947E-1,3.2977684E1,6.8068504E1,-2.1039898E1,3.1418983E1,2.4722205E2,1.1364239E2,-1.7346899E1,6.261441E1,1.9235194E2,-3.5874237E1,-4.5536335E1,-3.450447E1,-1.6942326E1,6.705006E0,-3.826552E1,-1.632493E1,3.7087507E0,2.0461552E1,5.1558517E1,1.5340729E1,-1.4791074E1,-2.926428E1,5.2399002E1,-2.3759573E0,4.621905E1,1.3576242E1,7.236529E1,3.3814663E1,-2.4892967E1,3.703186E0,5.5036137E1,1.8146002E1,2.9264143E0,1.3151229E1,1.3027435E2,8.761768E1,1.3350605E1,-4.9806328E1,1.4338017E2,5.566529E1,-1.7278451E0,1.3145682E1,-2.074603E0,2.0631945E0,-2.2913814E0,5.68094E-1,-1.0298071E0,-1.8512472E0,-9.762088E-1,8.397625E-1,1.0799264E0,-5.5985105E-1,-2.050472E0,-1.2091268E0,-1.3559434E0,2.1613725E-1,1.8800642E0,7.987999E-2,1.5461733E0,-1.98433E-2,1.7004486E0,3.4203904E0,2.0384948E0,1.2364467E-1,-1.3172705E0,-4.494113E-1,-1.6355323E0,-8.412191E-1,1.4475775E0,6.109547E0,-1.4709313E0,4.426979E-2,3.065433E0,1.1358722E0,1.8429686E-1,2.7944021E0,3.8680553E0,1.8986222E0,9.72888E-1,3.8864574E0,-1.8531178E0,-2.7072787E-1,3.3599632E0,8.123788E-1,1.2770728E0,-8.380665E-1,8.457034E0,5.4191127E0,-1.77469E0,4.5774584E0,-2.7014455E-1,1.8621358E0,-3.1629264E0,-9.431289E-1,8.646939E0,4.298077E0,2.3188162E0,5.010044E0],"categories":[],"categories_nodes":[],"categories_segments":[],"categories_sizes":[],"default_left":[0,0,0,0,0,0,0,0,0,0,0,0,0,0,0,0,0,0,0,0,0,0,0,0,0,0,0,0,0,0,0,0,0,0,0,0,0,0,0,0,0,0,0,0,0,0,0,0,0,0,0,0,0,0,0,0,0,0,0,0,0,0,0,0,0,0,0,0,0,0,0,0,0,0,0,0,0,0,0,0,0,0,0,0,0,0,0,0,0,0,0,0,0,0,0,0,0,0,0,0,0,0,0,0,0,0,0,0,0,0,0,0,0,0,0,0,0,0,0,0,0],"id":12,"left_children":[1,3,5,7,9,11,13,15,17,19,21,23,25,27,29,31,33,35,37,39,41,43,45,47,49,51,53,55,57,59,61,63,65,67,69,71,73,75,77,79,81,83,85,87,89,91,93,95,97,99,101,103,-1,105,107,-1,-1,109,111,113,115,117,119,-1,-1,-1,-1,-1,-1,-1,-1,-1,-1,-1,-1,-1,-1,-1,-1,-1,-1,-1,-1,-1,-1,-1,-1,-1,-1,-1,-1,-1,-1,-1,-1,-1,-1,-1,-1,-1,-1,-1,-1,-1,-1,-1,-1,-1,-1,-1,-1,-1,-1,-1,-1,-1,-1,-1,-1,-1,-1],"loss_changes":[3.656277E7,5.33801E6,4.224096E6,8.98515E5,9.585901E5,1.0055695E6,1.902372E6,4.6934E5,2.0380522E5,3.046097E5,2.5037725E5,5.596965E5,4.648935E5,1.03417E6,2.9998575E5,1.1396151E6,3.0236E5,1.65421E5,5.6645938E4,9.382348E4,3.1309525E5,5.402853E4,1.18427016E5,1.6250506E5,2.38047E5,7.476537E4,3.52282E5,1.664975E5,6.76804E5,5.148254E4,3.719855E5,4.8941762E5,3.6813336E4,7.9262E4,1.838055E5,6.461167E4,1.319542E5,1.2649125E4,4.0456652E4,7.320944E4,1.0846711E5,1.28076E5,1.7136162E5,3.496343E4,2.1571812E4,6.3556555E4,9.342528E4,1.3230275E5,1.0817944E5,2.463735E5,1.1449516E5,4.531107E4,0E0,1.8998312E5,1.8707453E5,0E0,0E0,8.05304E5,3.047875E5,1.2298855E4,9.213328E3,7.508625E4,2.53909E5,0E0,0E0,0E0,0E0,0E0,0E0,0E0,0E0,0E0,0E0,0E0,0E0,0E0,0E0,0E0,0E0,0E0,0E0,0E0,0E0,0E0,0E0,0E0,0E0,0E0,0E0,0E0,0E0,0E0,0E0,0E0,0E0,0E0,0E0,0E0,0E0,0E0,0E0,0E0,0E0,0E0,0E0,0E0,0E0,0E0,0E0,0E0,0E0,0E0,0E0,0E0,0E0,0E0,0E0,0E0,0E0,0E0,0E0],"parents":[2147483647,0,0,1,1,2,2,3,3,4,4,5,5,6,6,7,7,8,8,9,9,10,10,11,11,12,12,13,13,14,14,15,15,16,16,17,17,18,18,19,19,20,20,21,21,22,22,23,23,24,24,25,25,26,26,27,27,28,28,29,29,30,30,31,31,32,32,33,33,34,34,35,35,36,36,37,37,38,38,39,39,40,40,41,41,42,42,43,43,44,44,45,45,46,46,47,47,48,48,49,49,50,50,51,51,53,53,54,54,57,57,58,58,59,59,60,60,61,61,62,62],"right_children":[2,4,6,8,10,12,14,16,18,20,22,24,26,28,30,32,34,36,38,40,42,44,46,48,50,52,54,56,58,60,62,64,66,68,70,72,74,76,78,80,82,84,86,88,90,92,94,96,98,100,102,104,-1,106,108,-1,-1,110,112,114,116,118,120,-1,-1,-1,-1,-1,-1,-1,-1,-1,-1,-1,-1,-1,-1,-1,-1,-1,-1,-1,-1,-1,-1,-1,-1,-1,-1,-1,-1,-1,-1,-1,-1,-1,-1,-1,-1,-1,-1,-1,-1,-1,-1,-1,-1,-1,-1,-1,-1,-1,-1,-1,-1,-1,-1,-1,-1,-1,-1],"split_conditions":[1.5725E2,8.35E1,4.309E2,8.25E1,2.298E1,3.953118E-1,2.4893981E-1,3.3333334E-1,1.471375E3,3.094E2,9E1,3.221E2,-5.5205756E-1,-9.640935E-1,-4.6230483E-1,9.6375E2,3.6E1,3.083E2,2.72E1,1.4475E2,1.08732E3,2.938E1,9E0,1.95E1,1.58E0,3.0333167E2,1.0299437E3,1.863E2,6.234898E-1,3.4433E2,-3.8044736E-1,1.4E1,2.1E1,1.139E2,2.4911903E1,9.3545544E-1,1.5454545E0,6.350683E-1,4.1692588E-1,8.38E0,7.508E1,9.3545544E-1,-4.3830672E-1,1.189E2,1.7223625E-1,6E0,-6.572213E-1,9.8133194E-1,4.944E2,8.6754715E1,7.818315E-1,9.98E1,3.703186E0,3.95E1,2.75E1,2.9264143E0,1.3151229E1,2.022E3,-7.7075946E-1,4.675E0,3.335E2,2.895E1,9.919E2,-1.7278451E0,1.3145682E1,-2.074603E0,2.0631945E0,-2.2913814E0,5.68094E-1,-1.0298071E0,-1.8512472E0,-9.762088E-1,8.397625E-1,1.0799264E0,-5.5985105E-1,-2.050472E0,-1.2091268E0,-1.3559434E0,2.1613725E-1,1.8800642E0,7.987999E-2,1.5461733E0,-1.98433E-2,1.7004486E0,3.4203904E0,2.0384948E0,1.2364467E-1,-1.3172705E0,-4.494113E-1,-1.6355323E0,-8.412191E-1,1.4475775E0,6.109547E0,-1.4709313E0,4.426979E-2,3.065433E0,1.1358722E0,1.8429686E-1,2.7944021E0,3.8680553E0,1.8986222E0,9.72888E-1,3.8864574E0,-1.8531178E0,-2.7072787E-1,3.3599632E0,8.123788E-1,1.2770728E0,-8.380665E-1,8.457034E0,5.4191127E0,-1.77469E0,4.5774584E0,-2.7014455E-1,1.8621358E0,-3.1629264E0,-9.431289E-1,8.646939E0,4.298077E0,2.3188162E0,5.010044E0],"split_indices":[15,15,14,20,8,41,41,30,55,14,20,28,53,42,42,13,15,28,3,20,55,8,56,8,10,32,55,25,46,40,42,20,51,4,8,42,10,41,41,8,4,42,41,28,42,56,42,42,26,36,45,12,0,7,8,0,0,50,54,7,15,8,13,0,0,0,0,0,0,0,0,0,0,0,0,0,0,0,0,0,0,0,0,0,0,0,0,0,0,0,0,0,0,0,0,0,0,0,0,0,0,0,0,0,0,0,0,0,0,0,0,0,0,0,0,0,0,0,0,0,0],"split_type":[0,0,0,0,0,0,0,0,0,0,0,0,0,0,0,0,0,0,0,0,0,0,0,0,0,0,0,0,0,0,0,0,0,0,0,0,0,0,0,0,0,0,0,0,0,0,0,0,0,0,0,0,0,0,0,0,0,0,0,0,0,0,0,0,0,0,0,0,0,0,0,0,0,0,0,0,0,0,0,0,0,0,0,0,0,0,0,0,0,0,0,0,0,0,0,0,0,0,0,0,0,0,0,0,0,0,0,0,0,0,0,0,0,0,0,0,0,0,0,0,0],"sum_hessian":[2.247E4,1.6504E4,5.966E3,1.1885E4,4.619E3,3.591E3,2.375E3,1.0123E4,1.762E3,2.482E3,2.137E3,2.267E3,1.324E3,1.649E3,7.26E2,1.09E2,1.0014E4,1.23E3,5.32E2,1.519E3,9.63E2,1.039E3,1.098E3,6.34E2,1.633E3,1.98E2,1.126E3,6E1,1.589E3,5E1,6.76E2,2.9E1,8E1,4.75E3,5.264E3,7.37E2,4.93E2,3.52E2,1.8E2,1.023E3,4.96E2,4.4E2,5.23E2,5.24E2,5.15E2,4E1,1.058E3,3.76E2,2.58E2,1.45E3,1.83E2,1.91E2,7E0,4.04E2,7.22E2,5E0,5.5E1,9.67E2,6.22E2,2.6E1,2.4E1,5.2E1,6.24E2,7E0,2.2E1,7.5E1,5E0,4.726E3,2.4E1,8.09E2,4.455E3,6.85E2,5.2E1,2.69E2,2.24E2,2.93E2,5.9E1,1.18E2,6.2E1,5.9E1,9.64E2,3.3E2,1.66E2,2.17E2,2.23E2,1.75E2,3.48E2,1.74E2,3.5E2,4.02E2,1.13E2,3.1E1,9E0,1.13E2,9.45E2,2.28E2,1.48E2,2.1E2,4.8E1,1.265E3,1.85E2,1.39E2,4.4E1,1.17E2,7.4E1,3.07E2,9.7E1,5.96E2,1.26E2,3.46E2,6.21E2,1.9E1,6.03E2,1.5E1,1.1E1,1.6E1,8E0,3.3E1,1.9E1,5.18E2,1.06E2],"tree_param":{"num_deleted":"0","num_feature":"59","num_nodes":"121","size_leaf_vector":"1"}},{"base_weights":[3.9759435E-2,-2.3283112E1,6.2824707E1,-3.4195335E1,3.110666E0,4.2515602E1,9.712248E1,-3.785366E1,-1.5870751E1,-8.91102E0,1.7148186E1,5.479106E1,2.176702E1,1.1378124E2,5.6142178E1,2.498868E1,-3.8568825E1,-6.845637E0,-2.662525E1,-1.4876275E1,4.3429837E0,4.2247864E1,1.0489242E1,2.8440659E1,6.2137657E1,4.6711304E1,1.1304061E1,1.4246362E2,9.9600876E1,8.322689E1,4.250234E1,-3.9144558E1,1.7387567E2,-4.1948425E1,-3.070579E1,-1.6325806E1,4.277802E0,-3.383289E1,-1.27662E1,-2.1644335E1,-3.3159964E0,-1.2642283E1,1.2971381E1,2.3717499E1,6.1830494E1,6.0965023E0,3.476632E1,2.4499876E1,7.551161E1,6.054106E1,2.1466144E2,1.9112541E1,6.0197124E1,2.4205576E1,-4.6752753E0,2.3814897E2,1.3106033E2,1.0615205E2,2.7523312E1,1.07213745E2,5.3311237E1,-8.30553E0,5.23812E1,-7.0356977E-1,-2.0532615E0,1.2601743E1,-1.554697E0,-2.267219E0,-1.8849821E0,-1.5804762E0,3.766944E-1,-1.19323194E-1,-1.1357254E0,-1.2967572E-2,2.2234657E0,1.2027737E0,-1.7396243E0,3.272469E0,-7.5585663E-1,-1.3507334E0,-6.2629837E-1,9.83517E-1,-4.7329354E-1,-9.4044524E-1,2.2885786E-1,1.507665E0,2.1840417E-1,6.8439746E-1,2.4899843E0,3.9433318E-1,3.5390027E0,-4.5725122E-1,5.4257673E-1,5.2300944E0,1.2908721E0,5.2509665E-1,1.9612198E0,2.6141548E0,6.998442E0,2.7486305E0,4.7700744E0,3.002568E0,1.6082296E1,-1.9756483E0,1.523693E0,4.484506E0,2.1830716E0,-1.18847564E-1,1.6686642E0,-9.490785E-1,5.528378E-1,5.377299E0,1.2747735E1,5.703958E0,8.877959E0,4.896827E0,8.501577E0,5.325044E0,-1.4281596E0,4.445608E0,7.3723826E0,1.3294588E0,5.0707374E0,4.4052348E-1,-2.8256934E0,8.5650826E-1,3.2603796E0],"categories":[],"categories_nodes":[],"categories_segments":[],"categories_sizes":[],"default_left":[0,0,0,0,0,0,0,0,0,0,0,0,0,0,0,0,0,0,0,0,0,0,0,0,0,0,0,0,0,0,0,0,0,0,0,0,0,0,0,0,0,0,0,0,0,0,0,0,0,0,0,0,0,0,0,0,0,0,0,0,0,0,0,0,0,0,0,0,0,0,0,0,0,0,0,0,0,0,0,0,0,0,0,0,0,0,0,0,0,0,0,0,0,0,0,0,0,0,0,0,0,0,0,0,0,0,0,0,0,0,0,0,0,0,0,0,0,0,0,0,0,0,0,0,0,0,0],"id":13,"left_children":[1,3,5,7,9,11,13,15,17,19,21,23,25,27,29,31,33,35,37,39,41,43,45,47,49,51,53,55,57,59,61,63,65,67,69,71,73,75,77,79,81,83,85,87,89,91,93,95,97,99,101,103,105,107,109,111,113,115,117,119,121,123,125,-1,-1,-1,-1,-1,-1,-1,-1,-1,-1,-1,-1,-1,-1,-1,-1,-1,-1,-1,-1,-1,-1,-1,-1,-1,-1,-1,-1,-1,-1,-1,-1,-1,-1,-1,-1,-1,-1,-1,-1,-1,-1,-1,-1,-1,-1,-1,-1,-1,-1,-1,-1,-1,-1,-1,-1,-1,-1,-1,-1,-1,-1,-1,-1],"loss_changes":[3.2805274E7,4.704829E6,4.22258E6,7.74148E5,8.066314E5,9.699725E5,1.53374E6,4.33897E5,1.8665938E5,2.0365314E5,3.680947E5,4.61871E5,3.698182E5,6.37796E5,2.3807062E5,1.0476042E6,2.51828E5,1.1058361E5,8.7272375E4,1.3888356E5,1.174085E5,1.6618106E5,1.8577323E5,9.535006E4,4.42871E5,1.54798E5,2.0647695E5,5.44904E5,5.05158E5,1.507175E5,2.1977581E5,3.1302578E3,5.3650544E5,9.4372E4,9.931725E4,5.035053E4,8.808902E4,3.2889E4,5.652102E4,5.45065E4,9.3061734E4,2.875625E4,7.836133E4,6.183897E4,1.0758306E5,1.0721575E5,1.641611E5,9.955284E4,5.2571812E4,3.546515E5,2.949615E5,9.3786875E4,1.3312412E5,1.350896E5,1.01039914E5,9.329925E4,3.54017E5,5.00803E5,4.061334E5,7.52515E4,1.245605E5,5.990755E4,1.6436756E5,0E0,0E0,0E0,0E0,0E0,0E0,0E0,0E0,0E0,0E0,0E0,0E0,0E0,0E0,0E0,0E0,0E0,0E0,0E0,0E0,0E0,0E0,0E0,0E0,0E0,0E0,0E0,0E0,0E0,0E0,0E0,0E0,0E0,0E0,0E0,0E0,0E0,0E0,0E0,0E0,0E0,0E0,0E0,0E0,0E0,0E0,0E0,0E0,0E0,0E0,0E0,0E0,0E0,0E0,0E0,0E0,0E0,0E0,0E0,0E0,0E0,0E0,0E0,0E0],"parents":[2147483647,0,0,1,1,2,2,3,3,4,4,5,5,6,6,7,7,8,8,9,9,10,10,11,11,12,12,13,13,14,14,15,15,16,16,17,17,18,18,19,19,20,20,21,21,22,22,23,23,24,24,25,25,26,26,27,27,28,28,29,29,30,30,31,31,32,32,33,33,34,34,35,35,36,36,37,37,38,38,39,39,40,40,41,41,42,42,43,43,44,44,45,45,46,46,47,47,48,48,49,49,50,50,51,51,52,52,53,53,54,54,55,55,56,56,57,57,58,58,59,59,60,60,61,61,62,62],"right_children":[2,4,6,8,10,12,14,16,18,20,22,24,26,28,30,32,34,36,38,40,42,44,46,48,50,52,54,56,58,60,62,64,66,68,70,72,74,76,78,80,82,84,86,88,90,92,94,96,98,100,102,104,106,108,110,112,114,116,118,120,122,124,126,-1,-1,-1,-1,-1,-1,-1,-1,-1,-1,-1,-1,-1,-1,-1,-1,-1,-1,-1,-1,-1,-1,-1,-1,-1,-1,-1,-1,-1,-1,-1,-1,-1,-1,-1,-1,-1,-1,-1,-1,-1,-1,-1,-1,-1,-1,-1,-1,-1,-1,-1,-1,-1,-1,-1,-1,-1,-1,-1,-1,-1,-1,-1,-1],"split_conditions":[1.555E2,8E1,4.373E2,8.275E1,1.1367E2,3.953118E-1,2.4893981E-1,3.3333334E-1,1.30134E3,9.8528E2,9.15756E2,3.123E2,1.01348E3,1.005836E3,1.0099944E3,5.72E1,4.767E1,1.01E2,1.885E1,5E-1,2.112E2,1.99E1,2.0699333E2,4.177E2,1E0,1.465E2,1.025E0,1.24E2,-9.2331335E-2,1.2246469E-16,9.7855E2,-9.928872E-1,5.852E1,3.525E1,9.9255E2,1E1,1.66E2,8.25E0,2E-1,7.0710677E-1,5.7E-1,5E-1,-4.3388373E-1,3.785E2,1.15E2,1.692E1,-7.944973E-1,4.3388373E-1,2.0658968E-1,9.749279E-1,2.745E1,9.78025E2,-4.3388373E-1,9.78025E2,9.8528E2,5.2975E2,9.9032E2,9.749279E-1,1.075261E3,4.556E2,1.088E1,2.5866666E2,1.4559708E2,-7.0356977E-1,-2.0532615E0,1.2601743E1,-1.554697E0,-2.267219E0,-1.8849821E0,-1.5804762E0,3.766944E-1,-1.19323194E-1,-1.1357254E0,-1.2967572E-2,2.2234657E0,1.2027737E0,-1.7396243E0,3.272469E0,-7.5585663E-1,-1.3507334E0,-6.2629837E-1,9.83517E-1,-4.7329354E-1,-9.4044524E-1,2.2885786E-1,1.507665E0,2.1840417E-1,6.8439746E-1,2.4899843E0,3.9433318E-1,3.5390027E0,-4.5725122E-1,5.4257673E-1,5.2300944E0,1.2908721E0,5.2509665E-1,1.9612198E0,2.6141548E0,6.998442E0,2.7486305E0,4.7700744E0,3.002568E0,1.6082296E1,-1.9756483E0,1.523693E0,4.484506E0,2.1830716E0,-1.18847564E-1,1.6686642E0,-9.490785E-1,5.528378E-1,5.377299E0,1.2747735E1,5.703958E0,8.877959E0,4.896827E0,8.501577E0,5.325044E0,-1.4281596E0,4.445608E0,7.3723826E0,1.3294588E0,5.0707374E0,4.4052348E-1,-2.8256934E0,8.5650826E-1,3.2603796E0],"split_indices":[15,15,14,21,20,41,41,30,55,13,55,28,55,55,55,4,15,20,2,44,14,2,38,14,57,20,10,21,41,47,13,41,4,20,13,51,34,20,6,47,10,47,45,28,34,2,41,45,54,45,3,13,45,13,13,0,13,45,55,28,5,21,38,0,0,0,0,0,0,0,0,0,0,0,0,0,0,0,0,0,0,0,0,0,0,0,0,0,0,0,0,0,0,0,0,0,0,0,0,0,0,0,0,0,0,0,0,0,0,0,0,0,0,0,0,0,0,0,0,0,0,0,0,0,0,0,0],"split_type":[0,0,0,0,0,0,0,0,0,0,0,0,0,0,0,0,0,0,0,0,0,0,0,0,0,0,0,0,0,0,0,0,0,0,0,0,0,0,0,0,0,0,0,0,0,0,0,0,0,0,0,0,0,0,0,0,0,0,0,0,0,0,0,0,0,0,0,0,0,0,0,0,0,0,0,0,0,0,0,0,0,0,0,0,0,0,0,0,0,0,0,0,0,0,0,0,0,0,0,0,0,0,0,0,0,0,0,0,0,0,0,0,0,0,0,0,0,0,0,0,0,0,0,0,0,0,0],"sum_hessian":[2.2401E4,1.6334E4,6.067E3,1.1556E4,4.778E3,3.812E3,2.255E3,9.632E3,1.924E3,2.574E3,2.204E3,2.394E3,1.418E3,1.602E3,6.53E2,1.08E2,9.524E3,1.047E3,8.77E2,1.775E3,7.99E2,4.61E2,1.743E3,5.23E2,1.871E3,4.18E2,1E3,5.27E2,1.075E3,2.17E2,4.36E2,7.6E1,3.2E1,6.658E3,2.866E3,5.65E2,4.82E2,5.76E2,3.01E2,1.119E3,6.56E2,2.69E2,5.3E2,2.38E2,2.23E2,1.477E3,2.66E2,4.84E2,3.9E1,1.853E3,1.8E1,1.38E2,2.8E2,5.53E2,4.47E2,5.4E1,4.73E2,9.85E2,9E1,1.19E2,9.8E1,7.1E1,3.65E2,6E0,7E1,2.3E1,9E0,3.695E3,2.963E3,2.8E3,6.6E1,1.78E2,3.87E2,4.34E2,4.8E1,9E0,5.67E2,8E0,2.93E2,7.03E2,4.16E2,1.38E2,5.18E2,1.98E2,7.1E1,1.76E2,3.54E2,1.73E2,6.5E1,3.2E1,1.91E2,3.51E2,1.126E3,2.9E1,2.37E2,2.49E2,2.35E2,3E1,9E0,1.6E3,2.53E2,8E0,1E1,2.2E1,1.16E2,9.9E1,1.81E2,1.42E2,4.11E2,2.34E2,2.13E2,7E0,4.7E1,3.49E2,1.24E2,8.75E2,1.1E2,3.7E1,5.3E1,8.4E1,3.5E1,6.4E1,3.4E1,5.3E1,1.8E1,9.8E1,2.67E2],"tree_param":{"num_deleted":"0","num_feature":"59","num_nodes":"127","size_leaf_vector":"1"}},{"base_weights":[-6.85013E-2,-2.0362005E1,6.507912E1,-3.1607979E1,6.3495426E0,5.376791E1,1.1527037E2,-3.493763E1,-1.08372555E1,2.2339737E1,-4.9087443E0,2.475084E1,6.334672E1,1.2075621E1,1.0645232E2,2.2122618E1,-3.5592068E1,-2.4630985E1,-3.4722986E0,2.5382639E1,-7.872818E0,-3.1884148E1,-1.7783347E-1,7.233126E0,3.8935104E1,5.069954E1,8.302664E1,1.1674127E2,3.7315136E1,1.8232275E2,-3.2125996E1,-3.9615215E1,-2.8047289E1,-3.068879E1,3.6034427E0,-1.2511815E1,1.0904288E1,3.4199566E1,1.3331973E1,2.8289766E1,-1.6979753E1,-2.3995306E1,-3.9559258E1,-8.067782E0,1.3402582E1,3.696324E1,-1.000809E0,1.8856064E1,4.8578087E1,1.08709984E2,4.6617786E1,9.73063E1,5.4034744E1,1.2712495E2,6.760345E1,-9.552744E1,5.4347668E1,-1.968604E0,1.2575346E1,-1.9036369E0,2.8241382E0,-2.3072226E0,-1.8643334E0,-7.12818E-1,-1.5960044E0,-1.9522651E0,-1.1223592E0,1.587849E0,-1.0296254E0,2.3958166E0,-7.036497E-1,-1.1751177E-1,1.5973017E0,1.1373779E0,2.6995542E0,2.3833795E0,3.3800206E-1,-2.689936E-1,3.3934948E0,-1.9557797E0,-1.9657812E-1,-2.6748497E0,-9.172641E-1,-2.066294E0,1.5610551E0,3.0220335E0,-4.5529696E-1,4.4503403E-1,2.00226E0,-3.7710184E-1,3.6578948E0,-8.9936364E-1,5.2637285E-1,4.433174E0,6.691329E-1,5.1609917E0,2.0613847E0,3.7939317E0,9.459064E0,3.1439435E0,1.4768095E0,6.2564855E0,4.3689456E0,-7.7325773E-1,3.3006928E0,6.166476E0,1.6923174E1,5.969779E0,2.6856701E0,-2.4736402E0,-5.7808185E0,1.024751E1,1.7478116E0],"categories":[],"categories_nodes":[],"categories_segments":[],"categories_sizes":[],"default_left":[0,0,0,0,0,0,0,0,0,0,0,0,0,0,0,0,0,0,0,0,0,0,0,0,0,0,0,0,0,0,0,0,0,0,0,0,0,0,0,0,0,0,0,0,0,0,0,0,0,0,0,0,0,0,0,0,0,0,0,0,0,0,0,0,0,0,0,0,0,0,0,0,0,0,0,0,0,0,0,0,0,0,0,0,0,0,0,0,0,0,0,0,0,0,0,0,0,0,0,0,0,0,0,0,0,0,0,0,0,0,0,0,0],"id":14,"left_children":[1,3,5,7,9,11,13,15,17,19,21,23,25,-1,27,29,31,33,35,37,39,41,43,45,47,49,51,53,55,57,59,61,63,65,67,69,71,73,75,77,79,81,83,85,87,89,91,93,95,97,99,101,103,105,107,109,111,-1,-1,-1,-1,-1,-1,-1,-1,-1,-1,-1,-1,-1,-1,-1,-1,-1,-1,-1,-1,-1,-1,-1,-1,-1,-1,-1,-1,-1,-1,-1,-1,-1,-1,-1,-1,-1,-1,-1,-1,-1,-1,-1,-1,-1,-1,-1,-1,-1,-1,-1,-1,-1,-1,-1,-1],"loss_changes":[2.9595938E7,5.127683E6,3.012388E6,8.30362E5,9.106618E5,1.205009E6,1.061897E6,3.87355E5,1.6865584E5,1.923415E5,3.7889288E5,2.6782388E5,8.07937E5,0E0,6.46528E5,1.0313522E6,3.09559E5,9.897094E4,1.4101023E5,2.013125E5,6.371177E4,2.5873438E4,2.708731E5,1.1851817E5,1.1448256E5,4.65896E5,5.22585E5,3.9755E5,2.7670912E5,4.7003556E5,4.9047547E4,9.9733E4,1.8984325E5,3.1906188E4,7.081773E4,6.3504227E4,1.1693348E5,2.47183E5,1.8110145E5,5.233843E4,4.432645E4,3.5856016E4,2.9174562E4,1.1427526E5,1.1107009E5,1.6969138E5,7.460265E4,7.331991E4,1.5720312E5,3.2910262E5,5.147865E5,2.24677E5,3.5318812E5,4.84449E5,9.502156E4,7.2327812E3,3.053184E5,0E0,0E0,0E0,0E0,0E0,0E0,0E0,0E0,0E0,0E0,0E0,0E0,0E0,0E0,0E0,0E0,0E0,0E0,0E0,0E0,0E0,0E0,0E0,0E0,0E0,0E0,0E0,0E0,0E0,0E0,0E0,0E0,0E0,0E0,0E0,0E0,0E0,0E0,0E0,0E0,0E0,0E0,0E0,0E0,0E0,0E0,0E0,0E0,0E0,0E0,0E0,0E0,0E0,0E0,0E0,0E0],"parents":[2147483647,0,0,1,1,2,2,3,3,4,4,5,5,6,6,7,7,8,8,9,9,10,10,11,11,12,12,14,14,15,15,16,16,17,17,18,18,19,19,20,20,21,21,22,22,23,23,24,24,25,25,26,26,27,27,28,28,29,29,30,30,31,31,32,32,33,33,34,34,35,35,36,36,37,37,38,38,39,39,40,40,41,41,42,42,43,43,44,44,45,45,46,46,47,47,48,48,49,49,50,50,51,51,52,52,53,53,54,54,55,55,56,56],"right_children":[2,4,6,8,10,12,14,16,18,20,22,24,26,-1,28,30,32,34,36,38,40,42,44,46,48,50,52,54,56,58,60,62,64,66,68,70,72,74,76,78,80,82,84,86,88,90,92,94,96,98,100,102,104,106,108,110,112,-1,-1,-1,-1,-1,-1,-1,-1,-1,-1,-1,-1,-1,-1,-1,-1,-1,-1,-1,-1,-1,-1,-1,-1,-1,-1,-1,-1,-1,-1,-1,-1,-1,-1,-1,-1,-1,-1,-1,-1,-1,-1,-1,-1,-1,-1,-1,-1,-1,-1,-1,-1,-1,-1,-1,-1],"split_conditions":[1.72E2,8.575E1,3.5833334E2,9.433E1,1.9625E1,1.385E2,-9.640935E-1,3.3333334E-1,-6.733502E-2,1.6185173E0,-6.572213E-1,6.6528654E-1,9.3E1,1.2075621E1,8.99E1,9.6375E2,4.825E1,8.916402E-1,1.07E2,1.0561875E3,1.185E1,6.234898E-1,1.3175E2,-8.247651E-1,-2.5881904E-1,1E1,3.0471924E-1,2.4893981E-1,-2.5881904E-1,3.7645832E1,1.81E2,2.7100695E1,2.51E1,6.522222E1,9.738922E-1,4E-1,1.66E2,1.93E2,-4.3830672E-1,2.4893981E-1,9.8312E2,3.439806E-2,9.8415E2,-6.072676E-1,2.0475E2,-9.0938824E-1,8.916402E-1,9.76E2,7.2696364E-1,7.685E1,9.94111E2,-7.4944234E-1,9.7855E2,2.3224293E-1,-4.0024394E-1,1.8225E2,-9.556633E-1,-1.968604E0,1.2575346E1,-1.9036369E0,2.8241382E0,-2.3072226E0,-1.8643334E0,-7.12818E-1,-1.5960044E0,-1.9522651E0,-1.1223592E0,1.587849E0,-1.0296254E0,2.3958166E0,-7.036497E-1,-1.1751177E-1,1.5973017E0,1.1373779E0,2.6995542E0,2.3833795E0,3.3800206E-1,-2.689936E-1,3.3934948E0,-1.9557797E0,-1.9657812E-1,-2.6748497E0,-9.172641E-1,-2.066294E0,1.5610551E0,3.0220335E0,-4.5529696E-1,4.4503403E-1,2.00226E0,-3.7710184E-1,3.6578948E0,-8.9936364E-1,5.2637285E-1,4.433174E0,6.691329E-1,5.1609917E0,2.0613847E0,3.7939317E0,9.459064E0,3.1439435E0,1.4768095E0,6.2564855E0,4.3689456E0,-7.7325773E-1,3.3006928E0,6.166476E0,1.6923174E1,5.969779E0,2.6856701E0,-2.4736402E0,-5.7808185E0,1.024751E1,1.7478116E0],"split_indices":[15,15,15,21,8,21,42,30,53,53,42,42,3,0,9,13,20,41,20,55,8,46,21,41,47,56,41,41,48,38,0,38,8,38,41,10,21,21,41,41,13,41,13,42,38,41,41,13,42,9,55,41,13,41,42,1,42,0,0,0,0,0,0,0,0,0,0,0,0,0,0,0,0,0,0,0,0,0,0,0,0,0,0,0,0,0,0,0,0,0,0,0,0,0,0,0,0,0,0,0,0,0,0,0,0,0,0,0,0,0,0,0,0],"split_type":[0,0,0,0,0,0,0,0,0,0,0,0,0,0,0,0,0,0,0,0,0,0,0,0,0,0,0,0,0,0,0,0,0,0,0,0,0,0,0,0,0,0,0,0,0,0,0,0,0,0,0,0,0,0,0,0,0,0,0,0,0,0,0,0,0,0,0,0,0,0,0,0,0,0,0,0,0,0,0,0,0,0,0,0,0,0,0,0,0,0,0,0,0,0,0,0,0,0,0,0,0,0,0,0,0,0,0,0,0,0,0,0,0],"sum_hessian":[2.2384E4,1.7068E4,5.316E3,1.2011E4,5.057E3,4.34E3,9.76E2,1.0351E4,1.66E3,2.089E3,2.968E3,1.078E3,3.262E3,6.2E1,9.14E2,1.17E2,1.0234E4,5.77E2,1.083E3,1.898E3,1.91E2,4.42E2,2.526E3,4.83E2,5.95E2,1.988E3,1.274E3,7.95E2,1.19E2,2.9E1,8.8E1,6.672E3,3.562E3,4.75E2,1.02E2,6.65E2,4.18E2,1.095E3,8.03E2,3.8E1,1.53E2,2.2E2,2.22E2,1.598E3,9.28E2,1.04E2,3.79E2,1.94E2,4.01E2,1.29E2,1.859E3,8.52E2,4.22E2,6.55E2,1.4E2,1.3E1,1.06E2,7E0,2.2E1,8.3E1,5E0,1.749E3,4.923E3,7.82E2,2.78E3,2.34E2,2.41E2,4.7E1,5.5E1,1.6E1,6.49E2,2.57E2,1.61E2,6.95E2,4E2,1.28E2,6.75E2,2.1E1,1.7E1,5.6E1,9.7E1,3.4E1,1.86E2,2.17E2,5E0,2.3E1,1.575E3,7.95E2,1.33E2,4.7E1,5.7E1,1.53E2,2.26E2,1.3E1,1.81E2,4.6E1,3.55E2,9.3E1,3.6E1,9.51E2,9.08E2,2.21E2,6.31E2,6.2E1,3.6E2,6.45E2,1E1,2.8E1,1.12E2,5E0,8E0,1.1E1,9.5E1],"tree_param":{"num_deleted":"0","num_feature":"59","num_nodes":"113","size_leaf_vector":"1"}},{"base_weights":[-2.2662282E-2,-2.4350739E1,4.7540096E1,-3.252611E1,-6.112853E0,2.7605656E1,7.861257E1,-3.8496567E1,-2.5907053E1,-1.4439915E1,6.100773E0,1.3126227E0,4.0211716E1,6.5324745E1,1.15214676E2,-3.882481E1,1.7440804E1,1.5850604E2,-2.705019E1,-3.2669518E0,-2.1703747E1,2.1491081E1,-1.100778E0,-2.4647808E1,8.319503E0,3.8872967E1,2.1106725E2,8.047216E1,4.3965496E1,1.1460129E1,1.0581839E2,-1.621375E1,-3.9439857E1,7.570173E0,-1.2974631E1,1.1260547E1,-2.6541882E0,-1.0730853E1,-3.034151E1,-5.910512E0,2.5014423E1,-2.6753231E1,-1.802776E0,1.9405807E1,7.7207117E0,1.6307402E1,-6.083525E0,2.0681162E1,-2.7597412E1,-1.1947716E1,1.4301439E1,4.2955235E1,8.092926E-3,7.142354E0,1.5444783E1,7.3211006E1,1.3218646E2,3.351734E1,8.352354E1,1.1773202E2,4.6261658E1,2.2391279E0,-9.841275E-1,-2.0848968E0,-1.759034E0,-1.51357E0,1.5944558E0,-1.3617905E0,-2.5831014E-1,-1.5284239E0,3.6952202E0,-7.4081665E-1,1.5767089E-1,6.56252E0,5.956764E-1,-1.6686567E0,-1.080153E0,1.0993769E0,-1.0722923E0,9.156958E-1,6.076954E0,2.724875E-1,3.3288956E0,2.938215E-1,-6.0316724E-1,4.3484626E0,-1.537917E0,-6.1664534E-1,-1.6236706E0,-2.415526E0,-1.9156563E-1,1.6070312E-1,1.1941354E0,2.8293903E0,1.7864275E0,-2.1191933E0,6.8170214E-1,2.5870657E0,4.614822E0,1.1300117E1,4.7075E0,6.5668315E-1,2.2590547E0,5.0908337E0,1.8121983E0,6.1755614E0,1.6434243E0,3.2153013E0,-4.940996E0],"categories":[],"categories_nodes":[],"categories_segments":[],"categories_sizes":[],"default_left":[0,0,0,0,0,0,0,0,0,0,0,0,0,0,0,0,0,0,0,0,0,0,0,0,0,0,0,0,0,0,0,0,0,0,0,0,0,0,0,0,0,0,0,0,0,0,0,0,0,0,0,0,0,0,0,0,0,0,0,0,0,0,0,0,0,0,0,0,0,0,0,0,0,0,0,0,0,0,0,0,0,0,0,0,0,0,0,0,0,0,0,0,0,0,0,0,0,0,0,0,0,0,0,0,0,0,0,0,0],"id":15,"left_children":[1,3,5,7,9,11,13,15,17,19,21,23,25,27,29,31,33,35,37,39,41,43,45,47,49,51,53,55,57,-1,59,61,63,-1,65,-1,-1,67,69,71,73,75,77,79,-1,81,83,85,87,89,91,93,95,-1,-1,97,99,101,103,105,107,-1,-1,-1,-1,-1,-1,-1,-1,-1,-1,-1,-1,-1,-1,-1,-1,-1,-1,-1,-1,-1,-1,-1,-1,-1,-1,-1,-1,-1,-1,-1,-1,-1,-1,-1,-1,-1,-1,-1,-1,-1,-1,-1,-1,-1,-1,-1,-1],"loss_changes":[2.5867204E7,2.205013E6,4.683684E6,4.02569E5,4.65789E5,1.527939E6,1.430162E6,9.9221E4,1.02586925E6,2.2092375E5,2.0584256E5,2.7214797E5,7.045255E5,6.98862E5,8.17602E5,7.35675E4,1.3234945E5,4.3537738E5,2.58406E5,8.044386E4,1.6575969E5,1.6109466E5,1.0991275E5,4.3088125E4,1.4298831E5,4.90725E5,1.16048E5,4.668395E5,3.70418E5,0E0,5.110965E5,3.1137938E4,4.84865E4,0E0,2.191727E4,0E0,0E0,7.425319E4,9.709075E4,7.939619E4,1.2648069E5,4.414625E4,1.57022E5,6.2900953E4,0E0,1.5355831E5,7.05165E4,7.0871555E4,2.1853984E4,7.920626E4,9.659358E4,2.73731E5,1.7097892E5,0E0,0E0,4.52105E5,5.3182775E5,1.6963581E5,1.5890938E5,2.93148E5,3.2835703E5,0E0,0E0,0E0,0E0,0E0,0E0,0E0,0E0,0E0,0E0,0E0,0E0,0E0,0E0,0E0,0E0,0E0,0E0,0E0,0E0,0E0,0E0,0E0,0E0,0E0,0E0,0E0,0E0,0E0,0E0,0E0,0E0,0E0,0E0,0E0,0E0,0E0,0E0,0E0,0E0,0E0,0E0,0E0,0E0,0E0,0E0,0E0,0E0],"parents":[2147483647,0,0,1,1,2,2,3,3,4,4,5,5,6,6,7,7,8,8,9,9,10,10,11,11,12,12,13,13,14,14,15,15,16,16,17,17,18,18,19,19,20,20,21,21,22,22,23,23,24,24,25,25,26,26,27,27,28,28,30,30,31,31,32,32,34,34,37,37,38,38,39,39,40,40,41,41,42,42,43,43,45,45,46,46,47,47,48,48,49,49,50,50,51,51,52,52,55,55,56,56,57,57,58,58,59,59,60,60],"right_children":[2,4,6,8,10,12,14,16,18,20,22,24,26,28,30,32,34,36,38,40,42,44,46,48,50,52,54,56,58,-1,60,62,64,-1,66,-1,-1,68,70,72,74,76,78,80,-1,82,84,86,88,90,92,94,96,-1,-1,98,100,102,104,106,108,-1,-1,-1,-1,-1,-1,-1,-1,-1,-1,-1,-1,-1,-1,-1,-1,-1,-1,-1,-1,-1,-1,-1,-1,-1,-1,-1,-1,-1,-1,-1,-1,-1,-1,-1,-1,-1,-1,-1,-1,-1,-1,-1,-1,-1,-1,-1,-1],"split_conditions":[3.123E2,7.15E1,2.4233E2,3.975E1,2.226E2,4.179029E-1,3.76E2,1.139E2,6.68E1,2.27E1,1.0019664E3,-6.572213E-1,1E0,8.59061E-2,-9.640935E-1,2.088E1,2.175E1,1.3860212E1,2.4E1,3.35E2,8.916402E-1,4.23E2,-7.036774E-1,