{"learner":{"attributes":{"best_iteration":"649","best_score":"101.96305053298538","scikit_learn":"{\"_estimator_type\": \"regressor\"}"},"feature_names":[],"feature_types":[],"gradient_booster":{"model":{"cats":{"enc":[],"feature_segments":[],"sorted_idx":[]},"gbtree_model_param":{"num_parallel_tree":"1","num_trees":"700"},"iteration_indptr":[0,1,2,3,4,5,6,7,8,9,10,11,12,13,14,15,16,17,18,19,20,21,22,23,24,25,26,27,28,29,30,31,32,33,34,35,36,37,38,39,40,41,42,43,44,45,46,47,48,49,50,51,52,53,54,55,56,57,58,59,60,61,62,63,64,65,66,67,68,69,70,71,72,73,74,75,76,77,78,79,80,81,82,83,84,85,86,87,88,89,90,91,92,93,94,95,96,97,98,99,100,101,102,103,104,105,106,107,108,109,110,111,112,113,114,115,116,117,118,119,120,121,122,123,124,125,126,127,128,129,130,131,132,133,134,135,136,137,138,139,140,141,142,143,144,145,146,147,148,149,150,151,152,153,154,155,156,157,158,159,160,161,162,163,164,165,166,167,168,169,170,171,172,173,174,175,176,177,178,179,180,181,182,183,184,185,186,187,188,189,190,191,192,193,194,195,196,197,198,199,200,201,202,203,204,205,206,207,208,209,210,211,212,213,214,215,216,217,218,219,220,221,222,223,224,225,226,227,228,229,230,231,232,233,234,235,236,237,238,239,240,241,242,243,244,245,246,247,248,249,250,251,252,253,254,255,256,257,258,259,260,261,262,263,264,265,266,267,268,269,270,271,272,273,274,275,276,277,278,279,280,281,282,283,284,285,286,287,288,289,290,291,292,293,294,295,296,297,298,299,300,301,302,303,304,305,306,307,308,309,310,311,312,313,314,315,316,317,318,319,320,321,322,323,324,325,326,327,328,329,330,331,332,333,334,335,336,337,338,339,340,341,342,343,344,345,346,347,348,349,350,351,352,353,354,355,356,357,358,359,360,361,362,363,364,365,366,367,368,369,370,371,372,373,374,375,376,377,378,379,380,381,382,383,384,385,386,387,388,389,390,391,392,393,394,395,396,397,398,399,400,401,402,403,404,405,406,407,408,409,410,411,412,413,414,415,416,417,418,419,420,421,422,423,424,425,426,427,428,429,430,431,432,433,434,435,436,437,438,439,440,441,442,443,444,445,446,447,448,449,450,451,452,453,454,455,456,457,458,459,460,461,462,463,464,465,466,467,468,469,470,471,472,473,474,475,476,477,478,479,480,481,482,483,484,485,486,487,488,489,490,491,492,493,494,495,496,497,498,499,500,501,502,503,504,505,506,507,508,509,510,511,512,513,514,515,516,517,518,519,520,521,522,523,524,525,526,527,528,529,530,531,532,533,534,535,536,537,538,539,540,541,542,543,544,545,546,547,548,549,550,551,552,553,554,555,556,557,558,559,560,561,562,563,564,565,566,567,568,569,570,571,572,573,574,575,576,577,578,579,580,581,582,583,584,585,586,587,588,589,590,591,592,593,594,595,596,597,598,599,600,601,602,603,604,605,606,607,608,609,610,611,612,613,614,615,616,617,618,619,620,621,622,623,624,625,626,627,628,629,630,631,632,633,634,635,636,637,638,639,640,641,642,643,644,645,646,647,648,649,650,651,652,653,654,655,656,657,658,659,660,661,662,663,664,665,666,667,668,669,670,671,672,673,674,675,676,677,678,679,680,681,682,683,684,685,686,687,688,689,690,691,692,693,694,695,696,697,698,699,700],"tree_info":[0,0,0,0,0,0,0,0,0,0,0,0,0,0,0,0,0,0,0,0,0,0,0,0,0,0,0,0,0,0,0,0,0,0,0,0,0,0,0,0,0,0,0,0,0,0,0,0,0,0,0,0,0,0,0,0,0,0,0,0,0,0,0,0,0,0,0,0,0,0,0,0,0,0,0,0,0,0,0,0,0,0,0,0,0,0,0,0,0,0,0,0,0,0,0,0,0,0,0,0,0,0,0,0,0,0,0,0,0,0,0,0,0,0,0,0,0,0,0,0,0,0,0,0,0,0,0,0,0,0,0,0,0,0,0,0,0,0,0,0,0,0,0,0,0,0,0,0,0,0,0,0,0,0,0,0,0,0,0,0,0,0,0,0,0,0,0,0,0,0,0,0,0,0,0,0,0,0,0,0,0,0,0,0,0,0,0,0,0,0,0,0,0,0,0,0,0,0,0,0,0,0,0,0,0,0,0,0,0,0,0,0,0,0,0,0,0,0,0,0,0,0,0,0,0,0,0,0,0,0,0,0,0,0,0,0,0,0,0,0,0,0,0,0,0,0,0,0,0,0,0,0,0,0,0,0,0,0,0,0,0,0,0,0,0,0,0,0,0,0,0,0,0,0,0,0,0,0,0,0,0,0,0,0,0,0,0,0,0,0,0,0,0,0,0,0,0,0,0,0,0,0,0,0,0,0,0,0,0,0,0,0,0,0,0,0,0,0,0,0,0,0,0,0,0,0,0,0,0,0,0,0,0,0,0,0,0,0,0,0,0,0,0,0,0,0,0,0,0,0,0,0,0,0,0,0,0,0,0,0,0,0,0,0,0,0,0,0,0,0,0,0,0,0,0,0,0,0,0,0,0,0,0,0,0,0,0,0,0,0,0,0,0,0,0,0,0,0,0,0,0,0,0,0,0,0,0,0,0,0,0,0,0,0,0,0,0,0,0,0,0,0,0,0,0,0,0,0,0,0,0,0,0,0,0,0,0,0,0,0,0,0,0,0,0,0,0,0,0,0,0,0,0,0,0,0,0,0,0,0,0,0,0,0,0,0,0,0,0,0,0,0,0,0,0,0,0,0,0,0,0,0,0,0,0,0,0,0,0,0,0,0,0,0,0,0,0,0,0,0,0,0,0,0,0,0,0,0,0,0,0,0,0,0,0,0,0,0,0,0,0,0,0,0,0,0,0,0,0,0,0,0,0,0,0,0,0,0,0,0,0,0,0,0,0,0,0,0,0,0,0,0,0,0,0,0,0,0,0,0,0,0,0,0,0,0,0,0,0,0,0,0,0,0,0,0,0,0,0,0,0,0,0,0,0,0,0,0,0,0,0,0,0,0,0,0,0,0,0,0,0,0,0,0,0,0,0,0,0,0,0,0,0,0,0,0,0,0,0,0,0,0,0,0,0,0,0,0,0,0,0,0,0,0,0,0,0,0,0,0,0,0,0,0,0,0,0,0,0,0,0,0,0,0,0,0,0,0,0,0,0,0,0,0,0,0,0,0,0,0,0,0,0,0,0,0,0,0,0,0,0,0,0,0,0,0,0,0,0,0,0,0,0,0,0,0,0,0,0,0],"trees":[{"base_weights":[-1.4323381E0,-2.8261395E1,5.1564686E1,-4.2729355E1,6.201101E0,9.96442E1,1.670961E1,-5.128763E1,-2.37127E1,-1.7043562E1,1.2944079E1,1.757275E0,1.1267556E2,8.946026E0,2.2270136E0,-1.4453863E0,-2.695072E0,-3.0638243E1,-7.308426E0,-1.0539966E0,-5.0833005E-1,-5.697423E0,2.5913168E1,6.689495E0,8.979758E1,2.8164907E1,7.296668E-2,-4.6574664E-1,-3.5503323E1,1.355034E-1,-7.4258226E-1,-1.9438108E1,1.0221702E0,3.379937E1,-3.749663E-2,3.3770492E0,5.781753E0,7.8134626E-1,1.9049202E0,9.538228E0,-8.135124E0,-2.3053076E0,-1.2296296E0,-5.594133E-1,-1.2224133E0,5.6592005E-1,2.111162E0,-1.999967E-1,9.2497855E-1,-8.5358524E-1,2.2584632E-1],"categories":[],"categories_nodes":[],"categories_segments":[],"categories_sizes":[],"default_left":[0,0,0,0,0,0,0,0,0,0,0,0,0,0,0,0,0,0,0,0,0,0,0,0,0,0,0,0,0,0,0,0,0,0,0,0,0,0,0,0,0,0,0,0,0,0,0,0,0,0,0],"id":0,"left_children":[1,3,5,7,9,11,13,15,17,19,21,-1,23,25,-1,-1,-1,27,29,-1,-1,31,33,-1,35,37,39,-1,41,-1,-1,43,-1,45,-1,-1,-1,-1,-1,47,49,-1,-1,-1,-1,-1,-1,-1,-1,-1,-1],"loss_changes":[3.341726E5,7.804688E4,1.30724375E5,1.6686281E4,7.587311E3,2.3776656E4,9.75663E3,2.8290781E3,3.8659883E3,9.102661E1,9.092881E3,0E0,1.0284688E3,6.4780957E3,0E0,0E0,0E0,2.2627793E3,9.471093E2,0E0,0E0,6.144467E3,4.651301E3,0E0,1.3907734E3,8.991914E2,2.1752712E3,0E0,1.1798242E3,0E0,0E0,1.8112988E2,0E0,2.7415059E3,0E0,0E0,0E0,0E0,0E0,1.6511586E3,1.7731028E3,0E0,0E0,0E0,0E0,0E0,0E0,0E0,0E0,0E0,0E0],"parents":[2147483647,0,0,1,1,2,2,3,3,4,4,5,5,6,6,7,7,8,8,9,9,10,10,12,12,13,13,17,17,18,18,21,21,22,22,24,24,25,25,26,26,28,28,31,31,33,33,39,39,40,40],"right_children":[2,4,6,8,10,12,14,16,18,20,22,-1,24,26,-1,-1,-1,28,30,-1,-1,32,34,-1,36,38,40,-1,42,-1,-1,44,-1,46,-1,-1,-1,-1,-1,48,50,-1,-1,-1,-1,-1,-1,-1,-1,-1,-1],"split_conditions":[1.0410075E-1,5.3767735E-1,4.1105375E-1,1.332E2,1.1407849E1,1.01E0,5.857201E1,2.149E1,7.818315E-1,2.364E1,1.53E0,1.757275E0,-2.4123195E-1,9.944E1,2.2270136E0,-1.4453863E0,-2.695072E0,3.202E1,1.856E2,-1.0539966E0,-5.0833005E-1,6.234898E-1,1.3647E2,6.689495E0,2.2946E2,2.0186E2,1.716E1,-4.6574664E-1,7.34E1,1.355034E-1,-7.4258226E-1,2.7490229E1,1.0221702E0,3.758E1,-3.749663E-2,3.3770492E0,5.781753E0,7.8134626E-1,1.9049202E0,5.0926308E1,2.3691E2,-2.3053076E0,-1.2296296E0,-5.594133E-1,-1.2224133E0,5.6592005E-1,2.111162E0,-1.999967E-1,9.2497855E-1,-8.5358524E-1,2.2584632E-1],"split_indices":[40,39,39,21,28,6,37,4,43,4,10,0,48,18,0,0,0,7,21,0,0,44,18,0,11,0,8,0,19,0,0,31,0,9,0,0,0,0,0,37,0,0,0,0,0,0,0,0,0,0,0],"split_type":[0,0,0,0,0,0,0,0,0,0,0,0,0,0,0,0,0,0,0,0,0,0,0,0,0,0,0,0,0,0,0,0,0,0,0,0,0,0,0,0,0,0,0,0,0,0,0,0,0,0,0],"sum_hessian":[2.33E2,1.55E2,7.8E1,1.09E2,4.6E1,3.2E1,4.6E1,7.4E1,3.5E1,1E1,3.6E1,6E0,2.6E1,3.7E1,9E0,9E0,6.5E1,2.4E1,1.1E1,5E0,5E0,1.5E1,2.1E1,1.1E1,1.5E1,1.1E1,2.6E1,5E0,1.9E1,5E0,6E0,1E1,5E0,1.6E1,5E0,1E1,5E0,6E0,5E0,1.2E1,1.4E1,8E0,1.1E1,5E0,5E0,5E0,1.1E1,5E0,7E0,8E0,6E0],"tree_param":{"num_deleted":"0","num_feature":"54","num_nodes":"51","size_leaf_vector":"1"}},{"base_weights":[-2.4727445E0,-2.5093245E1,4.5376575E1,-4.0022514E1,7.773916E0,9.649138E1,1.8480793E1,-4.903546E1,-2.2559256E1,-2.4975696E0,2.3544636E1,3.789811E0,5.985143E0,9.598316E0,3.3622468E0,-2.5637624E0,-1.1933926E0,8.393491E-2,-2.597227E1,5.3942537E0,-1.0594095E0,2.7406414E0,2.3077483E0,3.01632E1,1.4529688E0,-2.9806349E1,-4.4135976E-1,-6.0746354E-1,1.673032E1,6.8616825E-1,-5.264655E-1,7.7681947E-1,2.0240493E0,-1.1111315E1,1.0803533E1,-7.478513E-1,-1.6514891E0,1.402048E0,-2.454565E-1,-1.2827098E0,-6.372272E-2,1.7100388E-1,9.723873E-1],"categories":[],"categories_nodes":[],"categories_segments":[],"categories_sizes":[],"default_left":[0,0,0,0,0,0,0,0,0,0,0,0,0,0,0,0,0,0,0,0,0,0,0,0,0,0,0,0,0,0,0,0,0,0,0,0,0,0,0,0,0,0,0],"id":1,"left_children":[1,3,5,7,9,11,13,15,17,19,21,-1,-1,23,-1,-1,-1,-1,25,27,-1,29,-1,31,33,35,-1,-1,37,-1,-1,-1,-1,39,41,-1,-1,-1,-1,-1,-1,-1,-1],"loss_changes":[2.6632066E5,8.225513E4,1.068238E5,1.699425E4,8.644207E3,3.8968438E3,2.2311316E4,3.0039219E3,3.4353027E3,4.981896E3,9.751595E3,0E0,0E0,7.661548E3,0E0,0E0,0E0,0E0,2.103373E3,4.9762505E3,0E0,1.89338E3,0E0,1.3329854E3,4.1144683E3,8.940801E2,0E0,0E0,3.808996E3,0E0,0E0,0E0,0E0,2.1131494E3,1.2099707E3,0E0,0E0,0E0,0E0,0E0,0E0,0E0,0E0],"parents":[2147483647,0,0,1,1,2,2,3,3,4,4,5,5,6,6,7,7,8,8,9,9,10,10,13,13,18,18,19,19,21,21,23,23,24,24,25,25,28,28,33,33,34,34],"right_children":[2,4,6,8,10,12,14,16,18,20,22,-1,-1,24,-1,-1,-1,-1,26,28,-1,30,-1,32,34,36,-1,-1,38,-1,-1,-1,-1,40,42,-1,-1,-1,-1,-1,-1,-1,-1],"split_conditions":[1.2119346E-1,6.350683E-1,4.1105375E-1,1.1445E2,3.3065445E1,1.4782713E-1,5.582883E1,5.6763332E1,7.5E-1,1.7381E2,3.91E1,3.789811E0,5.985143E0,9.091E1,3.3622468E0,-2.5637624E0,-1.1933926E0,8.393491E-2,1.11E0,8.849E1,-1.0594095E0,3.636E1,2.3077483E0,1.4782E2,2.039E1,6.219E1,-4.4135976E-1,-6.0746354E-1,2.9326086E1,6.8616825E-1,-5.264655E-1,7.7681947E-1,2.0240493E0,1.0583E2,9.8648E2,-7.478513E-1,-1.6514891E0,1.402048E0,-2.454565E-1,-1.2827098E0,-6.372272E-2,1.7100388E-1,9.723873E-1],"split_indices":[40,39,39,35,34,39,34,27,6,11,9,0,0,18,0,0,0,0,6,27,0,2,0,11,3,20,0,0,37,0,0,0,0,29,13,0,0,0,0,0,0,0,0],"split_type":[0,0,0,0,0,0,0,0,0,0,0,0,0,0,0,0,0,0,0,0,0,0,0,0,0,0,0,0,0,0,0,0,0,0,0,0,0,0,0,0,0,0,0],"sum_hessian":[2.44E2,1.66E2,7.8E1,1.14E2,5.2E1,2.6E1,5.2E1,7.4E1,4E1,3.2E1,2E1,1.6E1,1E1,4.5E1,7E0,6.7E1,7E0,5E0,3.5E1,2.3E1,9E0,1.1E1,9E0,1.2E1,3.3E1,2.8E1,7E0,9E0,1.4E1,6E0,5E0,6E0,6E0,1.4E1,1.9E1,6E0,2.2E1,9E0,5E0,5E0,9E0,1.1E1,8E0],"tree_param":{"num_deleted":"0","num_feature":"54","num_nodes":"43","size_leaf_vector":"1"}},{"base_weights":[1.712645E0,-9.648867E0,1.0531508E2,1.0919507E1,-4.220277E1,3.117785E0,1.1933626E2,6.325475E1,6.2266498E0,-1.842869E1,-4.7448517E1,6.8985033E0,3.6503265E0,1.8668423E0,3.9315102E0,-1.7580473E1,1.3929746E1,-1.3839327E0,-2.281324E-1,-4.8808872E1,-1.5487345E0,-2.7716158E1,-1.062004E1,1.0576064E1,2.728973E0,-1.8399525E0,-2.592942E0,-1.7462791E0,-7.3429024E-1,-2.0394163E-1,-9.960999E-1,1.5487082E0,2.4842294E-1],"categories":[],"categories_nodes":[],"categories_segments":[],"categories_sizes":[],"default_left":[0,0,0,0,0,0,0,0,0,0,0,0,0,0,0,0,0,0,0,0,0,0,0,0,0,0,0,0,0,0,0,0,0],"id":2,"left_children":[1,3,5,7,9,-1,11,13,15,17,19,-1,-1,-1,-1,21,23,-1,-1,25,-1,27,29,31,-1,-1,-1,-1,-1,-1,-1,-1,-1],"loss_changes":[2.8586962E5,1.4709903E5,7.014875E3,3.2762385E4,9.726172E3,0E0,4.603375E3,1.4476953E3,2.3168465E4,2.0541387E3,3.446875E1,0E0,0E0,0E0,0E0,1.892666E3,1.2373754E4,0E0,0E0,3.6267188E2,0E0,6.1438574E2,1.1356619E3,1.0026326E4,0E0,0E0,0E0,0E0,0E0,0E0,0E0,0E0,0E0],"parents":[2147483647,0,0,1,1,2,2,3,3,4,4,6,6,7,7,8,8,9,9,10,10,15,15,16,16,19,19,21,21,22,22,23,23],"right_children":[2,4,6,8,10,-1,12,14,16,18,20,-1,-1,-1,-1,22,24,-1,-1,26,-1,28,30,32,-1,-1,-1,-1,-1,-1,-1,-1,-1],"split_conditions":[9.159778E-1,1.907706E3,1.168E1,-9.4740427E-1,-9.66618E-1,3.117785E0,2.0687E2,1.9904E2,-6.827581E-1,1.291E2,2.1973953E1,6.8985033E0,3.6503265E0,1.8668423E0,3.9315102E0,1.5569E2,5.0572216E1,-1.3839327E0,-2.281324E-1,2.497E1,-1.5487345E0,2.7521E2,3.633E1,8.117E1,2.728973E0,-1.8399525E0,-2.592942E0,-1.7462791E0,-7.3429024E-1,-2.0394163E-1,-9.960999E-1,1.5487082E0,2.4842294E-1],"split_indices":[40,50,7,39,39,0,15,0,40,21,28,0,0,0,0,11,31,0,0,4,0,0,8,18,0,0,0,0,0,0,0,0,0],"split_type":[0,0,0,0,0,0,0,0,0,0,0,0,0,0,0,0,0,0,0,0,0,0,0,0,0,0,0,0,0,0,0,0,0],"sum_hessian":[2.41E2,2.18E2,2.3E1,1.34E2,8.4E1,7E0,1.6E1,1E1,1.24E2,1.6E1,6.8E1,1E1,6E0,5E0,5E0,3E1,9.4E1,9E0,7E0,6.1E1,7E0,1.1E1,1.9E1,8.8E1,6E0,1.5E1,4.6E1,6E0,5E0,1.2E1,7E0,1.8E1,7E1],"tree_param":{"num_deleted":"0","num_feature":"54","num_nodes":"33","size_leaf_vector":"1"}},{"base_weights":[1.9607562E0,8.473194E1,-1.235029E1,1.1093889E2,4.1241165E1,5.425977E0,-4.0529335E1,6.0592656E0,3.341652E0,3.11952E0,5.5895096E-1,3.171367E0,6.310844E-1,-4.4219624E1,-6.2447625E-1,-2.1565863E1,7.0763474E0,-2.3663082E0,-2.9522501E1,-2.7168083E1,-1.6395007E-1,-1.2407258E1,1.2416232E1,-1.7383057E0,-8.368331E-1,-1.0037469E0,-1.6409405E0,-1.2636542E0,8.496464E-2,-4.866004E-1,9.434113E-1],"categories":[],"categories_nodes":[],"categories_segments":[],"categories_sizes":[],"default_left":[0,0,0,0,0,0,0,0,0,0,0,0,0,0,0,0,0,0,0,0,0,0,0,0,0,0,0,0,0,0,0],"id":3,"left_children":[1,3,5,7,9,11,13,-1,-1,-1,-1,-1,15,17,-1,19,21,-1,23,25,-1,27,29,-1,-1,-1,-1,-1,-1,-1,-1],"loss_changes":[2.6519938E5,3.303686E4,9.589529E4,9.39375E2,8.203613E3,3.2776984E4,7.1048594E3,0E0,0E0,0E0,0E0,0E0,1.5889774E4,1.5705312E3,0E0,2.4720918E3,9.10151E3,0E0,3.5674707E2,1.02711914E2,0E0,3.4913025E3,9.900847E3,0E0,0E0,0E0,0E0,0E0,0E0,0E0,0E0],"parents":[2147483647,0,0,1,1,2,2,3,3,4,4,5,5,6,6,12,12,13,13,15,15,16,16,18,18,19,19,21,21,22,22],"right_children":[2,4,6,8,10,12,14,-1,-1,-1,-1,-1,16,18,-1,20,22,-1,24,26,-1,28,30,-1,-1,-1,-1,-1,-1,-1,-1],"split_conditions":[1.101E1,4.1105375E-1,2.006627E3,8.66E0,1.2077E2,2.7950298E-2,1.5725E2,6.0592656E0,3.341652E0,3.11952E0,5.5895096E-1,3.171367E0,-7.6834315E-1,2.2258074E1,-6.2447625E-1,2.542026E1,1.051519E1,-2.3663082E0,6.321E1,2.4E2,-1.6395007E-1,5.167E1,1.1747E2,-1.7383057E0,-8.368331E-1,-1.0037469E0,-1.6409405E0,-1.2636542E0,8.496464E-2,-4.866004E-1,9.434113E-1],"split_indices":[8,39,50,8,16,39,0,0,0,0,0,0,40,34,0,31,28,0,17,23,0,9,12,0,0,0,0,0,0,0,0],"split_type":[0,0,0,0,0,0,0,0,0,0,0,0,0,0,0,0,0,0,0,0,0,0,0,0,0,0,0,0,0,0,0],"sum_hessian":[2.22E2,3.2E1,1.9E2,1.9E1,1.3E1,1.17E2,7.3E1,1.4E1,5E0,7E0,6E0,8E0,1.09E2,6.4E1,9E0,2.4E1,8.5E1,5.1E1,1.3E1,1.8E1,6E0,1.8E1,6.7E1,8E0,5E0,1E1,8E0,9E0,9E0,1.5E1,5.2E1],"tree_param":{"num_deleted":"0","num_feature":"54","num_nodes":"31","size_leaf_vector":"1"}},{"base_weights":[-2.574226E-1,8.439052E1,-9.976528E0,5.826198E0,6.430475E1,7.799891E0,-3.8163956E1,1.9617752E0,3.7206006E0,5.1668186E1,2.438201E0,-1.5544491E1,-4.3492676E1,9.2036647E-1,3.7156456E0,-2.0226915E1,9.541404E0,2.4331525E-1,-2.4454514E1,-1.6157734E0,-4.592729E1,-2.879266E1,-8.128546E0,-1.0608163E1,1.4446276E1,-1.9408325E0,-4.325305E-1,-2.4467015E0,-1.6038783E0,-7.583303E-1,-1.6803769E0,1.0558434E-1,-1.0213716E0,1.5393324E-1,-9.798921E-1,1.8042916E0,4.300383E-1],"categories":[],"categories_nodes":[],"categories_segments":[],"categories_sizes":[],"default_left":[0,0,0,0,0,0,0,0,0,0,0,0,0,0,0,0,0,0,0,0,0,0,0,0,0,0,0,0,0,0,0,0,0,0,0,0,0],"id":4,"left_children":[1,3,5,-1,7,9,11,-1,-1,13,15,17,19,-1,-1,21,23,-1,25,-1,27,29,31,33,35,-1,-1,-1,-1,-1,-1,-1,-1,-1,-1,-1,-1],"loss_changes":[1.9170884E5,7.9971562E3,1.05021625E5,0E0,1.3878984E3,3.0215879E4,9.087094E3,0E0,0E0,9.17666E3,1.8868404E4,3.2106343E3,2.846328E2,0E0,0E0,2.6676406E3,8.949211E3,0E0,2.3879463E3,0E0,5.5408594E2,5.400127E2,1.6804014E3,2.275058E3,8.797218E3,0E0,0E0,0E0,0E0,0E0,0E0,0E0,0E0,0E0,0E0,0E0,0E0],"parents":[2147483647,0,0,1,1,2,2,4,4,5,5,6,6,9,9,10,10,11,11,12,12,15,15,16,16,18,18,20,20,21,21,22,22,23,23,24,24],"right_children":[2,4,6,-1,8,10,12,-1,-1,14,16,18,20,-1,-1,22,24,-1,26,-1,28,30,32,34,36,-1,-1,-1,-1,-1,-1,-1,-1,-1,-1,-1,-1],"split_conditions":[7.751154E2,6.394368E2,2.006627E3,5.826198E0,2.6486692E1,1.0303138E-1,-9.6206754E-1,1.9617752E0,3.7206006E0,4.83E0,-7.8990453E-1,4.1005333E1,2.497E1,9.2036647E-1,3.7156456E0,1.1074E2,1.051519E1,2.4331525E-1,6.379E1,-1.6157734E0,2.2258074E1,1.411E1,1.3883E2,1.2488481E0,9.4285E1,-1.9408325E0,-4.325305E-1,-2.4467015E0,-1.6038783E0,-7.583303E-1,-1.6803769E0,1.0558434E-1,-1.0213716E0,1.5393324E-1,-9.798921E-1,1.8042916E0,4.300383E-1],"split_indices":[50,50,50,0,28,39,39,0,0,1,40,36,4,0,0,20,28,0,16,0,34,4,20,49,33,0,0,0,0,0,0,0,0,0,0,0,0],"split_type":[0,0,0,0,0,0,0,0,0,0,0,0,0,0,0,0,0,0,0,0,0,0,0,0,0,0,0,0,0,0,0,0,0,0,0,0,0],"sum_hessian":[2.31E2,2.3E1,2.08E2,7E0,1.6E1,1.28E2,8E1,6E0,1E1,1.3E1,1.15E2,1.6E1,6.4E1,6E0,7E0,2.7E1,8.8E1,5E0,1.1E1,1.4E1,5E1,1.5E1,1.2E1,1.7E1,7.1E1,5E0,6E0,3.9E1,1.1E1,5E0,1E1,7E0,5E0,7E0,1E1,1.4E1,5.7E1],"tree_param":{"num_deleted":"0","num_feature":"54","num_nodes":"37","size_leaf_vector":"1"}},{"base_weights":[-2.4777167E0,-1.4014974E1,6.612168E1,3.0524442E0,-3.8284176E1,1.0031241E2,3.205649E1,-1.6353233E1,1.0964981E1,-1.790318E1,-2.191157E0,6.033985E0,2.312682E0,2.541009E0,5.981763E-1,-1.5642457E0,-9.726431E0,6.2554617E0,4.1222248E1,-2.7107924E1,-2.3318477E-1,-1.689804E1,2.4503283E-1,-7.9817667E0,1.1412667E1,1.0304947E0,2.7482116E0,-1.639732E0,-8.4516096E-1,-3.3200827E-1,-1.1707269E0,-1.3678774E0,1.5033136E-2,-2.2403334E-1,1.0084249E0],"categories":[],"categories_nodes":[],"categories_segments":[],"categories_sizes":[],"default_left":[0,0,0,0,0,0,0,0,0,0,0,0,0,0,0,0,0,0,0,0,0,0,0,0,0,0,0,0,0,0,0,0,0,0,0],"id":5,"left_children":[1,3,5,7,9,11,13,15,17,19,-1,-1,-1,-1,-1,-1,21,23,25,27,-1,29,-1,31,33,-1,-1,-1,-1,-1,-1,-1,-1,-1,-1],"loss_changes":[1.8137705E5,8.130254E4,3.5219875E4,1.7990898E4,8.3595E3,1.2034625E4,6.178338E3,3.0599854E3,1.1569403E4,2.1890327E3,0E0,0E0,0E0,0E0,0E0,0E0,2.7053054E3,5.4510684E3,1.9829922E3,8.400928E1,0E0,9.808955E2,0E0,3.2177964E3,7.604972E3,0E0,0E0,0E0,0E0,0E0,0E0,0E0,0E0,0E0,0E0],"parents":[2147483647,0,0,1,1,2,2,3,3,4,4,5,5,6,6,7,7,8,8,9,9,16,16,17,17,18,18,19,19,21,21,23,23,24,24],"right_children":[2,4,6,8,10,12,14,16,18,20,-1,-1,-1,-1,-1,-1,22,24,26,28,-1,30,-1,32,34,-1,-1,-1,-1,-1,-1,-1,-1,-1,-1],"split_conditions":[2.6270834E2,2.006627E3,4.9E0,-6.827581E-1,-9.296339E-1,1.011E1,1.9825333E2,-2.2252093E-1,1.5455905E3,1.455E2,-2.191157E0,6.033985E0,2.312682E0,2.541009E0,5.981763E-1,-1.5642457E0,7.771E1,1.2252E2,8.21E0,1.2928699E1,-2.3318477E-1,9.84E2,2.4503283E-1,7.4E-1,8.83E1,1.0304947E0,2.7482116E0,-1.639732E0,-8.4516096E-1,-3.3200827E-1,-1.1707269E0,-1.3678774E0,1.5033136E-2,-2.2403334E-1,1.0084249E0],"split_indices":[35,50,5,40,39,8,27,44,50,0,0,0,0,0,0,0,17,12,5,31,0,13,0,6,16,0,0,0,0,0,0,0,0,0,0],"split_type":[0,0,0,0,0,0,0,0,0,0,0,0,0,0,0,0,0,0,0,0,0,0,0,0,0,0,0,0,0,0,0,0,0,0,0],"sum_hessian":[2.27E2,1.95E2,3.2E1,1.15E2,8E1,1.5E1,1.7E1,3.3E1,8.2E1,1.8E1,6.2E1,1E1,5E0,8E0,9E0,9E0,2.4E1,7.2E1,1E1,1E1,8E0,1.6E1,8E0,1.9E1,5.3E1,5E0,5E0,5E0,5E0,7E0,9E0,5E0,1.4E1,1.9E1,3.4E1],"tree_param":{"num_deleted":"0","num_feature":"54","num_nodes":"35","size_leaf_vector":"1"}},{"base_weights":[-2.7901344E-2,-1.9124813E1,4.2382484E1,-3.0017303E1,6.3794894E0,7.988286E1,1.6746437E1,-3.818423E1,-1.821922E1,-2.5955663E0,2.2104353E1,1.6667204E0,8.9721115E1,7.453932E0,2.7576625E0,-9.4849396E-1,-4.0018047E1,1.2536278E-1,-2.2720304E1,-1.01472E1,9.75433E-1,1.8175083E0,8.4391985E0,5.7505136E0,6.830782E1,2.5011616E1,-3.3700126E-1,-1.2426753E0,-4.1469803E1,-1.8522778E0,-1.7085989E1,-2.201621E1,5.5346646E0,1.0305858E0,-2.5699255E-1,3.8511064E0,2.0473478E0,4.1165423E-1,1.7910063E0,-8.1740265E0,1.0793535E1,-2.2233608E0,-1.5988839E0,-1.1445526E0,-3.42041E-1,-5.124201E-1,-1.3437637E0,-5.400523E-1,9.3730175E-1,-8.02797E-1,3.0805588E-2,1.003317E0,-9.118297E-2],"categories":[],"categories_nodes":[],"categories_segments":[],"categories_sizes":[],"default_left":[0,0,0,0,0,0,0,0,0,0,0,0,0,0,0,0,0,0,0,0,0,0,0,0,0,0,0,0,0,0,0,0,0,0,0,0,0,0,0,0,0,0,0,0,0,0,0,0,0,0,0,0,0],"id":6,"left_children":[1,3,5,7,9,11,13,15,17,19,21,-1,23,25,-1,-1,27,-1,29,31,-1,-1,33,-1,35,37,39,-1,41,-1,43,45,47,-1,-1,-1,-1,-1,-1,49,51,-1,-1,-1,-1,-1,-1,-1,-1,-1,-1,-1,-1],"loss_changes":[2.0085769E5,4.769622E4,7.268706E4,1.0866797E4,7.396212E3,1.12058125E4,1.6362981E4,1.7073672E3,4.814838E3,5.873341E3,3.3919883E3,0E0,5.6820156E3,5.3432676E3,0E0,0E0,3.5629688E2,0E0,2.7569844E3,4.961187E3,0E0,0E0,1.9241442E3,0E0,6.610781E2,1.8813018E3,2.530675E3,0E0,1.7133594E2,0E0,1.7465693E3,5.822793E2,2.7922825E3,0E0,0E0,0E0,0E0,0E0,0E0,1.1877052E3,1.4405557E3,0E0,0E0,0E0,0E0,0E0,0E0,0E0,0E0,0E0,0E0,0E0,0E0],"parents":[2147483647,0,0,1,1,2,2,3,3,4,4,5,5,6,6,7,7,8,8,9,9,10,10,12,12,13,13,16,16,18,18,19,19,22,22,24,24,25,25,26,26,28,28,30,30,31,31,32,32,39,39,40,40],"right_children":[2,4,6,8,10,12,14,16,18,20,22,-1,24,26,-1,-1,28,-1,30,32,-1,-1,34,-1,36,38,40,-1,42,-1,44,46,48,-1,-1,-1,-1,-1,-1,50,52,-1,-1,-1,-1,-1,-1,-1,-1,-1,-1,-1,-1],"split_conditions":[1.2119346E-1,6.350683E-1,4.1105375E-1,1.158E2,1.4241265E0,1.01E0,5.582883E1,2.149E1,3.127E1,2.805E2,2.215E2,1.6667204E0,-2.832016E-1,1.827E2,2.7576625E0,-9.4849396E-1,2.97E0,1.2536278E-1,1.61E2,2.791E2,9.75433E-1,1.8175083E0,2.625E2,5.7505136E0,5.98E0,1.4782E2,3.1877028E1,-1.2426753E0,2.2099499E1,-1.8522778E0,2.642E2,2.668E1,0E0,1.0305858E0,-2.5699255E-1,3.8511064E0,2.0473478E0,4.1165423E-1,1.7910063E0,2.3691E2,1.6757E2,-2.2233608E0,-1.5988839E0,-1.1445526E0,-3.42041E-1,-5.124201E-1,-1.3437637E0,-5.400523E-1,9.3730175E-1,-8.02797E-1,3.0805588E-2,1.003317E0,-9.118297E-2],"split_indices":[40,39,39,21,49,6,34,4,8,26,14,0,48,24,0,0,1,0,0,25,0,0,24,0,5,11,31,0,37,0,26,8,43,0,0,0,0,0,0,0,17,0,0,0,0,0,0,0,0,0,0,0,0],"split_type":[0,0,0,0,0,0,0,0,0,0,0,0,0,0,0,0,0,0,0,0,0,0,0,0,0,0,0,0,0,0,0,0,0,0,0,0,0,0,0,0,0,0,0,0,0,0,0,0,0,0,0,0,0],"sum_hessian":[2.46E2,1.7E2,7.6E1,1.19E2,5.1E1,3E1,4.6E1,6.9E1,5E1,3.3E1,1.8E1,6E0,2.4E1,3.8E1,8E0,7E0,6.2E1,9E0,4.1E1,2.5E1,8E0,8E0,1E1,9E0,1.5E1,1.1E1,2.7E1,7E0,5.5E1,1E1,3.1E1,1.4E1,1.1E1,5E0,5E0,1E1,5E0,5E0,6E0,1.6E1,1.1E1,3.9E1,1.6E1,1.9E1,1.2E1,5E0,9E0,5E0,6E0,8E0,8E0,6E0,5E0],"tree_param":{"num_deleted":"0","num_feature":"54","num_nodes":"53","size_leaf_vector":"1"}},{"base_weights":[5.5048746E-1,-1.1401938E1,6.8834335E1,4.73607E0,-3.4207756E1,9.053516E1,3.740616E1,4.9185028E1,-2.9312187E-1,-1.9323225E1,-3.803235E1,2.877838E0,1.07724365E2,3.0717552E0,2.8489137E-1,9.9438316E-1,3.363531E0,-1.6251925E1,5.848637E0,-1.4781343E0,-2.3306532E-1,-1.2583231E0,-3.991403E1,6.368613E0,3.3423886E0,-6.299078E0,-2.2537207E1,-1.0716904E1,1.0996914E1,-4.1763252E1,-1.1914715E0,-8.9070886E-1,1.5623151E-1,-4.6050677E-1,-1.3477266E0,-1.1929322E0,3.2679957E-1,1.9326346E-2,1.0797209E0,-1.3418454E0,-2.1828547E0],"categories":[],"categories_nodes":[],"categories_segments":[],"categories_sizes":[],"default_left":[0,0,0,0,0,0,0,0,0,0,0,0,0,0,0,0,0,0,0,0,0,0,0,0,0,0,0,0,0,0,0,0,0,0,0,0,0,0,0,0,0],"id":7,"left_children":[1,3,5,7,9,11,13,15,17,19,21,-1,23,-1,-1,-1,-1,25,27,-1,-1,-1,29,-1,-1,31,33,35,37,39,-1,-1,-1,-1,-1,-1,-1,-1,-1,-1,-1],"loss_changes":[1.9176573E5,7.377012E4,2.0484031E4,2.6392414E4,3.9900547E3,5.1371875E3,1.1840639E4,5.020467E3,1.058267E4,2.7146714E3,5.691172E2,0E0,1.123125E3,0E0,0E0,0E0,0E0,1.73473E3,6.770006E3,0E0,0E0,0E0,6.4072656E2,0E0,0E0,1.4663567E3,8.1140625E2,4.4638687E3,6.7382705E3,1.8524219E2,0E0,0E0,0E0,0E0,0E0,0E0,0E0,0E0,0E0,0E0,0E0],"parents":[2147483647,0,0,1,1,2,2,3,3,4,4,5,5,6,6,7,7,8,8,9,9,10,10,12,12,17,17,18,18,22,22,25,25,26,26,27,27,28,28,29,29],"right_children":[2,4,6,8,10,12,14,16,18,20,22,-1,24,-1,-1,-1,-1,26,28,-1,-1,-1,30,-1,-1,32,34,36,38,40,-1,-1,-1,-1,-1,-1,-1,-1,-1,-1,-1],"split_conditions":[2.6270834E2,2.00265E3,4.1105375E-1,-9.4740427E-1,-9.296339E-1,7.5E-1,1.4588E2,9.923E2,-6.827581E-1,5.155E1,3.4535E1,2.877838E0,8.49E0,3.0717552E0,2.8489137E-1,9.9438316E-1,3.363531E0,9.84E2,1.051519E1,-1.4781343E0,-2.3306532E-1,-1.2583231E0,4.499E1,6.368613E0,3.3423886E0,2.237E2,1.2035796E3,1.035E2,1.53E0,2.733E1,-1.1914715E0,-8.9070886E-1,1.5623151E-1,-4.6050677E-1,-1.3477266E0,-1.1929322E0,3.2679957E-1,1.9326346E-2,1.0797209E0,-1.3418454E0,-2.1828547E0],"split_indices":[35,50,39,39,39,10,16,13,40,15,36,0,8,0,0,0,0,13,28,0,0,0,7,0,0,24,50,15,10,15,0,0,0,0,0,0,0,0,0,0,0],"split_type":[0,0,0,0,0,0,0,0,0,0,0,0,0,0,0,0,0,0,0,0,0,0,0,0,0,0,0,0,0,0,0,0,0,0,0,0,0,0,0,0,0],"sum_hessian":[2.33E2,1.99E2,3.4E1,1.17E2,8.2E1,1.9E1,1.5E1,1.1E1,1.06E2,1.8E1,6.4E1,8E0,1.1E1,8E0,7E0,5E0,6E0,2.9E1,7.7E1,1E1,8E0,1E1,5.4E1,6E0,5E0,1.2E1,1.7E1,1.8E1,5.9E1,4.7E1,7E0,5E0,7E0,5E0,1.2E1,1E1,8E0,3E1,2.9E1,7E0,4E1],"tree_param":{"num_deleted":"0","num_feature":"54","num_nodes":"41","size_leaf_vector":"1"}},{"base_weights":[3.1733916E0,-1.5096365E1,4.5039696E1,-2.6016365E1,8.574365E0,8.240795E1,1.8421381E1,-3.5069633E1,-1.3712837E1,2.33019E1,-1.203865E0,4.9259334E0,6.1877415E1,8.223336E0,2.97302E0,-2.035823E1,-3.7555042E1,5.9120363E-1,-1.7738338E1,1.09807156E-1,3.449761E1,5.208054E0,-7.5948507E-1,3.5358434E0,1.8416046E0,1.3422421E0,4.458017E-1,-1.5081913E0,-3.5797995E-1,-1.9630915E0,-9.1052574E-1,-1.3701787E1,-1.4440733E0,2.1328533E0,8.934364E-1,-5.19626E-1,1.6807877E1,-1.1050643E1,1.0268054E1,-8.78483E-1,4.901934E-3,1.6067152E-1,1.4000599E0,-5.524063E-3,-9.4246304E-1,-1.1839308E-1,8.775551E-1],"categories":[],"categories_nodes":[],"categories_segments":[],"categories_sizes":[],"default_left":[0,0,0,0,0,0,0,0,0,0,0,0,0,0,0,0,0,0,0,0,0,0,0,0,0,0,0,0,0,0,0,0,0,0,0,0,0,0,0,0,0,0,0,0,0,0,0],"id":8,"left_children":[1,3,5,7,9,11,13,15,17,19,21,-1,23,25,-1,27,29,-1,31,-1,33,35,-1,-1,-1,-1,37,-1,-1,-1,-1,39,-1,-1,-1,-1,41,43,45,-1,-1,-1,-1,-1,-1,-1,-1],"loss_changes":[1.7124977E5,4.054663E4,6.612017E4,1.1437523E4,7.2285146E3,3.1652656E3,1.6670266E4,1.4658359E3,5.041285E3,4.650115E3,2.8590667E3,0E0,7.1615234E2,4.912232E3,0E0,1.2076641E3,9.688828E2,0E0,1.4484453E3,0E0,1.0016465E3,4.1558823E3,0E0,0E0,0E0,0E0,2.936493E3,0E0,0E0,0E0,0E0,1.7097534E3,0E0,0E0,0E0,0E0,1.8881912E3,1.02173535E3,1.3299504E3,0E0,0E0,0E0,0E0,0E0,0E0,0E0,0E0],"parents":[2147483647,0,0,1,1,2,2,3,3,4,4,5,5,6,6,7,7,8,8,9,9,10,10,12,12,13,13,15,15,16,16,18,18,20,20,21,21,26,26,31,31,36,36,37,37,38,38],"right_children":[2,4,6,8,10,12,14,16,18,20,22,-1,24,26,-1,28,30,-1,32,-1,34,36,-1,-1,-1,-1,38,-1,-1,-1,-1,40,-1,-1,-1,-1,42,44,46,-1,-1,-1,-1,-1,-1,-1,-1],"split_conditions":[1.8915527E-1,6.216869E-1,4.1105375E-1,1.158E2,9.1380763E-1,8.66E0,5.582883E1,-9.358349E-1,3.078E1,3.816E1,1.7395E2,4.9259334E0,3.499E2,8.461E1,2.97302E0,6.234898E-1,2.1174942E1,5.9120363E-1,2.562E2,1.09807156E-1,1.0718E2,1.0197733E2,-7.5948507E-1,3.5358434E0,1.8416046E0,1.3422421E0,2.919E1,-1.5081913E0,-3.5797995E-1,-1.9630915E0,-9.1052574E-1,8.461E1,-1.4440733E0,2.1328533E0,8.934364E-1,-5.19626E-1,9.834E1,2.1169E2,5.788E1,-8.78483E-1,4.901934E-3,1.6067152E-1,1.4000599E0,-5.524063E-3,-9.4246304E-1,-1.1839308E-1,8.775551E-1],"split_indices":[40,39,39,22,39,8,34,39,8,9,11,0,14,18,0,44,34,0,22,0,18,36,0,0,0,0,2,0,0,0,0,17,0,0,0,0,27,20,9,0,0,0,0,0,0,0,0],"split_type":[0,0,0,0,0,0,0,0,0,0,0,0,0,0,0,0,0,0,0,0,0,0,0,0,0,0,0,0,0,0,0,0,0,0,0,0,0,0,0,0,0,0,0,0,0,0,0],"sum_hessian":[2.22E2,1.55E2,6.7E1,1.06E2,4.9E1,2.7E1,4E1,6E1,4.6E1,1.9E1,3E1,1.3E1,1.4E1,3.3E1,7E0,1E1,5E1,6E0,4E1,7E0,1.2E1,2.1E1,9E0,9E0,5E0,9E0,2.4E1,5E0,5E0,4.5E1,5E0,3.1E1,9E0,7E0,5E0,9E0,1.2E1,1.1E1,1.3E1,2.4E1,7E0,6E0,6E0,5E0,6E0,5E0,8E0],"tree_param":{"num_deleted":"0","num_feature":"54","num_nodes":"47","size_leaf_vector":"1"}},{"base_weights":[8.2935613E-1,-9.617444E0,6.029504E1,4.148636E0,-3.0317156E1,2.8946302E1,7.6755356E1,6.9481486E-1,3.0888765E0,-3.2910896E1,-1.1056018E-1,2.2638395E0,3.073852E-1,8.441984E1,2.0484674E0,-1.411185E1,7.904379E0,-3.3938194E1,-7.720294E-1,2.7335544E0,5.1375866E0,-2.020625E1,-3.013728E0,3.1186611E1,2.0517619E0,-3.50867E1,-1.0325722E0,-4.529511E-1,-1.2019002E0,-6.0609937E-1,4.5637122E-1,1.9054948E-1,2.1641812E0,1.1717796E0,-6.803142E-2,-1.8576422E0,-1.2600714E0],"categories":[],"categories_nodes":[],"categories_segments":[],"categories_sizes":[],"default_left":[0,0,0,0,0,0,0,0,0,0,0,0,0,0,0,0,0,0,0,0,0,0,0,0,0,0,0,0,0,0,0,0,0,0,0,0,0],"id":9,"left_children":[1,3,5,7,9,11,13,15,-1,17,-1,-1,-1,19,-1,21,23,25,-1,-1,-1,27,29,31,33,35,-1,-1,-1,-1,-1,-1,-1,-1,-1,-1,-1],"loss_changes":[1.4967416E5,5.8541324E4,1.6354578E4,2.4638025E4,5.9049844E3,4.9340225E3,2.8498438E3,1.2707998E4,0E0,8.220078E2,0E0,0E0,0E0,4.1987656E3,0E0,2.5769224E3,1.0836971E4,3.4360156E2,0E0,0E0,0E0,8.500752E2,1.7694141E3,5.133658E3,4.774936E3,3.504297E2,0E0,0E0,0E0,0E0,0E0,0E0,0E0,0E0,0E0,0E0,0E0],"parents":[2147483647,0,0,1,1,2,2,3,3,4,4,5,5,6,6,7,7,9,9,13,13,15,15,16,16,17,17,21,21,22,22,23,23,24,24,25,25],"right_children":[2,4,6,8,10,12,14,16,-1,18,-1,-1,-1,20,-1,22,24,26,-1,-1,-1,28,30,32,34,36,-1,-1,-1,-1,-1,-1,-1,-1,-1,-1,-1],"split_conditions":[2.6270834E2,2.00265E3,9.159778E-1,9.923E2,1.455E2,1.2077E2,9E0,-6.827581E-1,3.0888765E0,2.7392822E1,-1.1056018E-1,2.2638395E0,3.073852E-1,3.513E2,2.0484674E0,6.234898E-1,-4.0024394E-1,9.9276E2,-7.720294E-1,2.7335544E0,5.1375866E0,2.017E2,1.03E0,3.758E1,8.887357E1,4.7646667E1,-1.0325722E0,-4.529511E-1,-1.2019002E0,-6.0609937E-1,4.5637122E-1,1.9054948E-1,2.1641812E0,1.1717796E0,-6.803142E-2,-1.8576422E0,-1.2600714E0],"split_indices":[35,50,40,13,0,16,8,40,0,31,0,0,0,23,0,44,40,13,0,0,0,22,6,9,33,27,0,0,0,0,0,0,0,0,0,0,0],"split_type":[0,0,0,0,0,0,0,0,0,0,0,0,0,0,0,0,0,0,0,0,0,0,0,0,0,0,0,0,0,0,0,0,0,0,0,0,0],"sum_hessian":[2.39E2,2.04E2,3.5E1,1.23E2,8.1E1,1.3E1,2.2E1,1.17E2,6E0,7.4E1,7E0,7E0,6E0,1.7E1,5E0,3.8E1,7.9E1,6.9E1,5E0,8E0,9E0,2.4E1,1.4E1,1.5E1,6.4E1,6.2E1,7E0,7E0,1.7E1,8E0,6E0,5E0,1E1,8E0,5.6E1,4.9E1,1.3E1],"tree_param":{"num_deleted":"0","num_feature":"54","num_nodes":"37","size_leaf_vector":"1"}},{"base_weights":[2.5181413E0,-1.4611076E1,3.4603947E1,2.5670757E0,-2.8887678E1,8.577715E0,5.679913E1,-3.5445297E0,2.14699E1,-3.3265156E1,-1.0193493E1,1.5737699E0,2.391935E0,7.715114E1,4.0524696E1,-1.634305E1,2.43167E0,3.0120068E1,2.404825E-1,-3.4282898E1,-9.894748E-1,-1.1028236E0,-3.412546E0,-3.804511E0,1.2090198E0,1.5511804E0,4.6253033E0,2.1757141E1,5.7618626E1,-1.1104172E1,-1.1120427E0,8.81232E0,-1.3450985E1,1.94723E0,8.137763E-1,-1.2675291E0,-1.8225164E0,2.9053783E-1,-5.415364E-1,7.954773E-1,-9.251861E-1,1.7905649E0,-1.4751428E-1,3.4914017E0,1.5868155E0,-7.3892975E-1,-2.789527E-1,1.249038E0,9.5216416E-2,-2.1002312E-1,-1.0229839E0,5.201618E-1,-1.5503292E-1],"categories":[],"categories_nodes":[],"categories_segments":[],"categories_sizes":[],"default_left":[0,0,0,0,0,0,0,0,0,0,0,0,0,0,0,0,0,0,0,0,0,0,0,0,0,0,0,0,0,0,0,0,0,0,0,0,0,0,0,0,0,0,0,0,0,0,0,0,0,0,0,0,0],"id":10,"left_children":[1,3,5,7,9,11,13,15,17,19,21,-1,23,25,27,29,31,33,-1,35,-1,-1,37,39,-1,-1,-1,41,43,45,-1,47,49,-1,-1,-1,-1,-1,-1,51,-1,-1,-1,-1,-1,-1,-1,-1,-1,-1,-1,-1,-1],"loss_changes":[1.2636509E5,3.6861008E4,4.572536E4,8.047436E3,6.371242E3,5.307034E3,1.1115828E4,4.0935264E3,2.3050698E3,2.2674219E2,1.2922496E3,0E0,4.2773364E3,9.879266E3,7.0874766E3,2.7829785E2,3.8681758E3,7.1004395E2,0E0,2.3757031E2,0E0,0E0,8.839763E2,1.7051243E3,0E0,0E0,0E0,4.9670435E3,1.8920156E3,1.4086731E2,0E0,2.9680972E3,6.272345E2,0E0,0E0,0E0,0E0,0E0,0E0,7.8091956E2,0E0,0E0,0E0,0E0,0E0,0E0,0E0,0E0,0E0,0E0,0E0,0E0,0E0],"parents":[2147483647,0,0,1,1,2,2,3,3,4,4,5,5,6,6,7,7,8,8,9,9,10,10,12,12,13,13,14,14,15,15,16,16,17,17,19,19,22,22,23,23,27,27,28,28,29,29,31,31,32,32,39,39],"right_children":[2,4,6,8,10,12,14,16,18,20,22,-1,24,26,28,30,32,34,-1,36,-1,-1,38,40,-1,-1,-1,42,44,46,-1,48,50,-1,-1,-1,-1,-1,-1,52,-1,-1,-1,-1,-1,-1,-1,-1,-1,-1,-1,-1,-1],"split_conditions":[1.2119346E-1,1.899474E3,9.8719E2,1.1635E2,-2.83139E-1,8.461E1,-2.832016E-1,1.1134255E1,2.449E1,2.1973953E1,1.43E0,1.5737699E0,9.8654E2,1.714E2,2.149454E2,2.215E2,1.07971664E2,1.1175E2,2.404825E-1,2.497E1,-9.894748E-1,-1.1028236E0,2.2639673E1,1.5256E2,1.2090198E0,1.5511804E0,4.6253033E0,1.9587666E2,9.8794E2,2.4E2,-1.1120427E0,1.2148448E3,2.121E2,1.94723E0,8.137763E-1,-1.2675291E0,-1.8225164E0,2.9053783E-1,-5.415364E-1,1.716E2,-9.251861E-1,1.7905649E0,-1.4751428E-1,3.4914017E0,1.5868155E0,-7.3892975E-1,-2.789527E-1,1.249038E0,9.5216416E-2,-2.1002312E-1,-1.0229839E0,5.201618E-1,-1.5503292E-1],"split_indices":[40,50,13,16,40,18,48,28,5,28,10,0,13,22,36,21,36,18,0,4,0,0,31,19,0,0,0,27,13,14,0,50,23,0,0,0,0,0,0,25,0,0,0,0,0,0,0,0,0,0,0,0,0],"split_type":[0,0,0,0,0,0,0,0,0,0,0,0,0,0,0,0,0,0,0,0,0,0,0,0,0,0,0,0,0,0,0,0,0,0,0,0,0,0,0,0,0,0,0,0,0,0,0,0,0,0,0,0,0],"sum_hessian":[2.28E2,1.49E2,7.9E1,6.8E1,8.1E1,3.7E1,4.2E1,5.2E1,1.6E1,6.5E1,1.6E1,7E0,3E1,1.7E1,2.5E1,1.6E1,3.6E1,1E1,6E0,5.9E1,6E0,5E0,1.1E1,2.4E1,6E0,5E0,1.2E1,1.3E1,1.2E1,1E1,6E0,2.6E1,1E1,5E0,5E0,1.4E1,4.5E1,5E0,6E0,1.9E1,5E0,8E0,5E0,7E0,5E0,5E0,5E0,7E0,1.9E1,5E0,5E0,5E0,1.4E1],"tree_param":{"num_deleted":"0","num_feature":"54","num_nodes":"53","size_leaf_vector":"1"}},{"base_weights":[6.359292E-1,-8.2952795E0,5.551789E1,3.8830123E0,-2.682959E1,7.341157E1,3.0799282E1,-1.4446583E1,1.2476465E1,-1.0809389E1,-3.1099653E1,2.3571908E0,4.616908E0,2.3694665E0,-2.3745124E-1,-1.9496899E1,-5.336909E0,2.8162722E1,2.3688874E0,-1.0071324E0,-1.97596E-2,-1.0220199E0,-3.3371384E1,-1.2101595E0,-1.0878936E1,-6.087274E-1,2.5967816E-1,1.188046E1,4.5737736E1,1.4946259E0,-3.0676682E0,-3.6215378E1,-1.1532581E0,-7.401212E-2,-9.232236E-1,1.1746234E-1,1.1104835E0,2.8666575E0,1.131945E0,-6.2012625E-1,1.6881292E-1,-1.8964709E0,-1.0233295E0],"categories":[],"categories_nodes":[],"categories_segments":[],"categories_sizes":[],"default_left":[0,0,0,0,0,0,0,0,0,0,0,0,0,0,0,0,0,0,0,0,0,0,0,0,0,0,0,0,0,0,0,0,0,0,0,0,0,0,0,0,0,0,0],"id":11,"left_children":[1,3,5,7,9,11,13,15,17,19,21,-1,-1,-1,-1,23,25,27,29,-1,-1,-1,31,-1,33,-1,-1,35,37,-1,39,41,-1,-1,-1,-1,-1,-1,-1,-1,-1,-1,-1],"loss_changes":[1.19079805E5,4.727888E4,1.2777406E4,2.0184584E4,5.3416367E3,5.0928516E3,9.661028E3,1.7822227E3,1.3727139E4,1.8388091E3,8.9185156E2,0E0,0E0,0E0,0E0,7.912197E2,1.2152865E3,9.186088E3,8.1719224E3,0E0,0E0,0E0,6.8885156E2,0E0,7.5690356E2,0E0,0E0,1.8183721E3,2.9874922E3,0E0,2.808918E3,2.7648438E2,0E0,0E0,0E0,0E0,0E0,0E0,0E0,0E0,0E0,0E0,0E0],"parents":[2147483647,0,0,1,1,2,2,3,3,4,4,5,5,6,6,7,7,8,8,9,9,10,10,15,15,16,16,17,17,18,18,22,22,24,24,27,27,28,28,30,30,31,31],"right_children":[2,4,6,8,10,12,14,16,18,20,22,-1,-1,-1,-1,24,26,28,30,-1,-1,-1,32,-1,34,-1,-1,36,38,-1,40,42,-1,-1,-1,-1,-1,-1,-1,-1,-1,-1,-1],"split_conditions":[2.6270834E2,2.006627E3,4.1105375E-1,-6.6045654E-1,-9.66618E-1,7.3E-1,2.0891714E2,6.234898E-1,9.4285E1,1.291E2,2.497E1,2.3571908E0,4.616908E0,2.3694665E0,-2.3745124E-1,1.1074E2,3.723E1,-5.5823237E-1,-5.5120456E-1,-1.0071324E0,-1.97596E-2,-1.0220199E0,2.2484495E1,-1.2101595E0,2.176E1,-6.087274E-1,2.5967816E-1,1.05905E3,8.752E1,1.4946259E0,1.3335E2,1.5099916E0,-1.1532581E0,-7.401212E-2,-9.232236E-1,1.1746234E-1,1.1104835E0,2.8666575E0,1.131945E0,-6.2012625E-1,1.6881292E-1,-1.8964709E0,-1.0233295E0],"split_indices":[35,50,39,40,39,10,30,44,33,21,4,0,0,0,0,20,9,48,40,0,0,0,37,0,2,0,0,50,20,0,12,48,0,0,0,0,0,0,0,0,0,0,0],"split_type":[0,0,0,0,0,0,0,0,0,0,0,0,0,0,0,0,0,0,0,0,0,0,0,0,0,0,0,0,0,0,0,0,0,0,0,0,0,0,0,0,0,0,0],"sum_hessian":[2.41E2,2.08E2,3.3E1,1.26E2,8.2E1,1.8E1,1.5E1,4E1,8.6E1,1.8E1,6.4E1,9E0,9E0,1E1,5E0,2.5E1,1.5E1,3.3E1,5.3E1,9E0,9E0,1.3E1,5.1E1,1.5E1,1E1,9E0,6E0,1.8E1,1.5E1,8E0,4.5E1,3.8E1,1.3E1,5E0,5E0,1E1,8E0,9E0,6E0,1.8E1,2.7E1,3.3E1,5E0],"tree_param":{"num_deleted":"0","num_feature":"54","num_nodes":"43","size_leaf_vector":"1"}},{"base_weights":[-7.2496057E-1,-1.457186E1,2.9479042E1,-2.4702583E1,2.2178516E0,1.6299477E1,6.811221E1,-2.822154E1,-1.0455858E1,-7.743573E0,1.1176085E1,1.0381377E1,2.7698836E0,4.3052444E0,1.7429131E0,-2.9567297E1,-3.5722917E-1,3.9411825E-1,-1.6679201E1,5.366226E0,-1.8730675E1,-8.041021E-1,1.6819517E1,5.3534226E0,1.9892162E0,-3.1626415E1,-1.7630867E1,-2.4039146E1,-2.0304935E-2,-2.3909979E-1,9.8470944E-1,-1.2634268E0,-6.140552E-1,2.4057701E1,-1.6496276E-2,1.5837155E1,-6.3836846E0,-8.751696E-1,-1.6566521E0,-1.113238E0,-4.2569327E-1,-1.5433267E0,-6.602618E-1,3.1612384E-1,1.5878422E0,1.2264105E0,2.0630836E-1,-8.2592577E-1,3.20824E-1],"categories":[],"categories_nodes":[],"categories_segments":[],"categories_sizes":[],"default_left":[0,0,0,0,0,0,0,0,0,0,0,0,0,0,0,0,0,0,0,0,0,0,0,0,0,0,0,0,0,0,0,0,0,0,0,0,0,0,0,0,0,0,0,0,0,0,0,0,0],"id":12,"left_children":[1,3,5,7,9,11,13,15,17,19,21,23,-1,-1,-1,25,-1,-1,27,29,31,-1,33,35,-1,37,39,41,-1,-1,-1,-1,-1,43,-1,45,47,-1,-1,-1,-1,-1,-1,-1,-1,-1,-1,-1,-1],"loss_changes":[9.578641E4,2.6759219E4,3.5549934E4,4.618008E3,5.4407495E3,1.2151182E4,7.7684297E3,2.0011797E3,2.5280977E3,4.2776353E3,5.193033E3,7.0310156E3,0E0,0E0,0E0,1.2366328E3,0E0,0E0,1.9065435E3,2.1298245E3,3.643374E2,0E0,3.3594692E3,5.3921934E3,0E0,7.1802344E2,3.5965454E2,4.0604004E2,0E0,0E0,0E0,0E0,0E0,2.3935928E3,0E0,2.239752E3,2.830268E3,0E0,0E0,0E0,0E0,0E0,0E0,0E0,0E0,0E0,0E0,0E0,0E0],"parents":[2147483647,0,0,1,1,2,2,3,3,4,4,5,5,6,6,7,7,8,8,9,9,10,10,11,11,15,15,18,18,19,19,20,20,22,22,23,23,25,25,26,26,27,27,33,33,35,35,36,36],"right_children":[2,4,6,8,10,12,14,16,18,20,22,24,-1,-1,-1,26,-1,-1,28,30,32,-1,34,36,-1,38,40,42,-1,-1,-1,-1,-1,44,-1,46,48,-1,-1,-1,-1,-1,-1,-1,-1,-1,-1,-1,-1],"split_conditions":[1.2119346E-1,8.0612144E1,9.159778E-1,-2.83139E-1,1.56E0,9.923E2,5.08E0,3.033E1,4.1005333E1,1.828E1,8.117E1,5.582883E1,2.7698836E0,4.3052444E0,1.7429131E0,2.233149E1,-3.5722917E-1,3.9411825E-1,1.521E2,2.22E2,1.0162E2,-8.041021E-1,3.1421E2,1.0867E2,1.9892162E0,3.4535E1,7.295E1,3.325E1,-2.0304935E-2,-2.3909979E-1,9.8470944E-1,-1.2634268E0,-6.140552E-1,-2.2252093E-1,-1.6496276E-2,1.3211E2,2.4758E2,-8.751696E-1,-1.6566521E0,-1.113238E0,-4.2569327E-1,-1.5433267E0,-6.602618E-1,3.1612384E-1,1.5878422E0,1.2264105E0,2.0630836E-1,-8.2592577E-1,3.20824E-1],"split_indices":[40,33,40,40,10,13,5,5,36,3,29,34,0,0,0,34,0,0,22,0,19,0,0,18,0,36,20,20,0,0,0,0,0,44,0,12,0,0,0,0,0,0,0,0,0,0,0,0,0],"split_type":[0,0,0,0,0,0,0,0,0,0,0,0,0,0,0,0,0,0,0,0,0,0,0,0,0,0,0,0,0,0,0,0,0,0,0,0,0,0,0,0,0,0,0,0,0,0,0,0,0],"sum_hessian":[2.27E2,1.56E2,7.1E1,9.7E1,5.9E1,5.4E1,1.7E1,7.7E1,2E1,2.8E1,3.1E1,4.8E1,6E0,1E1,7E0,7.2E1,5E0,5E0,1.5E1,1.3E1,1.5E1,5E0,2.6E1,4.2E1,6E0,6E1,1.2E1,1E1,5E0,8E0,5E0,6E0,9E0,1.8E1,8E0,2.2E1,2E1,7E0,5.3E1,7E0,5E0,5E0,5E0,6E0,1.2E1,1.2E1,1E1,1.1E1,9E0],"tree_param":{"num_deleted":"0","num_feature":"54","num_nodes":"49","size_leaf_vector":"1"}},{"base_weights":[7.970361E-1,-8.071369E0,4.898434E1,-2.6161274E1,1.2232729E0,6.451777E1,2.7277683E1,-1.5803328E1,-2.9075487E1,-2.301529E0,4.3089252E1,2.248904E0,7.9968544E1,4.2589455E1,-1.4339404E-1,-1.0280608E0,-3.6429074E-1,-3.076309E1,-7.657715E-1,-1.2156848E1,5.4540124E0,2.592022E0,1.3578261E0,4.9445577E0,2.3858926E0,2.5573912E0,1.2753224E0,-8.9379674E-1,-1.6089247E0,9.2270356E-1,-1.6339495E1,-8.547935E0,1.04464655E1,-4.535997E-1,4.2969176E-1,-1.0424434E0,-3.115724E-1,-9.195633E-1,2.7631396E-1,8.414677E-1,-3.0818287E-1],"categories":[],"categories_nodes":[],"categories_segments":[],"categories_sizes":[],"default_left":[0,0,0,0,0,0,0,0,0,0,0,0,0,0,0,0,0,0,0,0,0,0,0,0,0,0,0,0,0,0,0,0,0,0,0,0,0,0,0,0,0],"id":13,"left_children":[1,3,5,7,9,11,13,15,17,19,21,-1,23,25,-1,-1,-1,27,-1,29,31,-1,-1,-1,-1,-1,-1,-1,-1,33,35,37,39,-1,-1,-1,-1,-1,-1,-1,-1],"loss_changes":[1.072315E5,3.5677508E4,1.1390078E4,1.7138516E3,2.090644E4,3.0450469E3,8.430616E3,5.7965137E2,8.0603516E2,1.0079068E4,1.2592578E2,0E0,1.9940625E3,4.4983203E2,0E0,0E0,0E0,3.0032422E2,0E0,3.1880898E3,5.2621963E3,0E0,0E0,0E0,0E0,0E0,0E0,0E0,0E0,1.2280228E3,1.8756436E3,2.8723782E3,5.934861E3,0E0,0E0,0E0,0E0,0E0,0E0,0E0,0E0],"parents":[2147483647,0,0,1,1,2,2,3,3,4,4,5,5,6,6,7,7,8,8,9,9,10,10,12,12,13,13,17,17,19,19,20,20,29,29,30,30,31,31,32,32],"right_children":[2,4,6,8,10,12,14,16,18,20,22,-1,24,26,-1,-1,-1,28,-1,30,32,-1,-1,-1,-1,-1,-1,-1,-1,34,36,38,40,-1,-1,-1,-1,-1,-1,-1,-1],"split_conditions":[2.6270834E2,1.225E2,4.1105375E-1,6.58E1,9.9204E2,7.7E-1,1.9172333E2,9.9123E2,2.452661E1,7.232617E-1,1.2098612E1,2.248904E0,2.0687E2,-3.379483E-1,-1.4339404E-1,-1.0280608E0,-3.6429074E-1,5.111696E0,-7.657715E-1,1.021E2,1.051519E1,2.592022E0,1.3578261E0,4.9445577E0,2.3858926E0,2.5573912E0,1.2753224E0,-8.9379674E-1,-1.6089247E0,9.9057E2,2.7954E2,1.035E2,2.509E1,-4.535997E-1,4.2969176E-1,-1.0424434E0,-3.115724E-1,-9.195633E-1,2.7631396E-1,8.414677E-1,-3.0818287E-1],"split_indices":[35,14,39,25,13,10,27,13,37,39,28,0,15,48,0,0,0,28,0,26,28,0,0,0,0,0,0,0,0,13,0,15,3,0,0,0,0,0,0,0,0],"split_type":[0,0,0,0,0,0,0,0,0,0,0,0,0,0,0,0,0,0,0,0,0,0,0,0,0,0,0,0,0,0,0,0,0,0,0,0,0,0,0,0,0],"sum_hessian":[2.49E2,2.11E2,3.8E1,7.1E1,1.4E2,2.1E1,1.7E1,1.7E1,5.4E1,1.3E2,1E1,1.1E1,1E1,1.1E1,6E0,1E1,7E0,4.7E1,7E0,5.7E1,7.3E1,5E0,5E0,5E0,5E0,6E0,5E0,6E0,4.1E1,1.4E1,4.3E1,1.9E1,5.4E1,6E0,8E0,2.9E1,1.4E1,1.1E1,8E0,3.9E1,1.5E1],"tree_param":{"num_deleted":"0","num_feature":"54","num_nodes":"41","size_leaf_vector":"1"}},{"base_weights":[6.663771E-1,-5.9656177E0,6.695459E1,5.6751547E0,-2.3494337E1,4.183702E1,4.299269E0,3.0749454E0,2.490545E0,-2.6749702E1,-1.0071903E1,1.2604833E0,2.574577E0,-1.185324E1,8.807711E0,-2.2815659E1,-3.084117E1,-8.513479E-1,-1.4025815E-1,-9.984193E-1,-8.133052E0,-9.015013E0,1.4182262E1,-2.454051E1,-7.7660114E-1,-3.371902E1,-6.8549657E-1,1.7103888E-2,-6.902972E-1,-1.5975434E-1,-1.1516157E0,8.7407494E-1,-2.251505E-1,-7.365208E-1,-1.2985257E0,-1.025662E0,-1.7997402E0],"categories":[],"categories_nodes":[],"categories_segments":[],"categories_sizes":[],"default_left":[0,0,0,0,0,0,0,0,0,0,0,0,0,0,0,0,0,0,0,0,0,0,0,0,0,0,0,0,0,0,0,0,0,0,0,0,0],"id":14,"left_children":[1,3,5,7,9,11,-1,13,-1,15,17,-1,-1,19,21,23,25,-1,-1,-1,27,29,31,33,-1,35,-1,-1,-1,-1,-1,-1,-1,-1,-1,-1,-1],"loss_changes":[1.01512734E5,4.298338E4,6.440789E3,1.4421631E4,3.4009531E3,4.6773633E2,0E0,1.0459555E4,0E0,3.7477344E2,8.6196716E2,0E0,0E0,8.640513E2,8.557299E3,9.623633E1,1.01675E3,0E0,0E0,0E0,1.206685E3,1.6395828E3,4.2707256E3,2.4269531E1,0E0,1.2966797E1,0E0,0E0,0E0,0E0,0E0,0E0,0E0,0E0,0E0,0E0,0E0],"parents":[2147483647,0,0,1,1,2,2,3,3,4,4,5,5,7,7,9,9,10,10,13,13,14,14,15,15,16,16,20,20,21,21,22,22,23,23,25,25],"right_children":[2,4,6,8,10,12,-1,14,-1,16,18,-1,-1,20,22,24,26,-1,-1,-1,28,30,32,34,-1,36,-1,-1,-1,-1,-1,-1,-1,-1,-1,-1,-1],"split_conditions":[9.159778E-1,1.907706E3,7.7E-1,9.923E2,-2.83139E-1,1.314E1,4.299269E0,-6.6045654E-1,2.490545E0,4.157E1,1.291E2,1.2604833E0,2.574577E0,-2.2252093E-1,1.0633768E1,4.8386665E1,1.532E2,-8.513479E-1,-1.4025815E-1,-9.984193E-1,9.84E2,1.5208E2,8.366596E-1,5.648E1,-7.7660114E-1,5.792E1,-6.8549657E-1,1.7103888E-2,-6.902972E-1,-1.5975434E-1,-1.1516157E0,8.7407494E-1,-2.251505E-1,-7.365208E-1,-1.2985257E0,-1.025662E0,-1.7997402E0],"split_indices":[40,50,10,13,40,7,0,40,0,19,21,0,0,44,28,27,23,0,0,0,13,19,48,12,0,0,0,0,0,0,0,0,0,0,0,0,0],"split_type":[0,0,0,0,0,0,0,0,0,0,0,0,0,0,0,0,0,0,0,0,0,0,0,0,0,0,0,0,0,0,0,0,0,0,0,0,0],"sum_hessian":[2.29E2,2.09E2,2E1,1.26E2,8.3E1,1E1,1E1,1.2E2,6E0,6.6E1,1.7E1,5E0,5E0,3.3E1,8.7E1,3.7E1,2.9E1,8E0,9E0,9E0,2.4E1,2E1,6.7E1,2.8E1,9E0,2.4E1,5E0,1E1,1.4E1,1.5E1,5E0,5.7E1,1E1,5E0,2.3E1,5E0,1.9E1],"tree_param":{"num_deleted":"0","num_feature":"54","num_nodes":"37","size_leaf_vector":"1"}},{"base_weights":[1.7649219E0,-6.088737E0,4.883497E1,5.0207243E0,-2.3730553E1,6.818802E1,2.2801031E1,3.7560642E1,9.447991E-1,-1.2450468E1,-2.7343285E1,3.9825165E0,1.5038981E0,3.336138E1,-1.7989285E-2,6.199939E-1,2.508054E0,-9.665817E0,5.8298936E0,-1.6791754E1,-6.845382E-2,-2.962654E1,-9.3353176E-1,2.1389902E0,9.191367E-1,-1.9087702E1,-2.8024492E0,2.2870348E1,7.05991E-1,-3.0568895E-1,-1.0759681E0,-8.928978E-1,-3.168845E1,-1.2073907E0,-7.0714325E-1,-4.033185E-1,4.81486E-1,-3.019035E-1,1.8913864E0,1.0267829E0,-1.7924194E-1,-9.0222496E-1,-1.6628214E0],"categories":[],"categories_nodes":[],"categories_segments":[],"categories_sizes":[],"default_left":[0,0,0,0,0,0,0,0,0,0,0,0,0,0,0,0,0,0,0,0,0,0,0,0,0,0,0,0,0,0,0,0,0,0,0,0,0,0,0,0,0,0,0],"id":15,"left_children":[1,3,5,7,9,11,13,15,17,19,21,-1,-1,23,-1,-1,-1,25,27,29,-1,31,-1,-1,-1,33,35,37,39,-1,-1,-1,41,-1,-1,-1,-1,-1,-1,-1,-1,-1,-1],"loss_changes":[8.790963E4,4.0101324E4,1.5575672E4,1.667593E4,2.8789648E3,5.904039E3,3.9253857E3,3.8165215E3,5.913577E3,9.872678E2,6.1516406E2,0E0,0E0,7.65417E2,0E0,0E0,0E0,2.2744788E3,6.794317E3,6.256548E2,0E0,5.260664E2,0E0,0E0,0E0,3.3802246E1,1.5173998E3,8.011503E3,5.2638467E3,0E0,0E0,0E0,1.9146094E2,0E0,0E0,0E0,0E0,0E0,0E0,0E0,0E0,0E0,0E0],"parents":[2147483647,0,0,1,1,2,2,3,3,4,4,5,5,6,6,7,7,8,8,9,9,10,10,13,13,17,17,18,18,19,19,21,21,25,25,26,26,27,27,28,28,32,32],"right_children":[2,4,6,8,10,12,14,16,18,20,22,-1,-1,24,-1,-1,-1,26,28,30,-1,32,-1,-1,-1,34,36,38,40,-1,-1,-1,42,-1,-1,-1,-1,-1,-1,-1,-1,-1,-1],"split_conditions":[2.6270834E2,2.006627E3,5.05E0,-9.4740427E-1,-9.296339E-1,7.751154E2,2.3554E2,9.923E2,-6.6045654E-1,1.455E2,2.2484495E1,3.9825165E0,1.5038981E0,6.679416E2,-1.7989285E-2,6.199939E-1,2.508054E0,2.237E2,-4.0024394E-1,6.53E1,-6.845382E-2,3.4141335E1,-9.3353176E-1,2.1389902E0,9.191367E-1,2.066051E1,2.855E2,3.758E1,1.641E2,-3.0568895E-1,-1.0759681E0,-8.928978E-1,6.754E1,-1.2073907E0,-7.0714325E-1,-4.033185E-1,4.81486E-1,-3.019035E-1,1.8913864E0,1.0267829E0,-1.7924194E-1,-9.0222496E-1,-1.6628214E0],"split_indices":[35,50,5,39,39,50,16,13,40,0,37,0,0,50,0,0,0,24,40,26,0,36,0,0,0,34,25,9,24,0,0,0,12,0,0,0,0,0,0,0,0,0,0],"split_type":[0,0,0,0,0,0,0,0,0,0,0,0,0,0,0,0,0,0,0,0,0,0,0,0,0,0,0,0,0,0,0,0,0,0,0,0,0,0,0,0,0,0,0],"sum_hessian":[2.36E2,2.03E2,3.3E1,1.25E2,7.8E1,1.8E1,1.5E1,1.3E1,1.12E2,2E1,5.8E1,1.3E1,5E0,1E1,5E0,5E0,8E0,3.5E1,7.7E1,1.4E1,6E0,4.4E1,1.4E1,5E0,5E0,1.4E1,2.1E1,1.7E1,6E1,5E0,9E0,8E0,3.6E1,5E0,9E0,1.5E1,6E0,6E0,1.1E1,1E1,5E1,5E0,3.1E1],"tree_param":{"num_deleted":"0","num_feature":"54","num_nodes":"43","size_leaf_vector":"1"}},{"base_weights":[-8.06491E-1,5.327145E1,-5.952931E0,4.17234E0,2.620065E1,4.742143E0,-2.3044373E1,7.3009384E-1,1.7682889E0,3.0371864E1,6.17567E-1,-2.5271454E1,-1.058109E1,1.4153062E1,2.443812E0,-1.158258E1,4.772704E0,-1.5574867E1,-2.6869482E1,-7.5527656E-1,-1.01545714E-1,1.0585259E0,2.38838E-1,-1.7214535E1,2.676561E-1,1.542129E1,-2.6287315E0,-1.1030124E0,-3.8954931E-1,-2.3002346E1,-1.561418E0,-1.0931616E0,-3.1732062E-1,-4.765334E-1,1.2212536E0,4.817156E-1,-4.0029764E-1,-1.2640556E0,-7.502598E-1],"categories":[],"categories_nodes":[],"categories_segments":[],"categories_sizes":[],"default_left":[0,0,0,0,0,0,0,0,0,0,0,0,0,0,0,0,0,0,0,0,0,0,0,0,0,0,0,0,0,0,0,0,0,0,0,0,0,0,0],"id":16,"left_children":[1,3,5,-1,7,9,11,-1,-1,13,15,17,19,21,-1,23,25,27,29,-1,-1,-1,-1,31,-1,33,35,-1,-1,37,-1,-1,-1,-1,-1,-1,-1,-1,-1],"loss_changes":[6.404985E4,1.4151059E4,3.8496066E4,0E0,7.5924414E2,1.3723771E4,1.9808984E3,0E0,0E0,4.7103887E3,5.783621E3,6.351992E2,5.1090845E2,6.226494E2,0E0,2.8582043E3,6.7397993E3,4.3390625E2,2.4249219E2,0E0,0E0,0E0,0E0,9.727446E2,0E0,8.095956E3,3.4401277E3,0E0,0E0,2.4025586E2,0E0,0E0,0E0,0E0,0E0,0E0,0E0,0E0,0E0],"parents":[2147483647,0,0,1,1,2,2,4,4,5,5,6,6,9,9,10,10,11,11,12,12,13,13,15,15,16,16,17,17,18,18,23,23,25,25,26,26,29,29],"right_children":[2,4,6,-1,8,10,12,-1,-1,14,16,18,20,22,-1,24,26,28,30,-1,-1,-1,-1,32,-1,34,36,-1,-1,38,-1,-1,-1,-1,-1,-1,-1,-1,-1],"split_conditions":[7.751154E2,4.9E0,2.006627E3,4.17234E0,3.102E1,7.94773E-2,2.2258074E1,7.3009384E-1,1.7682889E0,9.923E2,1.0525761E1,-9.296339E-1,2.1026753E3,1.43E0,2.443812E0,1E0,1.8349447E1,0E0,4.157E1,-7.5527656E-1,-1.01545714E-1,1.0585259E0,2.38838E-1,2.7521E2,2.676561E-1,1.618E2,7E-1,-1.1030124E0,-3.8954931E-1,4.026E1,-1.561418E0,-1.0931616E0,-3.1732062E-1,-4.765334E-1,1.2212536E0,4.817156E-1,-4.0029764E-1,-1.2640556E0,-7.502598E-1],"split_indices":[50,5,50,0,4,39,34,0,0,13,28,39,50,10,0,41,28,43,19,0,0,0,0,0,0,21,6,0,0,7,0,0,0,0,0,0,0,0,0],"split_type":[0,0,0,0,0,0,0,0,0,0,0,0,0,0,0,0,0,0,0,0,0,0,0,0,0,0,0,0,0,0,0,0,0,0,0,0,0,0,0],"sum_hessian":[2.28E2,1.9E1,2.09E2,8E0,1.1E1,1.29E2,8E1,6E0,5E0,1.7E1,1.12E2,6.7E1,1.3E1,1E1,7E0,2.8E1,8.4E1,1.1E1,5.6E1,8E0,5E0,5E0,5E0,2.1E1,7E0,3.4E1,5E1,5E0,6E0,3.3E1,2.3E1,1.4E1,7E0,9E0,2.5E1,1.5E1,3.5E1,2.4E1,9E0],"tree_param":{"num_deleted":"0","num_feature":"54","num_nodes":"39","size_leaf_vector":"1"}},{"base_weights":[-9.390315E-2,5.2983242E1,-6.4626913E0,3.8235586E0,2.7226446E1,3.3029613E0,-2.0268526E1,4.9233556E-1,1.842897E0,3.743277E1,-9.139301E-1,-9.977579E0,-2.359324E1,2.2642899E0,1.0361637E0,-1.2244407E1,2.92153E0,-1.8159586E1,-1.446998E-1,-2.491303E1,-1.6018028E1,-1.6292582E1,-1.168886E-1,-1.3613454E1,5.7548385E0,-4.693316E-1,-1.1542518E0,3.294718E-1,-3.4273595E-1,-1.9215485E1,-1.3847734E0,-4.9835896E-1,-9.4580907E-1,-4.12398E-1,-1.0696701E0,-1.320336E0,1.7904657E-1,-1.2062216E-1,4.8145747E-1,-4.4803157E-1,-1.1018196E0],"categories":[],"categories_nodes":[],"categories_segments":[],"categories_sizes":[],"default_left":[0,0,0,0,0,0,0,0,0,0,0,0,0,0,0,0,0,0,0,0,0,0,0,0,0,0,0,0,0,0,0,0,0,0,0,0,0,0,0,0,0],"id":17,"left_children":[1,3,5,-1,7,9,11,-1,-1,13,15,17,19,-1,-1,21,23,25,27,29,31,33,-1,35,37,-1,-1,-1,-1,39,-1,-1,-1,-1,-1,-1,-1,-1,-1,-1,-1],"loss_changes":[7.572469E4,1.2437336E4,2.7031545E4,0E0,1.8131768E3,1.7016973E4,2.6043945E3,0E0,0E0,7.673926E2,4.642277E3,1.7673313E3,2.2080078E2,0E0,0E0,1.0447136E3,3.82624E3,3.0183813E2,5.422167E2,2.7632227E2,2.1894287E1,6.0319727E2,0E0,2.734229E3,2.2065688E3,0E0,0E0,0E0,0E0,3.811006E2,0E0,0E0,0E0,0E0,0E0,0E0,0E0,0E0,0E0,0E0,0E0],"parents":[2147483647,0,0,1,1,2,2,4,4,5,5,6,6,9,9,10,10,11,11,12,12,15,15,16,16,17,17,18,18,19,19,20,20,21,21,23,23,24,24,29,29],"right_children":[2,4,6,-1,8,10,12,-1,-1,14,16,18,20,-1,-1,22,24,26,28,30,32,34,-1,36,38,-1,-1,-1,-1,40,-1,-1,-1,-1,-1,-1,-1,-1,-1,-1,-1],"split_conditions":[7.682403E2,4.9E0,1.907706E3,3.8235586E0,1.7394E2,7.94773E-2,-9.296339E-1,4.9233556E-1,1.842897E0,2.884E1,-7.792391E-1,1.225E2,2.3890987E1,2.2642899E0,1.0361637E0,7.818315E-1,2.662985E1,1.2140531E1,1.47E0,3.138E1,1.149E1,1.883E2,-1.168886E-1,2.355E2,1.2252E2,-4.693316E-1,-1.1542518E0,3.294718E-1,-3.4273595E-1,7.291E1,-1.3847734E0,-4.9835896E-1,-9.4580907E-1,-4.12398E-1,-1.0696701E0,-1.320336E0,1.7904657E-1,-1.2062216E-1,4.8145747E-1,-4.4803157E-1,-1.1018196E0],"split_indices":[50,5,50,0,11,39,39,0,0,8,40,21,37,0,0,43,37,37,10,8,3,14,0,25,12,0,0,0,0,9,0,0,0,0,0,0,0,0,0,0,0],"split_type":[0,0,0,0,0,0,0,0,0,0,0,0,0,0,0,0,0,0,0,0,0,0,0,0,0,0,0,0,0,0,0,0,0,0,0,0,0,0,0,0,0],"sum_hessian":[2.22E2,2.3E1,1.99E2,1.1E1,1.2E1,1.17E2,8.2E1,5E0,7E0,1.2E1,1.05E2,2.1E1,6.1E1,7E0,5E0,2.6E1,7.9E1,1.1E1,1E1,5E1,1.1E1,1.8E1,8E0,1.1E1,6.8E1,5E0,6E0,5E0,5E0,1.9E1,3.1E1,5E0,6E0,8E0,1E1,6E0,5E0,2.2E1,4.6E1,5E0,1.4E1],"tree_param":{"num_deleted":"0","num_feature":"54","num_nodes":"41","size_leaf_vector":"1"}},{"base_weights":[-4.7570446E-1,-1.3196649E1,2.129357E1,-1.9419605E1,4.345643E0,3.6029823E1,2.8945904E0,-2.2522087E1,-1.3356751E1,1.4167154E1,-1.0044383E1,5.3955727E1,2.4670818E1,1.0026901E0,-3.1221921E0,-1.4948936E1,-2.4383377E1,-1.7022274E1,2.6540157E-1,1.4467145E0,2.791248E1,-1.0524123E0,3.5551655E-1,6.838772E1,1.1784457E0,3.0680368E1,2.7111927E-2,3.4197602E-1,-7.9469385E0,-4.6235535E-1,-9.178119E-1,-2.5962025E1,-7.499497E-1,-1.9611767E1,-2.4862027E-1,-6.0276276E-1,5.696176E-1,1.8776985E0,6.809454E-1,4.185158E0,2.0837169E0,3.4595406E1,6.584681E-1,-1.3796818E1,1.2762408E-1,-1.0280418E0,-1.4622247E0,-1.0939298E0,-4.204619E-1,6.877027E-1,2.0528157E0,-7.646465E-2,-1.0636429E0],"categories":[],"categories_nodes":[],"categories_segments":[],"categories_sizes":[],"default_left":[0,0,0,0,0,0,0,0,0,0,0,0,0,0,0,0,0,0,0,0,0,0,0,0,0,0,0,0,0,0,0,0,0,0,0,0,0,0,0,0,0,0,0,0,0,0,0,0,0,0,0,0,0],"id":18,"left_children":[1,3,5,7,9,11,13,15,17,19,21,23,25,-1,27,29,31,33,-1,35,37,-1,-1,39,-1,41,-1,-1,43,-1,-1,45,-1,47,-1,-1,-1,-1,-1,-1,-1,49,-1,51,-1,-1,-1,-1,-1,-1,-1,-1,-1],"loss_changes":[6.2312363E4,1.5585814E4,2.2399668E4,1.6742188E3,5.512909E3,8.0354062E3,3.9858547E3,5.940117E2,2.69017E3,3.9810908E3,3.1699497E3,5.8434023E3,4.333424E3,0E0,1.4481726E3,1.4110327E2,3.9576953E2,9.009795E2,0E0,1.8830518E3,1.00448145E3,0E0,0E0,1.0121289E3,0E0,1.189748E3,0E0,0E0,1.263623E3,0E0,0E0,1.7879492E2,0E0,4.7626758E2,0E0,0E0,0E0,0E0,0E0,0E0,0E0,1.9937363E3,0E0,1.1597305E3,0E0,0E0,0E0,0E0,0E0,0E0,0E0,0E0,0E0],"parents":[2147483647,0,0,1,1,2,2,3,3,4,4,5,5,6,6,7,7,8,8,9,9,10,10,11,11,12,12,14,14,15,15,16,16,17,17,19,19,20,20,23,23,25,25,28,28,31,31,33,33,41,41,43,43],"right_children":[2,4,6,8,10,12,14,16,18,20,22,24,26,-1,28,30,32,34,-1,36,38,-1,-1,40,-1,42,-1,-1,44,-1,-1,46,-1,48,-1,-1,-1,-1,-1,-1,-1,50,-1,52,-1,-1,-1,-1,-1,-1,-1,-1,-1],"split_conditions":[1.0410075E-1,6.216869E-1,6.6929036E-1,1.332E2,2.875E2,4.9E0,8.461E1,2.851E1,6.652E1,1.6441E2,1.7432E2,7.751154E2,2.2207928E2,1.0026901E0,2.056E2,9.438E1,2.1174942E1,3.1421E2,2.6540157E-1,4.3388373E-1,2.4375E2,-1.0524123E0,3.5551655E-1,2.435E1,1.1784457E0,7.84E1,2.7111927E-2,3.4197602E-1,2.912E2,-4.6235535E-1,-9.178119E-1,4.0085E1,-7.499497E-1,-8.10531E-1,-2.4862027E-1,-6.0276276E-1,5.696176E-1,1.8776985E0,6.809454E-1,4.185158E0,2.0837169E0,1.53E2,6.584681E-1,4.834092E1,1.2762408E-1,-1.0280418E0,-1.4622247E0,-1.0939298E0,-4.204619E-1,6.877027E-1,2.0528157E0,-7.646465E-2,-1.0636429E0],"split_indices":[40,39,39,21,14,5,18,19,9,11,12,50,33,0,25,0,34,0,0,43,0,0,0,2,0,9,0,0,22,0,0,36,0,40,0,0,0,0,0,0,0,22,0,37,0,0,0,0,0,0,0,0,0],"split_type":[0,0,0,0,0,0,0,0,0,0,0,0,0,0,0,0,0,0,0,0,0,0,0,0,0,0,0,0,0,0,0,0,0,0,0,0,0,0,0,0,0,0,0,0,0,0,0,0,0,0,0,0,0],"sum_hessian":[2.23E2,1.41E2,8.2E1,1.04E2,3.7E1,4.5E1,3.7E1,6.7E1,3.7E1,2.2E1,1.5E1,1.6E1,2.9E1,9E0,2.8E1,1.5E1,5.2E1,3.1E1,6E0,1.2E1,1E1,9E0,6E0,1E1,6E0,2.3E1,6E0,9E0,1.9E1,7E0,8E0,4.3E1,9E0,2.5E1,6E0,5E0,7E0,5E0,5E0,5E0,5E0,1.8E1,5E0,1.2E1,7E0,1.9E1,2.4E1,2E1,5E0,5E0,1.3E1,5E0,7E0],"tree_param":{"num_deleted":"0","num_feature":"54","num_nodes":"53","size_leaf_vector":"1"}},{"base_weights":[2.6174402E0,5.07108E1,-3.1204236E0,7.318856E1,3.0846384E1,6.0759087E0,-1.754977E1,4.5165725E0,2.192379E0,2.2631392E0,9.555953E-1,3.3879875E1,2.39647E0,-6.6364408E0,-2.1691637E1,9.603054E-1,2.3953083E0,-7.774949E0,6.7619414E0,2.0767784E-1,-1.4743825E1,-7.3279595E-1,-2.2998657E1,-1.4820085E1,-2.3724735E0,2.838611E0,2.5335123E1,4.3075028E-1,-4.7151825E-1,-1.0851239E0,-2.6639336E-1,-6.314934E-1,-2.4460892E1,-4.6224782E-1,-8.7548107E-1,-4.7907934E-1,3.257855E-1,7.4170214E-1,-1.8110164E-1,3.5243738E-1,1.7355512E0,-1.3523502E0,-8.4051335E-1],"categories":[],"categories_nodes":[],"categories_segments":[],"categories_sizes":[],"default_left":[0,0,0,0,0,0,0,0,0,0,0,0,0,0,0,0,0,0,0,0,0,0,0,0,0,0,0,0,0,0,0,0,0,0,0,0,0,0,0,0,0,0,0],"id":19,"left_children":[1,3,5,7,9,11,13,-1,-1,-1,-1,15,17,19,21,-1,-1,23,25,27,29,-1,31,33,35,37,39,-1,-1,-1,-1,-1,41,-1,-1,-1,-1,-1,-1,-1,-1,-1,-1],"loss_changes":[6.4731273E4,8.905094E3,2.7973012E4,1.5720664E3,1.6724756E3,1.3115895E4,3.5625723E3,0E0,0E0,0E0,0E0,2.1671875E3,5.158923E3,1.3347715E3,2.0548828E2,0E0,0E0,1.296981E3,5.830452E3,1.2156652E3,6.0511816E2,0E0,4.188164E2,6.3041748E1,1.4080251E3,5.323608E3,2.1556494E3,0E0,0E0,0E0,0E0,0E0,3.5653125E2,0E0,0E0,0E0,0E0,0E0,0E0,0E0,0E0,0E0,0E0],"parents":[2147483647,0,0,1,1,2,2,3,3,4,4,5,5,6,6,11,11,12,12,13,13,14,14,17,17,18,18,19,19,20,20,22,22,23,23,24,24,25,25,26,26,32,32],"right_children":[2,4,6,8,10,12,14,-1,-1,-1,-1,16,18,20,22,-1,-1,24,26,28,30,-1,32,34,36,38,40,-1,-1,-1,-1,-1,42,-1,-1,-1,-1,-1,-1,-1,-1,-1,-1],"split_conditions":[7.751154E2,4.9E0,1.907706E3,3.6413536E1,6.679416E2,1.0303138E-1,-9.358349E-1,4.5165725E0,2.192379E0,2.2631392E0,9.555953E-1,9.923E2,-6.6045654E-1,1.12E0,3.4593E1,9.603054E-1,2.3953083E0,2.237E2,3.008E1,1.617769E1,1.715176E1,-7.3279595E-1,2.733E1,1.2266284E1,2.7954E2,2.149E2,1.2148448E3,4.3075028E-1,-4.7151825E-1,-1.0851239E0,-2.6639336E-1,-6.314934E-1,4.334E1,-4.6224782E-1,-8.7548107E-1,-4.7907934E-1,3.257855E-1,7.4170214E-1,-1.8110164E-1,3.5243738E-1,1.7355512E0,-1.3523502E0,-8.4051335E-1],"split_indices":[50,5,50,28,50,39,39,0,0,0,0,13,40,6,36,0,0,24,8,31,31,0,15,28,0,23,50,0,0,0,0,0,7,0,0,0,0,0,0,0,0,0,0],"split_type":[0,0,0,0,0,0,0,0,0,0,0,0,0,0,0,0,0,0,0,0,0,0,0,0,0,0,0,0,0,0,0,0,0,0,0,0,0,0,0,0,0,0,0],"sum_hessian":[2.33E2,2.4E1,2.09E2,1E1,1.4E1,1.28E2,8.1E1,5E0,5E0,5E0,9E0,1.4E1,1.14E2,2.3E1,5.8E1,8E0,6E0,3.4E1,8E1,1.3E1,1E1,1.1E1,4.7E1,1.4E1,2E1,6.7E1,1.3E1,7E0,6E0,5E0,5E0,7E0,4E1,6E0,8E0,1.1E1,9E0,2.3E1,4.4E1,5E0,8E0,2.8E1,1.2E1],"tree_param":{"num_deleted":"0","num_feature":"54","num_nodes":"43","size_leaf_vector":"1"}},{"base_weights":[7.802906E-1,-5.523688E0,4.040918E1,2.8657696E0,-1.7366451E1,5.658887E1,1.6720345E1,1.8648735E0,-4.095396E-1,-6.1871343E0,-2.0239285E1,6.77484E1,1.4687067E0,1.580645E0,-1.3441703E-1,-1.2523963E1,2.3800929E0,-7.038916E-1,1.140213E-1,-2.140615E1,-1.4014949E1,4.006123E0,2.1010299E0,-2.062523E1,4.9082658E-1,-4.137558E0,1.2661653E1,2.5941163E-1,-2.4895966E-1,-1.7963152E1,-1.3220334E0,-8.9305574E-1,-4.6892282E-1,-1.282667E0,-4.4037533E-1,-4.5434496E-1,3.132976E-1,9.571805E-2,1.2316355E0,-1.0044535E0,-6.195772E-1],"categories":[],"categories_nodes":[],"categories_segments":[],"categories_sizes":[],"default_left":[0,0,0,0,0,0,0,0,0,0,0,0,0,0,0,0,0,0,0,0,0,0,0,0,0,0,0,0,0,0,0,0,0,0,0,0,0,0,0,0,0],"id":20,"left_children":[1,3,5,7,9,11,13,-1,15,17,19,21,-1,-1,-1,23,25,-1,27,29,31,-1,-1,33,-1,35,37,-1,-1,39,-1,-1,-1,-1,-1,-1,-1,-1,-1,-1,-1],"loss_changes":[5.6432625E4,1.942387E4,1.09354375E4,1.2984338E4,2.4761973E3,3.4766094E3,4.131615E3,0E0,3.612056E3,8.9657446E2,1.6482617E2,4.534961E2,0E0,0E0,0E0,3.8221943E3,5.882399E3,0E0,3.1011774E2,4.2640234E2,6.431592E1,0E0,0E0,6.653701E2,0E0,2.837426E3,4.3271626E3,0E0,0E0,1.5378809E2,0E0,0E0,0E0,0E0,0E0,0E0,0E0,0E0,0E0,0E0,0E0],"parents":[2147483647,0,0,1,1,2,2,3,3,4,4,5,5,6,6,8,8,9,9,10,10,11,11,15,15,16,16,18,18,19,19,20,20,23,23,25,25,26,26,29,29],"right_children":[2,4,6,8,10,12,14,-1,16,18,20,22,-1,-1,-1,24,26,-1,28,30,32,-1,-1,34,-1,36,38,-1,-1,40,-1,-1,-1,-1,-1,-1,-1,-1,-1,-1,-1],"split_conditions":[2.6270834E2,1.907706E3,5.02E0,-9.5211405E-1,-9.6206754E-1,7.751154E2,2.1673666E2,1.8648735E0,2.662985E1,1.015E2,6.525E1,3.6413536E1,1.4687067E0,1.580645E0,-1.3441703E-1,9.888537E-1,8.7240404E-1,-7.038916E-1,1.12E0,4.157E1,2.0691256E1,4.006123E0,2.1010299E0,2.355E2,4.9082658E-1,9.8658E2,1.2979603E0,2.5941163E-1,-2.4895966E-1,4.502667E1,-1.3220334E0,-8.9305574E-1,-4.6892282E-1,-1.282667E0,-4.4037533E-1,-4.5434496E-1,3.132976E-1,9.571805E-2,1.2316355E0,-1.0044535E0,-6.195772E-1],"split_indices":[35,50,5,39,39,50,27,0,37,21,19,28,0,0,0,39,39,0,6,19,34,0,0,25,0,13,49,0,0,27,0,0,0,0,0,0,0,0,0,0,0],"split_type":[0,0,0,0,0,0,0,0,0,0,0,0,0,0,0,0,0,0,0,0,0,0,0,0,0,0,0,0,0,0,0,0,0,0,0,0,0,0,0,0,0],"sum_hessian":[2.24E2,1.94E2,3E1,1.14E2,8E1,1.7E1,1.3E1,9E0,1.05E2,1.7E1,6.3E1,1.1E1,6E0,7E0,6E0,1.9E1,8.6E1,7E0,1E1,5.1E1,1.2E1,6E0,5E0,1.4E1,5E0,5.3E1,3.3E1,5E0,5E0,3.3E1,1.8E1,5E0,7E0,9E0,5E0,3.6E1,1.7E1,1.8E1,1.5E1,2.2E1,1.1E1],"tree_param":{"num_deleted":"0","num_feature":"54","num_nodes":"41","size_leaf_vector":"1"}},{"base_weights":[-8.3561504E-1,-6.914559E0,3.6952843E1,1.3894646E0,-1.6930044E1,4.9775707E1,6.7820516E0,1.3964775E0,-1.1758267E0,-1.9149145E1,-6.6199436E0,6.1948837E1,9.603739E-1,8.80222E-1,-2.5853392E-1,-8.081208E0,4.227959E0,-3.607731E-1,-2.0068954E1,9.510403E-2,-1.0043959E1,2.1626031E0,3.7619557E0,-3.722204E0,-1.7778774E1,9.868587E0,-1.2975787E1,-2.2059694E1,-1.39891205E1,-1.8090358E-1,-8.4689087E-1,-4.7865754E-1,5.346145E-1,-4.0882546E-1,-1.1979204E0,-1.3160245E-1,9.5524496E-1,-2.3515145E-1,-1.0879253E0,-8.7561667E-1,-1.2452773E0,-3.6304253E-1,-7.8739107E-1],"categories":[],"categories_nodes":[],"categories_segments":[],"categories_sizes":[],"default_left":[0,0,0,0,0,0,0,0,0,0,0,0,0,0,0,0,0,0,0,0,0,0,0,0,0,0,0,0,0,0,0,0,0,0,0,0,0,0,0,0,0,0,0],"id":21,"left_children":[1,3,5,7,9,11,13,-1,15,17,19,21,-1,-1,-1,23,25,-1,27,-1,29,-1,-1,31,33,35,37,39,41,-1,-1,-1,-1,-1,-1,-1,-1,-1,-1,-1,-1,-1,-1],"loss_changes":[5.469771E4,1.7073129E4,1.2429328E4,7.726224E3,2.0009961E3,7.368672E3,1.513955E3,0E0,3.9149482E3,6.894238E2,5.4433624E2,7.2151953E2,0E0,0E0,0E0,1.8783235E3,5.8534087E3,0E0,5.386406E2,0E0,5.146068E2,0E0,0E0,2.8855273E3,6.348428E2,5.245975E3,9.8752905E2,2.2384375E2,1.2231787E2,0E0,0E0,0E0,0E0,0E0,0E0,0E0,0E0,0E0,0E0,0E0,0E0,0E0,0E0],"parents":[2147483647,0,0,1,1,2,2,3,3,4,4,5,5,6,6,8,8,9,9,10,10,11,11,15,15,16,16,18,18,20,20,23,23,24,24,25,25,26,26,27,27,28,28],"right_children":[2,4,6,8,10,12,14,-1,16,18,20,22,-1,-1,-1,24,26,-1,28,-1,30,-1,-1,32,34,36,38,40,42,-1,-1,-1,-1,-1,-1,-1,-1,-1,-1,-1,-1,-1,-1],"split_conditions":[2.6270834E2,6.19E1,2.2629167E2,-9.4740427E-1,1.384E2,9.1E-1,4.3388373E-1,1.3964775E0,2.757114E1,2.149E1,1.07E0,1.988116E2,9.603739E-1,8.80222E-1,-2.5853392E-1,2.685E2,3.173E2,-3.607731E-1,2.0959763E1,9.510403E-2,2.485E1,2.1626031E0,3.7619557E0,8.696E1,9.8416E2,2.367E1,1.2063E2,3.9348667E1,1.424E2,-1.8090358E-1,-8.4689087E-1,-4.7865754E-1,5.346145E-1,-4.0882546E-1,-1.1979204E0,-1.3160245E-1,9.5524496E-1,-2.3515145E-1,-1.0879253E0,-8.7561667E-1,-1.2452773E0,-3.6304253E-1,-7.8739107E-1],"split_indices":[35,9,16,39,14,10,43,0,34,4,10,33,0,0,0,23,25,0,37,0,4,0,0,17,13,4,33,36,26,0,0,0,0,0,0,0,0,0,0,0,0,0,0],"split_type":[0,0,0,0,0,0,0,0,0,0,0,0,0,0,0,0,0,0,0,0,0,0,0,0,0,0,0,0,0,0,0,0,0,0,0,0,0,0,0,0,0,0,0],"sum_hessian":[2.36E2,2.04E2,3.2E1,1.12E2,9.2E1,2.2E1,1E1,9E0,1.03E2,7.5E1,1.7E1,1.5E1,7E0,5E0,5E0,4.5E1,5.8E1,6E0,6.9E1,5E0,1.2E1,8E0,7E0,3.2E1,1.3E1,4.4E1,1.4E1,5E1,1.9E1,7E0,5E0,2.3E1,9E0,6E0,7E0,1.9E1,2.5E1,8E0,6E0,2.2E1,2.8E1,5E0,1.4E1],"tree_param":{"num_deleted":"0","num_feature":"54","num_nodes":"43","size_leaf_vector":"1"}},{"base_weights":[-6.3584906E-1,-1.0031342E1,1.9367838E1,-9.601848E-1,-1.6474121E1,3.7804768E1,9.422359E0,5.6518383E0,-9.96461E0,6.568609E-2,-1.7661383E1,8.262108E-1,4.442675E1,4.071777E0,1.5743815E0,8.670824E-1,1.8622347E1,-3.9704702E0,-1.6531452E1,-1.285938E1,-2.0171844E1,3.1896102E0,2.9092104E1,1.6949032E1,-1.4597104E0,-9.164103E0,9.667123E0,1.5342509E0,1.7279772E-1,-9.985683E0,3.0246088E-1,-9.882762E-1,-5.2368665E-1,-1.4824547E1,-6.089223E-2,-1.5461668E1,-2.282534E1,1.7896566E0,7.6543564E-1,2.4482124E-1,1.1934929E0,3.1500309E0,-9.02097E0,1.9060606E-1,-8.016713E-1,-2.669635E-1,8.1823635E-1,-2.410928E-1,-6.742615E-1,-3.064811E-1,-8.1902945E-1,-9.2636454E-1,-1.58846E-1,-7.416536E-1,-1.2146827E0,5.245039E-1,-3.4933504E-1,-7.074875E-1,-1.6680816E-1],"categories":[],"categories_nodes":[],"categories_segments":[],"categories_sizes":[],"default_left":[0,0,0,0,0,0,0,0,0,0,0,0,0,0,0,0,0,0,0,0,0,0,0,0,0,0,0,0,0,0,0,0,0,0,0,0,0,0,0,0,0,0,0,0,0,0,0,0,0,0,0,0,0,0,0,0,0,0,0],"id":22,"left_children":[1,3,5,7,9,11,13,15,17,-1,19,-1,21,23,-1,25,27,29,31,33,35,-1,37,39,41,43,45,-1,-1,47,-1,-1,-1,49,-1,51,53,-1,-1,-1,-1,55,57,-1,-1,-1,-1,-1,-1,-1,-1,-1,-1,-1,-1,-1,-1,-1,-1],"loss_changes":[4.58648E4,9.685801E3,1.3946191E4,4.223942E3,2.0717285E3,3.070707E3,6.0110156E3,2.5283428E3,1.1152397E3,0E0,8.376289E2,0E0,4.0834023E3,3.087647E3,0E0,2.8251106E3,1.9063728E3,1.085005E3,6.7256836E1,7.597832E2,3.719922E2,0E0,6.527705E2,9.675049E2,1.1089354E3,1.3981897E3,1.7959927E3,0E0,0E0,1.3375781E2,0E0,0E0,0E0,2.919541E2,0E0,8.4499023E2,5.038086E1,0E0,0E0,0E0,0E0,1.5613728E3,3.026676E2,0E0,0E0,0E0,0E0,0E0,0E0,0E0,0E0,0E0,0E0,0E0,0E0,0E0,0E0,0E0,0E0],"parents":[2147483647,0,0,1,1,2,2,3,3,4,4,5,5,6,6,7,7,8,8,10,10,12,12,13,13,15,15,16,16,17,17,18,18,19,19,20,20,22,22,23,23,24,24,25,25,26,26,29,29,33,33,35,35,36,36,41,41,42,42],"right_children":[2,4,6,8,10,12,14,16,18,-1,20,-1,22,24,-1,26,28,30,32,34,36,-1,38,40,42,44,46,-1,-1,48,-1,-1,-1,50,-1,52,54,-1,-1,-1,-1,56,58,-1,-1,-1,-1,-1,-1,-1,-1,-1,-1,-1,-1,-1,-1,-1,-1],"split_conditions":[1.2119346E-1,1.5074105E3,3.8541335E-1,2.149E1,-9.4104016E-1,2.0932228E1,5.582883E1,3.2912575E1,2.254E2,6.568609E-2,-7.839338E-1,8.262108E-1,1.6504E2,9.091E1,1.5743815E0,1.0167E2,1.1032786E2,3.723E1,9.792857E1,1.291E2,6.33153E-1,3.1896102E0,5.05E0,1.978E2,1.0851171E0,2.1173464E1,1.8835E2,1.5342509E0,1.7279772E-1,1.2148448E3,3.0246088E-1,-9.882762E-1,-5.2368665E-1,2.827E1,-6.089223E-2,6.493E1,2.733E1,1.7896566E0,7.6543564E-1,2.4482124E-1,1.1934929E0,3.909352E1,3E0,1.9060606E-1,-8.016713E-1,-2.669635E-1,8.1823635E-1,-2.410928E-1,-6.742615E-1,-3.064811E-1,-8.1902945E-1,-9.2636454E-1,-1.58846E-1,-7.416536E-1,-1.2146827E0,5.245039E-1,-3.4933504E-1,-7.074875E-1,-1.6680816E-1],"split_indices":[40,50,39,5,48,31,34,34,23,0,39,0,15,18,0,18,33,9,33,21,49,0,5,0,49,34,0,0,0,50,0,0,0,19,0,15,15,0,0,0,0,31,45,0,0,0,0,0,0,0,0,0,0,0,0,0,0,0,0],"split_type":[0,0,0,0,0,0,0,0,0,0,0,0,0,0,0,0,0,0,0,0,0,0,0,0,0,0,0,0,0,0,0,0,0,0,0,0,0,0,0,0,0,0,0,0,0,0,0,0,0,0,0,0,0,0,0,0,0,0,0],"sum_hessian":[2.42E2,1.65E2,7.7E1,6.9E1,9.6E1,2.6E1,5.1E1,4E1,2.9E1,6E0,9E1,7E0,1.9E1,4.2E1,9E0,3E1,1E1,1.6E1,1.3E1,3.3E1,5.7E1,7E0,1.2E1,1.2E1,3E1,1.4E1,1.6E1,5E0,5E0,1E1,6E0,7E0,6E0,2.8E1,5E0,2.3E1,3.4E1,7E0,5E0,5E0,7E0,1.9E1,1.1E1,5E0,9E0,5E0,1.1E1,5E0,5E0,5E0,2.3E1,1.8E1,5E0,7E0,2.7E1,1.1E1,8E0,5E0,6E0],"tree_param":{"num_deleted":"0","num_feature":"54","num_nodes":"59","size_leaf_vector":"1"}},{"base_weights":[8.7759805E-1,3.9944717E1,-4.1442227E0,5.917677E1,2.1822132E1,2.5986722E0,-1.4725443E1,3.6102784E0,1.5971124E0,3.1739182E1,1.9257863E-4,1.1851376E-1,2.5674109E1,-1.7403566E1,-5.151366E0,2.1668935E0,7.4253166E-1,-9.255869E0,3.9962065E0,3.2906067E-1,1.8392258E0,-1.8572044E1,-1.0597745E1,-9.798409E0,2.4393141E-1,-1.2350143E1,-2.038142E0,-2.2964811E0,1.1799937E1,-1.3134067E1,-9.892088E-1,-6.578807E-1,-2.922469E-1,-1.0741984E-1,-7.633684E-1,-3.5962924E-1,-9.13022E-1,2.867285E-1,-5.383308E-1,1.0800513E0,-2.7515197E-1,1.7627352E-1,1.0162176E0,-8.8687843E-1,-4.0198407E-1],"categories":[],"categories_nodes":[],"categories_segments":[],"categories_sizes":[],"default_left":[0,0,0,0,0,0,0,0,0,0,0,0,0,0,0,0,0,0,0,0,0,0,0,0,0,0,0,0,0,0,0,0,0,0,0,0,0,0,0,0,0,0,0,0,0],"id":23,"left_children":[1,3,5,7,9,11,13,-1,-1,15,-1,17,19,21,23,-1,-1,25,27,-1,-1,29,31,33,-1,35,37,39,41,43,-1,-1,-1,-1,-1,-1,-1,-1,-1,-1,-1,-1,-1,-1,-1],"loss_changes":[4.823162E4,8.467602E3,1.5592145E4,2.306418E3,3.4618462E3,7.665877E3,2.089795E3,0E0,0E0,1.5111396E3,0E0,4.4718076E3,2.5156006E3,3.2804102E2,9.799992E2,0E0,0E0,7.7883887E2,4.299359E3,0E0,0E0,1.026875E2,6.909338E1,5.52926E2,0E0,6.307278E2,8.7586896E2,3.8736807E3,2.679211E3,1.6227173E2,0E0,0E0,0E0,0E0,0E0,0E0,0E0,0E0,0E0,0E0,0E0,0E0,0E0,0E0,0E0],"parents":[2147483647,0,0,1,1,2,2,3,3,4,4,5,5,6,6,9,9,11,11,12,12,13,13,14,14,17,17,18,18,21,21,22,22,23,23,25,25,26,26,27,27,28,28,29,29],"right_children":[2,4,6,8,10,12,14,-1,-1,16,-1,18,20,22,24,-1,-1,26,28,-1,-1,30,32,34,-1,36,38,40,42,44,-1,-1,-1,-1,-1,-1,-1,-1,-1,-1,-1,-1,-1,-1,-1],"split_conditions":[7.888833E2,4.9E0,2.006627E3,2.435E1,7.84E1,8E0,-2.83139E-1,3.6102784E0,1.5971124E0,5.704E1,1.9257863E-4,-6.6045654E-1,2.4674698E1,6.525E1,7.818315E-1,2.1668935E0,7.4253166E-1,7.818315E-1,5.225E1,3.2906067E-1,1.8392258E0,2.497E1,4.7E0,6.8E1,2.4393141E-1,2.4741E2,9.749279E-1,4.48E0,2.367E1,6.55E1,-9.892088E-1,-6.578807E-1,-2.922469E-1,-1.0741984E-1,-7.633684E-1,-3.5962924E-1,-9.13022E-1,2.867285E-1,-5.383308E-1,1.0800513E0,-2.7515197E-1,1.7627352E-1,1.0162176E0,-8.8687843E-1,-4.0198407E-1],"split_indices":[50,5,50,2,9,45,40,0,0,12,0,40,37,19,43,0,0,43,7,0,0,4,5,26,0,0,43,5,4,23,0,0,0,0,0,0,0,0,0,0,0,0,0,0,0],"split_type":[0,0,0,0,0,0,0,0,0,0,0,0,0,0,0,0,0,0,0,0,0,0,0,0,0,0,0,0,0,0,0,0,0,0,0,0,0,0,0,0,0,0,0,0,0],"sum_hessian":[2.44E2,2.7E1,2.17E2,1.2E1,1.5E1,1.33E2,8.4E1,7E0,5E0,1E1,5E0,1.21E2,1.2E1,6.5E1,1.9E1,5E0,5E0,3.5E1,8.6E1,5E0,7E0,5.4E1,1.1E1,1.3E1,6E0,2.4E1,1.1E1,4.8E1,3.8E1,1.2E1,4.2E1,6E0,5E0,6E0,7E0,1.4E1,1E1,6E0,5E0,5E0,4.3E1,2E1,1.8E1,5E0,7E0],"tree_param":{"num_deleted":"0","num_feature":"54","num_nodes":"45","size_leaf_vector":"1"}},{"base_weights":[3.3296958E-1,3.1734531E1,-4.7235403E0,2.5013423E-1,4.0088615E1,-1.5228458E1,1.9837377E0,4.8386353E1,8.2038134E-1,-1.6884834E1,-3.3034868E0,-1.9919688E-1,1.366285E0,1.4119713E0,5.3962906E1,-1.784085E1,-1.8569206E-1,-3.4940404E-1,4.6584383E-2,-8.590895E0,3.4873924E0,1.7881373E0,3.222704E0,-1.898986E1,-1.0473905E1,-8.633564E-1,-5.059294E0,2.0334427E1,1.8611798E-2,-7.762608E-1,-1.1409072E0,-1.2634204E-1,-8.337659E-1,-5.777951E-1,8.993454E-2,4.180753E-2,1.7426808E0,7.073373E-1,-1.0330861E-1],"categories":[],"categories_nodes":[],"categories_segments":[],"categories_sizes":[],"default_left":[0,0,0,0,0,0,0,0,0,0,0,0,0,0,0,0,0,0,0,0,0,0,0,0,0,0,0,0,0,0,0,0,0,0,0,0,0,0,0],"id":24,"left_children":[1,3,5,-1,7,9,11,13,-1,15,17,19,-1,-1,21,23,-1,-1,-1,25,27,-1,-1,29,31,-1,33,35,37,-1,-1,-1,-1,-1,-1,-1,-1,-1,-1],"loss_changes":[3.77813E4,7.1690117E3,1.4474389E4,0E0,4.1185625E3,1.5243984E3,6.975744E3,4.984297E2,0E0,8.1516016E2,1.7816458E2,3.6495586E3,0E0,0E0,1.771836E2,3.5130664E2,0E0,0E0,0E0,1.0157158E3,4.791593E3,0E0,0E0,3.7524414E2,4.9997742E2,0E0,1.2237336E3,3.9342441E3,2.061563E3,0E0,0E0,0E0,0E0,0E0,0E0,0E0,0E0,0E0,0E0],"parents":[2147483647,0,0,1,1,2,2,4,4,5,5,6,6,7,7,9,9,10,10,11,11,14,14,15,15,19,19,20,20,23,23,24,24,26,26,27,27,28,28],"right_children":[2,4,6,-1,8,10,12,14,-1,16,18,20,-1,-1,22,24,-1,-1,-1,26,28,-1,-1,30,32,-1,34,36,38,-1,-1,-1,-1,-1,-1,-1,-1,-1,-1],"split_conditions":[1.101E1,6.5E-1,1.455E2,2.5013423E-1,8.8E-1,-1.3185851E-1,9.923E2,1.4588E2,8.2038134E-1,9.9357E2,3.012E1,-6.6045654E-1,1.366285E0,1.4119713E0,7.7E-1,2.2258074E1,-1.8569206E-1,-3.4940404E-1,4.6584383E-2,9.242E1,-4.159484E-1,1.7881373E0,3.222704E0,4.157E1,2.3311794E1,-8.633564E-1,3.723E1,2.98E0,2.17E1,-7.762608E-1,-1.1409072E0,-1.2634204E-1,-8.337659E-1,-5.777951E-1,8.993454E-2,4.180753E-2,1.7426808E0,7.073373E-1,-1.0330861E-1],"split_indices":[8,10,0,0,10,40,13,17,0,13,8,40,0,0,10,34,0,0,0,32,40,0,0,19,34,0,9,1,4,0,0,0,0,0,0,0,0,0,0],"split_type":[0,0,0,0,0,0,0,0,0,0,0,0,0,0,0,0,0,0,0,0,0,0,0,0,0,0,0,0,0,0,0,0,0,0,0,0,0,0,0],"sum_hessian":[2.36E2,3.2E1,2.04E2,8E0,2.4E1,7.9E1,1.25E2,1.7E1,7E0,6.9E1,1E1,1.16E2,9E0,5E0,1.2E1,6.4E1,5E0,5E0,5E0,3.5E1,8.1E1,6E0,6E0,5.4E1,1E1,9E0,2.6E1,1.3E1,6.8E1,3.1E1,2.3E1,5E0,5E0,1.3E1,1.3E1,6E0,7E0,8E0,6E1],"tree_param":{"num_deleted":"0","num_feature":"54","num_nodes":"39","size_leaf_vector":"1"}},{"base_weights":[1.733034E-1,-8.142426E0,1.6802567E1,-1.2586244E1,2.9509187E0,2.7749672E1,1.4975864E0,-3.1434283E0,-1.4461456E1,1.904274E1,-3.2886283E0,3.4132866E1,1.0721448E1,6.5422115E0,-6.6210866E-1,4.1856542E-1,-8.676266E0,-1.7890959E1,-9.591832E0,1.2781093E0,4.901452E-1,-1.0119339E1,6.0382276E0,2.687752E1,2.5247033E0,1.2423223E0,-1.4890532E-1,1.3916795E1,2.06397E-1,-8.4382576E-1,-1.1227023E-1,-2.0240696E1,-1.1045292E1,-1.1375107E1,-4.0696766E-2,1.3314687E-1,-1.7206944E1,-1.2243543E-1,6.8851924E-1,6.364531E-1,2.9778181E1,1.0372629E0,1.815394E-1,2.66074E-1,-1.897467E-1,-1.0763294E0,-6.7812747E-1,-6.3561666E-1,-3.5429534E-1,-3.5851845E-1,-7.3571485E-1,-1.062395E0,-4.4755903E-1,2.1799452E0,1.113234E0],"categories":[],"categories_nodes":[],"categories_segments":[],"categories_sizes":[],"default_left":[0,0,0,0,0,0,0,0,0,0,0,0,0,0,0,0,0,0,0,0,0,0,0,0,0,0,0,0,0,0,0,0,0,0,0,0,0,0,0,0,0,0,0,0,0,0,0,0,0,0,0,0,0,0,0],"id":25,"left_children":[1,3,5,7,9,11,13,15,17,19,21,23,25,27,-1,-1,29,31,33,-1,-1,35,37,39,-1,-1,-1,41,43,-1,-1,45,47,49,-1,-1,51,-1,-1,-1,53,-1,-1,-1,-1,-1,-1,-1,-1,-1,-1,-1,-1,-1,-1],"loss_changes":[3.277194E4,7.826036E3,1.3194514E4,1.9554668E3,4.6812856E3,4.633992E3,2.6147563E3,1.3468152E3,1.3982285E3,5.3251855E2,2.2272104E3,2.5601484E3,2.7830823E3,1.2119517E3,0E0,0E0,7.003906E2,6.450547E2,6.325305E2,0E0,0E0,1.8577356E3,1.01805457E3,6.469492E2,0E0,0E0,0E0,7.675298E2,3.2720175E2,0E0,0E0,4.295117E1,1.5528931E1,3.7186768E2,0E0,0E0,2.4350146E2,0E0,0E0,0E0,1.106125E3,0E0,0E0,0E0,0E0,0E0,0E0,0E0,0E0,0E0,0E0,0E0,0E0,0E0,0E0],"parents":[2147483647,0,0,1,1,2,2,3,3,4,4,5,5,6,6,7,7,8,8,9,9,10,10,11,11,12,12,13,13,16,16,17,17,18,18,21,21,22,22,23,23,27,27,28,28,31,31,32,32,33,33,36,36,40,40],"right_children":[2,4,6,8,10,12,14,16,18,20,22,24,26,28,-1,-1,30,32,34,-1,-1,36,38,40,-1,-1,-1,42,44,-1,-1,46,48,50,-1,-1,52,-1,-1,-1,54,-1,-1,-1,-1,-1,-1,-1,-1,-1,-1,-1,-1,-1,-1],"split_conditions":[1.2119346E-1,6.350683E-1,6.6929036E-1,-9.358349E-1,1.877E2,2.1097679E2,1.3274777E0,4.1005333E1,4.7646667E1,6E-1,1.3032039E0,7.818315E-1,5.08E0,2.263E2,-6.6210866E-1,4.1856542E-1,1.43E0,2.4747E2,1.11E0,1.2781093E0,4.901452E-1,2.875E2,2.999E1,1.375E1,2.5247033E0,1.2423223E0,-1.4890532E-1,2.573E2,9.091E1,-8.4382576E-1,-1.1227023E-1,9.6E0,3.648E1,6.3766666E1,-4.0696766E-2,1.3314687E-1,1.6431E2,-1.2243543E-1,6.8851924E-1,6.364531E-1,5.908455E-1,1.0372629E0,1.815394E-1,2.66074E-1,-1.897467E-1,-1.0763294E0,-6.7812747E-1,-6.3561666E-1,-3.5429534E-1,-3.5851845E-1,-7.3571485E-1,-1.062395E0,-4.4755903E-1,2.1799452E0,1.113234E0],"split_indices":[40,39,39,39,14,33,49,36,27,6,49,43,5,25,0,0,10,11,6,0,0,14,8,7,0,0,0,14,18,0,0,5,7,27,0,0,12,0,0,0,49,0,0,0,0,0,0,0,0,0,0,0,0,0,0],"split_type":[0,0,0,0,0,0,0,0,0,0,0,0,0,0,0,0,0,0,0,0,0,0,0,0,0,0,0,0,0,0,0,0,0,0,0,0,0,0,0,0,0,0,0,0,0,0,0,0,0,0,0,0,0,0,0],"sum_hessian":[2.35E2,1.57E2,7.8E1,1.12E2,4.5E1,4.5E1,3.3E1,1.9E1,9.3E1,1.2E1,3.3E1,3.2E1,1.3E1,2.5E1,8E0,6E0,1.3E1,5.3E1,4E1,6E0,6E0,1.9E1,1.4E1,2.4E1,8E0,6E0,7E0,1.1E1,1.4E1,5E0,8E0,3.8E1,1.5E1,3.3E1,7E0,7E0,1.2E1,7E0,7E0,5E0,1.9E1,6E0,5E0,6E0,8E0,3E1,8E0,9E0,6E0,1.6E1,1.7E1,7E0,5E0,5E0,1.4E1],"tree_param":{"num_deleted":"0","num_feature":"54","num_nodes":"55","size_leaf_vector":"1"}},{"base_weights":[2.106785E-1,-3.580948E0,4.0909687E1,-9.83072E0,6.6408725E0,4.9177765E1,7.3996127E-1,-1.4209287E1,-1.8117383E0,3.898802E0,1.507332E0,3.089375E0,1.5998515E0,-9.859675E0,-1.6659842E1,-8.861589E0,5.623399E0,1.2534894E0,1.1915103E0,-1.3038944E1,1.6787826E-1,-1.861479E1,-3.3915362E-1,-7.422597E-1,-4.404928E-1,8.4569436E-1,-2.8429062E0,-3.9540064E0,9.376677E0,-4.0761948E-1,-8.039463E-1,-1.1440835E0,-6.38857E-1,-3.959838E-1,3.5560524E-1,-4.5432082E-1,1.4877644E-1,3.35447E-2,-7.400674E-1,1.2216648E0,2.1954286E-1],"categories":[],"categories_nodes":[],"categories_segments":[],"categories_sizes":[],"default_left":[0,0,0,0,0,0,0,0,0,0,0,0,0,0,0,0,0,0,0,0,0,0,0,0,0,0,0,0,0,0,0,0,0,0,0,0,0,0,0,0,0],"id":26,"left_children":[1,3,5,7,9,11,-1,13,15,17,-1,-1,-1,19,21,23,25,-1,27,29,-1,31,-1,-1,33,-1,35,37,39,-1,-1,-1,-1,-1,-1,-1,-1,-1,-1,-1,-1],"loss_changes":[3.4404523E4,1.3097631E4,3.3739902E3,4.4334346E3,4.909913E3,1.0560078E3,0E0,7.0977344E2,2.460996E3,4.039567E3,0E0,0E0,0E0,1.3884568E3,8.584717E2,1.2027852E3,2.246625E3,0E0,2.7325576E3,2.551499E2,0E0,7.537969E2,0E0,0E0,6.7768536E2,0E0,5.356214E2,2.0166453E3,1.7694565E3,0E0,0E0,0E0,0E0,0E0,0E0,0E0,0E0,0E0,0E0,0E0,0E0],"parents":[2147483647,0,0,1,1,2,2,3,3,4,4,5,5,7,7,8,8,9,9,13,13,14,14,15,15,16,16,18,18,19,19,21,21,24,24,26,26,27,27,28,28],"right_children":[2,4,6,8,10,12,-1,14,16,18,-1,-1,-1,20,22,24,26,-1,28,30,-1,32,-1,-1,34,-1,36,38,40,-1,-1,-1,-1,-1,-1,-1,-1,-1,-1,-1,-1],"split_conditions":[2.0938602E2,-1.4889039E-1,5.08E0,2.662985E1,9.9204E2,3.087604E2,7.3996127E-1,4.1005333E1,3.723E1,1.3723E2,1.507332E0,3.089375E0,1.5998515E0,-3.322355E-1,2.355E2,6.234898E-1,7.2E-1,1.2534894E0,3.054E1,6.58E1,1.6787826E-1,2.4205E2,-3.3915362E-1,-7.422597E-1,2.4E2,8.4569436E-1,2.718E2,3.042E2,2.4375E2,-4.0761948E-1,-8.039463E-1,-1.1440835E0,-6.38857E-1,-3.959838E-1,3.5560524E-1,-4.5432082E-1,1.4877644E-1,3.35447E-2,-7.400674E-1,1.2216648E0,2.1954286E-1],"split_indices":[36,40,5,37,13,32,0,36,9,11,0,0,0,40,25,44,6,0,2,25,0,11,0,0,21,0,26,24,0,0,0,0,0,0,0,0,0,0,0,0,0],"split_type":[0,0,0,0,0,0,0,0,0,0,0,0,0,0,0,0,0,0,0,0,0,0,0,0,0,0,0,0,0,0,0,0,0,0,0,0,0,0,0,0,0],"sum_hessian":[2.21E2,2.03E2,1.8E1,1.26E2,7.7E1,1.3E1,5E0,8.1E1,4.5E1,7E1,7E0,6E0,7E0,3.1E1,5E1,2.3E1,2.2E1,7E0,6.3E1,2.5E1,6E0,4.1E1,9E0,1.3E1,1E1,9E0,1.3E1,3.9E1,2.4E1,1.1E1,1.4E1,2.2E1,1.9E1,5E0,5E0,6E0,7E0,2.8E1,1.1E1,5E0,1.9E1],"tree_param":{"num_deleted":"0","num_feature":"54","num_nodes":"41","size_leaf_vector":"1"}},{"base_weights":[8.0171216E-1,-4.015505E0,3.2308292E1,3.001341E0,-1.2984344E1,4.0097057E1,1.4781356E-1,2.431663E1,6.699466E-1,-5.2144237E0,-1.4610936E1,5.1515274E1,2.8289347E1,4.3607542E-1,1.7105036E0,-7.013232E0,3.346359E0,1.6810697E-1,-8.771728E0,-1.3471577E1,-1.0924591E0,1.5171846E0,3.115151E0,1.6553711E0,7.772166E-1,3.104798E-1,-1.150275E1,-1.1755797E1,5.816908E0,-7.382928E-1,-7.62248E-2,-1.4764268E1,-6.6679125E0,-3.8931108E-1,-1.0057895E0,-9.4066685E-1,-2.013539E-1,4.6197024E-1,-3.3696458E-1,-2.7924863E-1,-7.7624315E-1,-9.7615466E-2,-4.685563E-1],"categories":[],"categories_nodes":[],"categories_segments":[],"categories_sizes":[],"default_left":[0,0,0,0,0,0,0,0,0,0,0,0,0,0,0,0,0,0,0,0,0,0,0,0,0,0,0,0,0,0,0,0,0,0,0,0,0,0,0,0,0,0,0],"id":27,"left_children":[1,3,5,7,9,11,-1,13,15,17,19,21,23,-1,-1,25,27,-1,29,31,-1,-1,-1,-1,-1,-1,33,35,37,-1,-1,39,41,-1,-1,-1,-1,-1,-1,-1,-1,-1,-1],"loss_changes":[3.7769695E4,1.3632492E4,7.425789E3,6.0464194E3,1.1244697E3,2.0480664E3,0E0,1.5531108E3,2.3060012E3,5.7866187E2,3.4891992E2,8.502207E2,4.0646387E2,0E0,0E0,1.7929872E3,3.1651636E3,0E0,5.4222046E2,5.1720703E2,0E0,0E0,0E0,0E0,0E0,0E0,5.476074E2,5.7878613E2,3.1563628E3,0E0,0E0,3.1823438E2,1.4741937E2,0E0,0E0,0E0,0E0,0E0,0E0,0E0,0E0,0E0,0E0],"parents":[2147483647,0,0,1,1,2,2,3,3,4,4,5,5,7,7,8,8,9,9,10,10,11,11,12,12,15,15,16,16,18,18,19,19,26,26,27,27,28,28,31,31,32,32],"right_children":[2,4,6,8,10,12,-1,14,16,18,20,22,24,-1,-1,26,28,-1,30,32,-1,-1,-1,-1,-1,-1,34,36,38,-1,-1,40,42,-1,-1,-1,-1,-1,-1,-1,-1,-1,-1],"split_conditions":[2.6270834E2,2.006627E3,3.831E2,5.544E1,-9.6206754E-1,8.49E0,1.4781356E-1,9.923E2,1.0525761E1,3.418E1,5.6958572E1,1.988116E2,8.5E-1,4.3607542E-1,1.7105036E0,1.33E0,1.1747E2,1.6810697E-1,6.379E1,4.8386665E1,-1.0924591E0,1.5171846E0,3.115151E0,1.6553711E0,7.772166E-1,3.104798E-1,1.2758E2,1.0251E2,2.531E1,-7.382928E-1,-7.62248E-2,5.574E1,6.234898E-1,-3.8931108E-1,-1.0057895E0,-9.4066685E-1,-2.013539E-1,4.6197024E-1,-3.3696458E-1,-2.7924863E-1,-7.7624315E-1,-9.7615466E-2,-4.685563E-1],"split_indices":[35,50,21,20,39,8,0,13,28,17,30,33,10,0,0,10,12,0,16,27,0,0,0,0,0,0,19,19,3,0,0,12,44,0,0,0,0,0,0,0,0,0,0],"split_type":[0,0,0,0,0,0,0,0,0,0,0,0,0,0,0,0,0,0,0,0,0,0,0,0,0,0,0,0,0,0,0,0,0,0,0,0,0,0,0,0,0,0,0],"sum_hessian":[2.47E2,2.15E2,3.2E1,1.21E2,9.4E1,2.5E1,7E0,1.1E1,1.1E2,1.7E1,7.7E1,1.1E1,1.4E1,5E0,6E0,2.8E1,8.2E1,5E0,1.2E1,6.9E1,8E0,5E0,6E0,9E0,5E0,7E0,2.1E1,1.1E1,7.1E1,6E0,6E0,5.7E1,1.2E1,1.6E1,5E0,5E0,6E0,5.6E1,1.5E1,5E0,5.2E1,5E0,7E0],"tree_param":{"num_deleted":"0","num_feature":"54","num_nodes":"43","size_leaf_vector":"1"}},{"base_weights":[6.8416077E-1,3.2334984E1,-3.136462E0,2.6232736E0,1.6758991E1,3.9686427E0,-1.2712351E1,1.2093716E-1,1.184362E0,1.9965662E1,1.5535543E0,-5.5339212E0,-1.4425577E1,3.1326327E-1,1.420156E0,-7.866896E0,5.097055E0,-6.618308E-1,5.711222E-1,-1.5504513E1,-8.668194E0,-1.1909147E1,4.469776E-1,1.1603339E1,-2.484328E0,-2.785395E-1,3.3089238E-1,-1.2317464E1,-9.481878E-1,-6.110102E-1,-1.938936E-1,-1.0088658E0,-4.2457363E-1,1.0746558E-1,1.0027317E0,-4.112462E-1,5.394165E-1,-6.771854E-1,-2.3732272E-1],"categories":[],"categories_nodes":[],"categories_segments":[],"categories_sizes":[],"default_left":[0,0,0,0,0,0,0,0,0,0,0,0,0,0,0,0,0,0,0,0,0,0,0,0,0,0,0,0,0,0,0,0,0,0,0,0,0,0,0],"id":28,"left_children":[1,3,5,-1,7,9,11,-1,-1,13,15,17,19,-1,-1,21,23,-1,25,27,29,31,-1,33,35,-1,-1,37,-1,-1,-1,-1,-1,-1,-1,-1,-1,-1,-1],"loss_changes":[2.6946955E4,6.64599E3,1.3589953E4,0E0,1.4329985E3,4.411918E3,9.6552344E2,0E0,0E0,1.5559951E3,3.4116167E3,8.540149E2,2.8801074E2,0E0,0E0,2.0086675E3,3.6789973E3,0E0,4.4538968E2,3.8380176E2,1.7381018E2,4.7859717E2,0E0,3.1528467E3,2.7554868E3,0E0,0E0,2.328003E2,0E0,0E0,0E0,0E0,0E0,0E0,0E0,0E0,0E0,0E0,0E0],"parents":[2147483647,0,0,1,1,2,2,4,4,5,5,6,6,9,9,10,10,11,11,12,12,15,15,16,16,18,18,19,19,20,20,21,21,23,23,24,24,27,27],"right_children":[2,4,6,-1,8,10,12,-1,-1,14,16,18,20,-1,-1,22,24,-1,26,28,30,32,-1,34,36,-1,-1,38,-1,-1,-1,-1,-1,-1,-1,-1,-1,-1,-1],"split_conditions":[7.888833E2,4.9E0,1.907706E3,2.6232736E0,4.914E1,1.0303138E-1,-9.66618E-1,1.2093716E-1,1.184362E0,1.02E0,1.0525761E1,5.155E1,2.2258074E1,3.1326327E-1,1.420156E0,5.838E1,4.62E0,-6.618308E-1,1.5672E2,3.921E1,5.5E0,1.4371E2,4.469776E-1,1.652E1,1.53E0,-2.785395E-1,3.3089238E-1,1.019E2,-9.481878E-1,-6.110102E-1,-1.938936E-1,-1.0088658E0,-4.2457363E-1,1.0746558E-1,1.0027317E0,-4.112462E-1,5.394165E-1,-6.771854E-1,-2.3732272E-1],"split_indices":[50,5,50,0,12,39,39,0,0,6,28,15,34,0,0,9,1,0,11,19,5,12,0,3,10,0,0,24,0,0,0,0,0,0,0,0,0,0,0],"split_type":[0,0,0,0,0,0,0,0,0,0,0,0,0,0,0,0,0,0,0,0,0,0,0,0,0,0,0,0,0,0,0,0,0,0,0,0,0,0,0],"sum_hessian":[2.21E2,2.3E1,1.98E2,9E0,1.4E1,1.14E2,8.4E1,5E0,9E0,1.4E1,1E2,1.7E1,6.7E1,6E0,8E0,2.7E1,7.3E1,7E0,1E1,5.5E1,1.2E1,2.2E1,5E0,3.9E1,3.4E1,5E0,5E0,3.1E1,2.4E1,6E0,6E0,5E0,1.7E1,1.9E1,2E1,2.4E1,1E1,2.6E1,5E0],"tree_param":{"num_deleted":"0","num_feature":"54","num_nodes":"39","size_leaf_vector":"1"}},{"base_weights":[-1.2275907E0,-8.111911E0,9.075076E0,-1.43496895E1,-2.4388657E0,5.1752133E0,2.6205334E1,-1.2807543E1,-2.08961E1,7.4077207E-1,-4.754773E0,1.636143E1,2.2049768E0,1.8836625E0,4.2973882E-1,-1.3828912E1,-9.9565886E-2,-6.201875E-1,-1.2952883E0,-2.4363708E0,-1.4019308E1,2.0919704E-1,2.1516293E1,-1.5281377E0,1.303319E1,-2.498974E-1,-1.4680148E1,-5.474997E0,5.122554E0,-8.7117857E-1,-4.3061438E-1,3.924054E-1,1.5799215E0,-8.563312E0,7.5898547E0,1.1701144E0,1.1840409E-1,-8.670956E-1,-5.494068E-1,-4.8837343E-1,6.529484E-2,7.1336335E-1,-1.7876266E-1,-1.007708E0,-2.1459594E-1,1.1631445E0,6.1905053E-2],"categories":[],"categories_nodes":[],"categories_segments":[],"categories_sizes":[],"default_left":[0,0,0,0,0,0,0,0,0,0,0,0,0,0,0,0,0,0,0,0,0,0,0,0,0,0,0,0,0,0,0,0,0,0,0,0,0,0,0,0,0,0,0,0,0,0,0],"id":29,"left_children":[1,3,5,7,9,11,13,15,17,-1,19,21,23,-1,-1,25,-1,-1,-1,27,29,-1,31,33,35,-1,37,39,41,-1,-1,-1,-1,43,45,-1,-1,-1,-1,-1,-1,-1,-1,-1,-1,-1,-1],"loss_changes":[1.645772E4,4.883823E3,6.0773076E3,3.986787E2,3.027438E3,2.522303E3,3.1094648E3,5.9111426E2,1.4665381E2,0E0,1.3834525E3,9.143496E2,2.52614E3,0E0,0E0,3.100078E2,0E0,0E0,0E0,1.2683584E3,8.9233154E1,0E0,1.2678618E3,3.0798875E3,1.7139817E3,0E0,2.6149902E2,1.1479204E3,1.3236323E3,0E0,0E0,0E0,0E0,1.250245E3,2.061775E3,0E0,0E0,0E0,0E0,0E0,0E0,0E0,0E0,0E0,0E0,0E0,0E0],"parents":[2147483647,0,0,1,1,2,2,3,3,4,4,5,5,6,6,7,7,8,8,10,10,11,11,12,12,15,15,19,19,20,20,22,22,23,23,24,24,26,26,27,27,28,28,33,33,34,34],"right_children":[2,4,6,8,10,12,14,16,18,-1,20,22,24,-1,-1,26,-1,-1,-1,28,30,-1,32,34,36,-1,38,40,42,-1,-1,-1,-1,44,46,-1,-1,-1,-1,-1,-1,-1,-1,-1,-1,-1,-1],"split_conditions":[9.267333E1,1.158E2,5.0514004E1,1.664E1,2.77E0,1.5256E2,2.961E1,1.1938E2,4.2650715E1,7.4077207E-1,2.1049E2,1.1943774E1,3.421E2,1.8836625E0,4.2973882E-1,1.07E0,-9.9565886E-2,-6.201875E-1,-1.2952883E0,7.818315E-1,1.584E1,2.0919704E-1,1.4782E2,1.53E0,1.9222E2,-2.498974E-1,1.0140953E1,2.364E1,2.215E2,-8.7117857E-1,-4.3061438E-1,3.924054E-1,1.5799215E0,1.0371072E2,1.65E0,1.1701144E0,1.1840409E-1,-8.670956E-1,-5.494068E-1,-4.8837343E-1,6.529484E-2,7.1336335E-1,-1.7876266E-1,-1.007708E0,-2.1459594E-1,1.1631445E0,6.1905053E-2],"split_indices":[27,22,31,2,1,35,4,0,33,0,11,28,14,0,0,10,0,0,0,43,2,0,11,10,29,0,31,4,14,0,0,0,0,33,10,0,0,0,0,0,0,0,0,0,0,0,0],"split_type":[0,0,0,0,0,0,0,0,0,0,0,0,0,0,0,0,0,0,0,0,0,0,0,0,0,0,0,0,0,0,0,0,0,0,0,0,0,0,0,0,0,0,0,0,0,0,0],"sum_hessian":[2.3E2,1.38E2,9.2E1,6.5E1,7.3E1,7.6E1,1.6E1,5.5E1,1E1,8E0,6.5E1,1.5E1,6.1E1,9E0,7E0,5E1,5E0,5E0,5E0,5.3E1,1.2E1,5E0,1E1,4.6E1,1.5E1,5E0,4.5E1,3.8E1,1.5E1,6E0,6E0,5E0,5E0,2.6E1,2E1,7E0,8E0,2.4E1,2.1E1,2.3E1,1.5E1,7E0,8E0,6E0,2E1,5E0,1.5E1],"tree_param":{"num_deleted":"0","num_feature":"54","num_nodes":"47","size_leaf_vector":"1"}},{"base_weights":[-7.5858295E-1,-3.9640362E0,3.6502434E1,-1.05755625E1,2.9427345E0,2.8228045E0,2.1820932E1,-1.3234891E1,-5.9718904E0,1.064246E0,1.1222128E0,1.4951046E0,5.888476E-1,-1.453012E1,-1.6367023E-1,1.3319282E-1,-7.828187E0,1.2377965E1,-3.1531959E0,-1.6750378E1,-8.974296E0,-1.0393637E1,-1.5191894E0,-4.044009E-1,2.1923292E1,-5.6282024E0,7.1488442E0,-7.180394E-1,-1.0980958E0,-1.2811558E-1,-5.8682865E-1,-9.848464E-2,-6.5460956E-1,1.3954474E-1,-2.7880377E-1,4.2870575E-1,1.4819379E0,-4.3669334E-1,2.7775565E-1,-2.6223121E-2,8.733665E-1],"categories":[],"categories_nodes":[],"categories_segments":[],"categories_sizes":[],"default_left":[0,0,0,0,0,0,0,0,0,0,0,0,0,0,0,0,0,0,0,0,0,0,0,0,0,0,0,0,0,0,0,0,0,0,0,0,0,0,0,0,0],"id":30,"left_children":[1,3,5,7,9,-1,11,13,15,17,-1,-1,-1,19,-1,-1,21,23,25,27,29,31,33,-1,35,37,39,-1,-1,-1,-1,-1,-1,-1,-1,-1,-1,-1,-1,-1,-1],"loss_changes":[2.7137785E4,9.574959E3,4.04117E3,1.2309287E3,3.749352E3,0E0,6.2184814E2,8.1689746E2,6.781039E2,4.571951E3,0E0,0E0,0E0,5.774629E2,0E0,0E0,5.345144E2,5.256532E3,1.8250681E3,1.952002E2,3.064491E2,5.197915E2,2.0790295E2,0E0,1.5997861E3,2.0282201E3,1.1176377E3,0E0,0E0,0E0,0E0,0E0,0E0,0E0,0E0,0E0,0E0,0E0,0E0,0E0,0E0],"parents":[2147483647,0,0,1,1,2,2,3,3,4,4,6,6,7,7,8,8,9,9,13,13,16,16,17,17,18,18,19,19,20,20,21,21,22,22,24,24,25,25,26,26],"right_children":[2,4,6,8,10,-1,12,14,16,18,-1,-1,-1,20,-1,-1,22,24,26,28,30,32,34,-1,36,38,40,-1,-1,-1,-1,-1,-1,-1,-1,-1,-1,-1,-1,-1,-1],"split_conditions":[9.159778E-1,7.544572E1,-2.872076E-1,-6.174673E-1,5.4783424E1,2.8228045E0,2.0902286E2,2.291E2,8.9E-1,9.4285E1,1.1222128E0,1.4951046E0,5.888476E-1,2.3890987E1,-1.6367023E-1,1.3319282E-1,1.455E2,2.024E1,1.5055348E0,1.3074392E1,1.227E1,6.321E1,1.6447271E1,-4.044009E-1,1.908E2,1.7076E2,9.856286E1,-7.180394E-1,-1.0980958E0,-1.2811558E-1,-5.8682865E-1,-9.848464E-2,-6.5460956E-1,1.3954474E-1,-2.7880377E-1,4.2870575E-1,1.4819379E0,-4.3669334E-1,2.7775565E-1,-2.6223121E-2,8.733665E-1],"split_indices":[40,30,48,40,34,0,33,25,6,33,0,0,0,37,0,0,0,4,49,31,3,35,31,0,21,12,30,0,0,0,0,0,0,0,0,0,0,0,0,0,0],"split_type":[0,0,0,0,0,0,0,0,0,0,0,0,0,0,0,0,0,0,0,0,0,0,0,0,0,0,0,0,0,0,0,0,0,0,0,0,0,0,0,0,0],"sum_hessian":[2.25E2,2.08E2,1.7E1,1.06E2,1.02E2,6E0,1.1E1,6.6E1,4E1,9.4E1,8E0,5E0,6E0,5.8E1,8E0,7E0,3.3E1,2.5E1,6.9E1,4E1,1.8E1,2.3E1,1E1,8E0,1.7E1,5.6E1,1.3E1,3E1,1E1,6E0,1.2E1,6E0,1.7E1,5E0,5E0,7E0,1E1,4.4E1,1.2E1,8E0,5E0],"tree_param":{"num_deleted":"0","num_feature":"54","num_nodes":"41","size_leaf_vector":"1"}},{"base_weights":[-2.681756E-1,-5.1544237E0,1.633169E1,-3.3277974E-1,-1.0420723E1,3.1323841E1,7.032433E0,-9.201659E0,2.6281354E0,-1.2049623E1,1.7808304E0,3.94304E1,2.9183987E-1,2.2060263E1,-1.1139323E0,-1.14160314E-1,-1.3200518E1,-3.7778335E0,8.145438E0,-8.65799E0,-1.4885642E1,4.21715E-1,-2.5847217E-1,9.335832E-1,2.3971303E0,1.6117839E0,5.0935084E-1,-9.861199E0,5.621818E-1,-3.0516338E-1,-8.0694085E-1,1.7135935E0,-1.1745129E1,3.2937813E-1,1.3016751E1,-1.0372107E1,-1.496334E-1,-2.817533E-1,-1.7389517E1,-6.9090635E-1,-1.1411375E-1,3.8254565E-1,-3.526467E-1,-8.566616E-1,-3.4240228E-1,4.4186473E-1,-7.6616824E-1,8.4234047E-1,2.3807263E-1,-4.2537436E-1,-6.98511E-1,-9.586486E-1,-4.93273E-1],"categories":[],"categories_nodes":[],"categories_segments":[],"categories_sizes":[],"default_left":[0,0,0,0,0,0,0,0,0,0,0,0,0,0,0,0,0,0,0,0,0,0,0,0,0,0,0,0,0,0,0,0,0,0,0,0,0,0,0,0,0,0,0,0,0,0,0,0,0,0,0,0,0],"id":31,"left_children":[1,3,5,7,9,11,13,15,17,19,21,23,-1,25,27,-1,29,31,33,35,37,-1,-1,-1,-1,-1,-1,39,-1,-1,-1,41,43,45,47,49,-1,-1,51,-1,-1,-1,-1,-1,-1,-1,-1,-1,-1,-1,-1,-1,-1],"loss_changes":[1.8901945E4,4.5671323E3,7.1687607E3,2.5188835E3,1.7307168E3,3.9021016E3,4.1869287E3,6.3384265E2,2.575516E3,6.0214453E2,5.522784E2,1.755373E3,0E0,1.1213965E3,2.5970593E3,0E0,2.1430835E2,1.5076882E3,1.4806172E3,3.2826758E2,8.285E2,0E0,0E0,0E0,0E0,0E0,0E0,3.8831274E2,0E0,0E0,0E0,1.1470046E3,2.5207458E2,2.2661726E3,6.786238E2,6.900366E1,0E0,0E0,2.2683301E2,0E0,0E0,0E0,0E0,0E0,0E0,0E0,0E0,0E0,0E0,0E0,0E0,0E0,0E0],"parents":[2147483647,0,0,1,1,2,2,3,3,4,4,5,5,6,6,7,7,8,8,9,9,10,10,11,11,13,13,14,14,16,16,17,17,18,18,19,19,20,20,27,27,31,31,32,32,33,33,34,34,35,35,38,38],"right_children":[2,4,6,8,10,12,14,16,18,20,22,24,-1,26,28,-1,30,32,34,36,38,-1,-1,-1,-1,-1,-1,40,-1,-1,-1,42,44,46,48,50,-1,-1,52,-1,-1,-1,-1,-1,-1,-1,-1,-1,-1,-1,-1,-1,-1],"split_conditions":[1.2288E2,1.8503E2,4.1105375E-1,9.530211E0,1.1742E2,2.2386E2,8.7E-1,2.123E1,2.311E1,7.7103865E-1,1.4E0,7.4E-1,2.9183987E-1,1.4081213E0,6.234898E-1,-1.14160314E-1,-6.974337E-1,1.6759E2,-7.758738E-1,6.493E1,6.58E1,4.21715E-1,-2.5847217E-1,9.335832E-1,2.3971303E0,1.6117839E0,5.0935084E-1,1.143E2,5.621818E-1,-3.0516338E-1,-8.0694085E-1,2.1968496E3,2.118E2,-9.725968E-1,9.396E1,6.61E0,-1.496334E-1,-2.817533E-1,2.561945E1,-6.9090635E-1,-1.1411375E-1,3.8254565E-1,-3.526467E-1,-8.566616E-1,-3.4240228E-1,4.4186473E-1,-7.6616824E-1,8.4234047E-1,2.3807263E-1,-4.2537436E-1,-6.98511E-1,-9.586486E-1,-4.93273E-1],"split_indices":[16,11,39,28,20,27,6,4,4,49,10,10,0,49,44,0,48,12,48,15,25,0,0,0,0,0,0,18,0,0,0,50,25,48,17,1,0,0,34,0,0,0,0,0,0,0,0,0,0,0,0,0,0],"split_type":[0,0,0,0,0,0,0,0,0,0,0,0,0,0,0,0,0,0,0,0,0,0,0,0,0,0,0,0,0,0,0,0,0,0,0,0,0,0,0,0,0,0,0,0,0,0,0,0,0,0,0,0,0],"sum_hessian":[2.31E2,1.79E2,5.2E1,9.4E1,8.5E1,1.9E1,3.3E1,2.3E1,7.1E1,7.5E1,1E1,1.4E1,5E0,1.1E1,2.2E1,9E0,1.4E1,3.3E1,3.8E1,3.6E1,3.9E1,5E0,5E0,5E0,9E0,5E0,6E0,1.3E1,9E0,5E0,9E0,2E1,1.3E1,1.5E1,2.3E1,2.7E1,9E0,9E0,3E1,8E0,5E0,1.2E1,8E0,5E0,8E0,1E1,5E0,1.5E1,8E0,2E1,7E0,2.3E1,7E0],"tree_param":{"num_deleted":"0","num_feature":"54","num_nodes":"53","size_leaf_vector":"1"}},{"base_weights":[8.391044E-1,-3.2405286E0,2.4477001E1,-9.523263E0,2.4853196E0,3.6439472E1,9.667356E0,-1.1329972E1,1.1087499E0,-3.1768274E0,9.252286E0,2.3691025E0,2.4173775E1,1.3639551E0,5.586942E-2,-6.27356E0,-1.3163705E1,4.7312036E-1,-2.7558666E-1,1.1057843E1,-7.8511214E0,1.2252932E1,-3.8288188E-1,1.4634557E0,7.524737E-1,3.9386895E-1,-3.3281314E-1,-1.0757696E1,5.3999968E-2,-1.1555022E1,-1.0025808E0,9.257429E-1,-1.6067442E-1,5.191944E-1,-1.0390095E1,9.319175E-1,1.7295734E1,-6.65736E-1,-3.4279796E-1,-6.5718406E-1,-3.4329996E-1,-6.1189324E-1,-7.346425E-2,-2.3254605E-1,3.5895866E-1,1.0087203E0,1.4492111E-1],"categories":[],"categories_nodes":[],"categories_segments":[],"categories_sizes":[],"default_left":[0,0,0,0,0,0,0,0,0,0,0,0,0,0,0,0,0,0,0,0,0,0,0,0,0,0,0,0,0,0,0,0,0,0,0,0,0,0,0,0,0,0,0,0,0,0,0],"id":32,"left_children":[1,3,5,7,9,11,13,15,17,19,21,-1,23,-1,25,27,29,-1,-1,31,33,35,-1,-1,-1,-1,-1,37,-1,39,-1,-1,-1,-1,41,43,45,-1,-1,-1,-1,-1,-1,-1,-1,-1,-1],"loss_changes":[2.293416E4,7.3263877E3,5.848324E3,1.875831E3,4.1291577E3,1.4047461E3,2.876152E3,6.8700195E2,8.81733E2,4.0125022E3,2.5801216E3,0E0,7.09209E1,0E0,6.82422E2,8.03003E2,4.3313086E2,0E0,0E0,1.6558202E3,2.1913088E3,2.3816455E3,0E0,0E0,0E0,0E0,0E0,5.836731E1,0E0,2.89667E2,0E0,0E0,0E0,0E0,6.413628E2,5.216737E2,1.1434355E3,0E0,0E0,0E0,0E0,0E0,0E0,0E0,0E0,0E0,0E0],"parents":[2147483647,0,0,1,1,2,2,3,3,4,4,5,5,6,6,7,7,8,8,9,9,10,10,12,12,14,14,15,15,16,16,19,19,20,20,21,21,27,27,29,29,34,34,35,35,36,36],"right_children":[2,4,6,8,10,12,14,16,18,20,22,-1,24,-1,26,28,30,-1,-1,32,34,36,-1,-1,-1,-1,-1,38,-1,40,-1,-1,-1,-1,42,44,46,-1,-1,-1,-1,-1,-1,-1,-1,-1,-1],"split_conditions":[1.5277856E2,1.8016E2,9.47E0,8.697723E-2,6.234898E-1,8.66E0,1.7626E2,2.378E1,7.75E1,1.883E2,1.4588E2,2.3691025E0,2.332E1,1.3639551E0,1.8933E2,3.42E0,-6.450864E-3,4.7312036E-1,-2.7558666E-1,3.283E1,5.471E1,-6.6045654E-1,-3.8288188E-1,1.4634557E0,7.524737E-1,3.9386895E-1,-3.3281314E-1,3.957E1,5.3999968E-2,2.4709E2,-1.0025808E0,9.257429E-1,-1.6067442E-1,5.191944E-1,1.2418714E2,9.9E-1,1.11E0,-6.65736E-1,-3.4279796E-1,-6.5718406E-1,-3.4329996E-1,-6.1189324E-1,-7.346425E-2,-2.3254605E-1,3.5895866E-1,1.0087203E0,1.4492111E-1],"split_indices":[33,0,1,40,44,8,18,4,27,14,18,0,2,0,15,1,39,0,0,4,20,40,0,0,0,0,0,20,0,11,0,0,0,0,30,6,6,0,0,0,0,0,0,0,0,0,0],"split_type":[0,0,0,0,0,0,0,0,0,0,0,0,0,0,0,0,0,0,0,0,0,0,0,0,0,0,0,0,0,0,0,0,0,0,0,0,0,0,0,0,0,0,0,0,0,0,0],"sum_hessian":[2.36E2,2.02E2,3.4E1,9.6E1,1.06E2,1.8E1,1.6E1,8.2E1,1.4E1,5.8E1,4.8E1,8E0,1E1,5E0,1.1E1,2.3E1,5.9E1,6E0,8E0,1.4E1,4.4E1,4.1E1,7E0,5E0,5E0,5E0,6E0,1.4E1,9E0,5E1,9E0,9E0,5E0,5E0,3.9E1,1.3E1,2.8E1,7E0,7E0,3.6E1,1.4E1,3.2E1,7E0,7E0,6E0,2.3E1,5E0],"tree_param":{"num_deleted":"0","num_feature":"54","num_nodes":"47","size_leaf_vector":"1"}},{"base_weights":[8.6493105E-1,-6.766229E0,1.0507625E1,-9.1221895E0,1.174722E1,2.3402267E1,6.457257E0,-1.0781925E1,-2.0144672E0,-1.7734824E-1,1.2786502E0,1.4474494E1,2.3886583E0,9.516617E-1,1.0595892E1,-3.841417E0,-1.19632635E1,3.6003342E-1,-7.4092507E0,1.2994584E-1,2.2875013E1,6.5025556E-1,-1.4907501E0,1.5153361E1,1.3883929E0,-4.3924546E-1,2.1517245E-2,-1.4760628E1,-9.635576E0,-3.3039603E-2,-5.3587E-1,6.9800764E-1,1.3988684E0,-4.386972E0,3.5111162E-1,1.9986315E1,8.27883E-2,-1.6709599E-1,3.9738202E-1,-5.372388E-1,-8.866671E-1,-2.15238E-1,-5.9166425E-1,2.0350593E-3,-5.0735086E-1,4.514907E-1,1.4182124E0],"categories":[],"categories_nodes":[],"categories_segments":[],"categories_sizes":[],"default_left":[0,0,0,0,0,0,0,0,0,0,0,0,0,0,0,0,0,0,0,0,0,0,0,0,0,0,0,0,0,0,0,0,0,0,0,0,0,0,0,0,0,0,0,0,0,0,0],"id":33,"left_children":[1,3,5,7,9,11,13,15,17,-1,-1,19,-1,21,23,25,27,-1,29,-1,31,-1,33,35,37,-1,-1,39,41,-1,-1,-1,-1,43,-1,45,-1,-1,-1,-1,-1,-1,-1,-1,-1,-1,-1],"loss_changes":[1.6995633E4,5.733748E3,5.1761455E3,1.3349287E3,3.2625176E3,4.530377E3,1.7899827E3,7.165596E2,1.1967659E3,0E0,0E0,1.836009E3,0E0,1.0497693E3,1.867292E3,3.2054187E2,3.7217285E2,0E0,3.2779175E2,0E0,1.0978662E2,0E0,7.7047095E2,1.9239053E3,5.229971E2,0E0,0E0,2.1535059E2,4.8797705E2,0E0,0E0,0E0,0E0,5.869957E2,0E0,1.7633184E3,0E0,0E0,0E0,0E0,0E0,0E0,0E0,0E0,0E0,0E0,0E0],"parents":[2147483647,0,0,1,1,2,2,3,3,4,4,5,5,6,6,7,7,8,8,11,11,13,13,14,14,15,15,16,16,18,18,20,20,22,22,23,23,24,24,27,27,28,28,33,33,35,35],"right_children":[2,4,6,8,10,12,14,16,18,-1,-1,20,-1,22,24,26,28,-1,30,-1,32,-1,34,36,38,-1,-1,40,42,-1,-1,-1,-1,44,-1,46,-1,-1,-1,-1,-1,-1,-1,-1,-1,-1,-1],"split_conditions":[-1.4889039E-1,1.272E2,7.751154E2,2.4E2,3.86E1,2.3783333E2,1.5547E2,6.58E1,2.919E1,-1.7734824E-1,1.2786502E0,2.399E1,2.3886583E0,1.3723E2,1.9647E2,1.324E1,1.2199E2,3.6003342E-1,6.386E1,1.2994584E-1,3.6486794E1,6.5025556E-1,2.6008E2,3.174E2,1.31E0,-4.3924546E-1,2.1517245E-2,8.456819E-1,1.384E2,-3.3039603E-2,-5.3587E-1,6.9800764E-1,1.3988684E0,1.2288E2,3.5111162E-1,8.696E1,8.27883E-2,-1.6709599E-1,3.9738202E-1,-5.372388E-1,-8.866671E-1,-2.15238E-1,-5.9166425E-1,2.0350593E-3,-5.0735086E-1,4.514907E-1,1.4182124E0],"split_indices":[40,16,50,14,9,19,11,25,2,0,0,3,0,11,11,2,12,0,17,0,28,0,0,14,6,0,0,49,12,0,0,0,0,32,0,16,0,0,0,0,0,0,0,0,0,0,0],"split_type":[0,0,0,0,0,0,0,0,0,0,0,0,0,0,0,0,0,0,0,0,0,0,0,0,0,0,0,0,0,0,0,0,0,0,0,0,0,0,0,0,0,0,0,0,0,0,0],"sum_hessian":[2.29E2,1.28E2,1.01E2,1.14E2,1.4E1,2.3E1,7.8E1,9.2E1,2.2E1,7E0,7E0,1.8E1,5E0,3.4E1,4.4E1,1.4E1,7.8E1,8E0,1.4E1,8E0,1E1,5E0,2.9E1,2.9E1,1.5E1,6E0,8E0,3.3E1,4.5E1,5E0,9E0,5E0,5E0,2.2E1,7E0,2.1E1,8E0,9E0,6E0,1.6E1,1.7E1,1.4E1,3.1E1,1.3E1,9E0,1E1,1.1E1],"tree_param":{"num_deleted":"0","num_feature":"54","num_nodes":"47","size_leaf_vector":"1"}},{"base_weights":[-3.110887E-1,-5.7482057E0,9.256744E0,-9.408958E0,-2.1572402E0,2.2725084E1,3.7151294E0,7.0739366E-2,-1.04143715E1,-4.3068433E0,1.0741073E1,1.9839747E0,1.340977E1,5.6815357E0,-7.464724E-1,-1.2263059E1,-7.2898583E0,3.4070413E0,-6.6891494E0,1.1369323E0,-1.5233402E-1,1.9567707E1,-5.705325E-2,1.1331919E1,-5.978214E-1,-1.0100997E1,-8.869573E-1,-8.816355E0,-2.388649E-2,4.2332798E-1,-2.1537812E-1,-1.1975124E1,-3.603189E0,1.2129897E0,5.416161E-1,1.5273356E0,2.1727734E1,-6.137082E0,4.7163153E-1,-5.700529E-1,-2.4690938E-1,-5.274353E-1,-2.5709954E-1,-1.7907651E-1,-8.495454E-1,-3.4666052E-1,2.3745905E-1,4.9909893E-1,-1.6115682E-1,6.0737765E-1,1.6238358E0,7.1400285E-2,-5.540524E-1],"categories":[],"categories_nodes":[],"categories_segments":[],"categories_sizes":[],"default_left":[0,0,0,0,0,0,0,0,0,0,0,0,0,0,0,0,0,0,0,0,0,0,0,0,0,0,0,0,0,0,0,0,0,0,0,0,0,0,0,0,0,0,0,0,0,0,0,0,0,0,0,0,0],"id":34,"left_children":[1,3,5,7,9,11,13,-1,15,17,19,-1,21,23,-1,25,27,29,31,-1,-1,33,-1,35,37,39,-1,41,-1,-1,-1,43,45,-1,-1,47,49,51,-1,-1,-1,-1,-1,-1,-1,-1,-1,-1,-1,-1,-1,-1,-1],"loss_changes":[1.1914095E4,1.8989658E3,6.1103906E3,7.982617E2,2.125729E3,3.2583623E3,2.284591E3,0E0,2.9183594E2,1.2172843E3,1.8888928E3,0E0,1.5455813E3,1.9582169E3,0E0,2.9440234E2,2.7655273E2,6.6098517E2,7.7246704E2,0E0,0E0,2.2905664E2,0E0,2.9226873E3,1.5580436E3,1.5177051E2,0E0,8.5795166E1,0E0,0E0,0E0,6.9695483E2,9.5077484E2,0E0,0E0,6.747899E2,1.047168E3,6.890515E2,0E0,0E0,0E0,0E0,0E0,0E0,0E0,0E0,0E0,0E0,0E0,0E0,0E0,0E0,0E0],"parents":[2147483647,0,0,1,1,2,2,3,3,4,4,5,5,6,6,8,8,9,9,10,10,12,12,13,13,15,15,16,16,17,17,18,18,21,21,23,23,24,24,25,25,27,27,31,31,32,32,35,35,36,36,37,37],"right_children":[2,4,6,8,10,12,14,-1,16,18,20,-1,22,24,-1,26,28,30,32,-1,-1,34,-1,36,38,40,-1,42,-1,-1,-1,44,46,-1,-1,48,50,52,-1,-1,-1,-1,-1,-1,-1,-1,-1,-1,-1,-1,-1,-1,-1],"split_conditions":[9.834E1,1.225E2,4.1105375E-1,2.149E1,9.9126E2,-2.832016E-1,9.891E2,7.0739366E-2,4.375E1,1.4E0,6.604E1,1.9839747E0,5.98E0,1.6153E2,-7.464724E-1,3.804E1,2.2840544E1,1.1706727E0,1.0525761E1,1.1369323E0,-1.5233402E-1,2.2585857E2,-5.705325E-2,-4.8523098E-1,1.104E1,1.0426842E0,-8.869573E-1,4.719857E1,-2.388649E-2,4.2332798E-1,-2.1537812E-1,1.856E2,9.3648575E1,1.2129897E0,5.416161E-1,3.1023617E1,1.204E1,4.3388373E-1,4.7163153E-1,-5.700529E-1,-2.4690938E-1,-5.274353E-1,-2.5709954E-1,-1.7907651E-1,-8.495454E-1,-3.4666052E-1,2.3745905E-1,4.9909893E-1,-1.6115682E-1,6.0737765E-1,1.6238358E0,7.1400285E-2,-5.540524E-1],"split_indices":[27,21,39,4,13,48,13,0,16,10,19,0,5,29,0,16,34,49,28,0,0,30,0,48,1,49,0,30,0,0,0,14,30,0,0,37,5,43,0,0,0,0,0,0,0,0,0,0,0,0,0,0,0],"split_type":[0,0,0,0,0,0,0,0,0,0,0,0,0,0,0,0,0,0,0,0,0,0,0,0,0,0,0,0,0,0,0,0,0,0,0,0,0,0,0,0,0,0,0,0,0,0,0,0,0,0,0,0,0],"sum_hessian":[2.27E2,1.45E2,8.2E1,7.1E1,7.4E1,2.3E1,5.9E1,6E0,6.5E1,6.4E1,1E1,7E0,1.6E1,5.4E1,5E0,3.9E1,2.6E1,1.5E1,4.9E1,5E0,5E0,1.1E1,5E0,2.8E1,2.6E1,3E1,9E0,2.1E1,5E0,9E0,6E0,1.7E1,3.2E1,6E0,5E0,1.5E1,1.3E1,1.7E1,9E0,2.3E1,7E0,1.3E1,8E0,7E0,1E1,2.3E1,9E0,5E0,1E1,8E0,5E0,7E0,1E1],"tree_param":{"num_deleted":"0","num_feature":"54","num_nodes":"53","size_leaf_vector":"1"}},{"base_weights":[-6.3820586E-2,2.216037E1,-3.5785453E0,1.485761E-2,2.6353405E1,-1.6832565E-1,-8.418138E0,2.094349E0,1.712254E1,5.638236E0,-4.3499904E0,-9.1895275E0,1.3779116E-1,3.8968685E-1,1.1903105E0,-4.3081846E0,1.3251916E1,-8.741378E0,5.7243174E-1,-6.958493E0,-1.2203657E1,2.037013E0,-9.7656E0,-5.4991752E-2,1.7216022E1,-1.1936473E1,-2.1703267E0,-7.9186454E0,9.029837E0,-1.0006424E1,-2.100569E0,-1.6243183E1,-7.921508E0,-2.610431E-1,4.477693E-1,-6.130036E-1,-2.6138917E-1,2.3969512E-1,1.1346709E0,-3.4881327E-1,-7.798468E-1,1.4984022E-1,-4.3490568E-1,-7.3465526E-1,-1.9357644E-1,6.4424515E-1,8.40949E-2,-1.9682872E-1,-5.9211254E-1,-2.912125E-1,2.7846608E-2,-5.245895E-1,-9.455845E-1,-5.0687593E-1,-2.0806535E-1],"categories":[],"categories_nodes":[],"categories_segments":[],"categories_sizes":[],"default_left":[0,0,0,0,0,0,0,0,0,0,0,0,0,0,0,0,0,0,0,0,0,0,0,0,0,0,0,0,0,0,0,0,0,0,0,0,0,0,0,0,0,0,0,0,0,0,0,0,0,0,0,0,0,0,0],"id":35,"left_children":[1,3,5,-1,7,9,11,-1,13,15,17,19,-1,-1,-1,21,23,25,27,29,31,33,35,-1,37,39,41,43,45,47,49,51,53,-1,-1,-1,-1,-1,-1,-1,-1,-1,-1,-1,-1,-1,-1,-1,-1,-1,-1,-1,-1,-1,-1],"loss_changes":[1.7732594E4,2.834039E3,3.233381E3,0E0,3.0108848E3,2.8411333E3,7.2350244E2,0E0,9.3677246E2,3.7678057E3,1.4749099E3,4.2615234E2,0E0,0E0,0E0,7.8171716E2,1.6119067E3,7.2991895E2,2.4413154E3,6.600852E2,4.0756348E2,5.990944E2,7.174048E1,0E0,1.3881094E3,3.2695142E2,4.6455566E2,4.092047E2,4.5988452E2,2.6539136E2,1.9126175E2,3.179712E1,9.946973E1,0E0,0E0,0E0,0E0,0E0,0E0,0E0,0E0,0E0,0E0,0E0,0E0,0E0,0E0,0E0,0E0,0E0,0E0,0E0,0E0,0E0,0E0],"parents":[2147483647,0,0,1,1,2,2,4,4,5,5,6,6,8,8,9,9,10,10,11,11,15,15,16,16,17,17,18,18,19,19,20,20,21,21,22,22,24,24,25,25,26,26,27,27,28,28,29,29,30,30,31,31,32,32],"right_children":[2,4,6,-1,8,10,12,-1,14,16,18,20,-1,-1,-1,22,24,26,28,30,32,34,36,-1,38,40,42,44,46,48,50,52,54,-1,-1,-1,-1,-1,-1,-1,-1,-1,-1,-1,-1,-1,-1,-1,-1,-1,-1,-1,-1,-1,-1],"split_conditions":[1.132E1,6.6E-1,2.00265E3,1.485761E-2,2.435E1,9.4285E1,9.9357E2,2.094349E0,1.8725E2,-5.037198E-1,1.54E0,3.604E1,1.3779116E-1,3.8968685E-1,1.1903105E0,6.525E1,1.837E1,1.2090714E2,9.815E1,1.0733392E1,2.0407036E1,6.01E1,-2.2252093E-1,-5.4991752E-2,7.101E1,2.4082655E1,1.5668E2,1.051519E1,3.7249645E1,-4.3388373E-1,9.5E1,1.1261218E1,4.472E1,-2.610431E-1,4.477693E-1,-6.130036E-1,-2.6138917E-1,2.3969512E-1,1.1346709E0,-3.4881327E-1,-7.798468E-1,1.4984022E-1,-4.3490568E-1,-7.3465526E-1,-1.9357644E-1,6.4424515E-1,8.40949E-2,-1.9682872E-1,-5.9211254E-1,-2.912125E-1,2.7846608E-2,-5.245895E-1,-9.455845E-1,-5.0687593E-1,-2.0806535E-1],"split_indices":[8,10,50,0,2,33,13,0,20,40,10,7,0,0,0,16,8,30,16,28,37,27,44,0,16,31,16,28,37,43,21,34,7,0,0,0,0,0,0,0,0,0,0,0,0,0,0,0,0,0,0,0,0,0,0],"split_type":[0,0,0,0,0,0,0,0,0,0,0,0,0,0,0,0,0,0,0,0,0,0,0,0,0,0,0,0,0,0,0,0,0,0,0,0,0,0,0,0,0,0,0,0,0,0,0,0,0,0,0,0,0,0,0],"sum_hessian":[2.25E2,3E1,1.95E2,5E0,2.5E1,1.15E2,8E1,8E0,1.7E1,4.8E1,6.7E1,7.5E1,5E0,8E0,9E0,2.1E1,2.7E1,3.5E1,3.2E1,4.5E1,3E1,1E1,1.1E1,6E0,2.1E1,2.3E1,1.2E1,1.6E1,1.6E1,2.7E1,1.8E1,1.4E1,1.6E1,5E0,5E0,6E0,5E0,7E0,1.4E1,1.1E1,1.2E1,7E0,5E0,5E0,1.1E1,1E1,6E0,7E0,2E1,7E0,1.1E1,6E0,8E0,9E0,7E0],"tree_param":{"num_deleted":"0","num_feature":"54","num_nodes":"55","size_leaf_vector":"1"}},{"base_weights":[1.8055284E-1,-5.9258046E0,1.0517674E1,-1.0025095E1,-2.806265E0,2.9195942E1,5.9614496E0,-7.8642926E0,-1.5110242E1,4.137758E0,-5.561012E0,3.953122E-1,3.7407795E1,3.5974247E0,1.8744003E1,