{"learner":{"attributes":{"best_iteration":"59","best_score":"37.49255620931091","scikit_learn":"{\"_estimator_type\": \"regressor\"}"},"feature_names":[],"feature_types":[],"gradient_booster":{"model":{"cats":{"enc":[],"feature_segments":[],"sorted_idx":[]},"gbtree_model_param":{"num_parallel_tree":"1","num_trees":"110"},"iteration_indptr":[0,1,2,3,4,5,6,7,8,9,10,11,12,13,14,15,16,17,18,19,20,21,22,23,24,25,26,27,28,29,30,31,32,33,34,35,36,37,38,39,40,41,42,43,44,45,46,47,48,49,50,51,52,53,54,55,56,57,58,59,60,61,62,63,64,65,66,67,68,69,70,71,72,73,74,75,76,77,78,79,80,81,82,83,84,85,86,87,88,89,90,91,92,93,94,95,96,97,98,99,100,101,102,103,104,105,106,107,108,109,110],"tree_info":[0,0,0,0,0,0,0,0,0,0,0,0,0,0,0,0,0,0,0,0,0,0,0,0,0,0,0,0,0,0,0,0,0,0,0,0,0,0,0,0,0,0,0,0,0,0,0,0,0,0,0,0,0,0,0,0,0,0,0,0,0,0,0,0,0,0,0,0,0,0,0,0,0,0,0,0,0,0,0,0,0,0,0,0,0,0,0,0,0,0,0,0,0,0,0,0,0,0,0,0,0,0,0,0,0,0,0,0,0,0],"trees":[{"base_weights":[-2.3795808E-2,-4.2046787E1,1.1333525E2,-6.38106E1,-1.3501768E-1,8.786178E1,2.0375275E2,-6.974249E1,-3.5569214E1,-1.3297825E1,3.7131203E1,4.2829243E1,1.1558784E2,2.3984682E1,1.9107018E2,-7.764864E1,-6.103639E1,-4.4214825E1,-1.2467286E1,1.4937096E2,-1.548312E1,2.2634962E1,6.889122E1,-2.1756744E1,4.954149E1,1.07009514E2,1.8367734E2,2.1261272E2,9.937197E1,-8.120003E1,-7.132296E1,-6.499073E1,-4.7479797E1,-5.785882E1,-3.3487713E1,-2.5731722E1,9.049519E0,-4.4193817E1,2.3243301E1,-3.2440586E1,8.9698665E-2,7.9568834E0,4.68967E1,6.249556E1,1.5805278E2,1.6332748E1,-3.276226E1,6.898746E1,3.0780607E1,8.819286E1,1.2258195E2,4.519558E2,1.6842198E2,3.2035736E2,2.0060568E2,-2.5857704E1,1.1435749E2,-4.330261E0,-3.9274204E0,3.1412218E0,-3.599978E0,-3.5330575E0,-2.9214265E0,-2.8716974E0,-1.8692772E0,-3.5966244E0,-2.5121784E0,-2.6752365E0,-1.40572E0,-3.1826065E0,-9.612056E-1,4.3351192E0,-6.334748E-2,-2.819717E0,1.208721E0,-2.226953E0,-6.965501E-1,-5.31465E-1,8.055839E-1,1.988887E-1,6.139134E0,6.1173576E-1,2.8438203E0,2.0570986E0,3.941303E0,4.7590556E0,1.1155373E1,3.0898964E0,-4.3883425E-1,-1.9783108E-2,-1.9413731E0,4.0413327E0,1.2668985E0,9.536399E-1,3.0320773E0,3.6594217E0,5.752456E0,5.3027825E0,7.190377E0,2.8235651E1,1.0510042E1,6.2739706E0,1.0713454E1,1.0583998E1,2.046892E1,3.897617E0,1.03658085E1,1.0024712E0,-1.860124E0,5.1270423E0,1.2436762E1],"categories":[],"categories_nodes":[],"categories_segments":[],"categories_sizes":[],"default_left":[0,0,0,0,0,0,0,0,0,0,0,0,0,0,0,0,0,0,0,0,0,0,0,0,0,0,0,0,0,0,0,0,0,0,0,0,0,0,0,0,0,0,0,0,0,0,0,0,0,0,0,0,0,0,0,0,0,0,0,0,0,0,0,0,0,0,0,0,0,0,0,0,0,0,0,0,0,0,0,0,0,0,0,0,0,0,0,0,0,0,0,0,0,0,0,0,0,0,0,0,0,0,0,0,0,0,0,0,0,0,0],"id":0,"left_children":[1,3,5,7,9,11,13,15,17,19,21,23,25,-1,27,29,31,33,35,37,39,41,43,45,47,49,51,53,55,57,59,61,63,65,67,69,71,73,-1,75,77,79,81,83,85,87,89,91,93,95,97,99,101,103,105,107,109,-1,-1,-1,-1,-1,-1,-1,-1,-1,-1,-1,-1,-1,-1,-1,-1,-1,-1,-1,-1,-1,-1,-1,-1,-1,-1,-1,-1,-1,-1,-1,-1,-1,-1,-1,-1,-1,-1,-1,-1,-1,-1,-1,-1,-1,-1,-1,-1,-1,-1,-1,-1,-1,-1],"loss_changes":[1.0704003E8,1.4953028E7,1.3978936E7,1.805116E6,2.7494132E6,5.917036E6,4.580364E6,6.08964E5,3.73943E5,1.4747078E6,6.720071E5,7.8531E5,1.69466E6,0E0,2.503452E6,9.9098E4,2.24638E5,1.9769825E5,1.463619E5,3.3793245E6,1.0795438E6,3.578793E5,2.512955E5,7.221736E4,5.9582175E5,7.53678E5,1.262187E6,1.273412E6,4.62732E5,3.5952E4,1.57641E5,1.18145E5,9.461475E4,6.058325E4,8.0885E4,7.700284E4,1.5712608E5,3.055779E4,0E0,4.3762562E5,3.6632003E5,2.8644753E5,1.304065E5,1.463555E5,1.0146731E5,4.5064973E4,2.6093875E4,4.1343925E5,2.9111412E5,4.69092E5,4.8461E5,3.4471025E5,5.85409E5,9.00149E5,7.5176E5,1.4807654E4,3.222435E5,0E0,0E0,0E0,0E0,0E0,0E0,0E0,0E0,0E0,0E0,0E0,0E0,0E0,0E0,0E0,0E0,0E0,0E0,0E0,0E0,0E0,0E0,0E0,0E0,0E0,0E0,0E0,0E0,0E0,0E0,0E0,0E0,0E0,0E0,0E0,0E0,0E0,0E0,0E0,0E0,0E0,0E0,0E0,0E0,0E0,0E0,0E0,0E0,0E0,0E0,0E0,0E0,0E0,0E0],"parents":[2147483647,0,0,1,1,2,2,3,3,4,4,5,5,6,6,7,7,8,8,9,9,10,10,11,11,12,12,14,14,15,15,16,16,17,17,18,18,19,19,20,20,21,21,22,22,23,23,24,24,25,25,26,26,27,27,28,28,29,29,30,30,31,31,32,32,33,33,34,34,35,35,36,36,37,37,39,39,40,40,41,41,42,42,43,43,44,44,45,45,46,46,47,47,48,48,49,49,50,50,51,51,52,52,53,53,54,54,55,55,56,56],"right_children":[2,4,6,8,10,12,14,16,18,20,22,24,26,-1,28,30,32,34,36,38,40,42,44,46,48,50,52,54,56,58,60,62,64,66,68,70,72,74,-1,76,78,80,82,84,86,88,90,92,94,96,98,100,102,104,106,108,110,-1,-1,-1,-1,-1,-1,-1,-1,-1,-1,-1,-1,-1,-1,-1,-1,-1,-1,-1,-1,-1,-1,-1,-1,-1,-1,-1,-1,-1,-1,-1,-1,-1,-1,-1,-1,-1,-1,-1,-1,-1,-1,-1,-1,-1,-1,-1,-1,-1,-1,-1,-1,-1,-1],"split_conditions":[1.5225E2,7.8E1,3.185E2,8.7E1,8.660254E-1,8.660254E-1,-9.640935E-1,4.375E1,3E2,7.975E1,3.087E2,-4.6230483E-1,1.8225125E3,2.3984682E1,2.4893981E-1,-7.5189576E-2,5.265806E-2,5.05E1,1.495E2,7.05E1,8.525E1,6.123234E-17,1.8031957E3,3.1275E1,7.465881E-1,2.01E2,1E0,9.509625E2,3.385E2,2.475E1,2.17E1,-5.587876E-2,4.808E1,-7.105196E-1,-6.952253E-1,1.5420404E-1,1.7775E2,9.525E1,2.3243301E1,9.1260724E-2,3.139E2,2.024E3,9.45E1,3.295E2,2.023E3,3.382E1,-7.818315E-1,4E-1,2.22E2,9.7413576E-1,3.4125E2,2.942E1,6.02E1,1.88E0,4.6801534E-1,1.26E0,4.7025E1,-4.330261E0,-3.9274204E0,3.1412218E0,-3.599978E0,-3.5330575E0,-2.9214265E0,-2.8716974E0,-1.8692772E0,-3.5966244E0,-2.5121784E0,-2.6752365E0,-1.40572E0,-3.1826065E0,-9.612056E-1,4.3351192E0,-6.334748E-2,-2.819717E0,1.208721E0,-2.226953E0,-6.965501E-1,-5.31465E-1,8.055839E-1,1.988887E-1,6.139134E0,6.1173576E-1,2.8438203E0,2.0570986E0,3.941303E0,4.7590556E0,1.1155373E1,3.0898964E0,-4.3883425E-1,-1.9783108E-2,-1.9413731E0,4.0413327E0,1.2668985E0,9.536399E-1,3.0320773E0,3.6594217E0,5.752456E0,5.3027825E0,7.190377E0,2.8235651E1,1.0510042E1,6.2739706E0,1.0713454E1,1.0583998E1,2.046892E1,3.897617E0,1.03658085E1,1.0024712E0,-1.860124E0,5.1270423E0,1.2436762E1],"split_indices":[15,15,15,21,44,44,42,15,27,37,22,42,55,0,41,41,42,15,37,17,21,48,55,8,41,21,56,55,0,15,28,41,9,42,42,41,40,21,0,42,27,50,15,27,50,2,45,10,15,42,0,8,1,6,42,6,5,0,0,0,0,0,0,0,0,0,0,0,0,0,0,0,0,0,0,0,0,0,0,0,0,0,0,0,0,0,0,0,0,0,0,0,0,0,0,0,0,0,0,0,0,0,0,0,0,0,0,0,0,0,0],"split_type":[0,0,0,0,0,0,0,0,0,0,0,0,0,0,0,0,0,0,0,0,0,0,0,0,0,0,0,0,0,0,0,0,0,0,0,0,0,0,0,0,0,0,0,0,0,0,0,0,0,0,0,0,0,0,0,0,0,0,0,0,0,0,0,0,0,0,0,0,0,0,0,0,0,0,0,0,0,0,0,0,0,0,0,0,0,0,0,0,0,0,0,0,0,0,0,0,0,0,0,0,0,0,0,0,0,0,0,0,0,0,0],"sum_hessian":[2.2468E4,1.6392E4,6.076E3,1.0789E4,5.603E3,4.742E3,1.334E3,8.915E3,1.874E3,4.141E3,1.462E3,1.808E3,2.934E3,5.7E1,1.277E3,4.668E3,4.247E3,1.363E3,5.11E2,5.4E1,4.087E3,1.005E3,4.57E2,1.7E2,1.638E3,2.608E3,3.26E2,1.033E3,2.44E2,2.982E3,1.686E3,3.285E3,9.62E2,5.98E2,7.65E2,3.16E2,1.95E2,3.4E1,2E1,1.956E3,2.131E3,6.27E2,3.78E2,4.28E2,2.9E1,3.8E1,1.32E2,8.03E2,8.35E2,1.184E3,1.424E3,1.6E1,3.1E2,1.01E2,9.32E2,2.6E1,2.18E2,9.71E2,2.011E3,8E0,1.678E3,1.757E3,1.528E3,4.82E2,4.8E2,2.07E2,3.91E2,1.6E2,6.05E2,4.5E1,2.71E2,2.2E1,1.73E2,2.9E1,5E0,1.182E3,7.74E2,1.277E3,8.54E2,6.07E2,2E1,8.5E1,2.93E2,1.87E2,2.41E2,1.6E1,1.3E1,1.3E1,2.5E1,2.1E1,1.11E2,6.31E2,1.72E2,6.01E2,2.34E2,7.62E2,4.22E2,8.04E2,6.2E2,1E1,6E0,1.62E2,1.48E2,4.7E1,5.4E1,4.9E1,8.83E2,5E0,2.1E1,2.02E2,1.6E1],"tree_param":{"num_deleted":"0","num_feature":"59","num_nodes":"111","size_leaf_vector":"1"}},{"base_weights":[3.1538728E-1,-4.006483E1,1.0664079E2,-6.047569E1,-7.150326E-1,8.108691E1,1.9817409E2,-6.720524E1,-3.6338295E1,-1.42892475E1,3.2577957E1,2.417925E1,9.498984E1,2.283788E1,1.8539197E2,-7.352705E1,-5.9507717E1,-5.034517E1,-2.1258991E1,1.3132166E2,-1.667632E1,1.276163E1,4.6649986E1,-1.707618E1,3.341612E1,4.0873718E2,9.342776E1,1.4006998E2,2.104262E2,-3.115446E1,-7.396614E1,-6.3385708E1,-4.638171E1,-5.7276794E1,-3.1965748E1,-3.196199E1,-5.2871494E0,2.2019968E1,8.043117E-1,-3.0989782E1,6.0048275E0,3.0882992E1,-5.820545E-1,3.5830723E1,8.2516754E1,-2.8501806E1,9.76209E0,1.8472565E1,5.760575E1,7.4967628E0,2.5832539E1,7.077585E1,1.0956925E2,9.591664E1,2.1749103E2,2.432533E2,1.8070906E2,7.8265505E0,-3.308115E0,-3.9038243E0,-3.471257E0,-2.846853E0,-3.4077299E0,3.3250592E0,-2.3555968E0,-3.5297182E0,-2.5914533E0,-3.7661058E-1,-1.9614366E0,-1.6909882E0,3.2764409E0,1.8612711E-1,-2.093391E0,-2.8568487E0,2.8148932E0,-2.0200486E0,-8.290791E-1,1.0825858E-1,2.8662946E0,-1.7248375E0,1.8929383E0,4.5728965E0,-1.6294634E-1,1.2568122E0,3.5361505E0,2.6175804E0,6.202004E0,-2.806251E0,-9.291965E-1,-9.9300766E-1,1.7480942E0,3.384465E0,6.7544544E-1,7.194665E0,2.3504367E0,2.2203162E0,4.1766005E0,5.124401E0,7.8970923E0,-7.9454106E-1,5.2920218E0,1.6513649E1,8.181102E0,1.5629333E1,1.1487048E1,9.943619E0,6.327437E0],"categories":[],"categories_nodes":[],"categories_segments":[],"categories_sizes":[],"default_left":[0,0,0,0,0,0,0,0,0,0,0,0,0,0,0,0,0,0,0,0,0,0,0,0,0,0,0,0,0,0,0,0,0,0,0,0,0,0,0,0,0,0,0,0,0,0,0,0,0,0,0,0,0,0,0,0,0,0,0,0,0,0,0,0,0,0,0,0,0,0,0,0,0,0,0,0,0,0,0,0,0,0,0,0,0,0,0,0,0,0,0,0,0,0,0,0,0,0,0,0,0,0,0,0,0,0,0],"id":1,"left_children":[1,3,5,7,9,11,13,15,17,19,21,23,25,-1,27,29,31,33,35,37,39,41,43,45,47,49,51,53,55,57,59,61,63,65,67,69,71,-1,73,75,77,79,81,83,85,87,89,91,93,-1,-1,95,97,99,101,103,105,-1,-1,-1,-1,-1,-1,-1,-1,-1,-1,-1,-1,-1,-1,-1,-1,-1,-1,-1,-1,-1,-1,-1,-1,-1,-1,-1,-1,-1,-1,-1,-1,-1,-1,-1,-1,-1,-1,-1,-1,-1,-1,-1,-1,-1,-1,-1,-1,-1,-1],"loss_changes":[9.667973E7,1.310758E7,1.4481248E7,1.743072E6,2.5199542E6,3.83257E6,4.384012E6,4.04484E5,4.9422625E5,1.3789695E6,4.49757E5,3.6373125E5,1.870748E6,0E0,1.43416E6,8.345E4,1.90185E5,1.5295925E5,1.9317162E5,2.581406E6,1.2656554E6,1.6251144E5,3.6336438E5,5.3940953E4,2.8052812E5,4.5317225E5,1.409816E6,1.558439E6,7.64756E5,3.3230912E5,7.971E4,8.6102E4,7.476475E4,6.0258E4,5.915375E4,1.248315E5,1.50115E5,0E0,1.5112361E5,3.2341E5,2.9723225E5,1.3128719E5,9.589322E4,2.6950588E5,2.6656375E5,3.2654508E4,4.025749E4,1.1708005E5,2.6480988E5,0E0,0E0,5.39871E5,7.58634E5,3.3010975E5,9.6056E5,2.94498E5,4.06692E5,0E0,0E0,0E0,0E0,0E0,0E0,0E0,0E0,0E0,0E0,0E0,0E0,0E0,0E0,0E0,0E0,0E0,0E0,0E0,0E0,0E0,0E0,0E0,0E0,0E0,0E0,0E0,0E0,0E0,0E0,0E0,0E0,0E0,0E0,0E0,0E0,0E0,0E0,0E0,0E0,0E0,0E0,0E0,0E0,0E0,0E0,0E0,0E0,0E0,0E0],"parents":[2147483647,0,0,1,1,2,2,3,3,4,4,5,5,6,6,7,7,8,8,9,9,10,10,11,11,12,12,14,14,15,15,16,16,17,17,18,18,19,19,20,20,21,21,22,22,23,23,24,24,25,25,26,26,27,27,28,28,29,29,30,30,31,31,32,32,33,33,34,34,35,35,36,36,38,38,39,39,40,40,41,41,42,42,43,43,44,44,45,45,46,46,47,47,48,48,51,51,52,52,53,53,54,54,55,55,56,56],"right_children":[2,4,6,8,10,12,14,16,18,20,22,24,26,-1,28,30,32,34,36,38,40,42,44,46,48,50,52,54,56,58,60,62,64,66,68,70,72,-1,74,76,78,80,82,84,86,88,90,92,94,-1,-1,96,98,100,102,104,106,-1,-1,-1,-1,-1,-1,-1,-1,-1,-1,-1,-1,-1,-1,-1,-1,-1,-1,-1,-1,-1,-1,-1,-1,-1,-1,-1,-1,-1,-1,-1,-1,-1,-1,-1,-1,-1,-1,-1,-1,-1,-1,-1,-1,-1,-1,-1,-1,-1,-1],"split_conditions":[1.51E2,7.8E1,3.185E2,7.325E1,1.365E2,4.179029E-1,-9.640935E-1,4.375E1,8.6E1,1.269022E0,1.1475E2,-4.6230483E-1,1E0,2.283788E1,1.1E1,2.17E1,5.265806E-2,1.2119346E-1,1.225E2,7.875E1,4.179029E-1,1.2975E1,9.3545544E-1,9.659258E-1,3.665E2,-2.5881904E-1,2.03E2,9.701047E-1,7.368E0,3.28E1,3.125E1,7E0,1E0,4E1,9E0,8.88982E2,1.63155E3,2.2019968E1,3.275E1,8.35E1,1.5040125E3,-2.0391367E-1,5.8666668E1,1.1E1,1.855E2,6.45E1,1.6275E2,5.775E1,-4.0024394E-1,7.4967628E0,2.5832539E1,1.4875E2,1.82816E3,3.3E2,9.407981E2,1.1037125E3,1.2E1,7.8265505E0,-3.308115E0,-3.9038243E0,-3.471257E0,-2.846853E0,-3.4077299E0,3.3250592E0,-2.3555968E0,-3.5297182E0,-2.5914533E0,-3.7661058E-1,-1.9614366E0,-1.6909882E0,3.2764409E0,1.8612711E-1,-2.093391E0,-2.8568487E0,2.8148932E0,-2.0200486E0,-8.290791E-1,1.0825858E-1,2.8662946E0,-1.7248375E0,1.8929383E0,4.5728965E0,-1.6294634E-1,1.2568122E0,3.5361505E0,2.6175804E0,6.202004E0,-2.806251E0,-9.291965E-1,-9.9300766E-1,1.7480942E0,3.384465E0,6.7544544E-1,7.194665E0,2.3504367E0,2.2203162E0,4.1766005E0,5.124401E0,7.8970923E0,-7.9454106E-1,5.2920218E0,1.6513649E1,8.181102E0,1.5629333E1,1.1487048E1,9.943619E0,6.327437E0],"split_indices":[15,15,15,20,20,42,42,15,21,33,15,42,56,0,49,28,42,42,20,15,42,5,42,47,0,47,15,42,12,22,15,49,56,15,51,13,55,0,4,21,55,42,29,49,11,20,11,11,42,0,0,21,55,0,55,55,51,0,0,0,0,0,0,0,0,0,0,0,0,0,0,0,0,0,0,0,0,0,0,0,0,0,0,0,0,0,0,0,0,0,0,0,0,0,0,0,0,0,0,0,0,0,0,0,0,0,0],"split_type":[0,0,0,0,0,0,0,0,0,0,0,0,0,0,0,0,0,0,0,0,0,0,0,0,0,0,0,0,0,0,0,0,0,0,0,0,0,0,0,0,0,0,0,0,0,0,0,0,0,0,0,0,0,0,0,0,0,0,0,0,0,0,0,0,0,0,0,0,0,0,0,0,0,0,0,0,0,0,0,0,0,0,0,0,0,0,0,0,0,0,0,0,0,0,0,0,0,0,0,0,0,0,0,0,0,0,0],"sum_hessian":[2.2516E4,1.6319E4,6.197E3,1.0745E4,5.574E3,4.846E3,1.351E3,8.401E3,2.344E3,3.96E3,1.614E3,9.52E2,3.894E3,6.2E1,1.289E3,4.608E3,3.793E3,1.214E3,1.13E3,6.3E1,3.897E3,6.71E2,9.43E2,1.74E2,7.78E2,1.8E1,3.876E3,4.61E2,8.28E2,4.8E1,4.56E3,2.925E3,8.68E2,8.8E2,3.34E2,6.76E2,4.54E2,1.8E1,4.5E1,2.389E3,1.508E3,2.84E2,3.87E2,7.26E2,2.17E2,1.22E2,5.2E1,4.82E2,2.96E2,6E0,1.2E1,1.615E3,2.261E3,2.95E2,1.66E2,3.9E2,4.38E2,7E0,4.1E1,2.385E3,2.175E3,1.249E3,1.676E3,5E0,8.63E2,2.52E2,6.28E2,7.7E1,2.57E2,6.64E2,1.2E1,3.65E2,8.9E1,2.2E1,2.3E1,1.444E3,9.45E2,1.404E3,1.04E2,2.7E1,2.57E2,1E1,3.77E2,5.57E2,1.69E2,1.27E2,9E1,3.1E1,9.1E1,2.4E1,2.8E1,4.3E1,4.39E2,3.1E1,2.65E2,5.28E2,1.087E3,1.975E3,2.86E2,2.4E1,2.71E2,5.2E1,1.14E2,6E1,3.3E2,3.26E2,1.12E2],"tree_param":{"num_deleted":"0","num_feature":"59","num_nodes":"107","size_leaf_vector":"1"}},{"base_weights":[-1.3143001E-1,-3.8273903E1,1.00778175E2,-5.7435658E1,-9.800754E-1,7.678553E1,1.8204512E2,-6.3902718E1,-3.497994E1,-1.9965202E1,2.057198E1,1.0191155E2,3.4912735E1,2.1690367E1,1.708576E2,-6.949276E1,-5.6433044E1,-4.8140396E1,-2.0262222E1,1.3275629E2,-2.2923746E1,-4.1902356E0,3.450232E1,8.08633E1,1.267021E2,2.6618105E1,8.173377E1,1.903971E2,9.132796E1,-7.160756E1,-5.9900944E1,-5.9475243E1,-4.0534924E1,-5.2952023E1,-2.8874998E1,-3.7371902E1,-1.334704E1,2.111097E1,-1.5468848E1,-3.282929E1,3.6508262E0,2.8236639E1,-1.0686896E1,5.0633083E1,1.6778082E1,1.4134058E2,7.606979E1,1.1037945E2,1.5805418E2,3.4998528E1,-6.6619287E0,1.2540452E2,5.1472244E1,3.9712223E1,1.9784131E2,-1.6555903E0,9.99223E1,-3.61856E0,-2.5201347E0,5.674791E0,-3.1027083E0,-3.1372223E0,-2.574757E0,3.3806267E0,-2.0893772E0,-3.3873158E0,-2.349905E0,1.6070856E0,-1.5743005E0,-2.4832761E0,-1.0895504E0,-1.2229713E0,1.1150008E-1,-2.6951263E0,7.466516E-1,-2.0610597E0,-9.439538E-1,-1.0768887E0,6.2736994E-1,-1.2599438E0,2.3439956E0,-7.284295E-1,1.4390888E0,1.5209305E0,3.4955952E0,2.5119283E0,6.0419583E-1,2.1893507E1,6.068359E0,2.6222165E0,4.404624E0,1.42152195E1,5.315059E0,7.415531E0,1.0728184E1,3.338705E0,1.4363989E0,-1.3198953E0,4.9615476E-1,-8.4433407E-1,7.4145103E0,-8.597302E-1,3.0702307E0,4.175731E0,-1.4462667E0,8.816119E0,1.2231013E1,2.249529E0,6.094456E0],"categories":[],"categories_nodes":[],"categories_segments":[],"categories_sizes":[],"default_left":[0,0,0,0,0,0,0,0,0,0,0,0,0,0,0,0,0,0,0,0,0,0,0,0,0,0,0,0,0,0,0,0,0,0,0,0,0,0,0,0,0,0,0,0,0,0,0,0,0,0,0,0,0,0,0,0,0,0,0,0,0,0,0,0,0,0,0,0,0,0,0,0,0,0,0,0,0,0,0,0,0,0,0,0,0,0,0,0,0,0,0,0,0,0,0,0,0,0,0,0,0,0,0,0,0,0,0,0,0],"id":2,"left_children":[1,3,5,7,9,11,13,15,17,19,21,23,25,-1,27,29,31,33,35,37,39,41,43,45,47,49,51,53,55,57,59,61,63,65,67,69,71,-1,73,75,77,79,81,83,85,87,89,91,93,95,97,99,101,103,105,-1,107,-1,-1,-1,-1,-1,-1,-1,-1,-1,-1,-1,-1,-1,-1,-1,-1,-1,-1,-1,-1,-1,-1,-1,-1,-1,-1,-1,-1,-1,-1,-1,-1,-1,-1,-1,-1,-1,-1,-1,-1,-1,-1,-1,-1,-1,-1,-1,-1,-1,-1,-1,-1],"loss_changes":[8.6351016E7,1.1634592E7,1.1985144E7,1.559636E6,2.261885E6,4.997056E6,3.874748E6,3.447E5,4.6524075E5,1.3309811E6,8.932099E5,1.539492E6,6.9066425E5,0E0,2.071144E6,9.2492E4,1.70688E5,1.161975E5,1.341454E5,2.4092512E6,7.592911E5,1.9685352E5,4.7289588E5,4.55695E5,6.79558E5,4.2332562E5,3.4771862E5,1.201368E6,2.888595E5,5.957E4,3.311205E5,7.5087E4,8.11255E4,8.62215E4,4.1796766E4,6.1553156E4,1.4061022E5,0E0,4.5206258E4,2.4518325E5,1.7595853E5,1.5659053E5,1.19613E5,3.35753E5,1.2363456E5,6.398135E5,4.19454E5,6.07451E5,2.23658E5,2.39573E5,1.00422375E5,3.5745512E5,1.1017972E5,1.5875312E5,9.90684E5,0E0,2.96185E5,0E0,0E0,0E0,0E0,0E0,0E0,0E0,0E0,0E0,0E0,0E0,0E0,0E0,0E0,0E0,0E0,0E0,0E0,0E0,0E0,0E0,0E0,0E0,0E0,0E0,0E0,0E0,0E0,0E0,0E0,0E0,0E0,0E0,0E0,0E0,0E0,0E0,0E0,0E0,0E0,0E0,0E0,0E0,0E0,0E0,0E0,0E0,0E0,0E0,0E0,0E0,0E0],"parents":[2147483647,0,0,1,1,2,2,3,3,4,4,5,5,6,6,7,7,8,8,9,9,10,10,11,11,12,12,14,14,15,15,16,16,17,17,18,18,19,19,20,20,21,21,22,22,23,23,24,24,25,25,26,26,27,27,28,28,29,29,30,30,31,31,32,32,33,33,34,34,35,35,36,36,38,38,39,39,40,40,41,41,42,42,43,43,44,44,45,45,46,46,47,47,48,48,49,49,50,50,51,51,52,52,53,53,54,54,56,56],"right_children":[2,4,6,8,10,12,14,16,18,20,22,24,26,-1,28,30,32,34,36,38,40,42,44,46,48,50,52,54,56,58,60,62,64,66,68,70,72,-1,74,76,78,80,82,84,86,88,90,92,94,96,98,100,102,104,106,-1,108,-1,-1,-1,-1,-1,-1,-1,-1,-1,-1,-1,-1,-1,-1,-1,-1,-1,-1,-1,-1,-1,-1,-1,-1,-1,-1,-1,-1,-1,-1,-1,-1,-1,-1,-1,-1,-1,-1,-1,-1,-1,-1,-1,-1,-1,-1,-1,-1,-1,-1,-1,-1],"split_conditions":[1.51E2,7.8E1,3.1125E2,7.25E1,4.179029E-1,3.634816E-1,-9.640935E-1,4.475E1,8.6E1,1.269022E0,2.42E2,3.812E2,2.0155208E2,2.1690367E1,2.4893981E-1,6.350683E-1,2.228204E-1,2.7694622E-1,1.5E1,1.51E2,1.1875E2,1.305E1,3.634816E-1,1.098E1,6.02E1,3.04E1,5.0835645E-1,4.6801534E-1,2.095E2,1.7223625E-1,2.17E1,3.7945285E-1,1E0,1.037E2,1.385E1,1.517E2,1.225E2,2.111097E1,2.465E1,3.21E1,-4.4698343E-1,8.8083336E1,3.27E2,3.087E2,1.258E1,-1.7752916E-1,1.6075E2,1E0,9.778786E-1,1.305E1,8.916402E-1,2.024E3,5.175855E-1,9E0,1.85E0,-1.6555903E0,-4.3388373E-1,-3.61856E0,-2.5201347E0,5.674791E0,-3.1027083E0,-3.1372223E0,-2.574757E0,3.3806267E0,-2.0893772E0,-3.3873158E0,-2.349905E0,1.6070856E0,-1.5743005E0,-2.4832761E0,-1.0895504E0,-1.2229713E0,1.1150008E-1,-2.6951263E0,7.466516E-1,-2.0610597E0,-9.439538E-1,-1.0768887E0,6.2736994E-1,-1.2599438E0,2.3439956E0,-7.284295E-1,1.4390888E0,1.5209305E0,3.4955952E0,2.5119283E0,6.0419583E-1,2.1893507E1,6.068359E0,2.6222165E0,4.404624E0,1.42152195E1,5.315059E0,7.415531E0,1.0728184E1,3.338705E0,1.4363989E0,-1.3198953E0,4.9615476E-1,-8.4433407E-1,7.4145103E0,-8.597302E-1,3.0702307E0,4.175731E0,-1.4462667E0,8.816119E0,1.2231013E1,2.249529E0,6.094456E0],"split_indices":[15,15,15,20,42,41,42,15,21,33,14,14,38,0,41,41,42,42,4,0,20,8,41,8,1,8,41,42,0,42,28,41,56,14,8,14,20,0,4,3,42,32,40,14,8,41,21,56,42,8,41,50,41,51,6,0,45,0,0,0,0,0,0,0,0,0,0,0,0,0,0,0,0,0,0,0,0,0,0,0,0,0,0,0,0,0,0,0,0,0,0,0,0,0,0,0,0,0,0,0,0,0,0,0,0,0,0,0,0],"split_type":[0,0,0,0,0,0,0,0,0,0,0,0,0,0,0,0,0,0,0,0,0,0,0,0,0,0,0,0,0,0,0,0,0,0,0,0,0,0,0,0,0,0,0,0,0,0,0,0,0,0,0,0,0,0,0,0,0,0,0,0,0,0,0,0,0,0,0,0,0,0,0,0,0,0,0,0,0,0,0,0,0,0,0,0,0,0,0,0,0,0,0,0,0,0,0,0,0,0,0,0,0,0,0,0,0,0,0,0,0],"sum_hessian":[2.2433E4,1.628E4,6.153E3,1.0754E4,5.526E3,4.752E3,1.401E3,8.348E3,2.406E3,2.938E3,2.588E3,2.969E3,1.783E3,5.8E1,1.343E3,4.77E3,3.578E3,1.269E3,1.137E3,5.5E1,2.883E3,9.32E2,1.656E3,1.608E3,1.361E3,1.516E3,2.67E2,1.077E3,2.66E2,3.903E3,8.67E2,3.001E3,5.77E2,1.014E3,2.55E2,3.26E2,8.11E2,1.8E1,3.7E1,2.1E3,7.83E2,1.55E2,7.77E2,8.66E2,7.9E2,1.16E2,1.492E3,8.98E2,4.63E2,1.211E3,3.05E2,1.08E2,1.59E2,5.1E1,1.026E3,1.7E1,2.49E2,3.765E3,1.38E2,1E1,8.57E2,2.124E3,8.77E2,6E0,5.71E2,2.88E2,7.26E2,1E1,2.45E2,1.81E2,1.45E2,4.73E2,3.38E2,1.6E1,2.1E1,1.31E3,7.9E2,2.04E2,5.79E2,4E1,1.15E2,7.08E2,6.9E1,4.24E2,4.42E2,9.6E1,6.94E2,6E0,1.1E2,5.05E2,9.87E2,1.9E1,8.79E2,3.98E2,6.5E1,1.98E2,1.013E3,1.39E2,1.66E2,1.5E1,9.3E1,2E1,1.39E2,3.1E1,2E1,7.06E2,3.2E2,7.2E1,1.77E2],"tree_param":{"num_deleted":"0","num_feature":"59","num_nodes":"109","size_leaf_vector":"1"}},{"base_weights":[-4.276989E-1,-3.7760803E1,9.192513E1,-5.435863E1,-3.290974E0,7.07625E1,1.6972182E2,-6.0783646E1,-3.3658855E1,-1.3612926E1,2.8352057E1,3.1701756E1,9.730805E1,2.0635887E1,1.5829463E2,-6.690669E1,-5.3666348E1,-5.051017E1,-2.2361975E1,1.3246524E2,-1.5586494E1,1.3896966E1,5.377537E1,4.3195843E1,2.8925667E0,8.993395E1,1.59553E2,1.102449E2,1.8489615E2,-7.218137E1,-6.457215E1,-5.837354E1,-4.4885975E1,-6.1213326E1,-4.346619E1,-2.718448E1,-8.205058E-2,2.009754E1,-2.2025679E1,-3.0424871E1,-7.322788E-1,6.047612E-1,3.790363E1,4.953242E1,1.9585744E2,3.238969E1,7.62766E1,-1.734263E1,1.98734E1,7.283036E1,1.045203E2,4.036556E2,1.4609209E2,7.8013824E1,1.8340259E2,2.1754555E2,1.5617166E2,-3.4455724E-2,-3.65501E0,-3.3713837E0,-3.043221E0,-2.9415696E0,-3.6316988E-1,-2.5108953E0,-1.5460774E0,-2.7094235E0,-3.5099447E0,-2.8597105E0,-1.8665581E0,-1.9259446E0,-1.1005849E0,-9.4099903E-1,1.5422715E0,-2.599988E0,7.472575E-1,-2.3005807E0,-1.0335314E0,4.3734008E-1,-8.583968E-1,-1.08500056E-1,4.7360687E0,-2.7118962E0,2.0872312E0,5.0669E0,2.131102E0,4.7521887E0,1.3434573E1,-9.915413E-1,1.9068018E0,3.1725566E0,6.0106144E0,-3.459208E0,-6.881179E-1,-1.7018045E0,1.3330461E0,6.8681445E0,3.4043176E0,4.472038E0,6.2764177E0,2.3999632E1,9.821423E0,4.887982E0,8.960633E0,4.628337E0,6.398766E-1,1.367766E1,6.1974955E0,1.531646E1,1.0228124E1,1.0430446E1,7.081672E0],"categories":[],"categories_nodes":[],"categories_segments":[],"categories_sizes":[],"default_left":[0,0,0,0,0,0,0,0,0,0,0,0,0,0,0,0,0,0,0,0,0,0,0,0,0,0,0,0,0,0,0,0,0,0,0,0,0,0,0,0,0,0,0,0,0,0,0,0,0,0,0,0,0,0,0,0,0,0,0,0,0,0,0,0,0,0,0,0,0,0,0,0,0,0,0,0,0,0,0,0,0,0,0,0,0,0,0,0,0,0,0,0,0,0,0,0,0,0,0,0,0,0,0,0,0,0,0,0,0,0,0],"id":3,"left_children":[1,3,5,7,9,11,13,15,17,19,21,23,25,-1,27,29,31,33,35,37,39,41,43,45,47,49,51,53,55,57,59,61,63,65,67,69,71,-1,73,75,77,79,81,83,85,87,89,91,93,95,97,99,101,103,105,107,109,-1,-1,-1,-1,-1,-1,-1,-1,-1,-1,-1,-1,-1,-1,-1,-1,-1,-1,-1,-1,-1,-1,-1,-1,-1,-1,-1,-1,-1,-1,-1,-1,-1,-1,-1,-1,-1,-1,-1,-1,-1,-1,-1,-1,-1,-1,-1,-1,-1,-1,-1,-1,-1,-1],"loss_changes":[7.687947E7,9.084584E6,1.0556124E7,1.423406E6,1.6863871E6,5.231132E6,3.744384E6,3.52802E5,4.8259375E5,1.1243985E6,4.6597288E5,6.767159E5,1.364948E6,0E0,1.656612E6,4.9422E4,1.53899E5,7.416475E4,1.6363656E5,2.1737732E6,8.468025E5,2.587684E5,2.676085E5,5.198015E5,2.010132E5,6.63238E5,9.82642E5,1.093929E6,7.56622E5,8.79065E4,2.823E4,5.7186E4,9.717775E4,2.157125E4,4.9913875E4,7.255744E4,1.5820912E5,0E0,3.845481E4,2.9126388E5,2.994322E5,1.3678764E5,1.0454547E5,1.5606312E5,6.991725E4,3.3174125E5,1.946675E5,4.8604883E4,1.1726739E5,3.705705E5,4.47804E5,1.588215E5,4.65922E5,3.1011612E5,7.325295E5,3.8919E5,3.15034E5,0E0,0E0,0E0,0E0,0E0,0E0,0E0,0E0,0E0,0E0,0E0,0E0,0E0,0E0,0E0,0E0,0E0,0E0,0E0,0E0,0E0,0E0,0E0,0E0,0E0,0E0,0E0,0E0,0E0,0E0,0E0,0E0,0E0,0E0,0E0,0E0,0E0,0E0,0E0,0E0,0E0,0E0,0E0,0E0,0E0,0E0,0E0,0E0,0E0,0E0,0E0,0E0,0E0,0E0],"parents":[2147483647,0,0,1,1,2,2,3,3,4,4,5,5,6,6,7,7,8,8,9,9,10,10,11,11,12,12,14,14,15,15,16,16,17,17,18,18,19,19,20,20,21,21,22,22,23,23,24,24,25,25,26,26,27,27,28,28,29,29,30,30,31,31,32,32,33,33,34,34,35,35,36,36,38,38,39,39,40,40,41,41,42,42,43,43,44,44,45,45,46,46,47,47,48,48,49,49,50,50,51,51,52,52,53,53,54,54,55,55,56,56],"right_children":[2,4,6,8,10,12,14,16,18,20,22,24,26,-1,28,30,32,34,36,38,40,42,44,46,48,50,52,54,56,58,60,62,64,66,68,70,72,-1,74,76,78,80,82,84,86,88,90,92,94,96,98,100,102,104,106,108,110,-1,-1,-1,-1,-1,-1,-1,-1,-1,-1,-1,-1,-1,-1,-1,-1,-1,-1,-1,-1,-1,-1,-1,-1,-1,-1,-1,-1,-1,-1,-1,-1,-1,-1,-1,-1,-1,-1,-1,-1,-1,-1,-1,-1,-1,-1,-1,-1,-1,-1,-1,-1,-1,-1],"split_conditions":[1.445E2,7.8E1,3.1125E2,7.475E1,8.660254E-1,8.660254E-1,-9.640935E-1,4.375E1,6.508681E1,1.269022E0,3.023E2,4E-1,1.8225125E3,2.0635887E1,1.1E1,2.475E1,5.85E1,2.59E1,1.7425E2,7.875E1,8.95E1,6.123234E-17,1.634E2,2.1525E2,1.2375E2,2.01E2,1E0,9.701047E-1,7.368E0,2.17E1,6.123234E-17,8.660254E-1,1.0410075E-1,1.93991E3,-6.952253E-1,6.394248E-1,1.6275E2,2.009754E1,2.695E2,3.285E1,3.04E1,2.024E3,1.0125E2,6.6528654E-1,3.064E2,-4.4698343E-1,1.8342E3,1.01E2,3.6536163E1,5.75E0,3.4125E2,2.935E1,7.1675E1,2.19475E2,1.19E1,1.33E1,6.123802E-1,-3.4455724E-2,-3.65501E0,-3.3713837E0,-3.043221E0,-2.9415696E0,-3.6316988E-1,-2.5108953E0,-1.5460774E0,-2.7094235E0,-3.5099447E0,-2.8597105E0,-1.8665581E0,-1.9259446E0,-1.1005849E0,-9.4099903E-1,1.5422715E0,-2.599988E0,7.472575E-1,-2.3005807E0,-1.0335314E0,4.3734008E-1,-8.583968E-1,-1.08500056E-1,4.7360687E0,-2.7118962E0,2.0872312E0,5.0669E0,2.131102E0,4.7521887E0,1.3434573E1,-9.915413E-1,1.9068018E0,3.1725566E0,6.0106144E0,-3.459208E0,-6.881179E-1,-1.7018045E0,1.3330461E0,6.8681445E0,3.4043176E0,4.472038E0,6.2764177E0,2.3999632E1,9.821423E0,4.887982E0,8.960633E0,4.628337E0,6.398766E-1,1.367766E1,6.1974955E0,1.531646E1,1.0228124E1,1.0430446E1,7.081672E0],"split_indices":[15,15,15,21,44,44,42,15,38,33,22,10,55,0,49,15,20,2,21,15,20,48,3,29,20,21,56,42,12,28,48,44,42,55,42,6,37,0,0,2,8,50,0,42,24,42,55,27,39,7,0,8,3,3,8,8,42,0,0,0,0,0,0,0,0,0,0,0,0,0,0,0,0,0,0,0,0,0,0,0,0,0,0,0,0,0,0,0,0,0,0,0,0,0,0,0,0,0,0,0,0,0,0,0,0,0,0,0,0,0,0],"split_type":[0,0,0,0,0,0,0,0,0,0,0,0,0,0,0,0,0,0,0,0,0,0,0,0,0,0,0,0,0,0,0,0,0,0,0,0,0,0,0,0,0,0,0,0,0,0,0,0,0,0,0,0,0,0,0,0,0,0,0,0,0,0,0,0,0,0,0,0,0,0,0,0,0,0,0,0,0,0,0,0,0,0,0,0,0,0,0,0,0,0,0,0,0,0,0,0,0,0,0,0,0,0,0,0,0,0,0,0,0,0,0],"sum_hessian":[2.2296E4,1.5878E4,6.418E3,1.0717E4,5.161E3,5.047E3,1.371E3,8.177E3,2.54E3,3.892E3,1.269E3,2.043E3,3.004E3,6E1,1.311E3,4.391E3,3.786E3,1.018E3,1.522E3,5.1E1,3.841E3,8.1E2,4.59E2,1.46E3,5.83E2,2.688E3,3.16E2,4.69E2,8.42E2,1.338E3,3.053E3,2.461E3,1.325E3,4.01E2,6.17E2,1.251E3,2.71E2,1.8E1,3.3E1,1.921E3,1.92E3,5.22E2,2.88E2,4.47E2,1.2E1,1.102E3,3.58E2,2.66E2,3.17E2,1.24E3,1.448E3,1.5E1,3.01E2,3.27E2,1.42E2,3.91E2,4.51E2,1.7E1,1.321E3,1.715E3,1.338E3,2.439E3,2.2E1,9.57E2,3.68E2,2.29E2,1.72E2,1.88E2,4.29E2,3.9E2,8.61E2,1.69E2,1.02E2,1.8E1,1.5E1,7.38E2,1.183E3,1.218E3,7.02E2,5.08E2,1.4E1,1.1E1,2.77E2,5.1E1,3.96E2,6E0,6E0,1.09E2,9.93E2,2.79E2,7.9E1,1.6E1,2.5E2,3.5E1,2.82E2,8.3E1,1.157E3,8.46E2,6.02E2,1E1,5E0,1.24E2,1.77E2,2.67E2,6E1,5.5E1,8.7E1,4.7E1,3.44E2,9.5E1,3.56E2],"tree_param":{"num_deleted":"0","num_feature":"59","num_nodes":"111","size_leaf_vector":"1"}},{"base_weights":[3.4575097E-2,-3.4405266E1,9.111977E1,-5.1787292E1,-8.2577044E-1,6.961883E1,1.6265979E2,-5.7425743E1,-3.124921E1,-1.2066361E1,3.1241713E1,3.2074512E1,9.356221E1,1.9604094E1,1.5277782E2,-6.1784428E1,-4.8697224E1,-4.312431E1,-1.8724129E1,1.1234867E2,-1.4125674E1,1.5073632E1,6.1794437E1,4.206748E1,5.5870376E0,9.1702324E1,3.694806E2,1.6996983E2,8.255245E1,-6.33648E1,-4.7413803E1,-5.3171852E1,-3.8950603E1,-5.190537E1,-2.9560366E1,-2.518878E1,3.34398E0,1.929537E1,-1.2270084E1,-2.6418621E1,3.386242E0,1.2099787E1,1.0217194E2,5.780112E1,1.5942587E2,2.9841385E1,6.881196E1,-1.8616121E1,1.7247663E1,6.75972E1,1.0591667E2,2.4572361E1,8.967843E0,4.3133686E1,1.7562233E2,6.7364624E1,1.5139272E2,-3.3168895E0,-2.870473E0,-1.039365E0,-2.6006496E0,-2.7617373E0,-2.1101253E0,-2.3805442E0,-1.7021067E0,-2.9522362E0,-2.0734055E0,-2.1216946E0,-8.78407E-1,-1.7618723E0,-9.037059E-1,-1.4886992E-1,2.1672018E0,-2.3112545E0,9.729662E-1,-1.891285E0,-5.1274675E-1,-9.858443E-1,4.560306E-1,7.716682E-2,1.7329222E0,3.8378778E0,7.3933196E0,2.3664813E0,4.3580766E0,1.1360629E1,2.9430733E0,-2.005889E-1,1.8379532E0,2.9451816E0,5.3813033E0,-2.82805E0,-5.391131E-1,6.844573E-1,4.2236457E0,6.906191E-1,3.61491E0,5.0106883E0,8.5217705E0,3.701925E0,-3.3774815E0,7.980989E0,1.1718613E1,6.21162E0,2.445224E0,1.1340701E1,3.646628E0],"categories":[],"categories_nodes":[],"categories_segments":[],"categories_sizes":[],"default_left":[0,0,0,0,0,0,0,0,0,0,0,0,0,0,0,0,0,0,0,0,0,0,0,0,0,0,0,0,0,0,0,0,0,0,0,0,0,0,0,0,0,0,0,0,0,0,0,0,0,0,0,0,0,0,0,0,0,0,0,0,0,0,0,0,0,0,0,0,0,0,0,0,0,0,0,0,0,0,0,0,0,0,0,0,0,0,0,0,0,0,0,0,0,0,0,0,0,0,0,0,0,0,0,0,0,0,0],"id":4,"left_children":[1,3,5,7,9,11,13,15,17,19,21,23,25,-1,27,29,31,33,35,37,39,41,43,45,47,49,51,53,55,57,59,61,63,65,67,69,71,-1,73,75,77,79,81,83,85,87,89,91,93,95,97,-1,-1,99,101,103,105,-1,-1,-1,-1,-1,-1,-1,-1,-1,-1,-1,-1,-1,-1,-1,-1,-1,-1,-1,-1,-1,-1,-1,-1,-1,-1,-1,-1,-1,-1,-1,-1,-1,-1,-1,-1,-1,-1,-1,-1,-1,-1,-1,-1,-1,-1,-1,-1,-1,-1],"loss_changes":[7.029299E7,9.49059E6,9.445392E6,1.238922E6,1.9998346E6,4.248076E6,3.159444E6,3.1676E5,3.4277425E5,1.0540955E6,7.103984E5,4.8758562E5,1.447658E6,0E0,1.631538E6,1.24222E5,1.202185E5,1.3960625E5,1.6072234E5,2.2888018E6,8.702231E5,2.4301672E5,1.8494188E5,4.354465E5,1.4312644E5,9.7587E5,3.52442E5,7.76758E5,2.7209575E5,8.5496E4,6.7374E4,4.10935E4,3.6041875E4,5.10535E4,7.150541E4,6.1633438E4,6.486006E4,0E0,5.1536004E4,4.375155E5,2.2115962E5,2.1736772E5,2.4650344E4,1.434495E5,1.1614759E5,2.1559794E5,1.5480075E5,4.8437195E4,8.065764E4,2.687845E5,6.46324E5,0E0,0E0,1.6919231E5,9.46928E5,2.28027E5,2.6750125E5,0E0,0E0,0E0,0E0,0E0,0E0,0E0,0E0,0E0,0E0,0E0,0E0,0E0,0E0,0E0,0E0,0E0,0E0,0E0,0E0,0E0,0E0,0E0,0E0,0E0,0E0,0E0,0E0,0E0,0E0,0E0,0E0,0E0,0E0,0E0,0E0,0E0,0E0,0E0,0E0,0E0,0E0,0E0,0E0,0E0,0E0,0E0,0E0,0E0,0E0],"parents":[2147483647,0,0,1,1,2,2,3,3,4,4,5,5,6,6,7,7,8,8,9,9,10,10,11,11,12,12,14,14,15,15,16,16,17,17,18,18,19,19,20,20,21,21,22,22,23,23,24,24,25,25,26,26,27,27,28,28,29,29,30,30,31,31,32,32,33,33,34,34,35,35,36,36,38,38,39,39,40,40,41,41,42,42,43,43,44,44,45,45,46,46,47,47,48,48,49,49,50,50,53,53,54,54,55,55,56,56],"right_children":[2,4,6,8,10,12,14,16,18,20,22,24,26,-1,28,30,32,34,36,38,40,42,44,46,48,50,52,54,56,58,60,62,64,66,68,70,72,-1,74,76,78,80,82,84,86,88,90,92,94,96,98,-1,-1,100,102,104,106,-1,-1,-1,-1,-1,-1,-1,-1,-1,-1,-1,-1,-1,-1,-1,-1,-1,-1,-1,-1,-1,-1,-1,-1,-1,-1,-1,-1,-1,-1,-1,-1,-1,-1,-1,-1,-1,-1,-1,-1,-1,-1,-1,-1,-1,-1,-1,-1,-1,-1],"split_conditions":[1.51E2,7.8E1,3.1125E2,7.4E1,8.660254E-1,8.660254E-1,-9.640935E-1,1.248E2,3.833E1,1.269022E0,3.087E2,4E-1,1E0,1.9604094E1,2.4893981E-1,1.7223625E-1,6.15E1,4.632579E-1,1.4175E2,7.875E1,9.85E1,2.024E3,1.683E2,2.1925E2,1.015E2,3.643E2,8E0,4.6801534E-1,8.916402E-1,-7.5189576E-2,1.2E1,5.53E1,2.01E1,5.475E1,8.275E1,5.575E1,2.2447624E1,1.929537E1,2.535E1,9.1260724E-2,-4.2764622E-1,6.123234E-17,9.3E0,2.02E2,1.3911101E1,-2.2072364E-1,1.8342E3,4.8E1,8.285E1,1.966E2,1.933218E3,2.4572361E1,8.967843E0,1.1E1,2.575E0,7.1E0,9.1380763E-1,-3.3168895E0,-2.870473E0,-1.039365E0,-2.6006496E0,-2.7617373E0,-2.1101253E0,-2.3805442E0,-1.7021067E0,-2.9522362E0,-2.0734055E0,-2.1216946E0,-8.78407E-1,-1.7618723E0,-9.037059E-1,-1.4886992E-1,2.1672018E0,-2.3112545E0,9.729662E-1,-1.891285E0,-5.1274675E-1,-9.858443E-1,4.560306E-1,7.716682E-2,1.7329222E0,3.8378778E0,7.3933196E0,2.3664813E0,4.3580766E0,1.1360629E1,2.9430733E0,-2.005889E-1,1.8379532E0,2.9451816E0,5.3813033E0,-2.82805E0,-5.391131E-1,6.844573E-1,4.2236457E0,6.906191E-1,3.61491E0,5.0106883E0,8.5217705E0,3.701925E0,-3.3774815E0,7.980989E0,1.1718613E1,6.21162E0,2.445224E0,1.1340701E1,3.646628E0],"split_indices":[15,15,15,20,44,44,42,14,2,33,14,10,57,0,41,42,21,41,20,15,21,50,1,15,20,14,51,42,41,41,51,2,3,15,21,15,30,0,4,42,42,48,7,11,33,42,55,21,9,28,55,0,0,51,6,12,41,0,0,0,0,0,0,0,0,0,0,0,0,0,0,0,0,0,0,0,0,0,0,0,0,0,0,0,0,0,0,0,0,0,0,0,0,0,0,0,0,0,0,0,0,0,0,0,0,0,0],"split_type":[0,0,0,0,0,0,0,0,0,0,0,0,0,0,0,0,0,0,0,0,0,0,0,0,0,0,0,0,0,0,0,0,0,0,0,0,0,0,0,0,0,0,0,0,0,0,0,0,0,0,0,0,0,0,0,0,0,0,0,0,0,0,0,0,0,0,0,0,0,0,0,0,0,0,0,0,0,0,0,0,0,0,0,0,0,0,0,0,0,0,0,0,0,0,0,0,0,0,0,0,0,0,0,0,0,0,0],"sum_hessian":[2.2406E4,1.6259E4,6.147E3,1.0713E4,5.546E3,4.728E3,1.419E3,8.404E3,2.309E3,4.107E3,1.439E3,1.842E3,2.886E3,5.7E1,1.362E3,5.601E3,2.803E3,1.184E3,1.125E3,6.6E1,4.041E3,9.42E2,4.97E2,1.337E3,5.05E2,2.868E3,1.8E1,1.093E3,2.69E2,5.043E3,5.58E2,1.918E3,8.85E2,7.17E2,4.67E2,8.7E2,2.55E2,2E1,4.6E1,2.374E3,1.667E3,9.12E2,3E1,4.79E2,1.8E1,9.19E2,4.18E2,1.64E2,3.41E2,1.066E3,1.802E3,1E1,8E0,4.7E1,1.046E3,2.22E2,4.7E1,3.357E3,1.686E3,8.3E1,4.75E2,1.611E3,3.07E2,3.17E2,5.68E2,4.23E2,2.94E2,2.24E2,2.43E2,3.59E2,5.11E2,2.21E2,3.4E1,2.2E1,2.4E1,1.391E3,9.83E2,3.31E2,1.336E3,6.22E2,2.9E2,2.1E1,9E0,3.55E2,1.24E2,1E1,8E0,1.56E2,7.63E2,3.35E2,8.3E1,2.7E1,1.37E2,3.25E2,1.6E1,8.6E1,9.8E2,1.658E3,1.44E2,3.7E1,1E1,8.25E2,2.21E2,5.3E1,1.69E2,2.3E1,2.4E1],"tree_param":{"num_deleted":"0","num_feature":"59","num_nodes":"107","size_leaf_vector":"1"}},{"base_weights":[7.963621E-2,-3.781037E1,7.533507E1,-5.165287E1,-1.1956145E1,4.2737835E1,1.21233406E2,-5.6077427E1,-3.3056297E1,-2.3450075E1,1.3282805E1,1.697458E1,7.2621956E1,1.8666744E1,1.1599833E2,-5.9041542E1,-4.2968895E1,-4.027E1,-1.3155979E1,8.767035E1,-2.5629055E1,6.7873073E0,4.2153126E1,-1.2664366E1,2.7675816E1,4.2276855E1,7.977209E1,1.3335442E2,6.3089012E1,-6.339602E1,-5.4047733E1,-5.337162E1,-2.4463741E1,-4.502761E1,-1.4878665E1,1.1490786E1,-2.0904547E1,-3.2641647E1,3.4618423E2,-4.049556E1,-1.5980674E1,-3.4069324E0,2.406663E1,7.7964244E0,3.767672E1,-1.6843695E1,3.926871E1,1.6432735E1,4.1943615E1,1.1159715E2,3.381345E1,6.897047E1,9.9806175E1,1.0552906E2,1.6189645E2,4.389908E1,8.575712E1,-3.3726366E0,-3.0369956E0,-2.8539422E0,-2.5290134E0,-2.886235E0,-1.6216105E0,9.178429E0,-1.3613881E0,-2.4445662E0,-1.2573353E0,-1.0398529E0,3.3301682E0,2.038362E-1,5.123895E0,-1.4221221E0,3.635831E-1,-2.9977162E0,-3.6124954E-1,1.0550372E1,1.8676497E1,-2.570173E0,-1.6711072E0,-1.1104826E0,1.21771626E-1,-6.426744E-1,1.7895546E0,4.2854543E0,1.0368285E0,-1.5330385E-1,2.2503154E0,1.1469884E0,-1.0398861E0,4.8381596E0,9.506545E-1,6.8101745E0,7.333561E-1,-2.0881033E-1,2.2658892E0,8.381129E0,2.3794851E0,2.976414E0,1.0210017E0,5.565554E0,3.2055721E0,3.8491051E0,5.884111E0,1.6034906E1,5.1509027E0,4.0255437E0,8.532422E0,7.6156893E0,2.0272639E0,7.5433593E0,3.8132687E0],"categories":[],"categories_nodes":[],"categories_segments":[],"categories_sizes":[],"default_left":[0,0,0,0,0,0,0,0,0,0,0,0,0,0,0,0,0,0,0,0,0,0,0,0,0,0,0,0,0,0,0,0,0,0,0,0,0,0,0,0,0,0,0,0,0,0,0,0,0,0,0,0,0,0,0,0,0,0,0,0,0,0,0,0,0,0,0,0,0,0,0,0,0,0,0,0,0,0,0,0,0,0,0,0,0,0,0,0,0,0,0,0,0,0,0,0,0,0,0,0,0,0,0,0,0,0,0,0,0,0,0],"id":5,"left_children":[1,3,5,7,9,11,13,15,17,19,21,23,25,-1,27,29,31,33,35,37,39,41,43,45,47,49,51,53,55,57,59,61,63,65,67,69,71,73,75,77,79,81,83,-1,85,87,89,91,93,95,97,99,101,103,105,107,109,-1,-1,-1,-1,-1,-1,-1,-1,-1,-1,-1,-1,-1,-1,-1,-1,-1,-1,-1,-1,-1,-1,-1,-1,-1,-1,-1,-1,-1,-1,-1,-1,-1,-1,-1,-1,-1,-1,-1,-1,-1,-1,-1,-1,-1,-1,-1,-1,-1,-1,-1,-1,-1,-1],"loss_changes":[6.3963244E7,5.339056E6,1.123396E7,7.97676E5,1.5099648E6,3.3817615E6,4.073056E6,3.024E5,2.6791812E5,8.681006E5,3.0519556E5,7.4919675E5,4.37947E5,0E0,2.798824E6,1.357E5,2.7801775E5,1.6507075E5,9.55378E4,2.1573608E6,5.0253225E5,2.3453703E5,1.4640731E5,1.367489E5,2.7762912E5,2.2503406E5,3.49095E5,1.810352E6,3.2552975E5,3.2667E4,2.8507E4,8.2716E4,3.0630106E5,8.749075E4,1.0651402E5,8.053232E4,8.0914734E4,3.2888277E4,2.50525E3,1.047575E5,2.4427912E5,3.1075997E5,9.962756E4,0E0,8.644144E4,9.18712E4,5.2895797E4,2.0355006E5,1.19079875E5,1.4263678E5,1.1898331E5,2.134105E5,2.251345E5,5.98023E5,7.93992E5,1.4362831E5,2.02325E5,0E0,0E0,0E0,0E0,0E0,0E0,0E0,0E0,0E0,0E0,0E0,0E0,0E0,0E0,0E0,0E0,0E0,0E0,0E0,0E0,0E0,0E0,0E0,0E0,0E0,0E0,0E0,0E0,0E0,0E0,0E0,0E0,0E0,0E0,0E0,0E0,0E0,0E0,0E0,0E0,0E0,0E0,0E0,0E0,0E0,0E0,0E0,0E0,0E0,0E0,0E0,0E0,0E0,0E0],"parents":[2147483647,0,0,1,1,2,2,3,3,4,4,5,5,6,6,7,7,8,8,9,9,10,10,11,11,12,12,14,14,15,15,16,16,17,17,18,18,19,19,20,20,21,21,22,22,23,23,24,24,25,25,26,26,27,27,28,28,29,29,30,30,31,31,32,32,33,33,34,34,35,35,36,36,37,37,38,38,39,39,40,40,41,41,42,42,44,44,45,45,46,46,47,47,48,48,49,49,50,50,51,51,52,52,53,53,54,54,55,55,56,56],"right_children":[2,4,6,8,10,12,14,16,18,20,22,24,26,-1,28,30,32,34,36,38,40,42,44,46,48,50,52,54,56,58,60,62,64,66,68,70,72,74,76,78,80,82,84,-1,86,88,90,92,94,96,98,100,102,104,106,108,110,-1,-1,-1,-1,-1,-1,-1,-1,-1,-1,-1,-1,-1,-1,-1,-1,-1,-1,-1,-1,-1,-1,-1,-1,-1,-1,-1,-1,-1,-1,-1,-1,-1,-1,-1,-1,-1,-1,-1,-1,-1,-1,-1,-1,-1,-1,-1,-1,-1,-1,-1,-1,-1,-1],"split_conditions":[3.087E2,1.599E2,2.2775E2,1.5526626E-1,5.8133006E-1,8.660254E-1,-9.640935E-1,6.350683E-1,2.5881904E-1,3.818813E-1,7.0710677E-1,-2.0391367E-1,1.305E2,1.8666744E1,3.0471924E-1,4.125E1,2.5881904E-1,8.408305E-1,1.0825E1,2.4069278E0,6.7E1,2.5881904E-1,1.335E0,2.62E0,1.5425E2,-7.393923E-1,3.643E2,4.49E2,2.005E2,3.4666668E1,4.9E1,7.0710677E-1,6E0,5E-1,8.1986496E1,8.84198E2,8.9645624E-1,2.0496611E-1,1.369E2,3.098E1,1.25E2,9.6689296E-1,-5.9782916E-1,7.7964244E0,7.978125E1,4.12E0,1.651E2,1.258E1,3.6536163E1,3.264E2,1.355E1,-7.393923E-1,1.23E0,1E0,-7.0710677E-1,5.6E0,-4.0024394E-1,-3.3726366E0,-3.0369956E0,-2.8539422E0,-2.5290134E0,-2.886235E0,-1.6216105E0,9.178429E0,-1.3613881E0,-2.4445662E0,-1.2573353E0,-1.0398529E0,3.3301682E0,2.038362E-1,5.123895E0,-1.4221221E0,3.635831E-1,-2.9977162E0,-3.6124954E-1,1.0550372E1,1.8676497E1,-2.570173E0,-1.6711072E0,-1.1104826E0,1.21771626E-1,-6.426744E-1,1.7895546E0,4.2854543E0,1.0368285E0,-1.5330385E-1,2.2503154E0,1.1469884E0,-1.0398861E0,4.8381596E0,9.506545E-1,6.8101745E0,7.333561E-1,-2.0881033E-1,2.2658892E0,8.381129E0,2.3794851E0,2.976414E0,1.0210017E0,5.565554E0,3.2055721E0,3.8491051E0,5.884111E0,1.6034906E1,5.1509027E0,4.0255437E0,8.532422E0,7.6156893E0,2.0272639E0,7.5433593E0,3.8132687E0],"split_indices":[14,14,15,42,42,44,42,41,47,30,48,42,20,0,41,15,47,42,5,6,20,47,1,6,20,41,14,14,20,38,20,48,21,48,39,13,41,41,26,2,21,42,41,0,38,7,26,8,39,26,8,41,6,56,47,4,42,0,0,0,0,0,0,0,0,0,0,0,0,0,0,0,0,0,0,0,0,0,0,0,0,0,0,0,0,0,0,0,0,0,0,0,0,0,0,0,0,0,0,0,0,0,0,0,0,0,0,0,0,0,0],"split_type":[0,0,0,0,0,0,0,0,0,0,0,0,0,0,0,0,0,0,0,0,0,0,0,0,0,0,0,0,0,0,0,0,0,0,0,0,0,0,0,0,0,0,0,0,0,0,0,0,0,0,0,0,0,0,0,0,0,0,0,0,0,0,0,0,0,0,0,0,0,0,0,0,0,0,0,0,0,0,0,0,0,0,0,0,0,0,0,0,0,0,0,0,0,0,0,0,0,0,0,0,0,0,0,0,0,0,0,0,0,0,0],"sum_hessian":[2.243E4,1.4919E4,7.511E3,9.716E3,5.203E3,4.393E3,3.118E3,7.847E3,1.869E3,3.575E3,1.628E3,2.36E3,2.033E3,6.2E1,3.056E3,6.397E3,1.45E3,1.371E3,4.98E2,6.8E1,3.507E3,1.33E3,2.98E2,6.26E2,1.734E3,3.89E2,1.644E3,2.3E3,7.56E2,3.411E3,2.986E3,9.27E2,5.23E2,1.154E3,2.17E2,1.19E2,3.79E2,4.7E1,2.1E1,1.379E3,2.128E3,8.37E2,4.93E2,1E1,2.88E2,5.8E2,4.6E1,9.71E2,7.63E2,4.1E1,3.48E2,1.071E3,5.73E2,1.167E3,1.133E3,4.11E2,3.45E2,1.34E3,2.071E3,1.585E3,1.401E3,7.66E2,1.61E2,6E0,5.17E2,9.65E2,1.89E2,2.03E2,1.4E1,1.11E2,8E0,2.99E2,8E1,2.2E1,2.5E1,5E0,1.6E1,5.4E2,8.39E2,1.59E3,5.38E2,6.75E2,1.62E2,2.4E1,4.69E2,4.4E1,2.44E2,5.2E1,5.28E2,1.1E1,3.5E1,1.3E1,9.58E2,5.2E1,7.11E2,2.1E1,2E1,1.18E2,2.3E2,1.08E2,9.63E2,2.54E2,3.19E2,1.2E1,1.155E3,1.11E2,1.022E3,1.1E1,4E2,4.2E1,3.03E2],"tree_param":{"num_deleted":"0","num_feature":"59","num_nodes":"111","size_leaf_vector":"1"}},{"base_weights":[-1.6561702E-1,-3.6362186E1,7.1722275E1,-4.88817E1,-1.0980997E1,5.398379E1,1.4925157E2,-5.25462E1,-2.8691612E1,-2.5764517E1,3.4811618E0,2.1559671E1,8.095863E1,1.770051E1,1.4093219E2,-5.7415348E1,-4.641625E1,-1.784947E1,-4.1492317E1,1.8825311E2,-2.8236235E1,-1.3254694E1,1.751552E1,-1.7464296E1,2.870158E1,5.9741028E1,9.722753E1,1.5662724E2,7.774628E1,-6.026657E1,-5.2244625E1,-4.9118927E1,-3.636265E1,-2.0670465E1,4.5335136E1,-4.2760727E1,3.067457E0,1.7236391E1,-2.455358E0,-3.3908176E1,-4.7039804E0,-1.3997778E1,5.4456115E0,4.368255E1,1.2473331E1,-2.0039965E1,7.0705237E0,4.401612E1,1.5907147E1,1.334081E1,5.8409943E1,9.0412796E1,1.5533386E2,2.5154677E2,1.4709178E2,-2.0910238E1,8.9704575E1,-3.1892104E0,-2.8646715E0,2.5454776E0,-2.6570208E0,-2.64076E0,-2.1772761E0,-2.2851887E0,-1.329812E0,-3.7497592E-1,-1.4113202E0,3.973566E-1,1.1547532E1,-2.4644954E0,-1.5407742E0,-2.0341916E0,-1.178017E0,-8.345237E-1,3.676768E-1,-1.0910171E0,-3.8317505E-2,1.2485757E0,3.9637394E0,6.265653E0,5.6314623E-1,-1.8524923E0,-5.8659524E-1,1.622558E0,3.1769729E0,8.289275E-2,1.8508023E0,2.559037E0,4.5056705E0,4.3293276E0,7.464167E0,5.0502524E0,1.1514748E1,6.5811257E0,1.5428072E1,8.706344E0,6.1709933E0,1.2254657E0,-1.9270251E0,1.5287488E0,5.5456014E0],"categories":[],"categories_nodes":[],"categories_segments":[],"categories_sizes":[],"default_left":[0,0,0,0,0,0,0,0,0,0,0,0,0,0,0,0,0,0,0,0,0,0,0,0,0,0,0,0,0,0,0,0,0,0,0,0,0,0,0,0,0,0,0,0,0,0,0,0,0,0,0,0,0,0,0,0,0,0,0,0,0,0,0,0,0,0,0,0,0,0,0,0,0,0,0,0,0,0,0,0,0,0,0,0,0,0,0,0,0,0,0,0,0,0,0,0,0,0,0,0,0],"id":6,"left_children":[1,3,5,7,9,11,13,15,17,19,21,23,25,-1,27,29,31,33,35,37,39,41,43,45,47,49,51,53,55,57,59,61,63,65,67,69,-1,-1,-1,71,73,75,-1,77,79,81,-1,83,85,-1,87,89,91,93,95,97,99,-1,-1,-1,-1,-1,-1,-1,-1,-1,-1,-1,-1,-1,-1,-1,-1,-1,-1,-1,-1,-1,-1,-1,-1,-1,-1,-1,-1,-1,-1,-1,-1,-1,-1,-1,-1,-1,-1,-1,-1,-1,-1,-1,-1],"loss_changes":[5.8445664E7,4.746482E6,1.0336592E7,7.38654E5,1.0554144E6,5.353648E6,2.334962E6,2.50024E5,2.1285275E5,1.2965834E6,5.864851E5,7.758604E5,1.147808E6,0E0,1.32365E6,6.6349E4,1.00189E5,1.4977038E5,9.4587E4,1.0568732E6,3.2204562E5,1.04923234E5,1.786285E5,1.7920286E5,4.601525E5,3.849125E5,7.34358E5,9.38702E5,3.20412E5,2.8056E4,1.58221E5,5.85755E4,7.1676625E4,7.940344E4,2.4799719E5,5.2842E4,0E0,0E0,0E0,1.3541225E5,6.805057E4,1.1725297E5,0E0,1.4386728E5,1.5429216E5,5.9625953E4,0E0,2.3952988E5,3.8584816E5,0E0,3.26569E5,3.68653E5,7.790305E5,6.22618E5,6.06964E5,2.4967357E4,2.9882012E5,0E0,0E0,0E0,0E0,0E0,0E0,0E0,0E0,0E0,0E0,0E0,0E0,0E0,0E0,0E0,0E0,0E0,0E0,0E0,0E0,0E0,0E0,0E0,0E0,0E0,0E0,0E0,0E0,0E0,0E0,0E0,0E0,0E0,0E0,0E0,0E0,0E0,0E0,0E0,0E0,0E0,0E0,0E0,0E0],"parents":[2147483647,0,0,1,1,2,2,3,3,4,4,5,5,6,6,7,7,8,8,9,9,10,10,11,11,12,12,14,14,15,15,16,16,17,17,18,18,19,19,20,20,21,21,22,22,23,23,24,24,25,25,26,26,27,27,28,28,29,29,30,30,31,31,32,32,33,33,34,34,35,35,39,39,40,40,41,41,43,43,44,44,45,45,47,47,48,48,50,50,51,51,52,52,53,53,54,54,55,55,56,56],"right_children":[2,4,6,8,10,12,14,16,18,20,22,24,26,-1,28,30,32,34,36,38,40,42,44,46,48,50,52,54,56,58,60,62,64,66,68,70,-1,-1,-1,72,74,76,-1,78,80,82,-1,84,86,-1,88,90,92,94,96,98,100,-1,-1,-1,-1,-1,-1,-1,-1,-1,-1,-1,-1,-1,-1,-1,-1,-1,-1,-1,-1,-1,-1,-1,-1,-1,-1,-1,-1,-1,-1,-1,-1,-1,-1,-1,-1,-1,-1,-1,-1,-1,-1,-1,-1],"split_conditions":[3.087E2,7.25E1,3.1125E2,8.775E1,3.0574307E-1,8.660254E-1,-9.640935E-1,4.375E1,1.4539896E3,1.269022E0,2.198E2,-4.4698343E-1,3.643E2,1.770051E1,2.4893981E-1,-7.5189576E-2,5.265806E-2,2.695E2,6.523456E-1,7.875E1,1.1625E2,5.9375E2,1.27E1,5.22E0,7.465881E-1,1E0,2.755E1,9.509625E2,3.445E2,2.9E1,2.17E1,1.321E2,4.74E1,1E1,1.2649E3,1.279E2,3.067457E0,1.7236391E1,-2.455358E0,2.121E2,8.916402E-1,2.5881904E-1,5.4456115E0,1.89E2,1.4177698E1,7.05E1,7.0705237E0,3.588E2,2.278E1,1.334081E1,9.749279E-1,2.29E2,1.933218E3,1.03E0,7.368E0,8.32E1,-4.3388373E-1,-3.1892104E0,-2.8646715E0,2.5454776E0,-2.6570208E0,-2.64076E0,-2.1772761E0,-2.2851887E0,-1.329812E0,-3.7497592E-1,-1.4113202E0,3.973566E-1,1.1547532E1,-2.4644954E0,-1.5407742E0,-2.0341916E0,-1.178017E0,-8.345237E-1,3.676768E-1,-1.0910171E0,-3.8317505E-2,1.2485757E0,3.9637394E0,6.265653E0,5.6314623E-1,-1.8524923E0,-5.8659524E-1,1.622558E0,3.1769729E0,8.289275E-2,1.8508023E0,2.559037E0,4.5056705E0,4.3293276E0,7.464167E0,5.0502524E0,1.1514748E1,6.5811257E0,1.5428072E1,8.706344E0,6.1709933E0,1.2254657E0,-1.9270251E0,1.5287488E0,5.5456014E0],"split_indices":[14,15,15,21,42,44,42,15,55,33,14,42,14,0,41,41,42,21,42,15,21,40,8,6,41,56,8,55,0,15,28,27,9,51,55,14,0,0,0,14,41,47,0,21,39,21,0,27,5,0,45,11,55,6,12,2,45,0,0,0,0,0,0,0,0,0,0,0,0,0,0,0,0,0,0,0,0,0,0,0,0,0,0,0,0,0,0,0,0,0,0,0,0,0,0,0,0,0,0,0,0],"split_type":[0,0,0,0,0,0,0,0,0,0,0,0,0,0,0,0,0,0,0,0,0,0,0,0,0,0,0,0,0,0,0,0,0,0,0,0,0,0,0,0,0,0,0,0,0,0,0,0,0,0,0,0,0,0,0,0,0,0,0,0,0,0,0,0,0,0,0,0,0,0,0,0,0,0,0,0,0,0,0,0,0,0,0,0,0,0,0,0,0,0,0,0,0,0,0,0,0,0,0,0,0],"sum_hessian":[2.2459E4,1.4938E4,7.521E3,1.0003E4,4.935E3,6.122E3,1.399E3,8.465E3,1.538E3,2.44E3,2.495E3,2.781E3,3.341E3,5.3E1,1.346E3,4.713E3,3.752E3,8.34E2,7.04E2,2.7E1,2.413E3,1.138E3,1.357E3,4.3E2,2.351E3,1.452E3,1.889E3,1.077E3,2.69E2,3.031E3,1.682E3,2.954E3,7.98E2,7.99E2,3.5E1,6.96E2,8E0,1.6E1,1.1E1,1.944E3,4.69E2,1.132E3,6E0,2.18E2,1.139E3,4.24E2,6E0,1.069E3,1.282E3,8E0,1.444E3,1.693E3,1.96E2,9.6E1,9.81E2,2.9E1,2.4E2,1.379E3,1.652E3,1.4E1,1.668E3,1.771E3,1.183E3,4.06E2,3.92E2,2.92E2,5.07E2,3E1,5E0,4.48E2,2.48E2,1.173E3,7.71E2,2.35E2,2.34E2,7.11E2,4.21E2,1.44E2,7.4E1,1.1E1,1.128E3,1.38E2,2.86E2,6.73E2,3.96E2,7.66E2,5.16E2,1.178E3,2.66E2,1.592E3,1.01E2,1.15E2,8.1E1,3.2E1,6.4E1,4.55E2,5.26E2,8E0,2.1E1,6.4E1,1.76E2],"tree_param":{"num_deleted":"0","num_feature":"59","num_nodes":"101","size_leaf_vector":"1"}},{"base_weights":[-3.551293E-1,-3.3894783E1,6.8732124E1,-4.67931E1,-1.032681E1,9.7347015E1,2.465645E1,-5.06946E1,-3.0430443E1,-2.0308413E1,1.1473598E1,7.502454E1,1.5214017E2,1.5649949E1,6.642168E1,-5.3421246E1,-3.853381E1,-1.1018235E1,-3.72936E1,1.0723225E2,-2.2137405E1,-2.3052385E0,2.2256302E1,5.6637928E1,9.2882286E1,3.255074E2,1.4279399E2,2.4819271E1,-8.596193E0,8.954272E1,3.605609E1,-5.7396976E1,-4.9458515E1,-1.9533833E1,-4.9075157E1,-1.6391571E1,1.7780813E1,-4.1734978E1,-1.18539715E1,-3.301588E1,1.6664003E1,-3.2040154E1,-1.1506929E1,-5.860624E0,3.7968292E1,1.2317606E1,3.6729965E1,9.646284E1,4.8561897E1,8.159394E1,1.2142211E2,1.6903473E1,7.28177E0,5.985124E1,1.5185506E2,5.852208E1,2.0708002E1,-1.4526616E1,6.169088E1,1.0718693E2,5.9695942E1,-2.5879341E1,4.851572E1,-3.0098658E0,-2.6619794E0,-2.7099872E0,-2.3879342E0,-1.112667E0,6.0421157E0,-2.5870721E0,-1.4959558E0,-1.0721512E0,6.968882E-1,4.4918448E-1,3.5273302E0,2.873555E0,-2.1144764E0,-1.1085141E0,1.4723939E0,-2.4616811E0,-6.3537157E-1,-2.2026904E0,-1.1146904E0,-1.0960578E0,7.99225E-3,1.0237389E0,-4.756089E-1,3.7937305E0,-1.2335914E-1,1.2659127E-1,1.3828998E0,7.393232E0,1.62128E0,1.3454741E0,5.557527E0,5.145239E0,2.1522539E0,6.595487E0,3.7105272E0,4.1729794E0,6.8748155E0,7.7093086E0,2.4079232E0,-6.4007324E-1,7.8239617E0,2.1991308E0,7.548926E0,1.4815019E-1,1.4065183E0,-9.944342E-1,2.1945207E-1,3.798308E-1,5.8822527E0,-1.1482818E0,5.7871833E0,8.910676E-1,4.9878387E0,-2.615512E-1,-3.0451407E0,3.9299877E0,9.746594E-1],"categories":[],"categories_nodes":[],"categories_segments":[],"categories_sizes":[],"default_left":[0,0,0,0,0,0,0,0,0,0,0,0,0,0,0,0,0,0,0,0,0,0,0,0,0,0,0,0,0,0,0,0,0,0,0,0,0,0,0,0,0,0,0,0,0,0,0,0,0,0,0,0,0,0,0,0,0,0,0,0,0,0,0,0,0,0,0,0,0,0,0,0,0,0,0,0,0,0,0,0,0,0,0,0,0,0,0,0,0,0,0,0,0,0,0,0,0,0,0,0,0,0,0,0,0,0,0,0,0,0,0,0,0,0,0,0,0,0,0,0,0],"id":7,"left_children":[1,3,5,7,9,11,13,15,17,19,21,23,25,27,29,31,33,35,37,39,41,43,45,47,49,51,53,55,57,59,61,63,65,67,69,71,73,75,77,79,-1,81,83,85,87,89,91,93,95,97,99,-1,-1,101,103,105,107,109,111,113,115,117,119,-1,-1,-1,-1,-1,-1,-1,-1,-1,-1,-1,-1,-1,-1,-1,-1,-1,-1,-1,-1,-1,-1,-1,-1,-1,-1,-1,-1,-1,-1,-1,-1,-1,-1,-1,-1,-1,-1,-1,-1,-1,-1,-1,-1,-1,-1,-1,-1,-1,-1,-1,-1,-1,-1,-1,-1,-1,-1],"loss_changes":[5.1992508E7,4.591242E6,9.246128E6,6.21652E5,1.1631035E6,5.426572E6,1.0853062E6,2.59258E5,2.5032625E5,8.575446E5,2.4950558E5,1.032634E6,2.037248E6,5.2866975E5,3.5623825E5,9.8544E4,2.8885425E5,7.658172E4,1.5655725E5,1.659548E6,3.8018588E5,1.0589521E5,1.3505369E5,4.97054E5,5.06205E5,9.7637E4,9.09302E5,2.378065E5,2.730875E5,1.46322E5,1.7334294E5,3.4119E4,2.3443E4,2.0043747E5,4.5952E4,6.4033062E4,3.557284E4,6.7513125E4,8.9278055E4,1.0243152E4,0E0,2.1809188E5,2.1202172E5,6.5490883E4,9.215279E4,8.3995875E4,1.78419E5,2.6466275E5,3.850105E5,4.1781E5,2.64343E5,0E0,0E0,1.2714519E5,8.40304E5,2.4473756E5,2.0261812E5,6.1247773E4,1.5347306E5,2.0423438E5,1.8275066E5,2.7162096E4,1.6086722E5,0E0,0E0,0E0,0E0,0E0,0E0,0E0,0E0,0E0,0E0,0E0,0E0,0E0,0E0,0E0,0E0,0E0,0E0,0E0,0E0,0E0,0E0,0E0,0E0,0E0,0E0,0E0,0E0,0E0,0E0,0E0,0E0,0E0,0E0,0E0,0E0,0E0,0E0,0E0,0E0,0E0,0E0,0E0,0E0,0E0,0E0,0E0,0E0,0E0,0E0,0E0,0E0,0E0,0E0,0E0,0E0,0E0,0E0],"parents":[2147483647,0,0,1,1,2,2,3,3,4,4,5,5,6,6,7,7,8,8,9,9,10,10,11,11,12,12,13,13,14,14,15,15,16,16,17,17,18,18,19,19,20,20,21,21,22,22,23,23,24,24,25,25,26,26,27,27,28,28,29,29,30,30,31,31,32,32,33,33,34,34,35,35,36,36,37,37,38,38,39,39,41,41,42,42,43,43,44,44,45,45,46,46,47,47,48,48,49,49,50,50,53,53,54,54,55,55,56,56,57,57,58,58,59,59,60,60,61,61,62,62],"right_children":[2,4,6,8,10,12,14,16,18,20,22,24,26,28,30,32,34,36,38,40,42,44,46,48,50,52,54,56,58,60,62,64,66,68,70,72,74,76,78,80,-1,82,84,86,88,90,92,94,96,98,100,-1,-1,102,104,106,108,110,112,114,116,118,120,-1,-1,-1,-1,-1,-1,-1,-1,-1,-1,-1,-1,-1,-1,-1,-1,-1,-1,-1,-1,-1,-1,-1,-1,-1,-1,-1,-1,-1,-1,-1,-1,-1,-1,-1,-1,-1,-1,-1,-1,-1,-1,-1,-1,-1,-1,-1,-1,-1,-1,-1,-1,-1,-1,-1,-1,-1,-1],"split_conditions":[3.112E2,1.599E2,3.149416E-1,1.5526626E-1,5.8133006E-1,4.49E2,2.0386458E2,6.350683E-1,1.1E1,1.269022E0,2.377E2,3.683E2,-9.640935E-1,3.0575E1,3.18E1,9.82E1,1.1E1,9.1116863E-1,8.408305E-1,2.15E0,-1.8281692E-1,4.179E2,6.123234E-17,9.130176E2,5.608E1,1.269022E0,4.8650063E1,-2.9025013E-2,2.485E2,5.0835645E-1,3.401E2,-4.051645E-1,4.0302082E1,4.535522E1,7.0710677E-1,2.0375E2,3.158E1,2E0,3.313E2,1.334E2,1.6664003E1,4.1105375E-1,2.292E2,1.242E1,9.2061386E1,2.5881904E-1,1.875E0,4.76E1,1E1,6.05E0,3.089E2,1.6903473E1,7.28177E0,1.675E2,4E-2,1.0249867E2,-2.2252093E-1,7.27E1,-5E-1,8.075E0,1.2456675E3,1.093743E3,2.5441667E2,-3.0098658E0,-2.6619794E0,-2.7099872E0,-2.3879342E0,-1.112667E0,6.0421157E0,-2.5870721E0,-1.4959558E0,-1.0721512E0,6.968882E-1,4.4918448E-1,3.5273302E0,2.873555E0,-2.1144764E0,-1.1085141E0,1.4723939E0,-2.4616811E0,-6.3537157E-1,-2.2026904E0,-1.1146904E0,-1.0960578E0,7.99225E-3,1.0237389E0,-4.756089E-1,3.7937305E0,-1.2335914E-1,1.2659127E-1,1.3828998E0,7.393232E0,1.62128E0,1.3454741E0,5.557527E0,5.145239E0,2.1522539E0,6.595487E0,3.7105272E0,4.1729794E0,6.8748155E0,7.7093086E0,2.4079232E0,-6.4007324E-1,7.8239617E0,2.1991308E0,7.548926E0,1.4815019E-1,1.4065183E0,-9.944342E-1,2.1945207E-1,3.798308E-1,5.8822527E0,-1.1482818E0,5.7871833E0,8.910676E-1,4.9878387E0,-2.615512E-1,-3.0451407E0,3.9299877E0,9.746594E-1],"split_indices":[14,14,41,42,42,14,38,41,51,33,14,14,42,8,4,14,51,41,42,6,42,27,48,55,1,33,39,42,15,41,27,41,38,36,48,11,4,56,27,26,0,41,14,8,39,47,1,9,56,7,25,0,0,17,6,39,46,2,48,7,55,55,38,0,0,0,0,0,0,0,0,0,0,0,0,0,0,0,0,0,0,0,0,0,0,0,0,0,0,0,0,0,0,0,0,0,0,0,0,0,0,0,0,0,0,0,0,0,0,0,0,0,0,0,0,0,0,0,0,0,0],"split_type":[0,0,0,0,0,0,0,0,0,0,0,0,0,0,0,0,0,0,0,0,0,0,0,0,0,0,0,0,0,0,0,0,0,0,0,0,0,0,0,0,0,0,0,0,0,0,0,0,0,0,0,0,0,0,0,0,0,0,0,0,0,0,0,0,0,0,0,0,0,0,0,0,0,0,0,0,0,0,0,0,0,0,0,0,0,0,0,0,0,0,0,0,0,0,0,0,0,0,0,0,0,0,0,0,0,0,0,0,0,0,0,0,0,0,0,0,0,0,0,0,0],"sum_hessian":[2.2436E4,1.5104E4,7.332E3,9.761E3,5.343E3,4.445E3,2.887E3,7.88E3,1.881E3,3.665E3,1.678E3,3.16E3,1.285E3,2.376E3,5.11E2,6.434E3,1.446E3,4.92E2,1.389E3,5.1E1,3.614E3,7.37E2,9.41E2,1.559E3,1.601E3,6.4E1,1.221E3,1.724E3,6.52E2,2.89E2,2.22E2,3.205E3,3.229E3,5.17E2,9.29E2,4.15E2,7.7E1,1.182E3,2.07E2,3.2E1,1.9E1,1.87E3,1.744E3,6.78E2,5.9E1,5.59E2,3.82E2,2.61E2,1.298E3,1.15E3,4.51E2,5.9E1,5E0,1.21E2,1.1E3,1.86E2,1.538E3,6.02E2,5E1,1.8E2,1.09E2,3.7E1,1.85E2,1.907E3,1.298E3,8.44E2,2.385E3,5.08E2,9E0,8.14E2,1.15E2,3.56E2,5.9E1,6.7E1,1E1,6E0,1.176E3,1.66E2,4.1E1,1.7E1,1.5E1,8.36E2,1.034E3,9.21E2,8.23E2,8.2E1,5.96E2,3E1,2.9E1,3.42E2,2.17E2,1.3E1,3.69E2,4.6E1,2.15E2,1.18E2,1.18E3,1.45E2,1.005E3,1.36E2,3.15E2,1.2E1,1.09E2,3E1,1.07E3,1.62E2,2.4E1,4.54E2,1.084E3,4.69E2,1.33E2,2.6E1,2.4E1,1.1E1,1.69E2,5.4E1,5.5E1,2.4E1,1.3E1,9E1,9.5E1],"tree_param":{"num_deleted":"0","num_feature":"59","num_nodes":"121","size_leaf_vector":"1"}},{"base_weights":[1.8044303E-1,-2.778572E1,7.742096E1,-4.067E1,4.741646E0,5.97937E1,1.3816266E2,-4.719687E1,-2.644084E1,-1.419163E1,2.107301E1,2.7058338E1,7.955978E1,1.6056355E1,1.297707E2,-4.8935238E1,-2.8706339E1,1.0915685E2,-2.8137848E1,-2.1142748E1,7.2393394E0,3.541989E1,7.7473097E0,3.6529827E1,2.4938433E0,7.769836E1,3.290135E2,1.4264377E2,6.96918E1,-5.466787E1,-4.5954437E1,-4.220579E1,-1.4609816E1,1.5781468E1,-2.2762518E1,-3.8222843E1,-1.5923928E1,-4.22491E1,-1.6569414E1,2.89725E1,-3.4644315E0,1.6179243E1,5.0079887E1,1.19097595E2,6.53002E0,2.6302896E1,5.5281395E1,-1.5356079E1,1.5952832E1,6.2964214E1,9.165533E1,2.3008865E1,6.935779E0,2.2828069E2,1.3272675E2,1.332099E2,5.377873E1,-1.472888E0,-2.7688358E0,-2.4963958E0,-2.1308925E0,-2.1951845E0,1.3973595E0,-6.253805E-2,-1.3455566E0,1.1468356E0,-1.7840652E0,-2.3108637E0,-1.5450363E0,-1.3492623E-1,-1.134552E0,-2.361015E0,-1.524572E0,-2.5181656E0,-7.1802425E-1,-1.9101534E0,2.0742817E0,4.686546E0,-2.9840747E-1,1.4667633E-1,1.3488597E0,6.140035E-1,2.8115203E0,1.9936116E0,8.67663E0,8.5330564E-1,-2.191286E-1,-5.0925016E-1,1.6282561E0,2.4633937E0,4.7925982E0,6.469535E-1,-1.0560998E0,5.1531714E-1,2.869516E0,5.1641498E0,2.8861196E0,4.3362207E0,8.21506E0,5.926316E0,1.3855333E1,4.6408405E0,7.413038E0,1.723202E0,9.596595E0,3.9709377E0,7.728154E-1],"categories":[],"categories_nodes":[],"categories_segments":[],"categories_sizes":[],"default_left":[0,0,0,0,0,0,0,0,0,0,0,0,0,0,0,0,0,0,0,0,0,0,0,0,0,0,0,0,0,0,0,0,0,0,0,0,0,0,0,0,0,0,0,0,0,0,0,0,0,0,0,0,0,0,0,0,0,0,0,0,0,0,0,0,0,0,0,0,0,0,0,0,0,0,0,0,0,0,0,0,0,0,0,0,0,0,0,0,0,0,0,0,0,0,0,0,0,0,0,0,0,0,0,0,0,0,0],"id":8,"left_children":[1,3,5,7,9,11,13,15,17,19,21,23,25,-1,27,29,31,33,35,37,39,41,43,45,47,49,51,53,55,57,59,61,63,-1,65,67,69,71,73,75,77,79,81,83,85,87,89,91,93,95,97,-1,-1,99,101,103,105,-1,-1,-1,-1,-1,-1,-1,-1,-1,-1,-1,-1,-1,-1,-1,-1,-1,-1,-1,-1,-1,-1,-1,-1,-1,-1,-1,-1,-1,-1,-1,-1,-1,-1,-1,-1,-1,-1,-1,-1,-1,-1,-1,-1,-1,-1,-1,-1,-1,-1],"loss_changes":[4.8367264E7,6.88964E6,6.364604E6,1.092318E6,1.442746E6,2.983982E6,2.012732E6,2.58026E5,8.556315E5,3.2207547E5,4.78637E5,4.0450888E5,1.31034E6,0E0,9.80784E5,1.23526E5,1.3182894E5,1.2601198E6,4.5022025E5,1.56831E5,1.2339257E5,3.3936362E5,1.7543145E5,2.3921862E5,1.167623E5,5.81752E5,4.603305E5,8.64826E5,2.2329138E5,4.33655E4,6.2292E4,4.3512E4,5.6168547E4,0E0,1.793939E4,1.1587825E5,1.482366E5,1.5510594E4,9.952944E4,1.486858E5,8.71919E4,7.4723766E4,1.5833162E5,5.345772E4,1.48049E5,1.8632694E5,1.03113375E5,3.4371113E4,6.4219953E4,2.8844E5,5.10529E5,0E0,0E0,5.459125E5,5.73342E5,2.5432012E5,1.7956862E5,0E0,0E0,0E0,0E0,0E0,0E0,0E0,0E0,0E0,0E0,0E0,0E0,0E0,0E0,0E0,0E0,0E0,0E0,0E0,0E0,0E0,0E0,0E0,0E0,0E0,0E0,0E0,0E0,0E0,0E0,0E0,0E0,0E0,0E0,0E0,0E0,0E0,0E0,0E0,0E0,0E0,0E0,0E0,0E0,0E0,0E0,0E0,0E0,0E0,0E0],"parents":[2147483647,0,0,1,1,2,2,3,3,4,4,5,5,6,6,7,7,8,8,9,9,10,10,11,11,12,12,14,14,15,15,16,16,17,17,18,18,19,19,20,20,21,21,22,22,23,23,24,24,25,25,26,26,27,27,28,28,29,29,30,30,31,31,32,32,34,34,35,35,36,36,37,37,38,38,39,39,40,40,41,41,42,42,43,43,44,44,45,45,46,46,47,47,48,48,49,49,50,50,53,53,54,54,55,55,56,56],"right_children":[2,4,6,8,10,12,14,16,18,20,22,24,26,-1,28,30,32,34,36,38,40,42,44,46,48,50,52,54,56,58,60,62,64,-1,66,68,70,72,74,76,78,80,82,84,86,88,90,92,94,96,98,-1,-1,100,102,104,106,-1,-1,-1,-1,-1,-1,-1,-1,-1,-1,-1,-1,-1,-1,-1,-1,-1,-1,-1,-1,-1,-1,-1,-1,-1,-1,-1,-1,-1,-1,-1,-1,-1,-1,-1,-1,-1,-1,-1,-1,-1,-1,-1,-1,-1,-1,-1,-1,-1,-1],"split_conditions":[1.5375E2,2.053E2,3.185E2,6.025E1,3.0574307E-1,8.660254E-1,-9.640935E-1,9.125E1,1.269022E0,1.29E2,3.634816E-1,4E-1,1E0,1.6056355E1,2.4893981E-1,3.125E1,3.585E1,-1.7752916E-1,7.411742E-2,-9.116111E-1,2.922E1,3.023E2,1.02E1,2.16E2,1.2375E2,3.812E2,2.942E1,9.5613E2,-3.5243872E-1,2.17E1,4.25E1,6.90574E-1,1.1E1,1.5781468E1,-7.1585256E-1,5.1584367E-2,1.1E1,7.675E1,1.99E1,8.9041664E1,1.231E2,5.66E1,-3.1720772E-1,1.29E1,1.1E1,-2.0391367E-1,1.959803E3,6.8E1,7.450675E2,8.377824E2,2.98E1,2.3008865E1,6.935779E0,1.03E0,4.106E2,8.916402E-1,1.0636875E3,-1.472888E0,-2.7688358E0,-2.4963958E0,-2.1308925E0,-2.1951845E0,1.3973595E0,-6.253805E-2,-1.3455566E0,1.1468356E0,-1.7840652E0,-2.3108637E0,-1.5450363E0,-1.3492623E-1,-1.134552E0,-2.361015E0,-1.524572E0,-2.5181656E0,-7.1802425E-1,-1.9101534E0,2.0742817E0,4.686546E0,-2.9840747E-1,1.4667633E-1,1.3488597E0,6.140035E-1,2.8115203E0,1.9936116E0,8.67663E0,8.5330564E-1,-2.191286E-1,-5.0925016E-1,1.6282561E0,2.4633937E0,4.7925982E0,6.469535E-1,-1.0560998E0,5.1531714E-1,2.869516E0,5.1641498E0,2.8861196E0,4.3362207E0,8.21506E0,5.926316E0,1.3855333E1,4.6408405E0,7.413038E0,1.723202E0,9.596595E0,3.9709377E0,7.728154E-1],"split_indices":[15,14,15,15,42,44,42,20,33,20,41,10,57,0,41,15,2,41,42,42,8,14,2,15,20,14,8,55,42,24,20,42,51,0,53,41,51,20,2,38,23,9,53,5,51,42,55,11,13,55,8,0,0,6,27,41,55,0,0,0,0,0,0,0,0,0,0,0,0,0,0,0,0,0,0,0,0,0,0,0,0,0,0,0,0,0,0,0,0,0,0,0,0,0,0,0,0,0,0,0,0,0,0,0,0,0,0],"split_type":[0,0,0,0,0,0,0,0,0,0,0,0,0,0,0,0,0,0,0,0,0,0,0,0,0,0,0,0,0,0,0,0,0,0,0,0,0,0,0,0,0,0,0,0,0,0,0,0,0,0,0,0,0,0,0,0,0,0,0,0,0,0,0,0,0,0,0,0,0,0,0,0,0,0,0,0,0,0,0,0,0,0,0,0,0,0,0,0,0,0,0,0,0,0,0,0,0,0,0,0,0,0,0,0,0,0,0],"sum_hessian":[2.2389E4,1.6438E4,5.951E3,1.1774E4,4.664E3,4.614E3,1.337E3,8.07E3,3.704E3,2.16E3,2.504E3,1.738E3,2.876E3,5.7E1,1.28E3,7.375E3,6.95E2,4.5E1,3.659E3,1.631E3,5.29E2,1.205E3,1.299E3,1.254E3,4.84E2,2.856E3,2E1,1.053E3,2.27E2,2.517E3,4.858E3,3.54E2,3.41E2,1.7E1,2.8E1,2.003E3,1.656E3,2.89E2,1.342E3,1.74E2,3.55E2,5.22E2,6.83E2,1.3E1,1.286E3,8.13E2,4.41E2,2.08E2,2.76E2,1.392E3,1.464E3,1.1E1,9E0,1.07E2,9.46E2,4.4E1,1.83E2,7E1,2.447E3,2.211E3,2.647E3,3.46E2,8E0,1.64E2,1.77E2,6E0,2.2E1,9.55E2,1.048E3,5.61E2,1.095E3,2.01E2,8.8E1,8.1E1,1.261E3,2.7E1,1.47E2,8E0,3.47E2,2.35E2,2.87E2,9.6E1,5.87E2,6E0,7E0,6.54E2,6.32E2,1.19E2,6.94E2,3.86E2,5.5E1,3.5E1,1.73E2,2.44E2,3.2E1,1.58E2,1.234E3,1.373E3,9.1E1,3.4E1,7.3E1,2.67E2,6.79E2,1.7E1,2.7E1,1.09E2,7.4E1],"tree_param":{"num_deleted":"0","num_feature":"59","num_nodes":"107","size_leaf_vector":"1"}},{"base_weights":[-1.7208675E-1,-2.8770689E1,6.549428E1,-4.0592274E1,-3.5551968E0,5.043678E1,1.276096E2,-4.4561646E1,-2.1356934E1,-1.4681205E1,1.5218481E1,6.86899E1,2.189475E1,1.5290239E1,1.18754036E2,-4.793619E1,-3.5759876E1,-3.447731E1,-1.2903096E1,1.9664786E2,-1.6106672E1,3.883828E0,2.7373816E1,5.364083E1,8.772853E1,1.5945382E1,6.0085125E1,1.3233833E2,6.1825176E1,-4.8253426E1,-1.3668433E0,-3.8192413E1,-2.3332756E1,-3.6053097E1,5.2903652E1,-1.8965796E1,5.665381E0,-8.512068E-2,1.4797231E1,4.9138764E-1,-2.5934612E1,3.838601E1,-8.783276E-2,4.644997E1,1.3975719E1,4.4670197E1,7.29204E1,7.6888084E1,1.2800977E2,2.0308296E1,-1.6900215E1,1.08024414E2,2.9682041E1,2.1135915E2,1.23212105E2,-3.5449585E1,7.062938E1,-2.6245856E0,-2.2669408E0,-9.206323E-1,2.572222E0,-1.0804051E-1,-1.9328364E0,-1.2977407E0,9.523043E-1,-2.1856961E0,-1.3121314E0,-1.7075804E0,8.008002E0,-1.3335809E0,-1.7707048E-1,1.1505287E1,-1.428804E-1,-9.5768446E-1,1.9156744E-1,-1.4024318E0,6.310385E-1,-8.312193E-1,2.762632E0,-7.74282E-1,2.892595E-1,7.5975146E0,2.1841717E0,6.323468E-1,6.351457E0,5.1297226E0,1.9877968E0,4.7377243E0,3.025737E0,3.0775096E0,4.971784E0,1.7327887E1,5.940524E0,-6.668355E-1,1.2234021E0,-1.1328505E0,2.214206E0,6.315946E0,2.8368995E0,2.3673494E0,-1.5034341E0,5.098416E0,1.2928054E1,2.667776E0,6.6149592E0,-8.8537246E-1,-2.2502859E0,1.2496125E0,4.450663E0],"categories":[],"categories_nodes":[],"categories_segments":[],"categories_sizes":[],"default_left":[0,0,0,0,0,0,0,0,0,0,0,0,0,0,0,0,0,0,0,0,0,0,0,0,0,0,0,0,0,0,0,0,0,0,0,0,0,0,0,0,0,0,0,0,0,0,0,0,0,0,0,0,0,0,0,0,0,0,0,0,0,0,0,0,0,0,0,0,0,0,0,0,0,0,0,0,0,0,0,0,0,0,0,0,0,0,0,0,0,0,0,0,0,0,0,0,0,0,0,0,0,0,0,0,0,0,0,0,0],"id":9,"left_children":[1,3,5,7,9,11,13,15,17,19,21,23,25,-1,27,29,31,33,35,37,39,41,43,45,47,49,51,53,55,57,59,61,63,65,67,69,71,-1,-1,73,75,77,79,81,83,85,87,89,91,93,95,97,99,101,103,105,107,-1,-1,-1,-1,-1,-1,-1,-1,-1,-1,-1,-1,-1,-1,-1,-1,-1,-1,-1,-1,-1,-1,-1,-1,-1,-1,-1,-1,-1,-1,-1,-1,-1,-1,-1,-1,-1,-1,-1,-1,-1,-1,-1,-1,-1,-1,-1,-1,-1,-1,-1,-1],"loss_changes":[4.199321E7,4.643158E6,6.338646E6,8.08764E5,1.03896425E6,2.844095E6,2.051402E6,2.59366E5,2.0098138E5,9.4394906E5,2.549181E5,9.49671E5,4.834507E5,0E0,9.67772E5,9.376E4,7.28685E4,9.9807625E4,1.2461547E5,4.1411E5,5.061888E5,1.3141606E5,2.2758744E5,3.189485E5,6.3162E5,2.6487962E5,4.150968E5,7.08102E5,2.1232825E5,7.5542E4,4.05565E4,3.4029E4,4.5164484E4,5.1387062E4,1.2685377E5,9.903278E4,5.2287997E5,0E0,0E0,7.5857305E4,1.5921125E5,9.277469E4,7.795126E4,1.00770625E5,7.7411055E4,3.585715E5,1.5407725E5,3.95046E5,5.82075E5,2.2845244E5,7.743631E4,9.6979625E4,1.8824597E5,5.106345E5,5.73776E5,2.7635332E3,1.865475E5,0E0,0E0,0E0,0E0,0E0,0E0,0E0,0E0,0E0,0E0,0E0,0E0,0E0,0E0,0E0,0E0,0E0,0E0,0E0,0E0,0E0,0E0,0E0,0E0,0E0,0E0,0E0,0E0,0E0,0E0,0E0,0E0,0E0,0E0,0E0,0E0,0E0,0E0,0E0,0E0,0E0,0E0,0E0,0E0,0E0,0E0,0E0,0E0,0E0,0E0,0E0,0E0],"parents":[2147483647,0,0,1,1,2,2,3,3,4,4,5,5,6,6,7,7,8,8,9,9,10,10,11,11,12,12,14,14,15,15,16,16,17,17,18,18,19,19,20,20,21,21,22,22,23,23,24,24,25,25,26,26,27,27,28,28,29,29,30,30,31,31,32,32,33,33,34,34,35,35,36,36,39,39,40,40,41,41,42,42,43,43,44,44,45,45,46,46,47,47,48,48,49,49,50,50,51,51,52,52,53,53,54,54,55,55,56,56],"right_children":[2,4,6,8,10,12,14,16,18,20,22,24,26,-1,28,30,32,34,36,38,40,42,44,46,48,50,52,54,56,58,60,62,64,66,68,70,72,-1,-1,74,76,78,80,82,84,86,88,90,92,94,96,98,100,102,104,106,108,-1,-1,-1,-1,-1,-1,-1,-1,-1,-1,-1,-1,-1,-1,-1,-1,-1,-1,-1,-1,-1,-1,-1,-1,-1,-1,-1,-1,-1,-1,-1,-1,-1,-1,-1,-1,-1,-1,-1,-1,-1,-1,-1,-1,-1,-1,-1,-1,-1,-1,-1,-1],"split_conditions":[1.3975E2,7.725E1,3.185E2,8.7E1,1.1775E2,3.634816E-1,-9.640935E-1,1.321E2,6.571875E1,2.3700278E0,2.915E2,3.812E2,7.373075E2,1.5290239E1,2.4893981E-1,8.660254E-1,2.228204E-1,2.38006E-1,8.9929616E-1,2.15E0,2.57E1,1.218E1,2.8210765E-1,2.395E2,1.82816E3,3.5224164E-1,5.0835645E-1,9.5613E2,3.385E2,3.303077E1,2.023E3,2.3700278E0,6.94E1,6.234898E-1,2.2E1,7.72456E-1,-4.0024394E-1,-8.512068E-2,1.4797231E1,2.84E1,2.4069278E0,9.375E1,2.198E2,1.181454E0,3.9625E2,8.0607E2,2.9275E2,9.7413576E-1,1E0,-4.4698343E-1,1E0,2.7925E2,3.2075E2,4.854E2,-5E-1,3.9675E2,-4.3388373E-1,-2.6245856E0,-2.2669408E0,-9.206323E-1,2.572222E0,-1.0804051E-1,-1.9328364E0,-1.2977407E0,9.523043E-1,-2.1856961E0,-1.3121314E0,-1.7075804E0,8.008002E0,-1.3335809E0,-1.7707048E-1,1.1505287E1,-1.428804E-1,-9.5768446E-1,1.9156744E-1,-1.4024318E0,6.310385E-1,-8.312193E-1,2.762632E0,-7.74282E-1,2.892595E-1,7.5975146E0,2.1841717E0,6.323468E-1,6.351457E0,5.1297226E0,1.9877968E0,4.7377243E0,3.025737E0,3.0775096E0,4.971784E0,1.7327887E1,5.940524E0,-6.668355E-1,1.2234021E0,-1.1328505E0,2.214206E0,6.315946E0,2.8368995E0,2.3673494E0,-1.5034341E0,5.098416E0,1.2928054E1,2.667776E0,6.6149592E0,-8.8537246E-1,-2.2502859E0,1.2496125E0,4.450663E0],"split_indices":[15,15,15,21,21,41,42,14,38,36,14,14,13,0,41,44,42,53,41,6,8,8,41,21,55,54,41,55,0,15,50,36,9,46,4,42,42,0,0,2,6,17,27,30,21,55,40,42,56,42,46,29,37,14,47,34,45,0,0,0,0,0,0,0,0,0,0,0,0,0,0,0,0,0,0,0,0,0,0,0,0,0,0,0,0,0,0,0,0,0,0,0,0,0,0,0,0,0,0,0,0,0,0,0,0,0,0,0,0],"split_type":[0,0,0,0,0,0,0,0,0,0,0,0,0,0,0,0,0,0,0,0,0,0,0,0,0,0,0,0,0,0,0,0,0,0,0,0,0,0,0,0,0,0,0,0,0,0,0,0,0,0,0,0,0,0,0,0,0,0,0,0,0,0,0,0,0,0,0,0,0,0,0,0,0,0,0,0,0,0,0,0,0,0,0,0,0,0,0,0,0,0,0,0,0,0,0,0,0,0,0,0,0,0,0,0,0,0,0,0,0],"sum_hessian":[2.2359E4,1.5576E4,6.783E3,1.0604E4,4.972E3,5.461E3,1.322E3,8.789E3,1.815E3,3.122E3,1.85E3,3.33E3,2.131E3,6.1E1,1.261E3,6.35E3,2.439E3,7.1E2,1.105E3,2E1,3.102E3,9.58E2,8.92E2,1.862E3,1.468E3,1.845E3,2.86E2,1.017E3,2.44E2,6.307E3,4.3E1,2.038E3,4.01E2,6.98E2,1.2E1,8.33E2,2.72E2,7E0,1.3E1,1.154E3,1.948E3,9.8E1,8.6E2,3.67E2,5.25E2,1.273E3,5.89E2,1.159E3,3.09E2,1.629E3,2.16E2,1.1E2,1.76E2,1.03E2,9.14E2,2E1,2.24E2,2.563E3,3.744E3,3.3E1,1E1,2.6E1,2.012E3,3.78E2,2.3E1,3.9E2,3.08E2,7E0,5E0,5.55E2,2.78E2,9E0,2.63E2,1.67E2,9.87E2,1.847E3,1.01E2,2.3E1,7.5E1,2.37E2,6.23E2,8E0,3.59E2,5.2E2,5E0,9.8E1,1.175E3,2.11E2,3.78E2,6.92E2,4.67E2,1.1E1,2.98E2,1.79E2,1.45E3,1.98E2,1.8E1,8E1,3E1,1.36E2,4E1,3.2E1,7.1E1,1.06E2,8.08E2,8E0,1.2E1,6.5E1,1.59E2],"tree_param":{"num_deleted":"0","num_feature":"59","num_nodes":"109","size_leaf_vector":"1"}},{"base_weights":[-4.116211E-2,-2.9081945E1,5.9824554E1,-4.0118183E1,-8.723423E0,8.419608E1,2.178479E1,-4.3269188E1,-2.2446018E1,-2.4646395E1,1.7474957E0,6.4337715E1,1.3268414E2,6.6403975E0,4.37262E1,-4.7552956E1,-3.8883415E1,-1.21706E1,-3.258153E1,7.549843E1,-2.7013071E1,2.7819408E1,-2.3588731E0,4.9240513E1,7.723553E1,1.8942023E2,1.1560444E2,1.3158973E1,-2.0421936E1,3.28589E1,7.516807E1,-5.11154E1,-4.4462643E1,-2.524416E1,-4.046185E1,4.785218E1,-1.4774171E1,-4.0744E1,-1.8948719E1,1.4601855E1,-2.8622665E1,-1.1505518E1,-3.1657108E1,-8.171287E0,3.838524E1,8.882564E0,-2.8130848E0,9.767765E1,4.554677E1,6.157918E1,9.674553E1,-5.0210943E0,1.967124E2,1.2674665E2,4.617453E1,1.3959952E2,1.1937981E1,-5.1686886E1,-1.6297396E1,2.4120321E1,5.7582516E1,8.900045E1,1.0505747E1,-2.7885318E-1,-2.585226E0,-2.2802517E0,-1.7012768E0,-1.3497804E0,2.1962135E0,-2.1827073E0,-1.8275598E0,5.134032E0,6.281248E-1,-8.963203E-1,1.1925802E0,-2.2756557E0,-1.1393107E0,3.7017744E0,-1.1142663E0,-1.9579357E0,1.3536013E0,-1.1799091E0,-1.1524011E-1,-1.848052E0,-1.1640471E0,-1.0932261E0,6.9034827E-1,1.0084758E0,2.7226503E0,-4.8469E-1,4.2131734E-1,2.2590225E0,7.963311E0,1.8544654E0,3.4041812E0,6.213859E0,2.842226E0,4.058441E0,5.9985614E0,7.3776827E0,1.1931145E1,4.515617E0,7.321716E0,4.727404E0,1.1509222E0,1.1530436E0,1.0477679E1,3.0164105E-1,1.4654883E0,-2.797365E0,-1.4358469E0,1.099995E0,-9.975997E-1,2.523648E0,8.594884E-1,2.0025642E0,6.3798304E0,4.977856E0,1.9016577E0,-7.0045465E-1,4.873756E0],"categories":[],"categories_nodes":[],"categories_segments":[],"categories_sizes":[],"default_left":[0,0,0,0,0,0,0,0,0,0,0,0,0,0,0,0,0,0,0,0,0,0,0,0,0,0,0,0,0,0,0,0,0,0,0,0,0,0,0,0,0,0,0,0,0,0,0,0,0,0,0,0,0,0,0,0,0,0,0,0,0,0,0,0,0,0,0,0,0,0,0,0,0,0,0,0,0,0,0,0,0,0,0,0,0,0,0,0,0,0,0,0,0,0,0,0,0,0,0,0,0,0,0,0,0,0,0,0,0,0,0,0,0,0,0,0,0,0,0,0,0],"id":10,"left_children":[1,3,5,7,9,11,13,15,17,19,21,23,25,27,29,31,33,35,37,39,41,43,45,47,49,51,53,55,57,59,61,63,65,67,69,71,73,75,77,-1,79,81,83,85,87,-1,89,91,93,95,97,-1,99,101,103,105,107,109,111,113,115,117,119,-1,-1,-1,-1,-1,-1,-1,-1,-1,-1,-1,-1,-1,-1,-1,-1,-1,-1,-1,-1,-1,-1,-1,-1,-1,-1,-1,-1,-1,-1,-1,-1,-1,-1,-1,-1,-1,-1,-1,-1,-1,-1,-1,-1,-1,-1,-1,-1,-1,-1,-1,-1,-1,-1,-1,-1,-1,-1],"loss_changes":[3.907211E7,3.399756E6,6.80391E6,5.45466E5,8.872035E5,4.299452E6,9.5271525E5,1.54595E5,1.544695E5,5.02368E5,3.4383812E5,6.14631E5,1.236876E6,2.998093E5,3.97647E5,4.4055E4,8.7677E4,1.1634942E5,8.246344E4,1.1131249E6,1.4820825E5,1.6649231E5,2.2739127E5,2.578395E5,5.16677E5,6.51715E5,7.68523E5,2.0968367E5,4.1712312E4,1.8700594E5,2.6739512E5,5.19715E4,2.54065E4,5.3278125E4,4.44825E4,5.869133E4,8.687539E4,3.8958125E4,8.914085E4,0E0,2.1011377E4,5.30172E4,6.9644625E4,3.0397215E4,9.782956E4,0E0,2.1422323E5,3.258267E5,2.5745925E5,2.7554E5,2.652145E5,0E0,5.66388E5,6.05093E5,1.5464353E5,1.0114806E5,1.3902856E5,2.1120938E3,4.1447586E4,1.1711678E5,2.73517E5,1.2911075E5,1.1649571E5,0E0,0E0,0E0,0E0,0E0,0E0,0E0,0E0,0E0,0E0,0E0,0E0,0E0,0E0,0E0,0E0,0E0,0E0,0E0,0E0,0E0,0E0,0E0,0E0,0E0,0E0,0E0,0E0,0E0,0E0,0E0,0E0,0E0,0E0,0E0,0E0,0E0,0E0,0E0,0E0,0E0,0E0,0E0,0E0,0E0,0E0,0E0,0E0,0E0,0E0,0E0,0E0,0E0,0E0,0E0,0E0,0E0,0E0],"parents":[2147483647,0,0,1,1,2,2,3,3,4,4,5,5,6,6,7,7,8,8,9,9,10,10,11,11,12,12,13,13,14,14,15,15,16,16,17,17,18,18,19,19,20,20,21,21,22,22,23,23,24,24,25,25,26,26,27,27,28,28,29,29,30,30,31,31,32,32,33,33,34,34,35,35,36,36,37,37,38,38,40,40,41,41,42,42,43,43,44,44,46,46,47,47,48,48,49,49,50,50,52,52,53,53,54,54,55,55,56,56,57,57,58,58,59,59,60,60,61,61,62,62],"right_children":[2,4,6,8,10,12,14,16,18,20,22,24,26,28,30,32,34,36,38,40,42,44,46,48,50,52,54,56,58,60,62,64,66,68,70,72,74,76,78,-1,80,82,84,86,88,-1,90,92,94,96,98,-1,100,102,104,106,108,110,112,114,116,118,120,-1,-1,-1,-1,-1,-1,-1,-1,-1,-1,-1,-1,-1,-1,-1,-1,-1,-1,-1,-1,-1,-1,-1,-1,-1,-1,-1,-1,-1,-1,-1,-1,-1,-1,-1,-1,-1,-1,-1,-1,-1,-1,-1,-1,-1,-1,-1,-1,-1,-1,-1,-1,-1,-1,-1,-1,-1,-1],"split_conditions":[3.112E2,1.599E2,3.149416E-1,8.775E1,7.6E1,4.49E2,1.68E2,4.3E1,5E0,3.818813E-1,1.385E1,3.643E2,1.33E1,5E0,2.024E3,3.45E1,2.448E1,4.5E0,1.279E2,1.623E2,2.533E1,9.2E1,7.95E1,1.098E1,6.375E1,-2.7797914E-1,-9.2331335E-2,7.18E1,1.275E1,2.383E1,9.749279E-1,2.17E1,1E0,2.1475E2,-7.5189576E-2,1.318E1,3.322E1,1.665E2,3.3708332E1,1.4601855E1,1.0875E2,-2.5881904E-1,1.785E1,9.3354164E1,3.075E2,8.882564E0,1.25E2,2.83E2,2.4625E2,1.142E1,4.3388373E-1,-5.0210943E0,2.1225E2,2.585E2,1.61E2,1.6166667E2,2.363E1,4.3388373E-1,2.7775E2,1.305E1,7.675974E1,1.877E1,3.0329166E2,-2.7885318E-1,-2.585226E0,-2.2802517E0,-1.7012768E0,-1.3497804E0,2.1962135E0,-2.1827073E0,-1.8275598E0,5.134032E0,6.281248E-1,-8.963203E-1,1.1925802E0,-2.2756557E0,-1.1393107E0,3.7017744E0,-1.1142663E0,-1.9579357E0,1.3536013E0,-1.1799091E0,-1.1524011E-1,-1.848052E0,-1.1640471E0,-1.0932261E0,6.9034827E-1,1.0084758E0,2.7226503E0,-4.8469E-1,4.2131734E-1,2.2590225E0,7.963311E0,1.8544654E0,3.4041812E0,6.213859E0,2.842226E0,4.058441E0,5.9985614E0,7.3776827E0,1.1931145E1,4.515617E0,7.321716E0,4.727404E0,1.1509222E0,1.1530436E0,1.0477679E1,3.0164105E-1,1.4654883E0,-2.797365E0,-1.4358469E0,1.099995E0,-9.975997E-1,2.523648E0,8.594884E-1,2.0025642E0,6.3798304E0,4.977856E0,1.9016577E0,-7.0045465E-1,4.873756E0],"split_indices":[14,14,41,21,20,14,20,20,49,30,8,14,8,49,50,15,8,5,14,14,8,29,40,8,3,41,41,26,3,5,45,28,52,11,41,8,8,21,35,0,21,47,5,35,27,0,21,37,21,8,45,0,11,20,11,29,5,45,0,8,36,5,38,0,0,0,0,0,0,0,0,0,0,0,0,0,0,0,0,0,0,0,0,0,0,0,0,0,0,0,0,0,0,0,0,0,0,0,0,0,0,0,0,0,0,0,0,0,0,0,0,0,0,0,0,0,0,0,0,0,0],"split_type":[0,0,0,0,0,0,0,0,0,0,0,0,0,0,0,0,0,0,0,0,0,0,0,0,0,0,0,0,0,0,0,0,0,0,0,0,0,0,0,0,0,0,0,0,0,0,0,0,0,0,0,0,0,0,0,0,0,0,0,0,0,0,0,0,0,0,0,0,0,0,0,0,0,0,0,0,0,0,0,0,0,0,0,0,0,0,0,0,0,0,0,0,0,0,0,0,0,0,0,0,0,0,0,0,0,0,0,0,0,0,0,0,0,0,0,0,0,0,0,0,0],"sum_hessian":[2.2472E4,1.5132E4,7.34E3,9.812E3,5.32E3,4.473E3,2.867E3,8.326E3,1.486E3,2.11E3,3.21E3,3.175E3,1.298E3,1.697E3,1.17E3,4.207E3,4.119E3,7.39E2,7.47E2,4.8E1,2.062E3,4.36E2,2.774E3,1.465E3,1.71E3,2.98E2,1E3,1.368E3,3.29E2,8.71E2,2.99E2,1.947E3,2.26E3,4.29E2,3.69E3,3E1,7.09E2,4.66E2,2.81E2,1.5E1,3.3E1,4.76E2,1.586E3,9.9E1,3.37E2,6E0,2.768E3,1.02E2,1.363E3,9.51E2,7.59E2,7E0,2.91E2,8.61E2,1.39E2,1.2E1,1.356E3,3.7E1,2.92E2,6.45E2,2.26E2,2.46E2,5.3E1,2.5E1,1.922E3,2.034E3,2.26E2,4.19E2,1E1,2.026E3,1.664E3,1.1E1,1.9E1,6.56E2,5.3E1,3.67E2,9.9E1,9E0,2.72E2,2.8E1,5E0,2.05E2,2.71E2,9.69E2,6.17E2,6.1E1,3.8E1,1.59E2,1.78E2,1.717E3,1.051E3,5.6E1,4.6E1,9.93E2,3.7E2,6.5E1,8.86E2,4.57E2,3.02E2,1.36E2,1.55E2,3.04E2,5.57E2,4.4E1,9.5E1,5E0,7E0,1.013E3,3.43E2,3E1,7E0,2.5E1,2.67E2,1.33E2,5.12E2,1.82E2,4.4E1,2.03E2,4.3E1,4.2E1,1.1E1],"tree_param":{"num_deleted":"0","num_feature":"59","num_nodes":"121","size_leaf_vector":"1"}},{"base_weights":[5.227341E-2,-2.409502E1,6.4875565E1,-3.7474567E1,-2.3464344E0,4.921692E1,1.1578372E2,-4.183206E1,-2.4818876E1,-1.0889007E1,1.9948713E1,6.4656136E1,2.415151E1,1.3946489E1,1.082024E2,-4.3207043E1,-3.0220392E1,-3.404834E1,-1.6175695E1,-1.9401833E1,3.4066694E0,3.1402811E1,9.843911E0,5.6688198E1,9.575262E1,1.7887045E1,5.612277E1,1.1966372E2,5.853195E1,-4.540183E1,-3.7914406E1,-3.473994E1,-9.706391E0,-2.545279E1,-3.9357136E1,-2.8902119E1,-9.858192E0,9.30396E1,-2.1543915E1,7.525274E0,2.7024944E0,2.710443E1,8.5583855E1,-7.3848753E0,1.676244E1,1.9568352E2,5.495028E1,3.988948E1,1.06188614E2,2.5211403E1,-7.321873E0,9.349408E1,2.7418507E1,9.854847E1,1.4823578E2,-2.2937704E1,6.7721436E1,-2.362064E0,-2.0791228E0,-2.7314362E-1,-1.9213883E0,3.5434659E0,-1.7911913E0,8.747517E-1,-1.0068064E0,-1.5846049E0,-5.7830065E-1,-2.4177206E0,-1.7825533E0,-1.7431237E0,-2.666292E-1,-6.6985315E-1,2.2345474E0,1.3977213E1,-5.432033E-1,-1.4260778E0,-4.926711E-1,6.625273E0,1.0002493E-1,1.7661079E0,-2.490987E-1,5.011619E0,-1.0164746E0,-6.498489E-1,1.218391E0,5.46297E-1,2.4177766E0,2.9505327E0,1.5509966E1,2.4405E0,4.3985143E0,3.5992863E0,2.41642E-1,4.36671E0,7.002923E0,-5.2150637E-1,1.4621366E0,-1.7034991E0,3.8090564E-2,5.3437514E0,1.895916E0,2.3671086E0,-1.9337511E0,2.7817696E-1,5.260156E0,1.0945549E1,6.392977E0,-1.8916537E0,1.77508E0,2.9098213E0,7.6079307E0],"categories":[],"categories_nodes":[],"categories_segments":[],"categories_sizes":[],"default_left":[0,0,0,0,0,0,0,0,0,0,0,0,0,0,0,0,0,0,0,0,0,0,0,0,0,0,0,0,0,0,0,0,0,0,0,0,0,0,0,0,0,0,0,0,0,0,0,0,0,0,0,0,0,0,0,0,0,0,0,0,0,0,0,0,0,0,0,0,0,0,0,0,0,0,0,0,0,0,0,0,0,0,0,0,0,0,0,0,0,0,0,0,0,0,0,0,0,0,0,0,0,0,0,0,0,0,0,0,0,0,0],"id":11,"left_children":[1,3,5,7,9,11,13,15,17,19,21,23,25,-1,27,29,31,33,35,37,39,41,43,45,47,49,51,53,55,57,59,61,63,65,67,69,71,73,75,-1,77,79,81,83,85,87,89,91,93,95,97,99,101,103,105,107,109,-1,-1,-1,-1,-1,-1,-1,-1,-1,-1,-1,-1,-1,-1,-1,-1,-1,-1,-1,-1,-1,-1,-1,-1,-1,-1,-1,-1,-1,-1,-1,-1,-1,-1,-1,-1,-1,-1,-1,-1,-1,-1,-1,-1,-1,-1,-1,-1,-1,-1,-1,-1,-1,-1],"loss_changes":[3.51521E7,4.761029E6,4.852948E6,5.57601E5,1.1873414E6,1.802975E6,1.74224E6,1.18982E5,2.06617E5,5.485527E5,1.9957619E5,7.09402E5,3.5529944E5,0E0,7.73491E5,7.6502E4,7.392675E4,5.6266375E4,1.0769122E5,6.824304E5,1.7392394E5,1.8608894E5,1.0966664E5,5.446E5,3.37978E5,2.7511228E5,3.0959706E5,6.56873E5,1.9545731E5,3.1442E4,3.27755E4,7.762994E4,4.1773016E4,4.139578E4,2.4084875E4,6.2328906E4,1.7414375E5,1.0300985E6,2.2591838E5,0E0,1.5245397E5,1.9819775E5,9.357459E4,4.7361332E4,1.2043353E5,4.1992875E5,4.563585E5,1.05419625E5,3.032345E5,1.6611494E5,7.267697E4,8.9648125E4,2.2042397E5,3.97291E5,6.50294E5,2.484596E4,1.7853862E5,0E0,0E0,0E0,0E0,0E0,0E0,0E0,0E0,0E0,0E0,0E0,0E0,0E0,0E0,0E0,0E0,0E0,0E0,0E0,0E0,0E0,0E0,0E0,0E0,0E0,0E0,0E0,0E0,0E0,0E0,0E0,0E0,0E0,0E0,0E0,0E0,0E0,0E0,0E0,0E0,0E0,0E0,0E0,0E0,0E0,0E0,0E0,0E0,0E0,0E0,0E0,0E0,0E0,0E0],"parents":[2147483647,0,0,1,1,2,2,3,3,4,4,5,5,6,6,7,7,8,8,9,9,10,10,11,11,12,12,14,14,15,15,16,16,17,17,18,18,19,19,20,20,21,21,22,22,23,23,24,24,25,25,26,26,27,27,28,28,29,29,30,30,31,31,32,32,33,33,34,34,35,35,36,36,37,37,38,38,40,40,41,41,42,42,43,43,44,44,45,45,46,46,47,47,48,48,49,49,50,50,51,51,52,52,53,53,54,54,55,55,56,56],"right_children":[2,4,6,8,10,12,14,16,18,20,22,24,26,-1,28,30,32,34,36,38,40,42,44,46,48,50,52,54,56,58,60,62,64,66,68,70,72,74,76,-1,78,80,82,84,86,88,90,92,94,96,98,100,102,104,106,108,110,-1,-1,-1,-1,-1,-1,-1,-1,-1,-1,-1,-1,-1,-1,-1,-1,-1,-1,-1,-1,-1,-1,-1,-1,-1,-1,-1,-1,-1,-1,-1,-1,-1,-1,-1,-1,-1,-1,-1,-1,-1,-1,-1,-1,-1,-1,-1,-1,-1,-1,-1,-1,-1,-1],"split_conditions":[1.5225E2,7.325E1,3.1125E2,6.625E1,1.365E2,3.3730108E-1,-9.640935E-1,1.7223625E-1,7.475E1,4.179029E-1,4.266741E-1,6.02E1,2.024E3,1.3946489E1,2.4893981E-1,1.325E2,5.895E1,3.4E-1,3.0471924E-1,1.269022E0,1E0,2.024E3,8.6E-1,1E0,1.3764583E2,5.2E-1,5.0835645E-1,5.5025E2,3.445E2,-7.5189576E-2,2.3700278E0,1E0,1.205E2,6.9827974E-2,3.525E1,5.038E1,2.395E2,7.875E1,8.35E1,7.525274E0,1.02E1,5.5E-1,9.028E1,2.01E2,5.241102E1,6.32E1,9.749279E-1,6.828E1,1.8342E3,-4.4698343E-1,9.125E1,4.025E2,3.2075E2,2.0274162E0,1.33E1,1.19E2,3.8E1,-2.362064E0,-2.0791228E0,-2.7314362E-1,-1.9213883E0,3.5434659E0,-1.7911913E0,8.747517E-1,-1.0068064E0,-1.5846049E0,-5.7830065E-1,-2.4177206E0,-1.7825533E0,-1.7431237E0,-2.666292E-1,-6.6985315E-1,2.2345474E0,1.3977213E1,-5.432033E-1,-1.4260778E0,-4.926711E-1,6.625273E0,1.0002493E-1,1.7661079E0,-2.490987E-1,5.011619E0,-1.0164746E0,-6.498489E-1,1.218391E0,5.46297E-1,2.4177766E0,2.9505327E0,1.5509966E1,2.4405E0,4.3985143E0,3.5992863E0,2.41642E-1,4.36671E0,7.002923E0,-5.2150637E-1,1.4621366E0,-1.7034991E0,3.8090564E-2,5.3437514E0,1.895916E0,2.3671086E0,-1.9337511E0,2.7817696E-1,5.260156E0,1.0945549E1,6.392977E0,-1.8916537E0,1.77508E0,2.9098213E0,7.6079307E0],"split_indices":[15,15,15,20,20,41,42,42,21,42,41,1,50,0,41,0,9,10,41,33,56,50,6,56,35,10,41,0,0,41,36,56,11,42,15,2,21,15,21,0,2,10,9,21,36,9,45,2,55,42,21,0,37,33,8,12,5,0,0,0,0,0,0,0,0,0,0,0,0,0,0,0,0,0,0,0,0,0,0,0,0,0,0,0,0,0,0,0,0,0,0,0,0,0,0,0,0,0,0,0,0,0,0,0,0,0,0,0,0,0,0],"split_type":[0,0,0,0,0,0,0,0,0,0,0,0,0,0,0,0,0,0,0,0,0,0,0,0,0,0,0,0,0,0,0,0,0,0,0,0,0,0,0,0,0,0,0,0,0,0,0,0,0,0,0,0,0,0,0,0,0,0,0,0,0,0,0,0,0,0,0,0,0,0,0,0,0,0,0,0,0,0,0,0,0,0,0,0,0,0,0,0,0,0,0,0,0,0,0,0,0,0,0,0,0,0,0,0,0,0,0,0,0,0,0],"sum_hessian":[2.2455E4,1.6361E4,6.094E3,1.0129E4,6.232E3,4.662E3,1.432E3,7.533E3,2.596E3,4.506E3,1.726E3,2.884E3,1.778E3,6.2E1,1.37E3,6.733E3,8E2,1.254E3,1.342E3,2.824E3,1.682E3,8.08E2,9.18E2,2.298E3,5.86E2,1.488E3,2.9E2,1.112E3,2.58E2,4.754E3,1.979E3,6.55E2,1.45E2,4.81E2,7.73E2,4.44E2,8.98E2,5.2E1,2.772E3,7E0,1.675E3,7.5E2,5.8E1,2.63E2,6.55E2,2.7E1,2.271E3,9.3E1,4.93E2,1.153E3,3.35E2,1.25E2,1.65E2,6.42E2,4.7E2,2.6E1,2.32E2,3.201E3,1.553E3,3.1E1,1.948E3,6E0,6.49E2,4E1,1.05E2,3.31E2,1.5E2,2.22E2,5.51E2,3.54E2,9E1,8.44E2,5.4E1,1.8E1,3.4E1,1.735E3,1.037E3,8E0,1.667E3,5.97E2,1.53E2,5.1E1,7E0,2.24E2,3.9E1,5.54E2,1.01E2,1.3E1,1.4E1,1.917E3,3.54E2,4.8E1,4.5E1,3.19E2,1.74E2,1.17E2,1.036E3,7.7E1,2.58E2,1E2,2.5E1,1.27E2,3.8E1,4.3E1,5.99E2,1.03E2,3.67E2,2.1E1,5E0,2.1E2,2.2E1],"tree_param":{"num_deleted":"0","num_feature":"59","num_nodes":"111","size_leaf_vector":"1"}},{"base_weights":[1.2246501E-1,-2.6567686E1,5.3735023E1,-3.571221E1,-6.76662E0,3.3095932E1,9.032589E1,-4.039523E1,-2.4868372E1,-1.7572348E1,6.4875226E0,1.345899E1,5.348981E1,1.0604068E2,4.4642765E1,-4.4134914E1,-3.7188046E1,5.920104E1,-2.6604704E1,-1.0476597E1,-2.6612156E1,-4.424666E0,1.893954E1,-1.5823157E1,1.9222471E1,2.6465833E2,5.2380245E1,1.3227881E1,1.01261635E2,7.3856384E1,3.6884727E1,3.315729E0,-4.4673492E1,-4.0338753E1,-3.3433903E1,-1.3428281E1,2.28102E2,-1.2644219E1,-3.056024E1,4.69055E0,-2.0003407E1,5.9333E1,-2.8421997E1,4.361325E0,-1.161507E1,1.239922E1,4.3777096E1,2.6519382E1,-2.0072063E1,3.2342567E1,8.873085E0,1.73162E1,7.842543E0,4.6236164E1,8.3525345E1,7.65118E1,1.2026672E2,1.1614783E2,5.470114E1,2.6317535E1,6.933622E1,7.103775E0,-1.9211363E0,-2.4131196E0,-2.0787559E0,-2.0626395E0,-8.394699E-1,-4.2259702E-1,-1.7130364E0,-1.6613493E0,2.1893537E0,7.872514E0,1.5278342E1,4.4974452E-1,-8.2437783E-1,-1.7834046E0,-1.2844038E0,-2.4698022E-1,1.6213783E0,-1.2691116E0,-8.405472E-3,-1.611072E0,1.2323478E1,-1.4661794E0,2.5477169E0,-6.829327E-1,4.549845E-1,3.2017288E0,-6.2258977E-1,1.15339495E-1,1.2999557E0,2.4988642E0,-2.790863E-1,7.504728E0,-1.1200768E-1,-2.2872274E0,-6.912611E-1,5.6513553E0,1.4949874E0,-1.7643726E-1,1.4476103E0,9.8139685E-1,2.6653714E0,8.130801E0,3.26589E0,7.6381297E0,3.2170224E0,9.3560095E0,5.61317E0,7.045675E0,1.4520253E0,2.175716E0,7.1136928E0,2.0964458E0,2.439878E-1,6.5641656E0,1.6617275E0],"categories":[],"categories_nodes":[],"categories_segments":[],"categories_sizes":[],"default_left":[0,0,0,0,0,0,0,0,0,0,0,0,0,0,0,0,0,0,0,0,0,0,0,0,0,0,0,0,0,0,0,0,0,0,0,0,0,0,0,0,0,0,0,0,0,0,0,0,0,0,0,0,0,0,0,0,0,0,0,0,0,0,0,0,0,0,0,0,0,0,0,0,0,0,0,0,0,0,0,0,0,0,0,0,0,0,0,0,0,0,0,0,0,0,0,0,0,0,0,0,0,0,0,0,0,0,0,0,0,0,0,0,0,0,0,0,0],"id":12,"left_children":[1,3,5,7,9,11,13,15,17,19,21,23,25,27,29,31,33,35,37,39,41,43,45,47,49,51,53,-1,55,57,59,61,63,65,67,69,71,73,75,77,79,81,83,85,87,89,91,93,95,97,99,-1,-1,101,103,105,107,109,111,113,115,-1,-1,-1,-1,-1,-1,-1,-1,-1,-1,-1,-1,-1,-1,-1,-1,-1,-1,-1,-1,-1,-1,-1,-1,-1,-1,-1,-1,-1,-1,-1,-1,-1,-1,-1,-1,-1,-1,-1,-1,-1,-1,-1,-1,-1,-1,-1,-1,-1,-1,-1,-1,-1,-1,-1,-1],"loss_changes":[3.2155792E7,2.716373E6,5.637616E6,5.2017E5,6.7912306E5,1.9123415E6,1.928572E6,8.4307E4,4.537975E5,1.6726588E5,2.8950556E5,4.1125203E5,5.351155E5,1.490604E6,1.5388425E5,8.4559E4,4.43555E4,7.758941E5,1.67265E5,2.1177834E5,1.8025444E5,7.181725E4,1.6109056E5,7.2676016E4,2.7603538E5,5.1328812E4,4.42385E5,0E0,9.06144E5,1.1030144E5,1.8609606E5,2.255404E5,3.4311E4,4.4424E4,3.625025E4,5.243046E4,5.5875875E4,5.60361E4,5.793975E4,1.513454E5,9.601731E4,4.1913797E5,8.200475E4,4.384153E4,4.035853E4,1.0823501E5,6.3628E4,1.3183294E5,5.790333E4,1.7341731E5,2.8373344E5,0E0,0E0,3.6585325E5,5.4091625E5,7.771795E5,5.67013E5,9.082775E4,9.275475E4,1.3868484E5,2.9531362E5,0E0,0E0,0E0,0E0,0E0,0E0,0E0,0E0,0E0,0E0,0E0,0E0,0E0,0E0,0E0,0E0,0E0,0E0,0E0,0E0,0E0,0E0,0E0,0E0,0E0,0E0,0E0,0E0,0E0,0E0,0E0,0E0,0E0,0E0,0E0,0E0,0E0,0E0,0E0,0E0,0E0,0E0,0E0,0E0,0E0,0E0,0E0,0E0,0E0,0E0,0E0,0E0,0E0,0E0,0E0,0E0],"parents":[2147483647,0,0,1,1,2,2,3,3,4,4,5,5,6,6,7,7,8,8,9,9,10,10,11,11,12,12,13,13,14,14,15,15,16,16,17,17,18,18,19,19,20,20,21,21,22,22,23,23,24,24,25,25,26,26,28,28,29,29,30,30,31,31,32,32,33,33,34,34,35,35,36,36,37,37,38,38,39,39,40,40,41,41,42,42,43,43,44,44,45,45,46,46,47,47,48,48,49,49,50,50,53,53,54,54,55,55,56,56,57,57,58,58,59,59,60,60],"right_children":[2,4,6,8,10,12,14,16,18,20,22,24,26,28,30,32,34,36,38,40,42,44,46,48,50,52,54,-1,56,58,60,62,64,66,68,70,72,74,76,78,80,82,84,86,88,90,92,94,96,98,100,-1,-1,102,104,106,108,110,112,114,116,-1,-1,-1,-1,-1,-1,-1,-1,-1,-1,-1,-1,-1,-1,-1,-1,-1,-1,-1,-1,-1,-1,-1,-1,-1,-1,-1,-1,-1,-1,-1,-1,-1,-1,-1,-1,-1,-1,-1,-1,-1,-1,-1,-1,-1,-1,-1,-1,-1,-1,-1,-1,-1,-1,-1,-1],"split_conditions":[3.087E2,7.75E1,2.45E2,6.025E1,2.053E2,8.660254E-1,2.4893981E-1,3.8E1,3.818813E-1,1.445988E3,5.8133006E-1,-4.4698343E-1,1E0,-9.640935E-1,7.075E0,2.17E1,-7.5189576E-2,1.705E1,2.533E1,1.1E1,2.3700278E0,3E1,7.0710677E-1,3.0575E1,7.465881E-1,6.075E1,9.749279E-1,1.3227881E1,6.71E1,4.9800755E1,8.8372034E-1,7.95E0,3.125E1,2.9343396E-1,2.0274162E0,1.76E1,7.0710677E-1,7.08E0,1.11E2,2.7251797E1,8.9406115E-1,6.975E1,6.523456E-1,2.285E1,8.31E1,2.5881904E-1,7.25E-1,1.2697426E3,5.2E1,9.92E1,2.29E1,1.73162E1,7.842543E0,3.102E2,-7.036774E-1,5E0,9.509625E2,5E-1,4.645E2,1.111851E3,-3.8044736E-1,7.103775E0,-1.9211363E0,-2.4131196E0,-2.0787559E0,-2.0626395E0,-8.394699E-1,-4.2259702E-1,-1.7130364E0,-1.6613493E0,2.1893537E0,7.872514E0,1.5278342E1,4.4974452E-1,-8.2437783E-1,-1.7834046E0,-1.2844038E0,-2.4698022E-1,1.6213783E0,-1.2691116E0,-8.405472E-3,-1.611072E0,1.2323478E1,-1.4661794E0,2.5477169E0,-6.829327E-1,4.549845E-1,3.2017288E0,-6.2258977E-1,1.15339495E-1,1.2999557E0,2.4988642E0,-2.790863E-1,7.504728E0,-1.1200768E-1,-2.2872274E0,-6.912611E-1,5.6513553E0,1.4949874E0,-1.7643726E-1,1.4476103E0,9.8139685E-1,2.6653714E0,8.130801E0,3.26589E0,7.6381297E0,3.2170224E0,9.3560095E0,5.61317E0,7.045675E0,1.4520253E0,2.175716E0,7.1136928E0,2.0964458E0,2.439878E-1,6.5641656E0,1.6617275E0],"split_indices":[14,20,15,15,14,44,41,20,30,55,42,42,56,42,12,28,41,5,8,51,36,8,48,8,41,19,45,0,3,36,41,3,15,42,33,4,48,7,40,33,42,15,42,3,24,47,10,55,20,26,5,0,0,28,41,56,55,47,40,55,42,0,0,0,0,0,0,0,0,0,0,0,0,0,0,0,0,0,0,0,0,0,0,0,0,0,0,0,0,0,0,0,0,0,0,0,0,0,0,0,0,0,0,0,0,0,0,0,0,0,0,0,0,0,0,0,0],"split_type":[0,0,0,0,0,0,0,0,0,0,0,0,0,0,0,0,0,0,0,0,0,0,0,0,0,0,0,0,0,0,0,0,0,0,0,0,0,0,0,0,0,0,0,0,0,0,0,0,0,0,0,0,0,0,0,0,0,0,0,0,0,0,0,0,0,0,0,0,0,0,0,0,0,0,0,0,0,0,0,0,0,0,0,0,0,0,0,0,0,0,0,0,0,0,0,0,0,0,0,0,0,0,0,0,0,0,0,0,0,0,0,0,0,0,0,0,0],"sum_hessian":[2.247E4,1.5002E4,7.468E3,1.0262E4,4.74E3,4.776E3,2.692E3,7.165E3,3.097E3,2.611E3,2.129E3,2.434E3,2.342E3,2.002E3,6.9E2,3.302E3,3.863E3,6.2E1,3.035E3,1.464E3,1.147E3,1.135E3,9.94E2,4E2,2.034E3,1.1E1,2.331E3,5.7E1,1.945E3,1.43E2,5.47E2,3.7E1,3.265E3,2.095E3,1.768E3,4.4E1,1.8E1,6.71E2,2.364E3,5.65E2,8.99E2,2.3E1,1.124E3,5.11E2,6.24E2,7.88E2,2.06E2,3.6E1,3.64E2,8.96E2,1.138E3,5E0,6E0,1.949E3,3.82E2,8.47E2,1.098E3,4.3E1,1E2,4.14E2,1.33E2,8E0,2.9E1,1.506E3,1.759E3,2.016E3,7.9E1,5.7E1,1.711E3,3.3E1,1.1E1,1.1E1,7E0,1.01E2,5.7E2,1.151E3,1.213E3,4.2E2,1.45E2,7.07E2,1.92E2,1.6E1,7E0,1.112E3,1.2E1,1.06E2,4.05E2,6E0,6.18E2,4.53E2,3.35E2,1.83E2,2.3E1,6E0,3E1,7E1,2.94E2,2.5E1,8.71E2,7.04E2,4.34E2,4.1E2,1.539E3,7E1,3.12E2,1.15E2,7.32E2,1.15E2,9.83E2,3.3E1,1E1,9E1,1E1,2.39E2,1.75E2,4.8E1,8.5E1],"tree_param":{"num_deleted":"0","num_feature":"59","num_nodes":"117","size_leaf_vector":"1"}},{"base_weights":[3.8823634E-1,-2.5229044E1,5.1485775E1,-3.4986393E1,-8.047044E0,7.323081E1,1.819265E1,-3.764252E1,-1.9533775E1,-1.9129837E1,2.1379802E0,5.5362522E1,1.1634262E2,4.9134145E0,3.7686188E1,-4.261237E1,-3.5051487E1,-3.4728695E1,-1.3258235E1,8.0697464E1,-2.1449347E1,-3.7080197E0,1.6049458E1,5.391809E1,2.0624196E2,1.6343529E2,1.0407929E2,-1.9386187E1,1.1175731E1,7.059915E1,2.8397947E1,-4.335897E1,-2.5105417E1,-4.8073316E0,-3.5417244E1,-3.72873E1,-6.395915E0,-3.8577332E0,-2.1460833E1,-1.0933605E1,1.2996236E1,-2.5517649E1,-7.0848093E0,-4.697181E0,6.559507E1,1.4683042E1,6.3586926E0,3.8930393E1,6.773697E1,2.936456E2,1.03507005E-1,1.1523276E1,1.7876434E2,5.0232677E1,1.1533498E2,-2.1124268E1,3.57644E0,3.654258E0,2.8364136E1,5.0090233E1,9.911551E1,2.6462105E1,7.274728E0,-2.4075828E0,-2.0866642E0,5.961404E0,-1.7734188E0,2.1359663E0,-1.1264838E0,-1.8974701E0,-1.5546256E0,-3.1682422E0,-1.7778221E0,-1.1325897E0,1.5565352E0,1.8472111E0,-5.4271936E-1,-1.2137243E0,1.2261099E0,-1.6187648E0,4.738684E0,-1.6248776E0,-9.9141276E-1,-7.836861E-1,2.0110266E-1,-3.2499763E-1,1.1992806E0,4.7979116E0,-1.1153805E0,5.340692E-1,2.2660096E0,3.5787296E0,1.624952E0,3.061636E0,5.5416985E0,8.322666E0,1.970714E1,7.0569735E0,-5.482885E0,5.4005136E0,1.1151588E1,5.6021023E0,1.4708196E0,1.8190739E0,6.1418486E0,5.1512355E-1,-1.3035727E0,4.614883E0,1.1802154E-1,8.111655E0,1.221244E0,5.294332E0,2.18996E0,5.6471586E0,2.406842E0,2.2193534E0,6.5307707E-1],"categories":[],"categories_nodes":[],"categories_segments":[],"categories_sizes":[],"default_left":[0,0,0,0,0,0,0,0,0,0,0,0,0,0,0,0,0,0,0,0,0,0,0,0,0,0,0,0,0,0,0,0,0,0,0,0,0,0,0,0,0,0,0,0,0,0,0,0,0,0,0,0,0,0,0,0,0,0,0,0,0,0,0,0,0,0,0,0,0,0,0,0,0,0,0,0,0,0,0,0,0,0,0,0,0,0,0,0,0,0,0,0,0,0,0,0,0,0,0,0,0,0,0,0,0,0,0,0,0,0,0,0,0,0,0,0,0],"id":13,"left_children":[1,3,5,7,9,11,13,15,17,19,21,23,25,27,29,31,33,35,37,39,41,43,45,47,49,51,53,55,57,59,61,63,65,67,69,71,73,75,77,79,-1,81,83,85,87,89,-1,91,93,95,-1,97,99,101,103,105,-1,107,109,111,113,115,-1,-1,-1,-1,-1,-1,-1,-1,-1,-1,-1,-1,-1,-1,-1,-1,-1,-1,-1,-1,-1,-1,-1,-1,-1,-1,-1,-1,-1,-1,-1,-1,-1,-1,-1,-1,-1,-1,-1,-1,-1,-1,-1,-1,-1,-1,-1,-1,-1,-1,-1,-1,-1,-1,-1],"loss_changes":[2.932507E7,2.501403E6,5.414616E6,3.89883E5,6.102622E5,3.479322E6,7.652617E5,1.03068E5,1.3284775E5,6.012151E5,2.292376E5,6.86492E5,7.48194E5,2.6803903E5,3.6422788E5,3.52215E4,5.89335E4,2.9338438E4,7.6331766E4,9.7178625E5,1.47729E5,1.3638375E5,1.2476906E5,6.54325E5,5.347529E5,6.31338E5,6.33015E5,5.8555375E4,1.8089128E5,1.48848E5,2.08323E5,1.8739E4,1.7773258E5,5.5710895E4,5.66295E4,1.4628E4,2.2056148E4,1.3257692E5,6.903742E4,9.373003E4,0E0,7.7666625E4,5.3484734E4,1.0140117E5,7.687268E4,1.0066044E5,0E0,3.1763225E5,4.554495E5,2.0282538E5,0E0,4.2385944E5,7.495385E5,2.3344622E5,5.11432E5,5.546186E4,0E0,1.1160417E5,2.2068612E5,4.9769938E4,7.1399125E4,2.20889E5,0E0,0E0,0E0,0E0,0E0,0E0,0E0,0E0,0E0,0E0,0E0,0E0,0E0,0E0,0E0,0E0,0E0,0E0,0E0,0E0,0E0,0E0,0E0,0E0,0E0,0E0,0E0,0E0,0E0,0E0,0E0,0E0,0E0,0E0,0E0,0E0,0E0,0E0,0E0,0E0,0E0,0E0,0E0,0E0,0E0,0E0,0E0,0E0,0E0,0E0,0E0,0E0,0E0,0E0,0E0],"parents":[2147483647,0,0,1,1,2,2,3,3,4,4,5,5,6,6,7,7,8,8,9,9,10,10,11,11,12,12,13,13,14,14,15,15,16,16,17,17,18,18,19,19,20,20,21,21,22,22,23,23,24,24,25,25,26,26,27,27,28,28,29,29,30,30,31,31,32,32,33,33,34,34,35,35,36,36,37,37,38,38,39,39,41,41,42,42,43,43,44,44,45,45,47,47,48,48,49,49,51,51,52,52,53,53,54,54,55,55,57,57,58,58,59,59,60,60,61,61],"right_children":[2,4,6,8,10,12,14,16,18,20,22,24,26,28,30,32,34,36,38,40,42,44,46,48,50,52,54,56,58,60,62,64,66,68,70,72,74,76,78,80,-1,82,84,86,88,90,-1,92,94,96,-1,98,100,102,104,106,-1,108,110,112,114,116,-1,-1,-1,-1,-1,-1,-1,-1,-1,-1,-1,-1,-1,-1,-1,-1,-1,-1,-1,-1,-1,-1,-1,-1,-1,-1,-1,-1,-1,-1,-1,-1,-1,-1,-1,-1,-1,-1,-1,-1,-1,-1,-1,-1,-1,-1,-1,-1,-1,-1,-1,-1,-1,-1,-1],"split_conditions":[3.087E2,1.556E2,3.149416E-1,8.875E1,8.35E1,4.49E2,1.68E2,4.0302082E1,2.785E1,3.818813E-1,8.660254E-1,1E0,9.86575E2,7.8E-1,7.05E0,6.081215E-1,3.5576954E0,9.0668607E-1,1.1E1,2.375E0,1.0275E2,9.028E1,2.515E2,3.643E2,1.54E2,-2.7591294E-1,1.1E1,9.72294E2,2.1325E2,8.660254E-1,1.6575832E2,2.425E1,2.17E1,-4.3388373E-1,5.375E1,3.35E0,9.625E1,4.125E1,1.8742708E2,3.35E1,1.2996236E1,5.425E1,5E-1,2.175E2,-7.818315E-1,8.660254E-1,6.3586926E0,9.130176E2,9.749279E-1,1.7525E2,1.03507005E-1,7E0,2.375E0,1.0422776E3,2.3E-1,-7.818315E-1,3.57644E0,3.634816E-1,8.42E1,3.45E1,7.915E1,1.1159775E3,7.274728E0,-2.4075828E0,-2.0866642E0,5.961404E0,-1.7734188E0,2.1359663E0,-1.1264838E0,-1.8974701E0,-1.5546256E0,-3.1682422E0,-1.7778221E0,-1.1325897E0,1.5565352E0,1.8472111E0,-5.4271936E-1,-1.2137243E0,1.2261099E0,-1.6187648E0,4.738684E0,-1.6248776E0,-9.9141276E-1,-7.836861E-1,2.0110266E-1,-3.2499763E-1,1.1992806E0,4.7979116E0,-1.1153805E0,5.340692E-1,2.2660096E0,3.5787296E0,1.624952E0,3.061636E0,5.5416985E0,8.322666E0,1.970714E1,7.0569735E0,-5.482885E0,5.4005136E0,1.1151588E1,5.6021023E0,1.4708196E0,1.8190739E0,6.1418486E0,5.1512355E-1,-1.3035727E0,4.614883E0,1.1802154E-1,8.111655E0,1.221244E0,5.294332E0,2.18996E0,5.6471586E0,2.406842E0,2.2193534E0,6.5307707E-1],"split_indices":[14,14,41,21,20,14,20,38,2,30,44,57,55,6,12,41,36,41,51,6,15,9,15,14,19,41,49,13,31,44,39,21,28,45,15,3,20,9,38,4,0,20,44,21,45,48,0,55,45,16,0,51,6,55,6,45,0,41,26,19,2,55,0,0,0,0,0,0,0,0,0,0,0,0,0,0,0,0,0,0,0,0,0,0,0,0,0,0,0,0,0,0,0,0,0,0,0,0,0,0,0,0,0,0,0,0,0,0,0,0,0,0,0,0,0,0,0],"split_type":[0,0,0,0,0,0,0,0,0,0,0,0,0,0,0,0,0,0,0,0,0,0,0,0,0,0,0,0,0,0,0,0,0,0,0,0,0,0,0,0,0,0,0,0,0,0,0,0,0,0,0,0,0,0,0,0,0,0,0,0,0,0,0,0,0,0,0,0,0,0,0,0,0,0,0,0,0,0,0,0,0,0,0,0,0,0,0,0,0,0,0,0,0,0,0,0,0,0,0,0,0,0,0,0,0,0,0,0,0,0,0,0,0,0,0,0,0],"sum_hessian":[2.2401E4,1.4921E4,7.48E3,9.516E3,5.405E3,4.524E3,2.956E3,8.119E3,1.397E3,2.588E3,2.817E3,3.2E3,1.324E3,1.759E3,1.197E3,2.777E3,5.342E3,4.07E2,9.9E2,5.8E1,2.53E3,1.984E3,8.33E2,3.171E3,2.9E1,2.71E2,1.053E3,3.6E2,1.399E3,2.62E2,9.35E2,2.662E3,1.15E2,6.4E1,5.278E3,3.73E2,3.4E1,4.62E2,5.28E2,3.9E1,1.9E1,1.971E3,5.59E2,1.957E3,2.7E1,8.24E2,9E0,1.523E3,1.648E3,2E1,9E0,2.5E1,2.46E2,1.83E2,8.7E2,3.54E2,6E0,9.74E2,4.25E2,1.54E2,1.08E2,9.21E2,1.4E1,6.67E2,1.995E3,7E0,1.08E2,1.7E1,4.7E1,3.324E3,1.954E3,2.1E1,3.52E2,2.4E1,1E1,6.7E1,3.95E2,4.98E2,3E1,3.3E1,6E0,8.83E2,1.088E3,3.15E2,2.44E2,1.842E3,1.15E2,2E1,7E0,7.3E2,9.4E1,2.49E2,1.274E3,1.434E3,2.14E2,1E1,1E1,1.2E1,1.3E1,9.6E1,1.5E2,4.5E1,1.38E2,7.6E1,7.94E2,4.8E1,3.06E2,1.3E1,9.61E2,1.1E1,4.14E2,1.4E1,1.4E2,8.4E1,2.4E1,3.93E2,5.28E2],"tree_param":{"num_deleted":"0","num_feature":"59","num_nodes":"117","size_leaf_vector":"1"}},{"base_weights":[2.9634621E-2,-2.1864515E1,5.388856E1,-3.156913E1,-1.5768514E0,4.0887783E1,1.01242516E2,-3.6661995E1,-2.248828E1,-1.0726118E1,1.3093285E1,1.7720606E1,5.643858E1,1.2060609E1,9.454128E1,-4.1174854E1,-3.413422E1,-2.9950914E1,-1.4889554E1,1.1559775E2,-1.2539429E1,1.7784457E0,2.2301167E1,2.4851038E1,-7.2451025E-1,2.7755655E2,5.4955044E1,1.2357037E2,7.329633E1,1.3193601E1,-4.169106E1,-3.4508213E1,2.2268298E0,-3.610683E1,-2.180973E1,-1.6771914E1,1.7481888E1,1.2546493E1,-1.3273242E1,-2.5153212E1,-5.0444126E0,3.2959476E1,-2.126359E0,6.1002088E0,3.2393578E1,1.6626703E1,4.4165646E1,-1.50765E1,1.1191804E1,1.8494936E1,7.411226E0,7.722939E1,4.4356594E1,9.6193375E1,1.5422495E2,5.409254E1,9.672846E1,-1.813151E0,6.924148E0,-2.270827E0,-1.9543425E0,-1.8080387E0,-1.3754567E0,2.4204795E0,-5.973212E-1,-2.196721E0,-1.7257092E0,-1.3456419E0,-2.7942738E-1,-1.0769998E0,-3.2781097E-1,-4.2928305E-2,6.4402275E0,-2.0879762E0,2.4459627E0,-1.5653692E0,-5.6159854E-1,-9.321951E-1,-1.5595622E-2,-8.1981194E-1,2.1335688E0,-1.7237969E-1,4.196554E0,4.8848343E-1,-3.0363863E0,1.3995596E0,3.4345684E0,-7.0800316E-1,1.0811921E0,7.8770027E0,2.0441866E0,-1.5649045E0,-3.6243588E-1,2.7928302E-1,3.0914302E0,3.6105137E0,7.550161E0,1.6675719E0,3.234787E0,5.202609E0,1.4846783E0,3.5944314E0,8.090799E0,6.5007815E0,2.348192E0,6.767331E0,3.6997793E0],"categories":[],"categories_nodes":[],"categories_segments":[],"categories_sizes":[],"default_left":[0,0,0,0,0,0,0,0,0,0,0,0,0,0,0,0,0,0,0,0,0,0,0,0,0,0,0,0,0,0,0,0,0,0,0,0,0,0,0,0,0,0,0,0,0,0,0,0,0,0,0,0,0,0,0,0,0,0,0,0,0,0,0,0,0,0,0,0,0,0,0,0,0,0,0,0,0,0,0,0,0,0,0,0,0,0,0,0,0,0,0,0,0,0,0,0,0,0,0,0,0,0,0,0,0,0,0],"id":14,"left_children":[1,3,5,7,9,11,13,15,17,19,21,23,25,-1,27,29,31,33,35,37,39,41,43,45,47,49,51,53,55,57,59,61,63,65,67,69,71,-1,73,75,77,79,81,83,85,87,89,91,93,-1,-1,95,97,99,101,103,105,-1,-1,-1,-1,-1,-1,-1,-1,-1,-1,-1,-1,-1,-1,-1,-1,-1,-1,-1,-1,-1,-1,-1,-1,-1,-1,-1,-1,-1,-1,-1,-1,-1,-1,-1,-1,-1,-1,-1,-1,-1,-1,-1,-1,-1,-1,-1,-1,-1,-1],"loss_changes":[2.6397464E7,3.133556E6,3.97904E6,4.97078E5,6.9151275E5,1.828442E6,1.283786E6,7.7261E4,2.19065E5,7.282709E5,2.0614384E5,2.684537E5,9.81322E5,0E0,8.118E5,6.989875E4,6.02655E4,9.703975E4,1.1728781E5,7.881478E5,2.956903E5,1.0831102E5,1.7818825E5,2.3309262E5,9.7651734E4,1.84028E5,7.09281E5,4.55973E5,3.41707E5,1.5373514E5,2.19755E4,4.9678E4,3.068808E4,1.2321625E4,6.963181E4,8.8266125E4,2.1653167E5,0E0,4.456203E4,9.954394E4,1.2639641E5,4.81541E4,9.022771E4,1.0358668E5,1.0546075E5,1.5938272E5,1.5690444E5,3.266071E4,8.822433E4,0E0,0E0,3.49008E5,4.5625725E5,1.531705E5,1.52747E5,2.2445938E5,2.9373875E5,0E0,0E0,0E0,0E0,0E0,0E0,0E0,0E0,0E0,0E0,0E0,0E0,0E0,0E0,0E0,0E0,0E0,0E0,0E0,0E0,0E0,0E0,0E0,0E0,0E0,0E0,0E0,0E0,0E0,0E0,0E0,0E0,0E0,0E0,0E0,0E0,0E0,0E0,0E0,0E0,0E0,0E0,0E0,0E0,0E0,0E0,0E0,0E0,0E0,0E0],"parents":[2147483647,0,0,1,1,2,2,3,3,4,4,5,5,6,6,7,7,8,8,9,9,10,10,11,11,12,12,14,14,15,15,16,16,17,17,18,18,19,19,20,20,21,21,22,22,23,23,24,24,25,25,26,26,27,27,28,28,29,29,30,30,31,31,32,32,33,33,34,34,35,35,36,36,38,38,39,39,40,40,41,41,42,42,43,43,44,44,45,45,46,46,47,47,48,48,51,51,52,52,53,53,54,54,55,55,56,56],"right_children":[2,4,6,8,10,12,14,16,18,20,22,24,26,-1,28,30,32,34,36,38,40,42,44,46,48,50,52,54,56,58,60,62,64,66,68,70,72,-1,74,76,78,80,82,84,86,88,90,92,94,-1,-1,96,98,100,102,104,106,-1,-1,-1,-1,-1,-1,-1,-1,-1,-1,-1,-1,-1,-1,-1,-1,-1,-1,-1,-1,-1,-1,-1,-1,-1,-1,-1,-1,-1,-1,-1,-1,-1,-1,-1,-1,-1,-1,-1,-1,-1,-1,-1,-1,-1,-1,-1,-1,-1,-1],"split_conditions":[1.445E2,7.8E1,3.1125E2,5.8E1,1.1775E2,8.660254E-1,-9.640935E-1,3.303077E1,5E-1,1.269022E0,1.34E2,4E-1,1E0,1.2060609E1,7.368E0,2.17E1,8.660254E-1,5.475E1,2.2E2,7.875E1,-1.8281692E-1,1.33E1,1.54E2,2.2875E2,1.2375E2,6E0,7.38E0,3.915E2,4.417E2,5.230943E-1,2.8E1,3.265E1,8.001302E0,2.755E1,1.7223625E-1,5.562E1,3.408E1,1.2546493E1,2.465E1,7.232617E-1,6.625E1,8.265625E1,9.986686E-1,3.2925E2,2.1275E2,-2.707419E-1,1.135E2,2.285E1,1E0,1.8494936E1,7.411226E0,2.915E1,2.4625E2,3.2E-1,-5E-1,8.714616E2,-5.5568194E-1,-1.813151E0,6.924148E0,-2.270827E0,-1.9543425E0,-1.8080387E0,-1.3754567E0,2.4204795E0,-5.973212E-1,-2.196721E0,-1.7257092E0,-1.3456419E0,-2.7942738E-1,-1.0769998E0,-3.2781097E-1,-4.2928305E-2,6.4402275E0,-2.0879762E0,2.4459627E0,-1.5653692E0,-5.6159854E-1,-9.321951E-1,-1.5595622E-2,-8.1981194E-1,2.1335688E0,-1.7237969E-1,4.196554E0,4.8848343E-1,-3.0363863E0,1.3995596E0,3.4345684E0,-7.0800316E-1,1.0811921E0,7.8770027E0,2.0441866E0,-1.5649045E0,-3.6243588E-1,2.7928302E-1,3.0914302E0,3.6105137E0,7.550161E0,1.6675719E0,3.234787E0,5.202609E0,1.4846783E0,3.5944314E0,8.090799E0,6.5007815E0,2.348192E0,6.767331E0,3.6997793E0],"split_indices":[15,15,15,20,21,44,42,15,43,33,20,10,56,0,12,28,44,15,21,15,42,8,37,31,20,51,12,15,27,41,20,3,30,8,42,9,8,0,4,41,20,38,42,21,11,42,27,3,46,0,0,8,21,10,47,55,41,0,0,0,0,0,0,0,0,0,0,0,0,0,0,0,0,0,0,0,0,0,0,0,0,0,0,0,0,0,0,0,0,0,0,0,0,0,0,0,0,0,0,0,0,0,0,0,0,0,0],"split_type":[0,0,0,0,0,0,0,0,0,0,0,0,0,0,0,0,0,0,0,0,0,0,0,0,0,0,0,0,0,0,0,0,0,0,0,0,0,0,0,0,0,0,0,0,0,0,0,0,0,0,0,0,0,0,0,0,0,0,0,0,0,0,0,0,0,0,0,0,0,0,0,0,0,0,0,0,0,0,0,0,0,0,0,0,0,0,0,0,0,0,0,0,0,0,0,0,0,0,0,0,0,0,0,0,0,0,0],"sum_hessian":[2.2384E4,1.5915E4,6.469E3,1.0765E4,5.15E3,5.077E3,1.392E3,6.895E3,3.87E3,3.172E3,1.978E3,2.04E3,3.037E3,6.2E1,1.33E3,2.47E3,4.425E3,1.951E3,1.919E3,4.4E1,3.128E3,8.88E2,1.09E3,1.471E3,5.69E2,1.9E1,3.018E3,5.6E2,7.7E2,2.3E1,2.447E3,4.38E3,4.5E1,1.109E3,8.42E2,1.814E3,1.05E2,2.1E1,2.3E1,1.165E3,1.963E3,9.8E1,7.9E2,4.19E2,6.71E2,1.033E3,4.38E2,2.58E2,3.11E2,1E1,9E0,9.71E2,2.047E3,2.98E2,2.62E2,4.25E2,3.45E2,1.7E1,6E0,1E3,1.447E3,3.54E3,8.4E2,1E1,3.5E1,1.83E2,9.26E2,6.4E2,2.02E2,1.236E3,5.78E2,9.1E1,1.4E1,1.6E1,7E0,8.07E2,3.58E2,5.06E2,1.457E3,1.6E1,8.2E1,7.79E2,1.1E1,3.98E2,2.1E1,6E2,7.1E1,1.44E2,8.89E2,1.1E1,4.27E2,8.3E1,1.75E2,2.81E2,3E1,9.11E2,6E1,1.33E3,7.17E2,2.66E2,3.2E1,2.3E1,2.39E2,3.5E1,3.9E2,1.26E2,2.19E2],"tree_param":{"num_deleted":"0","num_feature":"59","num_nodes":"107","size_leaf_vector":"1"}},{"base_weights":[8.849669E-2,-2.0362055E1,5.139622E1,-2.88781E1,7.1958405E-1,6.9812225E1,1.9100279E1,-3.224164E1,-1.5967269E1,-1.7957993E1,7.496631E0,5.6703846E1,1.1606024E2,8.46755E0,4.2642963E1,-7.566454E-1,-3.29692E1,-8.217882E0,-2.3293573E1,-3.4479763E1,-1.0141649E1,1.174784E0,2.2558933E1,4.6343433E1,7.60922E1,1.1510677E1,1.0772859E2,-1.5903853E1,1.37326E1,2.6834436E1,7.663841E1,-2.0280361E1,2.0319975E2,-3.6157433E1,-2.7505705E1,3.618351E0,-1.8195059E1,5.5313004E1,-2.4930902E1,-1.0048267E1,-3.6691402E1,-4.0480545E1,-6.503659E0,7.0845566E0,-8.7917795E0,4.7822475E1,1.7277328E1,1.2058609E2,4.153587E1,5.7916767E1,9.3965706E1,3.598276E1,1.1580105E2,-1.070453E1,-5.5125847E1,7.868564E1,1.141848E1,2.3351757E1,1.2297583E2,9.1623276E1,1.5358639E1,-4.2018524E-1,-1.8104401E0,1.2141228E1,4.1739693E0,-4.5658007E-1,-1.8202736E0,-1.6066936E0,-1.0541672E0,-8.076641E-1,1.096413E0,-9.7955316E-1,4.5698504E0,-1.0476471E0,1.0999863E1,-1.4249408E0,-1.2614693E-1,-7.6161045E-1,3.022018E-1,-1.5145037E0,-2.069184E0,-1.6856321E0,-2.9779747E0,1.0772783E0,-4.630912E-1,3.0554003E-1,3.927242E0,3.4326084E-2,-8.4234E-1,1.0605601E0,4.018955E0,4.8454E-1,1.9976723E0,8.742972E0,1.6419233E0,-7.4480057E-1,2.2435386E0,2.7071002E0,8.302742E0,6.522078E0,4.251207E0,2.6667469E0,-3.7733457E0,2.3210034E0,6.241086E0,-8.935408E-1,1.0853322E-1,-1.3408052E0,-3.0211856E0,-2.32208E-1,6.47223E0,4.294757E0,4.8037082E-1,8.5287905E-1,2.5884979E0,1.6005582E0,7.9105086E0,5.081305E0,1.9649473E0,2.1839993E0,-2.304207E0],"categories":[],"categories_nodes":[],"categories_segments":[],"categories_sizes":[],"default_left":[0,0,0,0,0,0,0,0,0,0,0,0,0,0,0,0,0,0,0,0,0,0,0,0,0,0,0,0,0,0,0,0,0,0,0,0,0,0,0,0,0,0,0,0,0,0,0,0,0,0,0,0,0,0,0,0,0,0,0,0,0,0,0,0,0,0,0,0,0,0,0,0,0,0,0,0,0,0,0,0,0,0,0,0,0,0,0,0,0,0,0,0,0,0,0,0,0,0,0,0,0,0,0,0,0,0,0,0,0,0,0,0,0,0,0,0,0,0,0,0,0],"id":15,"left_children":[1,3,5,7,9,11,13,15,17,19,21,23,25,27,29,31,33,35,37,39,41,43,45,47,49,-1,51,53,55,57,59,61,63,65,67,69,71,73,75,77,79,81,83,85,87,89,91,93,95,97,99,101,103,105,107,109,111,113,115,117,119,-1,-1,-1,-1,-1,-1,-1,-1,-1,-1,-1,-1,-1,-1,-1,-1,-1,-1,-1,-1,-1,-1,-1,-1,-1,-1,-1,-1,-1,-1,-1,-1,-1,-1,-1,-1,-1,-1,-1,-1,-1,-1,-1,-1,-1,-1,-1,-1,-1,-1,-1,-1,-1,-1,-1,-1,-1,-1,-1,-1],"loss_changes":[2.3456456E7,2.8696635E6,3.787894E6,4.93891E5,5.823972E5,2.452918E6,5.7913675E5,2.06849E5,1.3351225E5,1.5784656E5,3.2144156E5,6.3183E5,8.26422E5,2.0501181E5,3.848845E5,8.204282E5,1.52762E5,1.353995E5,1.5711175E5,2.0866594E4,9.1677125E4,1.4018567E5,1.32339E5,7.316875E5,3.51902E5,0E0,4.80014E5,5.7325406E4,1.9645752E5,1.6219931E5,2.0795825E5,3.5260914E4,6.5119312E4,3.7013E4,9.613275E4,1.9041303E5,9.695084E4,3.186046E5,9.4748375E4,2.9283972E3,9.55975E3,9.484156E3,5.7836023E4,1.0347984E5,6.765581E4,1.4731134E5,1.4188406E5,5.895524E5,3.657665E5,2.1470088E5,1.69271E5,1.7033994E5,4.64229E5,2.3290152E4,3.3290625E3,1.9093919E5,1.7033997E5,8.44375E4,4.942186E4,9.1786625E4,8.205949E4,0E0,0E0,0E0,0E0,0E0,0E0,0E0,0E0,0E0,0E0,0E0,0E0,0E0,0E0,0E0,0E0,0E0,0E0,0E0,0E0,0E0,0E0,0E0,0E0,0E0,0E0,0E0,0E0,0E0,0E0,0E0,0E0,0E0,0E0,0E0,0E0,0E0,0E0,0E0,0E0,0E0,0E0,0E0,0E0,0E0,0E0,0E0,0E0,0E0,0E0,0E0,0E0,0E0,0E0,0E0,0E0,0E0,0E0,0E0,0E0],"parents":[2147483647,0,0,1,1,2,2,3,3,4,4,5,5,6,6,7,7,8,8,9,9,10,10,11,11,12,12,13,13,14,14,15,15,16,16,17,17,18,18,19,19,20,20,21,21,22,22,23,23,24,24,26,26,27,27,28,28,29,29,30,30,31,31,32,32,33,33,34,34,35,35,36,36,37,37,38,38,39,39,40,40,41,41,42,42,43,43,44,44,45,45,46,46,47,47,48,48,49,49,50,50,51,51,52,52,53,53,54,54,55,55,56,56,57,57,58,58,59,59,60,60],"right_children":[2,4,6,8,10,12,14,16,18,20,22,24,26,28,30,32,34,36,38,40,42,44,46,48,50,-1,52,54,56,58,60,62,64,66,68,70,72,74,76,78,80,82,84,86,88,90,92,94,96,98,100,102,104,106,108,110,112,114,116,118,120,-1,-1,-1,-1,-1,-1,-1,-1,-1,-1,-1,-1,-1,-1,-1,-1,-1,-1,-1,-1,-1,-1,-1,-1,-1,-1,-1,-1,-1,-1,-1,-1,-1,-1,-1,-1,-1,-1,-1,-1,-1,-1,-1,-1,-1,-1,-1,-1,-1,-1,-1,-1,-1,-1,-1,-1,-1,-1,-1,-1],"split_conditions":[3.25E2,1.94E2,3.149416E-1,7.75E1,-1.8281692E-1,4.854E2,2.005E2,3.818813E-1,5E0,3.3730108E-1,1.515E2,2.56E2,-9.640935E-1,-4.6230483E-1,2.024E3,7.25E1,5.05E1,1.1E1,2.3700278E0,4E-1,2.375E0,7.6903087E-1,7.08E0,8.29188E2,3.475E2,1.1510677E1,5.8195652E1,2.98E2,-3.8044736E-1,1.6575832E2,9.749279E-1,5.518E1,4.5E1,2.17E1,-2.83139E-1,9.025E1,1.4597504E2,6.975E1,3.9036822E-1,2.515E2,8.35E1,1E0,1.153E2,9.997688E-1,1E1,1.5275E2,9.145929E-2,3.3E2,3.098349E-1,3.0471924E-1,-7.4944234E-1,9.749279E-1,4.375E-1,2.4651318E1,1.2625E2,1.58E2,5.6E0,2.82E2,3.833E2,3.1125E2,8.755E1,-4.2018524E-1,-1.8104401E0,1.2141228E1,4.1739693E0,-4.5658007E-1,-1.8202736E0,-1.6066936E0,-1.0541672E0,-8.076641E-1,1.096413E0,-9.7955316E-1,4.5698504E0,-1.0476471E0,1.0999863E1,-1.4249408E0,-1.2614693E-1,-7.6161045E-1,3.022018E-1,-1.5145037E0,-2.069184E0,-1.6856321E0,-2.9779747E0,1.0772783E0,-4.630912E-1,3.0554003E-1,3.927242E0,3.4326084E-2,-8.4234E-1,1.0605601E0,4.018955E0,4.8454E-1,1.9976723E0,8.742972E0,1.6419233E0,-7.4480057E-1,2.2435386E0,2.7071002E0,8.302742E0,6.522078E0,4.251207E0,2.6667469E0,-3.7733457E0,2.3210034E0,6.241086E0,-8.935408E-1,1.0853322E-1,-1.3408052E0,-3.0211856E0,-2.32208E-1,6.47223E0,4.294757E0,4.8037082E-1,8.5287905E-1,2.5884979E0,1.6005582E0,7.9105086E0,5.081305E0,1.9649473E0,2.1839993E0,-2.304207E0],"split_indices":[14,14,41,20,42,14,20,30,49,41,20,21,42,42,50,15,15,51,36,6,1,41,12,55,0,0,39,40,42,39,45,9,21,28,42,34,39,15,42,23,31,46,25,42,51,34,53,40,42,41,41,45,6,30,17,15,4,15,24,18,9,0,0,0,0,0,0,0,0,0,0,0,0,0,0,0,0,0,0,0,0,0,0,0,0,0,0,0,0,0,0,0,0,0,0,0,0,0,0,0,0,0,0,0,0,0,0,0,0,0,0,0,0,0,0,0,0,0,0,0,0],"split_type":[0,0,0,0,0,0,0,0,0,0,0,0,0,0,0,0,0,0,0,0,0,0,0,0,0,0,0,0,0,0,0,0,0,0,0,0,0,0,0,0,0,0,0,0,0,0,0,0,0,0,0,0,0,0,0,0,0,0,0,0,0,0,0,0,0,0,0,0,0,0,0,0,0,0,0,0,0,0,0,0,0,0,0,0,0,0,0,0,0,0,0,0,0,0,0,0,0,0,0,0,0,0,0,0,0,0,0,0,0,0,0,0,0,0,0,0,0,0,0,0,0],"sum_hessian":[2.2353E4,1.5983E4,6.37E3,1.1384E4,4.599E3,4.056E3,2.314E3,9.03E3,2.354E3,1.224E3,3.375E3,3.162E3,8.94E2,1.595E3,7.19E2,2.04E2,8.826E3,1.145E3,1.209E3,3.92E2,8.32E2,2.378E3,9.97E2,2.063E3,1.099E3,5.9E1,8.35E2,2.83E2,