{"learner":{"attributes":{"best_iteration":"69","best_score":"110.49714485374656","scikit_learn":"{\"_estimator_type\": \"regressor\"}"},"feature_names":[],"feature_types":[],"gradient_booster":{"model":{"cats":{"enc":[],"feature_segments":[],"sorted_idx":[]},"gbtree_model_param":{"num_parallel_tree":"1","num_trees":"120"},"iteration_indptr":[0,1,2,3,4,5,6,7,8,9,10,11,12,13,14,15,16,17,18,19,20,21,22,23,24,25,26,27,28,29,30,31,32,33,34,35,36,37,38,39,40,41,42,43,44,45,46,47,48,49,50,51,52,53,54,55,56,57,58,59,60,61,62,63,64,65,66,67,68,69,70,71,72,73,74,75,76,77,78,79,80,81,82,83,84,85,86,87,88,89,90,91,92,93,94,95,96,97,98,99,100,101,102,103,104,105,106,107,108,109,110,111,112,113,114,115,116,117,118,119,120],"tree_info":[0,0,0,0,0,0,0,0,0,0,0,0,0,0,0,0,0,0,0,0,0,0,0,0,0,0,0,0,0,0,0,0,0,0,0,0,0,0,0,0,0,0,0,0,0,0,0,0,0,0,0,0,0,0,0,0,0,0,0,0,0,0,0,0,0,0,0,0,0,0,0,0,0,0,0,0,0,0,0,0,0,0,0,0,0,0,0,0,0,0,0,0,0,0,0,0,0,0,0,0,0,0,0,0,0,0,0,0,0,0,0,0,0,0,0,0,0,0,0,0],"trees":[{"base_weights":[-1.3492186E0,-1.4418811E1,1.3921637E2,-5.11322E1,-1.4790078E0,4.809327E0,7.994369E0,-8.274788E-1,-2.8275592E0,-8.563908E0,5.488875E1,-2.9479332E1,-1.5520515E-1,3.7027016E0,7.0963657E-1,5.4191035E-1,-3.538005E1,-3.8988307E0,3.0508275E0,-8.2781124E-1,-2.0991604E0,-1.4464071E0,1.0471828E-1],"categories":[],"categories_nodes":[],"categories_segments":[],"categories_sizes":[],"default_left":[0,0,0,0,0,0,0,0,0,0,0,0,0,0,0,0,0,0,0,0,0,0,0],"id":0,"left_children":[1,3,5,7,9,-1,-1,-1,-1,11,13,15,17,-1,-1,-1,19,21,-1,-1,-1,-1,-1],"loss_changes":[4.318969E5,1.0206316E5,2.4104062E3,9.558672E3,6.4367645E4,0E0,0E0,0E0,0E0,2.5145059E4,1.2988094E4,1.0137457E4,2.382532E4,0E0,0E0,0E0,3.7795977E3,1.4761131E4,0E0,0E0,0E0,0E0,0E0],"parents":[2147483647,0,0,1,1,2,2,3,3,4,4,9,9,10,10,11,11,12,12,16,16,17,17],"right_children":[2,4,6,8,10,-1,-1,-1,-1,12,14,16,18,-1,-1,-1,20,22,-1,-1,-1,-1,-1],"split_conditions":[9.159778E-1,3.3E-1,2.3595334E2,2.0392004E3,1E1,4.809327E0,7.994369E0,-8.274788E-1,-2.8275592E0,6.512E1,3.383E1,2.269E1,-2.1836774E-1,3.7027016E0,7.0963657E-1,5.4191035E-1,1.199E2,6.5E1,3.0508275E0,-8.2781124E-1,-2.0991604E0,-1.4464071E0,1.0471828E-1],"split_indices":[40,10,27,50,45,0,0,0,0,18,8,7,48,0,0,0,24,17,0,0,0,0,0],"split_type":[0,0,0,0,0,0,0,0,0,0,0,0,0,0,0,0,0,0,0,0,0,0,0],"sum_hessian":[2.33E2,2.14E2,1.9E1,5.5E1,1.59E2,8E0,1.1E1,8E0,4.7E1,1.42E2,1.7E1,4E1,1.02E2,1.1E1,6E0,5E0,3.5E1,9.7E1,5E0,1E1,2.5E1,1.8E1,7.9E1],"tree_param":{"num_deleted":"0","num_feature":"54","num_nodes":"23","size_leaf_vector":"1"}},{"base_weights":[-4.402412E0,-1.43629E1,1.3003018E2,-3.6451008E1,1.5686041E0,7.414627E0,3.591688E0,-4.8013363E1,-1.2922471E1,-5.2661567E0,5.6142117E1,-2.0662169E1,-2.6347885E0,-2.893276E1,2.172836E1,-8.533952E0,2.9122138E0,1.2008178E0,3.7445405E0,-5.073613E-1,-1.3866708E0,-1.1994969E1,-2.315995E0,-4.1591078E-1,2.407677E0,2.43097E1,-1.4087569E1,-1.4570788E0,3.4326032E-1,2.8225706E0,3.1065178E-1,-1.4871601E0,-2.3346896E-1],"categories":[],"categories_nodes":[],"categories_segments":[],"categories_sizes":[],"default_left":[0,0,0,0,0,0,0,0,0,0,0,0,0,0,0,0,0,0,0,0,0,0,0,0,0,0,0,0,0,0,0,0,0],"id":1,"left_children":[1,3,5,7,9,-1,-1,11,13,15,17,19,-1,21,23,25,-1,-1,-1,-1,-1,27,-1,-1,-1,29,31,-1,-1,-1,-1,-1,-1],"loss_changes":[3.2992606E5,8.064155E4,7.41525E3,2.549589E4,5.0277242E4,0E0,0E0,7.107625E3,1.8936066E4,2.5401744E4,7.236133E3,5.364741E2,0E0,6.2178906E3,9.134398E3,2.1318586E4,0E0,0E0,0E0,0E0,0E0,4.4041074E3,0E0,0E0,0E0,9.537448E3,1.4458441E4,0E0,0E0,0E0,0E0,0E0,0E0],"parents":[2147483647,0,0,1,1,2,2,3,3,4,4,7,7,8,8,9,9,10,10,11,11,13,13,14,14,15,15,21,21,25,25,26,26],"right_children":[2,4,6,8,10,-1,-1,12,14,16,18,20,-1,22,24,26,-1,-1,-1,-1,-1,28,-1,-1,-1,30,32,-1,-1,-1,-1,-1,-1],"split_conditions":[9.159778E-1,7.849493E1,1.588E1,-4.887854E-1,1.6147E2,7.414627E0,3.591688E0,2.0392004E3,2.2821E2,8.600413E1,6.593E1,6.996214E1,-2.6347885E0,6.951667E1,3.609E1,1.6106E2,2.9122138E0,1.2008178E0,3.7445405E0,-5.073613E-1,-1.3866708E0,-3.684844E-1,-2.315995E0,-4.1591078E-1,2.407677E0,3.57E1,2.7579699E1,-1.4570788E0,3.4326032E-1,2.8225706E0,3.1065178E-1,-1.4871601E0,-2.3346896E-1],"split_indices":[40,33,5,40,11,0,0,50,0,34,2,33,0,27,1,38,0,0,0,0,0,40,0,0,0,1,31,0,0,0,0,0,0],"split_type":[0,0,0,0,0,0,0,0,0,0,0,0,0,0,0,0,0,0,0,0,0,0,0,0,0,0,0,0,0,0,0,0,0],"sum_hessian":[2.44E2,2.28E2,1.6E1,9.5E1,1.33E2,1.1E1,5E0,6.3E1,3.2E1,1.19E2,1.4E1,1E1,5.3E1,2.2E1,1E1,1.14E2,5E0,6E0,8E0,5E0,5E0,1.2E1,1E1,5E0,5E0,1.6E1,9.8E1,6E0,6E0,5E0,1.1E1,3.6E1,6.2E1],"tree_param":{"num_deleted":"0","num_feature":"54","num_nodes":"33","size_leaf_vector":"1"}},{"base_weights":[1.7453742E0,-1.3499146E1,1.407789E2,-3.5744423E1,2.5951073E0,7.9770083E0,4.165693E0,-4.460064E1,-7.2366157E0,-4.191143E0,4.154599E0,-4.8283802E1,-2.6419142E1,-1.7229513E1,9.0328276E-1,-8.9938965E0,2.72887E1,-1.4765267E0,-2.537145E0,-1.9142466E0,-4.5420384E-1,-3.683556E-1,-1.3701915E0,-1.22553625E1,1.5837809E0,4.2400566E1,-2.4822514E-1,-1.3305036E0,-2.715358E-1,8.9640903E-1,2.9903095E0],"categories":[],"categories_nodes":[],"categories_segments":[],"categories_sizes":[],"default_left":[0,0,0,0,0,0,0,0,0,0,0,0,0,0,0,0,0,0,0,0,0,0,0,0,0,0,0,0,0,0,0],"id":2,"left_children":[1,3,5,7,9,-1,-1,11,13,15,-1,17,19,21,-1,23,25,-1,-1,-1,-1,-1,-1,27,-1,29,-1,-1,-1,-1,-1],"loss_changes":[5.148193E5,7.849939E4,1.2582906E4,2.290461E4,7.027106E4,0E0,0E0,3.4119531E3,6.126652E3,1.8237031E4,0E0,1.1301406E3,2.5319365E3,1.5039463E3,0E0,1.418299E4,8.008994E3,0E0,0E0,0E0,0E0,0E0,0E0,9.358171E3,0E0,3.6133125E3,0E0,0E0,0E0,0E0,0E0],"parents":[2147483647,0,0,1,1,2,2,3,3,4,4,7,7,8,8,9,9,11,11,12,12,13,13,15,15,16,16,23,23,25,25],"right_children":[2,4,6,8,10,-1,-1,12,14,16,-1,18,20,22,-1,24,26,-1,-1,-1,-1,-1,-1,28,-1,30,-1,-1,-1,-1,-1],"split_conditions":[9.159778E-1,2.2419E2,1.726E1,8.389964E1,1.7625085E-1,7.9770083E0,4.165693E0,1.748E2,1.6E0,4.085E2,4.154599E0,-3.873347E-1,1.6526745E1,6.735E1,9.0328276E-1,4.187E2,1.9730667E2,-1.4765267E0,-2.537145E0,-1.9142466E0,-4.5420384E-1,-3.683556E-1,-1.3701915E0,7.37535E2,1.5837809E0,3.216E1,-2.4822514E-1,-1.3305036E0,-2.715358E-1,8.9640903E-1,2.9903095E0],"split_indices":[40,0,7,33,48,0,0,21,6,23,0,48,31,15,0,24,27,0,0,0,0,0,0,13,0,4,0,0,0,0,0],"split_type":[0,0,0,0,0,0,0,0,0,0,0,0,0,0,0,0,0,0,0,0,0,0,0,0,0,0,0,0,0,0,0],"sum_hessian":[2.41E2,2.18E2,2.3E1,9.1E1,1.27E2,1.6E1,7E0,6.9E1,2.2E1,1.18E2,9E0,5.6E1,1.3E1,1.6E1,6E0,1.03E2,1.5E1,8E0,4.8E1,7E0,6E0,9E0,7E0,9.6E1,7E0,1E1,5E0,3E1,6.6E1,5E0,5E0],"tree_param":{"num_deleted":"0","num_feature":"54","num_nodes":"31","size_leaf_vector":"1"}},{"base_weights":[3.376644E0,-1.1541556E1,1.4019936E2,-3.847819E1,1.8135626E0,8.0358E0,4.210287E0,1.6324335E-1,-4.263759E1,2.902557E0,-1.6880974E0,-4.570903E1,-9.906355E-1,-4.680141E0,2.556377E0,-1.2386819E0,-2.368684E0,1.8672237E1,-1.1132038E1,2.6437814E0,4.247651E-1,-1.213493E0,-7.433637E-2],"categories":[],"categories_nodes":[],"categories_segments":[],"categories_sizes":[],"default_left":[0,0,0,0,0,0,0,0,0,0,0,0,0,0,0,0,0,0,0,0,0,0,0],"id":3,"left_children":[1,3,5,7,9,-1,-1,-1,11,-1,13,15,-1,17,-1,-1,-1,19,21,-1,-1,-1,-1],"loss_changes":[4.5679428E5,7.273767E4,1.17404375E4,1.1772156E4,2.6879777E4,0E0,0E0,0E0,3.3707969E3,0E0,2.0624727E4,6.734375E2,0E0,1.8739922E4,0E0,0E0,0E0,8.949119E3,1.2255598E4,0E0,0E0,0E0,0E0],"parents":[2147483647,0,0,1,1,2,2,3,3,4,4,8,8,10,10,11,11,13,13,17,17,18,18],"right_children":[2,4,6,8,10,-1,-1,-1,12,-1,14,16,-1,18,-1,-1,-1,20,22,-1,-1,-1,-1],"split_conditions":[9.159778E-1,1.4075E2,1.726E1,-9.231579E-1,7.3509E2,8.0358E0,4.210287E0,1.6324335E-1,1.20126165E-1,2.902557E0,8.600413E1,-8.702939E-1,-9.906355E-1,1.7509E2,2.556377E0,-1.2386819E0,-2.368684E0,2.922E1,1.7714E2,2.6437814E0,4.247651E-1,-1.213493E0,-7.433637E-2],"split_indices":[40,38,7,39,13,0,0,0,39,0,34,39,0,38,0,0,0,3,35,0,0,0,0],"split_type":[0,0,0,0,0,0,0,0,0,0,0,0,0,0,0,0,0,0,0,0,0,0,0],"sum_hessian":[2.22E2,2.01E2,2.1E1,6.6E1,1.35E2,1.4E1,7E0,6E0,6E1,7E0,1.28E2,5.2E1,8E0,1.22E2,6E0,5E0,4.7E1,2.6E1,9.6E1,5E0,2.1E1,4E1,5.6E1],"tree_param":{"num_deleted":"0","num_feature":"54","num_nodes":"23","size_leaf_vector":"1"}},{"base_weights":[-1.8528576E0,-1.1589058E1,5.3952518E0,-4.300975E1,-7.15764E-1,-8.608344E-1,-2.290836E0,-6.60658E0,4.3348003E1,-1.0628766E1,2.377458E0,3.90038E0,-7.0299435E-1,-2.4981043E1,-2.494603E0,-1.5972091E0,-1.8884428E-1,1.0562624E0,-5.726522E-1],"categories":[],"categories_nodes":[],"categories_segments":[],"categories_sizes":[],"default_left":[0,0,0,0,0,0,0,0,0,0,0,0,0,0,0,0,0,0,0],"id":4,"left_children":[1,3,-1,5,7,-1,-1,9,11,13,-1,-1,-1,15,17,-1,-1,-1,-1],"loss_changes":[2.4917147E5,7.308155E4,0E0,3.193211E3,4.181783E4,0E0,0E0,3.1436469E4,3.8901734E4,1.5464604E4,0E0,0E0,0E0,6.9664277E3,1.8439293E4,0E0,0E0,0E0,0E0],"parents":[2147483647,0,0,1,1,3,3,4,4,7,7,8,8,9,9,13,13,14,14],"right_children":[2,4,-1,6,8,-1,-1,10,12,14,-1,-1,-1,16,18,-1,-1,-1,-1],"split_conditions":[9.159778E-1,3.1E-1,5.3952518E0,2.0392004E3,1.731E2,-8.608344E-1,-2.290836E0,8.057015E1,1.14E0,7.3E1,2.377458E0,3.90038E0,-7.0299435E-1,7.4302E2,1.7509E2,-1.5972091E0,-1.8884428E-1,1.0562624E0,-5.726522E-1],"split_indices":[40,10,0,50,11,0,0,34,10,17,0,0,0,13,38,0,0,0,0],"split_type":[0,0,0,0,0,0,0,0,0,0,0,0,0,0,0,0,0,0,0],"sum_hessian":[2.31E2,2.13E2,1.8E1,5.4E1,1.59E2,6E0,4.8E1,1.41E2,1.8E1,1.32E2,9E0,1.1E1,7E0,4.7E1,8.5E1,3.5E1,1.2E1,2.3E1,6.2E1],"tree_param":{"num_deleted":"0","num_feature":"54","num_nodes":"19","size_leaf_vector":"1"}},{"base_weights":[-1.4777591E0,-1.1886708E1,1.20620346E2,-1.630549E1,5.145654E1,3.45977E0,1.4056654E2,-4.04102E1,-3.6686528E0,4.123867E0,8.940634E-1,4.2646823E0,8.393119E0,-1.7063752E-1,-4.393555E1,-7.4284134E0,2.753311E0,-2.2729661E0,-1.3983836E0,1.9374466E0,-9.69426E0,-6.725249E-1,4.237678E-1],"categories":[],"categories_nodes":[],"categories_segments":[],"categories_sizes":[],"default_left":[0,0,0,0,0,0,0,0,0,0,0,0,0,0,0,0,0,0,0,0,0,0,0],"id":5,"left_children":[1,3,5,7,9,-1,11,13,15,-1,-1,-1,-1,-1,17,19,-1,-1,-1,-1,21,-1,-1],"loss_changes":[2.912019E5,5.989792E4,8.736625E3,6.0163996E4,1.3106648E4,0E0,3.7870469E3,8.719242E3,2.9337662E4,0E0,0E0,0E0,0E0,0E0,2.3714844E2,1.3349855E4,0E0,0E0,0E0,0E0,8.235678E3,0E0,0E0],"parents":[2147483647,0,0,1,1,2,2,3,3,4,4,6,6,7,7,8,8,14,14,15,15,20,20],"right_children":[2,4,6,8,10,-1,12,14,16,-1,-1,-1,-1,-1,18,20,-1,-1,-1,-1,22,-1,-1],"split_conditions":[9.159778E-1,1.7625085E-1,8.899632E2,2.5946829E1,7.286E1,3.45977E0,1.7047917E2,-8.660254E-1,8.600413E1,4.123867E0,8.940634E-1,4.2646823E0,8.393119E0,-1.7063752E-1,1.95E2,9.834E0,2.753311E0,-2.2729661E0,-1.3983836E0,1.9374466E0,3.928E2,-6.725249E-1,4.237678E-1],"split_indices":[40,48,50,37,17,0,20,41,34,0,0,0,0,0,23,4,0,0,0,0,23,0,0],"split_type":[0,0,0,0,0,0,0,0,0,0,0,0,0,0,0,0,0,0,0,0,0,0,0],"sum_hessian":[2.27E2,2.1E2,1.7E1,1.97E2,1.3E1,6E0,1.1E1,6.7E1,1.3E2,6E0,7E0,5E0,6E0,6E0,6.1E1,1.23E2,7E0,5.4E1,7E0,5E0,1.18E2,9.8E1,2E1],"tree_param":{"num_deleted":"0","num_feature":"54","num_nodes":"23","size_leaf_vector":"1"}},{"base_weights":[7.321692E-1,-9.528548E0,1.1766774E2,-2.8384245E1,4.6499767E0,3.033205E0,6.631234E0,-3.688413E1,-1.2720995E1,-1.6964997E0,3.7019246E0,-5.025082E-1,-3.9024124E1,-3.8587787E0,-3.0123861E1,-4.804676E0,2.9338827E0,-2.0273588E0,-1.1067566E0,-1.1552268E1,1.1214658E0,-7.729075E-1,-1.9195532E0,-7.5944057E0,1.9860162E0,-1.6770586E0,-9.9327736E-2,-7.7824754E-1,2.5933957E-1],"categories":[],"categories_nodes":[],"categories_segments":[],"categories_sizes":[],"default_left":[0,0,0,0,0,0,0,0,0,0,0,0,0,0,0,0,0,0,0,0,0,0,0,0,0,0,0,0,0],"id":6,"left_children":[1,3,5,7,9,-1,-1,11,13,15,-1,-1,17,19,21,23,-1,-1,-1,25,-1,-1,-1,27,-1,-1,-1,-1,-1],"loss_changes":[2.9748238E5,6.1086855E4,9.006469E3,1.2578117E4,5.7814414E4,0E0,0E0,3.225539E3,5.435965E3,2.2988002E4,0E0,0E0,5.9441406E2,5.3152886E3,8.614785E2,1.4710328E4,0E0,0E0,0E0,4.14016E3,0E0,0E0,0E0,1.1286775E4,0E0,0E0,0E0,0E0,0E0],"parents":[2147483647,0,0,1,1,2,2,3,3,4,4,7,7,8,8,9,9,12,12,13,13,14,14,15,15,19,19,23,23],"right_children":[2,4,6,8,10,-1,-1,12,14,16,-1,-1,18,20,22,24,-1,-1,-1,26,-1,-1,-1,28,-1,-1,-1,-1,-1],"split_conditions":[9.159778E-1,2.2419E2,2.0147E2,-3.684844E-1,1.7625085E-1,3.033205E0,6.631234E0,5.552E1,1.726E2,8.600413E1,3.7019246E0,-5.025082E-1,1.725E2,7.0108545E-1,-4.0995425E-1,7.559973E-1,2.9338827E0,-2.0273588E0,-1.1067566E0,1.295E2,1.1214658E0,-7.729075E-1,-1.9195532E0,1.5673E2,1.9860162E0,-1.6770586E0,-9.9327736E-2,-7.7824754E-1,2.5933957E-1],"split_indices":[40,0,16,40,48,0,0,9,14,34,0,0,21,49,48,49,0,0,0,14,0,0,0,32,0,0,0,0,0],"split_type":[0,0,0,0,0,0,0,0,0,0,0,0,0,0,0,0,0,0,0,0,0,0,0,0,0,0,0,0,0],"sum_hessian":[2.46E2,2.27E2,1.9E1,9.7E1,1.3E2,5E0,1.4E1,6.2E1,3.5E1,1.2E2,1E1,5E0,5.7E1,2.4E1,1.1E1,1.15E2,5E0,5.1E1,6E0,1.9E1,5E0,5E0,6E0,1.09E2,6E0,5E0,1.4E1,6.7E1,4.2E1],"tree_param":{"num_deleted":"0","num_feature":"54","num_nodes":"29","size_leaf_vector":"1"}},{"base_weights":[1.3853381E0,-9.733363E0,1.2084211E2,-3.218681E1,2.7749007E0,6.9979625E0,3.2672348E0,7.893753E-1,-3.6463337E1,-6.6699237E-1,2.9609637E0,-3.849546E1,-1.0108916E0,4.9400604E1,-5.1758165E0,-4.0276302E1,-1.1766565E0,1.4736465E0,3.0547423E0,1.3813175E1,-1.0212291E1,-1.2520441E0,-2.1006312E0,2.2727563E0,1.0239162E-1,-6.5563554E-1,1.7981437E0],"categories":[],"categories_nodes":[],"categories_segments":[],"categories_sizes":[],"default_left":[0,0,0,0,0,0,0,0,0,0,0,0,0,0,0,0,0,0,0,0,0,0,0,0,0,0,0],"id":7,"left_children":[1,3,5,7,9,-1,-1,-1,11,13,-1,15,-1,17,19,21,-1,-1,-1,23,25,-1,-1,-1,-1,-1,-1],"loss_changes":[3.11976E5,6.047285E4,1.20734375E4,1.637325E4,2.7043791E4,0E0,0E0,0E0,1.565625E3,3.005416E4,0E0,7.041953E2,0E0,7.6278516E2,1.1808848E4,3.7646094E2,0E0,0E0,0E0,9.586156E3,1.3462528E4,0E0,0E0,0E0,0E0,0E0,0E0],"parents":[2147483647,0,0,1,1,2,2,3,3,4,4,8,8,9,9,11,11,13,13,14,14,15,15,19,19,20,20],"right_children":[2,4,6,8,10,-1,-1,-1,12,14,-1,16,-1,18,20,22,-1,-1,-1,24,26,-1,-1,-1,-1,-1,-1],"split_conditions":[9.159778E-1,1.4075E2,1.726E1,-9.231579E-1,8.600413E1,6.9979625E0,3.2672348E0,7.893753E-1,1.971E2,7.3509E2,2.9609637E0,2.1137407E1,-1.0108916E0,6.0805184E-1,1.7509E2,-8.4372824E-1,-1.1766565E0,1.4736465E0,3.0547423E0,3.57E1,4.713E2,-1.2520441E0,-2.1006312E0,2.2727563E0,1.0239162E-1,-6.5563554E-1,1.7981437E0],"split_indices":[40,38,7,39,34,0,0,0,23,13,0,34,0,49,38,39,0,0,0,1,25,0,0,0,0,0,0],"split_type":[0,0,0,0,0,0,0,0,0,0,0,0,0,0,0,0,0,0,0,0,0,0,0,0,0,0,0],"sum_hessian":[2.33E2,2.14E2,1.9E1,7.6E1,1.38E2,1.3E1,6E0,6E0,7E1,1.31E2,7E0,6.1E1,9E0,1E1,1.21E2,5.3E1,8E0,5E0,5E0,2.5E1,9.6E1,7E0,4.6E1,6E0,1.9E1,9.1E1,5E0],"tree_param":{"num_deleted":"0","num_feature":"54","num_nodes":"27","size_leaf_vector":"1"}},{"base_weights":[3.3115196E0,-7.2442474E0,1.0519291E2,-3.2008076E1,5.190934E0,1.257669E2,3.189341E0,-3.4616257E1,-2.16723E-1,-1.7446376E0,4.5504482E1,4.058193E0,8.213823E0,-1.9052228E0,-1.9934982E1,-6.9370213E0,4.89217E1,1.7734341E-1,3.6590326E0,-1.2340685E0,-5.8313423E-1,1.4855555E0,-9.799501E0,5.266095E-1,3.9578798E0,1.7717173E0,-6.2766117E-1],"categories":[],"categories_nodes":[],"categories_segments":[],"categories_sizes":[],"default_left":[0,0,0,0,0,0,0,0,0,0,0,0,0,0,0,0,0,0,0,0,0,0,0,0,0,0,0],"id":8,"left_children":[1,3,5,7,9,11,-1,13,-1,15,17,-1,-1,-1,19,21,23,-1,-1,-1,-1,-1,25,-1,-1,-1,-1],"loss_changes":[2.4058431E5,6.267852E4,9.867391E3,4.758047E3,3.8104652E4,8.9960625E3,0E0,2.4154844E3,0E0,3.1119623E4,2.2964965E4,0E0,0E0,0E0,2.6183838E2,1.1515941E4,1.1934449E4,0E0,0E0,0E0,0E0,0E0,1.2900961E4,0E0,0E0,0E0,0E0],"parents":[2147483647,0,0,1,1,2,2,3,3,4,4,5,5,7,7,9,9,10,10,14,14,15,15,16,16,22,22],"right_children":[2,4,6,8,10,12,-1,14,-1,16,18,-1,-1,-1,20,22,24,-1,-1,-1,-1,-1,26,-1,-1,-1,-1],"split_conditions":[9.159778E-1,6.832714E1,1.726E1,7.4201E2,1.4406E2,2.3857E2,3.189341E0,5.711E1,-2.16723E-1,8.057015E1,-9.850557E-1,4.058193E0,8.213823E0,-1.9052228E0,1.811E2,9.834E0,2.5698E2,1.7734341E-1,3.6590326E0,-1.2340685E0,-5.8313423E-1,1.4855555E0,5.73E0,5.266095E-1,3.9578798E0,1.7717173E0,-6.2766117E-1],"split_indices":[40,30,7,13,11,17,0,33,0,34,39,0,0,0,25,4,32,0,0,0,0,0,1,0,0,0,0],"split_type":[0,0,0,0,0,0,0,0,0,0,0,0,0,0,0,0,0,0,0,0,0,0,0,0,0,0,0],"sum_hessian":[2.22E2,2.02E2,2E1,6.7E1,1.35E2,1.2E1,8E0,6.1E1,6E0,1.16E2,1.9E1,7E0,5E0,4.8E1,1.3E1,1.06E2,1E1,8E0,1.1E1,7E0,6E0,7E0,9.9E1,5E0,5E0,5E0,9.4E1],"tree_param":{"num_deleted":"0","num_feature":"54","num_nodes":"27","size_leaf_vector":"1"}},{"base_weights":[1.454091E0,-9.084359E0,1.0127705E2,-2.9937576E1,1.620623E0,6.361248E0,3.344469E0,-3.1796598E1,-1.7846045E-1,-3.8156607E0,4.8989456E1,-3.31841E1,-7.383351E-1,-2.6682747E1,1.3012441E0,1.137563E0,3.4551988E0,-3.520047E1,-1.1806251E0,-5.539899E-1,-1.6895866E0,-1.1457548E0,1.8385811E0,-1.8248593E0,-1.1010523E0,7.1987045E-1,-4.228439E-1],"categories":[],"categories_nodes":[],"categories_segments":[],"categories_sizes":[],"default_left":[0,0,0,0,0,0,0,0,0,0,0,0,0,0,0,0,0,0,0,0,0,0,0,0,0,0,0],"id":9,"left_children":[1,3,5,7,9,-1,-1,11,-1,13,15,17,-1,19,21,-1,-1,23,-1,-1,-1,25,-1,-1,-1,-1,-1],"loss_changes":[2.5339506E5,4.8713367E4,1.2012625E4,3.5139531E3,3.752594E4,0E0,0E0,1.1403984E3,0E0,1.5362861E4,6.344328E3,3.8471875E2,0E0,2.2877031E3,9.416099E3,0E0,0E0,5.079297E1,0E0,0E0,0E0,1.1712831E4,0E0,0E0,0E0,0E0,0E0],"parents":[2147483647,0,0,1,1,2,2,3,3,4,4,7,7,9,9,10,10,11,11,13,13,14,14,17,17,21,21],"right_children":[2,4,6,8,10,-1,-1,12,-1,14,16,18,-1,20,22,-1,-1,24,-1,-1,-1,26,-1,-1,-1,-1,-1],"split_conditions":[9.159778E-1,7.257E1,3.844E2,6.2443333E1,1.6147E2,6.361248E0,3.344469E0,7.4213E2,-1.7846045E-1,-8.488827E-1,6.234898E-1,1.748E2,-7.383351E-1,7.52E1,8.380229E1,1.137563E0,3.4551988E0,2.5746465E3,-1.1806251E0,-5.539899E-1,-1.6895866E0,-3.4841082E-1,1.8385811E0,-1.8248593E0,-1.1010523E0,7.1987045E-1,-4.228439E-1],"split_indices":[40,29,14,27,11,0,0,13,0,40,44,22,0,16,34,0,0,50,0,0,0,40,0,0,0,0,0],"split_type":[0,0,0,0,0,0,0,0,0,0,0,0,0,0,0,0,0,0,0,0,0,0,0,0,0,0,0],"sum_hessian":[2.39E2,2.17E2,2.2E1,7.3E1,1.44E2,1.1E1,1.1E1,6.8E1,5E0,1.3E2,1.4E1,6.2E1,6E0,2.3E1,1.07E2,7E0,7E0,4.9E1,1.3E1,8E0,1.5E1,1.01E2,6E0,4.3E1,6E0,3.2E1,6.9E1],"tree_param":{"num_deleted":"0","num_feature":"54","num_nodes":"27","size_leaf_vector":"1"}},{"base_weights":[1.6370472E0,-7.5856485E0,9.334687E1,-2.5712622E1,2.7519307E0,1.1250076E2,2.7654133E0,-3.0928995E1,-7.18603E0,-3.8964927E0,5.2027584E1,6.5484705E0,3.4562886E0,-3.4041332E1,-3.4163374E-1,-1.5695055E0,1.1070211E1,-7.9145417E0,2.6421628E0,3.4804692E0,1.2872304E0,-1.7903441E0,-1.0813695E0,1.4141295E0,-3.993601E-1,-2.3447794E1,-5.4945606E-1,-7.486455E-1,-1.4739528E0,-3.1863025E-1,1.305495E0],"categories":[],"categories_nodes":[],"categories_segments":[],"categories_sizes":[],"default_left":[0,0,0,0,0,0,0,0,0,0,0,0,0,0,0,0,0,0,0,0,0,0,0,0,0,0,0,0,0,0,0],"id":10,"left_children":[1,3,5,7,9,11,-1,13,15,17,19,-1,-1,21,-1,-1,23,25,-1,-1,-1,-1,-1,-1,-1,27,29,-1,-1,-1,-1],"loss_changes":[1.94399E5,3.9235062E4,9.078125E3,7.122508E3,4.4101848E4,1.3606406E3,0E0,4.192168E3,8.301254E3,2.7548219E4,5.6015664E3,0E0,0E0,3.6530078E2,0E0,0E0,3.8341567E3,1.2800333E4,0E0,0E0,0E0,0E0,0E0,0E0,0E0,1.3987266E3,1.2119976E4,0E0,0E0,0E0,0E0],"parents":[2147483647,0,0,1,1,2,2,3,3,4,4,5,5,7,7,8,8,9,9,10,10,13,13,16,16,17,17,25,25,26,26],"right_children":[2,4,6,8,10,12,-1,14,16,18,20,-1,-1,22,-1,-1,24,26,-1,-1,-1,-1,-1,-1,-1,28,30,-1,-1,-1,-1],"split_conditions":[9.159778E-1,1.735E2,9.313E1,9E0,1.5547E2,1.3029E2,2.7654133E0,1.1999E2,1.291E2,8.600413E1,9.2751E1,6.5484705E0,3.4562886E0,2.4000711E1,-3.4163374E-1,-1.5695055E0,1.182E1,5E-1,2.6421628E0,3.4804692E0,1.2872304E0,-1.7903441E0,-1.0813695E0,1.4141295E0,-3.993601E-1,2.314E1,1.324244E3,-7.486455E-1,-1.4739528E0,-3.1863025E-1,1.305495E0],"split_indices":[40,24,3,45,11,12,0,19,21,34,19,0,0,34,0,0,5,41,0,0,0,0,0,0,0,4,50,0,0,0,0],"split_type":[0,0,0,0,0,0,0,0,0,0,0,0,0,0,0,0,0,0,0,0,0,0,0,0,0,0,0,0,0,0,0],"sum_hessian":[2.28E2,2.08E2,2E1,7.5E1,1.33E2,1.2E1,8E0,5.8E1,1.7E1,1.18E2,1.5E1,7E0,5E0,5.1E1,7E0,7E0,1E1,1.11E2,7E0,8E0,7E0,4.3E1,8E0,5E0,5E0,3.5E1,7.6E1,1.6E1,1.9E1,6.3E1,1.3E1],"tree_param":{"num_deleted":"0","num_feature":"54","num_nodes":"31","size_leaf_vector":"1"}},{"base_weights":[7.561692E-1,-7.763654E0,1.0116061E2,-2.5732088E1,2.012168E0,6.386749E0,3.2235086E0,-1.6954749E0,-1.601674E1,-3.7549493E0,3.8532753E1,-2.2551323E1,3.7724197E-1,-7.767766E0,2.4860313E0,1.6465907E-1,5.005973E1,-1.6292723E1,-1.5940238E0,-1.0279258E0,-2.2107218E1,3.38868E0,1.5360044E0,-4.3291894E-1,-1.1530614E0,7.436535E-1,-5.243799E-1,-1.3145171E0,-4.7247586E-1],"categories":[],"categories_nodes":[],"categories_segments":[],"categories_sizes":[],"default_left":[0,0,0,0,0,0,0,0,0,0,0,0,0,0,0,0,0,0,0,0,0,0,0,0,0,0,0,0,0],"id":11,"left_children":[1,3,5,7,9,-1,-1,-1,11,13,15,17,-1,19,-1,-1,21,23,-1,25,27,-1,-1,-1,-1,-1,-1,-1,-1],"loss_changes":[2.0779897E5,3.9398773E4,1.0290391E4,5.7331484E3,3.0894986E4,0E0,0E0,0E0,6.0208203E3,2.7638854E4,7.9592617E3,1.2322041E3,0E0,1.1478104E4,0E0,0E0,3.0566875E3,8.3378955E2,0E0,1.2490275E4,1.763623E3,0E0,0E0,0E0,0E0,0E0,0E0,0E0,0E0],"parents":[2147483647,0,0,1,1,2,2,3,3,4,4,8,8,9,9,10,10,11,11,13,13,16,16,17,17,19,19,20,20],"right_children":[2,4,6,8,10,-1,-1,-1,12,14,16,18,-1,20,-1,-1,22,24,-1,26,28,-1,-1,-1,-1,-1,-1,-1,-1],"split_conditions":[9.159778E-1,1.79E2,9.313E1,5.711E1,1.6147E2,6.386749E0,3.2235086E0,-1.6954749E0,1.88E0,8.380229E1,2.1018E2,-2.075976E-1,3.7724197E-1,3.418E1,2.4860313E0,1.6465907E-1,8.397E1,2.1068E2,-1.5940238E0,-3.4841082E-1,3.445E2,3.38868E0,1.5360044E0,-4.3291894E-1,-1.1530614E0,7.436535E-1,-5.243799E-1,-1.3145171E0,-4.7247586E-1],"split_indices":[40,21,3,33,11,0,0,0,6,34,0,48,0,8,0,0,19,0,0,40,21,0,0,0,0,0,0,0,0],"split_type":[0,0,0,0,0,0,0,0,0,0,0,0,0,0,0,0,0,0,0,0,0,0,0,0,0,0,0,0,0],"sum_hessian":[2.41E2,2.23E2,1.8E1,7.8E1,1.45E2,9E0,9E0,4.1E1,3.7E1,1.26E2,1.9E1,2.9E1,8E0,1.18E2,8E0,5E0,1.4E1,1.9E1,1E1,8.1E1,3.7E1,6E0,8E0,1E1,9E0,3E1,5.1E1,2.7E1,1E1],"tree_param":{"num_deleted":"0","num_feature":"54","num_nodes":"29","size_leaf_vector":"1"}},{"base_weights":[2.3219068E-1,-6.9311285E0,8.418931E1,-1.3938849E1,1.7156317E1,5.836277E0,2.9097035E0,-2.8035698E1,-4.636509E0,2.5674753E0,4.90806E1,-3.2046387E1,-1.7409332E1,-1.2551855E0,-4.391411E-1,-2.1938751E1,1.87827E1,3.3908417E0,1.64654E0,-2.2236166E1,-1.7618598E0,-2.0787834E-1,-2.279169E1,-1.1223176E1,1.0104315E1,-1.5506239E0,-5.628449E-1,2.631363E0,4.91707E0,-1.3216926E0,-6.1168057E-1,-4.8982072E-1,-1.44614E0,-8.435376E-1,1.2737035E0,1.543461E0,-1.0611063E-1,-2.0923029E-1,8.608512E-1],"categories":[],"categories_nodes":[],"categories_segments":[],"categories_sizes":[],"default_left":[0,0,0,0,0,0,0,0,0,0,0,0,0,0,0,0,0,0,0,0,0,0,0,0,0,0,0,0,0,0,0,0,0,0,0,0,0,0,0],"id":12,"left_children":[1,3,5,7,9,-1,-1,11,13,15,17,19,21,-1,23,25,27,-1,-1,29,-1,-1,31,33,35,-1,-1,-1,37,-1,-1,-1,-1,-1,-1,-1,-1,-1,-1],"loss_changes":[1.3770539E5,3.585553E4,8.431445E3,2.1375941E4,2.2229426E4,0E0,0E0,2.212332E3,8.5798125E3,1.3922783E4,2.3055352E3,6.563711E2,1.3317578E3,0E0,9.664287E3,1.00783496E3,9.596027E3,0E0,0E0,2.6444482E2,0E0,0E0,8.321167E2,9.134285E3,1.0982467E4,0E0,0E0,0E0,1.8632496E3,0E0,0E0,0E0,0E0,0E0,0E0,0E0,0E0,0E0,0E0],"parents":[2147483647,0,0,1,1,2,2,3,3,4,4,7,7,8,8,9,9,10,10,11,11,12,12,14,14,15,15,16,16,19,19,22,22,23,23,24,24,28,28],"right_children":[2,4,6,8,10,-1,-1,12,14,16,18,20,22,-1,24,26,28,-1,-1,30,-1,-1,32,34,36,-1,-1,-1,38,-1,-1,-1,-1,-1,-1,-1,-1,-1,-1],"split_conditions":[9.159778E-1,3.163E2,1.069E1,4.1E-1,1.4652E2,5.836277E0,2.9097035E0,1.971E2,-8.10531E-1,9.639E1,4.9E1,4.03E1,7.083E1,-1.2551855E0,1.874E2,2.218E2,3.7323E2,3.3908417E0,1.64654E0,4.247E1,-1.7618598E0,-2.0787834E-1,-3.1345174E-1,1E0,3.1407288E1,-1.5506239E0,-5.628449E-1,2.631363E0,5.1E-1,-1.3216926E0,-6.1168057E-1,-4.8982072E-1,-1.44614E0,-8.435376E-1,1.2737035E0,1.543461E0,-1.0611063E-1,-2.0923029E-1,8.608512E-1],"split_indices":[40,14,5,10,11,0,0,24,40,19,19,18,20,0,25,24,0,0,0,17,0,0,48,44,34,0,0,0,10,0,0,0,0,0,0,0,0,0,0],"split_type":[0,0,0,0,0,0,0,0,0,0,0,0,0,0,0,0,0,0,0,0,0,0,0,0,0,0,0,0,0,0,0,0,0,0,0,0,0,0,0],"sum_hessian":[2.27E2,2.1E2,1.7E1,1.63E2,4.7E1,6E0,1.1E1,6.4E1,9.9E1,3.3E1,1.4E1,4.5E1,1.9E1,1.6E1,8.3E1,1.3E1,2E1,5E0,9E0,1.3E1,3.2E1,6E0,1.3E1,4.1E1,4.2E1,6E0,7E0,5E0,1.5E1,8E0,5E0,5E0,8E0,3.6E1,5E0,1.5E1,2.7E1,9E0,6E0],"tree_param":{"num_deleted":"0","num_feature":"54","num_nodes":"39","size_leaf_vector":"1"}},{"base_weights":[1.9896723E0,-8.433103E0,6.625623E1,4.6732178E1,-1.1621153E1,2.1481873E1,9.508286E1,2.8039777E0,1.4019107E0,-2.8686764E1,-5.3282404E0,2.846427E0,-4.2373163E-1,1.07946045E2,2.2466946E0,-3.0375217E1,-4.9175954E-1,1.6482292E0,-7.4186177E0,6.943687E0,4.063156E0,-3.1823622E1,-7.224822E-1,-2.9791904E1,-4.1891866E0,-1.23178E0,-1.7469962E0,-7.643915E-1,-1.7097205E0,1.4757031E0,-3.20058E-1],"categories":[],"categories_nodes":[],"categories_segments":[],"categories_sizes":[],"default_left":[0,0,0,0,0,0,0,0,0,0,0,0,0,0,0,0,0,0,0,0,0,0,0,0,0,0,0,0,0,0,0],"id":13,"left_children":[1,3,5,7,9,11,13,-1,-1,15,17,-1,-1,19,-1,21,-1,-1,23,-1,-1,25,-1,27,29,-1,-1,-1,-1,-1,-1],"loss_changes":[1.680177E5,3.8530938E4,4.3131734E4,5.2450195E2,2.186259E4,1.6410322E4,8.696156E3,0E0,0E0,1.4519023E3,1.2331568E4,0E0,0E0,1.9185469E3,0E0,6.934961E2,0E0,0E0,1.0279627E4,0E0,0E0,1.4723438E2,0E0,6.2661816E2,9.656862E3,0E0,0E0,0E0,0E0,0E0,0E0],"parents":[2147483647,0,0,1,1,2,2,3,3,4,4,5,5,6,6,9,9,10,10,13,13,15,15,18,18,21,21,23,23,24,24],"right_children":[2,4,6,8,10,12,14,-1,-1,16,18,-1,-1,20,-1,22,-1,-1,24,-1,-1,26,-1,28,30,-1,-1,-1,-1,-1,-1],"split_conditions":[2.0262071E2,7.3509E2,7.069311E1,1.712E1,5.6406666E1,4.1105375E-1,3.914E2,2.8039777E0,1.4019107E0,1.955E2,1.295E2,2.846427E0,-4.2373163E-1,7.318527E1,2.2466946E0,8.092E1,-4.9175954E-1,1.6482292E0,2.5946829E1,6.943687E0,4.063156E0,4.5692856E1,-7.224822E-1,4.530971E0,9.834E0,-1.23178E0,-1.7469962E0,-7.643915E-1,-1.7097205E0,1.4757031E0,-3.20058E-1],"split_indices":[33,13,37,5,27,39,14,0,0,23,23,0,0,37,0,9,0,0,37,0,0,30,0,28,4,0,0,0,0,0,0],"split_type":[0,0,0,0,0,0,0,0,0,0,0,0,0,0,0,0,0,0,0,0,0,0,0,0,0,0,0,0,0,0,0],"sum_hessian":[2.49E2,2.15E2,3.4E1,1.1E1,2.04E2,1.4E1,2E1,6E0,5E0,5.4E1,1.5E2,6E0,8E0,1.5E1,5E0,4.9E1,5E0,7E0,1.43E2,5E0,1E1,4.4E1,5E0,1.7E1,1.26E2,1.6E1,2.8E1,5E0,1.2E1,7E0,1.19E2],"tree_param":{"num_deleted":"0","num_feature":"54","num_nodes":"31","size_leaf_vector":"1"}},{"base_weights":[-9.1673315E-1,-9.198121E0,8.19408E1,2.1287525E0,-1.1728139E1,1.7903111E0,9.4119965E1,-2.1774227E1,-1.363848E0,5.458708E0,2.9584138E0,7.521045E-1,-2.4786095E1,-4.4182153E0,1.9923388E0,-9.811597E-1,1.3896909E0,-2.8348036E1,-1.4391124E1,-1.4696339E0,-2.0709286E0,-1.0395259E0,-1.5953466E0,-1.8658774E-2,-9.399101E-1,1.1570551E0,-1.9452281E-1],"categories":[],"categories_nodes":[],"categories_segments":[],"categories_sizes":[],"default_left":[0,0,0,0,0,0,0,0,0,0,0,0,0,0,0,0,0,0,0,0,0,0,0,0,0,0,0],"id":14,"left_children":[1,3,5,-1,7,-1,9,11,13,-1,-1,15,17,19,-1,-1,-1,21,23,-1,25,-1,-1,-1,-1,-1,-1],"loss_changes":[1.5857403E5,2.8006605E4,8.429422E3,0E0,2.0898543E4,0E0,1.9590625E3,6.9389727E3,1.2763289E4,0E0,0E0,7.7081826E3,2.9244023E3,5.449618E3,0E0,0E0,0E0,1.1118008E3,1.5374404E3,0E0,4.0810657E3,0E0,0E0,0E0,0E0,0E0,0E0],"parents":[2147483647,0,0,1,1,2,2,4,4,6,6,7,7,8,8,11,11,12,12,13,13,17,17,18,18,20,20],"right_children":[2,4,6,-1,8,-1,10,12,14,-1,-1,16,18,20,-1,-1,-1,22,24,-1,26,-1,-1,-1,-1,-1,-1],"split_conditions":[9.159778E-1,7.3509E2,2.0147E2,2.1287525E0,5E-1,1.7903111E0,3.678E1,4.047271E0,5.8930332E1,5.458708E0,2.9584138E0,3.1E-1,2.499E2,5.244E1,1.9923388E0,-9.811597E-1,1.3896909E0,1.4206E2,6.969E1,-1.4696339E0,3.62E1,-1.0395259E0,-1.5953466E0,-1.8658774E-2,-9.399101E-1,1.1570551E0,-1.9452281E-1],"split_indices":[40,13,16,0,41,0,4,28,31,0,0,10,24,18,0,0,0,12,18,0,9,0,0,0,0,0,0],"split_type":[0,0,0,0,0,0,0,0,0,0,0,0,0,0,0,0,0,0,0,0,0,0,0,0,0,0,0],"sum_hessian":[2.29E2,2.09E2,2E1,9E0,2E2,5E0,1.5E1,1.01E2,9.9E1,9E0,6E0,1.2E1,8.9E1,9.3E1,6E0,7E0,5E0,6.5E1,2.4E1,7E0,8.6E1,2.3E1,4.2E1,6E0,1.8E1,5E0,8.1E1],"tree_param":{"num_deleted":"0","num_feature":"54","num_nodes":"27","size_leaf_vector":"1"}},{"base_weights":[2.288194E0,-7.1192765E0,5.8665718E1,-1.0493946E1,3.318896E1,2.5104374E1,8.090344E1,-2.5311914E1,-4.981642E0,2.1474822E0,4.8814425E-1,2.5131345E0,-1.5959917E-1,5.53038E0,3.0136275E0,-2.750695E1,-2.1323262E-1,1.6628675E0,-7.57072E0,-2.2858593E1,-3.153886E1,-2.3199274E1,-3.2902372E0,-1.2558587E0,-5.7601136E-1,-1.0635889E0,-1.7456025E0,-8.121886E-2,-1.5156778E0,1.2805898E0,-2.6605472E-1],"categories":[],"categories_nodes":[],"categories_segments":[],"categories_sizes":[],"default_left":[0,0,0,0,0,0,0,0,0,0,0,0,0,0,0,0,0,0,0,0,0,0,0,0,0,0,0,0,0,0,0],"id":15,"left_children":[1,3,5,7,9,11,13,15,17,-1,-1,-1,-1,-1,-1,19,-1,-1,21,23,25,27,29,-1,-1,-1,-1,-1,-1,-1,-1],"loss_changes":[1.2611533E5,2.8097787E4,2.3344117E4,1.5311646E4,3.2391582E3,1.0838767E4,5.589875E3,2.2388672E3,1.4013304E4,0E0,0E0,0E0,0E0,0E0,0E0,1.411836E2,0E0,0E0,8.687276E3,3.5086035E2,1.928125E1,4.2484775E3,6.240656E3,0E0,0E0,0E0,0E0,0E0,0E0,0E0,0E0],"parents":[2147483647,0,0,1,1,2,2,3,3,4,4,5,5,6,6,7,7,8,8,15,15,18,18,19,19,20,20,21,21,22,22],"right_children":[2,4,6,8,10,12,14,16,18,-1,-1,-1,-1,-1,-1,20,-1,-1,22,24,26,28,30,-1,-1,-1,-1,-1,-1,-1,-1],"split_conditions":[3.1273E2,1E1,7.000932E1,5.6406666E1,6.3416527E1,4.1105375E-1,7.377028E1,7.4201E2,1.295E2,2.1474822E0,4.8814425E-1,2.5131345E0,-1.5959917E-1,5.53038E0,3.0136275E0,6.809E1,-2.1323262E-1,1.6628675E0,1.698E2,5.891E1,1.5424E1,5.2474885E0,9.834E0,-1.2558587E0,-5.7601136E-1,-1.0635889E0,-1.7456025E0,-8.121886E-2,-1.5156778E0,1.2805898E0,-2.6605472E-1],"split_indices":[35,45,37,27,37,39,37,13,23,0,0,0,0,0,0,32,0,0,24,32,4,28,4,0,0,0,0,0,0,0,0],"split_type":[0,0,0,0,0,0,0,0,0,0,0,0,0,0,0,0,0,0,0,0,0,0,0,0,0,0,0,0,0,0,0],"sum_hessian":[2.36E2,2.03E2,3.3E1,1.88E2,1.5E1,1.4E1,1.9E1,5E1,1.38E2,1E1,5E0,7E0,7E0,6E0,1.3E1,4.5E1,5E0,8E0,1.3E2,2.4E1,2.1E1,2.7E1,1.03E2,1.9E1,5E0,7E0,1.4E1,7E0,2E1,6E0,9.7E1],"tree_param":{"num_deleted":"0","num_feature":"54","num_nodes":"31","size_leaf_vector":"1"}},{"base_weights":[-1.3528781E0,-8.522287E0,5.0417606E1,-2.2509624E1,-2.600013E-1,1.6883974E1,7.1122665E1,-2.4953735E1,5.3951122E-2,-5.37333E0,2.462119E1,1.9411833E0,-2.1667361E-1,8.989622E1,1.0860885E0,-2.6299482E1,-5.786606E-1,-1.657013E1,1.8333197E0,-2.3994838E-1,4.177549E1,2.6783876E0,5.8648367E0,-2.3679783E1,-1.7511635E0,-3.877065E0,-2.0949053E1,1.3002405E1,-1.1196371E1,2.5782163E0,1.3994163E0,-1.35763E0,-6.8831843E-1,8.1757814E-1,-1.0331011E0,-1.1672971E0,-5.5698776E-1,-8.6590044E-2,1.1228719E0,-8.4127295E-1,5.253498E-1],"categories":[],"categories_nodes":[],"categories_segments":[],"categories_sizes":[],"default_left":[0,0,0,0,0,0,0,0,0,0,0,0,0,0,0,0,0,0,0,0,0,0,0,0,0,0,0,0,0,0,0,0,0,0,0,0,0,0,0,0,0],"id":16,"left_children":[1,3,5,7,9,11,13,15,-1,17,19,-1,-1,21,-1,23,-1,25,27,-1,29,-1,-1,31,-1,33,35,37,39,-1,-1,-1,-1,-1,-1,-1,-1,-1,-1,-1,-1],"loss_changes":[8.542618E4,2.3338758E4,1.8240008E4,4.350918E3,1.641719E4,5.754293E3,1.3813617E4,9.2009766E2,0E0,8.664359E3,1.1303489E4,0E0,0E0,5.661703E3,0E0,5.6473047E2,0E0,2.2532217E3,9.750542E3,0E0,4.4624414E2,0E0,0E0,1.347582E3,0E0,4.4122964E3,4.6879785E2,5.0541387E3,3.96406E3,0E0,0E0,0E0,0E0,0E0,0E0,0E0,0E0,0E0,0E0,0E0,0E0],"parents":[2147483647,0,0,1,1,2,2,3,3,4,4,5,5,6,6,7,7,9,9,10,10,13,13,15,15,17,17,18,18,20,20,23,23,25,25,26,26,27,27,28,28],"right_children":[2,4,6,8,10,12,14,16,-1,18,20,-1,-1,22,-1,24,-1,26,28,-1,30,-1,-1,32,-1,34,36,38,40,-1,-1,-1,-1,-1,-1,-1,-1,-1,-1,-1,-1],"split_conditions":[1.5452856E2,4.1E-1,7.069311E1,4.050636E1,-2.3376858E-1,4.1105375E-1,7.4196E2,3.175E2,5.3951122E-2,5.8045495E-1,1.375E2,1.9411833E0,-2.1667361E-1,7.4125E2,1.0860885E0,7.417E1,-5.786606E-1,-9.231579E-1,4.3388373E-1,-2.3994838E-1,9.2751E1,2.6783876E0,5.8648367E0,1.42E2,-1.7511635E0,6.318E1,3.86E0,2.243E1,1.2296E2,2.5782163E0,1.3994163E0,-1.35763E0,-6.8831843E-1,8.1757814E-1,-1.0331011E0,-1.1672971E0,-5.5698776E-1,-8.6590044E-2,1.1228719E0,-8.4127295E-1,5.253498E-1],"split_indices":[33,10,37,31,48,39,13,24,0,39,24,0,0,13,0,16,0,39,43,0,19,0,0,24,0,1,6,8,16,0,0,0,0,0,0,0,0,0,0,0,0],"split_type":[0,0,0,0,0,0,0,0,0,0,0,0,0,0,0,0,0,0,0,0,0,0,0,0,0,0,0,0,0,0,0,0,0,0,0,0,0,0,0,0,0],"sum_hessian":[2.28E2,2.01E2,2.7E1,7.4E1,1.27E2,1.1E1,1.6E1,6.7E1,7E0,1.06E2,2.1E1,5E0,6E0,1.1E1,5E0,6E1,7E0,4.1E1,6.5E1,8E0,1.3E1,6E0,5E0,4.9E1,1.1E1,1.1E1,3E1,3.5E1,3E1,6E0,7E0,3.5E1,1.4E1,5E0,6E0,2.3E1,7E0,1.4E1,2.1E1,2.4E1,6E0],"tree_param":{"num_deleted":"0","num_feature":"54","num_nodes":"41","size_leaf_vector":"1"}},{"base_weights":[9.519139E-1,-6.086489E0,7.6842476E1,-1.514442E1,6.1285377E0,9.434623E1,2.0490768E0,1.4279491E1,-1.8001074E1,2.9679663E0,2.4414175E0,2.7240572E0,5.7519135E0,-8.107824E-1,2.1197357E0,-2.2101477E1,-5.496298E0,-6.153723E0,1.8467371E1,-2.4338661E1,-1.4995453E1,8.86464E0,-1.3967076E1,-2.0494617E1,-9.805662E-1,-8.10795E0,3.81111E1,-1.4665345E0,-9.82928E-1,-1.0142103E0,-1.602305E-1,1.2726922E0,-4.6010023E-1,-1.0427449E0,1.642189E-1,-1.3356589E0,-3.8755062E-1,-8.9262277E-1,2.246805E-1,5.9471804E-1,-1.229824E0,1.1958796E0,2.6431644E0],"categories":[],"categories_nodes":[],"categories_segments":[],"categories_sizes":[],"default_left":[0,0,0,0,0,0,0,0,0,0,0,0,0,0,0,0,0,0,0,0,0,0,0,0,0,0,0,0,0,0,0,0,0,0,0,0,0,0,0,0,0,0,0],"id":17,"left_children":[1,3,5,7,9,11,-1,13,15,17,-1,-1,-1,-1,-1,19,21,23,25,27,29,31,33,35,37,39,41,-1,-1,-1,-1,-1,-1,-1,-1,-1,-1,-1,-1,-1,-1,-1,-1],"loss_changes":[1.1958278E5,2.27746E4,8.059867E3,1.017541E4,1.1731189E4,3.6312734E3,0E0,1.0118612E4,5.4161797E3,1.1848244E4,0E0,0E0,0E0,0E0,0E0,9.2273047E2,3.5299666E3,3.911852E3,1.6492195E4,8.251914E2,1.3068921E3,3.5310503E3,2.2073435E3,9.0240186E2,3.7746094E3,4.9098804E3,2.5045723E3,0E0,0E0,0E0,0E0,0E0,0E0,0E0,0E0,0E0,0E0,0E0,0E0,0E0,0E0,0E0,0E0],"parents":[2147483647,0,0,1,1,2,2,3,3,4,4,5,5,7,7,8,8,9,9,15,15,16,16,17,17,18,18,19,19,20,20,21,21,22,22,23,23,24,24,25,25,26,26],"right_children":[2,4,6,8,10,12,-1,14,16,18,-1,-1,-1,-1,-1,20,22,24,26,28,30,32,34,36,38,40,42,-1,-1,-1,-1,-1,-1,-1,-1,-1,-1,-1,-1,-1,-1,-1,-1],"split_conditions":[9.089405E-1,1.3174E2,1.726E1,-9.231579E-1,8.926029E1,7.10705E1,2.0490768E0,6.234898E-1,8.4602886E-1,1.525176E3,2.4414175E0,2.7240572E0,5.7519135E0,-8.107824E-1,2.1197357E0,1.971E2,2.0269592E1,1.1378E2,-9.819472E-1,1.778E1,1.7894E2,4.3388373E-1,2.333E2,1.7509E2,3.831E1,2.2630105E3,3.7975E1,-1.4665345E0,-9.82928E-1,-1.0142103E0,-1.602305E-1,1.2726922E0,-4.6010023E-1,-1.0427449E0,1.642189E-1,-1.3356589E0,-3.8755062E-1,-8.9262277E-1,2.246805E-1,5.9471804E-1,-1.229824E0,1.1958796E0,2.6431644E0],"split_indices":[40,32,7,39,34,37,0,44,39,50,0,0,0,0,0,23,34,12,39,1,12,43,24,16,9,50,7,0,0,0,0,0,0,0,0,0,0,0,0,0,0,0,0],"split_type":[0,0,0,0,0,0,0,0,0,0,0,0,0,0,0,0,0,0,0,0,0,0,0,0,0,0,0,0,0,0,0,0,0,0,0,0,0,0,0,0,0,0,0],"sum_hessian":[2.22E2,2.04E2,1.8E1,1.17E2,8.7E1,1.1E1,7E0,1E1,1.07E2,8.2E1,5E0,5E0,6E0,5E0,5E0,8E1,2.7E1,5.2E1,3E1,5.9E1,2.1E1,1E1,1.7E1,1.3E1,3.9E1,1.3E1,1.7E1,2.6E1,3.3E1,1.4E1,7E0,5E0,5E0,1.2E1,5E0,8E0,5E0,9E0,3E1,6E0,7E0,1E1,7E0],"tree_param":{"num_deleted":"0","num_feature":"54","num_nodes":"43","size_leaf_vector":"1"}},{"base_weights":[-5.365773E-1,-6.5666485E0,6.129848E1,-1.936029E1,9.6322393E-1,4.355356E0,3.683379E1,-1.12015295E1,-2.3378815E1,-2.3990278E0,3.4225285E1,2.1609502E0,1.1622704E0,-1.4926106E1,7.862096E-2,-1.5624935E1,-3.0507696E1,-5.792807E0,1.9862072E0,5.907351E-1,2.4272516E0,-3.724961E-1,-8.7099594E-1,-2.1018307E1,-4.312792E-2,-7.660935E-1,-3.353806E1,-9.11746E0,1.4517159E1,-1.1576784E0,-6.2664926E-1,-1.1753014E0,-1.9804586E0,4.6870166E-1,-5.935349E-1,-9.3710884E-2,1.7929766E0],"categories":[],"categories_nodes":[],"categories_segments":[],"categories_sizes":[],"default_left":[0,0,0,0,0,0,0,0,0,0,0,0,0,0,0,0,0,0,0,0,0,0,0,0,0,0,0,0,0,0,0,0,0,0,0,0,0],"id":18,"left_children":[1,3,5,7,9,-1,11,13,15,17,19,-1,-1,21,-1,23,25,27,-1,-1,-1,-1,-1,29,-1,-1,31,33,35,-1,-1,-1,-1,-1,-1,-1,-1],"loss_changes":[8.392536E4,1.9767215E4,9.419523E3,2.229871E3,1.4620711E4,0E0,3.653418E1,1.3080645E3,2.2871426E3,1.7241969E4,3.2774229E3,0E0,0E0,2.6175098E2,0E0,2.0519648E3,6.365996E2,7.6274785E3,0E0,0E0,0E0,0E0,0E0,5.406543E1,0E0,0E0,2.870586E2,4.998778E3,5.664503E3,0E0,0E0,0E0,0E0,0E0,0E0,0E0,0E0],"parents":[2147483647,0,0,1,1,2,2,3,3,4,4,6,6,7,7,8,8,9,9,10,10,13,13,15,15,16,16,17,17,23,23,26,26,27,27,28,28],"right_children":[2,4,6,8,10,-1,12,14,16,18,20,-1,-1,22,-1,24,26,28,-1,-1,-1,-1,-1,30,-1,-1,32,34,36,-1,-1,-1,-1,-1,-1,-1,-1],"split_conditions":[9.159778E-1,1.725E2,1.535E1,-3.670518E-1,1.9968212E-1,4.355356E0,5.837234E1,3.5952515E1,1.3104982E1,8.007594E1,1.2944E2,2.1609502E0,1.1622704E0,8.47595E0,7.862096E-2,5.2917E1,1.6852E1,4.056E2,1.9862072E0,5.907351E-1,2.4272516E0,-3.724961E-1,-8.7099594E-1,5.95E0,-4.312792E-2,-7.660935E-1,1.3557482E1,1.855E2,1.5197715E3,-1.1576784E0,-6.2664926E-1,-1.1753014E0,-1.9804586E0,4.6870166E-1,-5.935349E-1,-9.3710884E-2,1.7929766E0],"split_indices":[40,21,7,48,48,0,31,28,31,34,12,0,0,28,0,17,2,23,0,0,0,0,0,28,0,0,28,21,50,0,0,0,0,0,0,0,0],"split_type":[0,0,0,0,0,0,0,0,0,0,0,0,0,0,0,0,0,0,0,0,0,0,0,0,0,0,0,0,0,0,0,0,0,0,0,0,0],"sum_hessian":[2.23E2,2.04E2,1.9E1,7.5E1,1.29E2,8E0,1.1E1,2.6E1,4.9E1,1.18E2,1.1E1,6E0,5E0,2E1,6E0,2.5E1,2.4E1,1.1E2,8E0,5E0,6E0,6E0,1.4E1,1.8E1,7E0,5E0,1.9E1,9.5E1,1.5E1,1.3E1,5E0,9E0,1E1,1.2E1,8.3E1,9E0,6E0],"tree_param":{"num_deleted":"0","num_feature":"54","num_nodes":"37","size_leaf_vector":"1"}},{"base_weights":[3.6195447E0,7.010635E1,-3.2646306E0,8.1380356E1,1.7161007E0,-1.5602458E1,5.3781743E0,2.8128357E0,5.693849E0,-1.768559E1,5.514441E-1,1.2111466E0,4.883245E1,-3.4435003E0,-2.1086044E1,-1.016727E0,1.8023783E0,3.268771E0,1.207537E0,4.7256436E0,-9.6039355E-1,-2.4736694E1,-1.5248138E1,-4.509994E0,1.978809E1,-5.220708E-1,1.0816469E0,-1.0683161E0,-1.756305E0,-8.9418566E-1,-2.3932996E-1,-8.0696785E-1,8.265824E-2,1.7180941E0,-5.114271E-1],"categories":[],"categories_nodes":[],"categories_segments":[],"categories_sizes":[],"default_left":[0,0,0,0,0,0,0,0,0,0,0,0,0,0,0,0,0,0,0,0,0,0,0,0,0,0,0,0,0,0,0,0,0,0,0],"id":19,"left_children":[1,3,5,7,-1,9,11,-1,-1,13,-1,15,17,19,21,23,-1,-1,-1,25,-1,27,29,31,33,-1,-1,-1,-1,-1,-1,-1,-1,-1,-1],"loss_changes":[1.0733228E5,6.082383E3,2.2796836E4,6.6566016E3,0E0,5.076994E3,2.275633E4,0E0,0E0,3.8986113E3,0E0,9.039544E3,2.9125312E3,2.2800535E3,1.0294141E3,8.0836895E3,0E0,0E0,0E0,3.303086E3,0E0,6.1511523E2,6.8641846E2,6.8356733E3,7.35077E3,0E0,0E0,0E0,0E0,0E0,0E0,0E0,0E0,0E0,0E0],"parents":[2147483647,0,0,1,1,2,2,3,3,5,5,6,6,9,9,11,11,12,12,13,13,14,14,15,15,19,19,21,21,22,22,23,23,24,24],"right_children":[2,4,6,8,-1,10,12,-1,-1,14,-1,16,18,20,22,24,-1,-1,-1,26,-1,28,30,32,34,-1,-1,-1,-1,-1,-1,-1,-1,-1,-1],"split_conditions":[1.278E1,1.726E1,2.2419E2,3.914E2,1.7161007E0,1.2162334E2,5.3404253E-3,2.8128357E0,5.693849E0,1.2633E2,5.514441E-1,8.600413E1,4.4573E2,2.447E1,1.453E2,4.056E2,1.8023783E0,3.268771E0,1.207537E0,1.855E2,-9.6039355E-1,2.114097E1,2.499E2,5.230943E-1,1.9581E2,-5.220708E-1,1.0816469E0,-1.0683161E0,-1.756305E0,-8.9418566E-1,-2.3932996E-1,-8.0696785E-1,8.265824E-2,1.7180941E0,-5.114271E-1],"split_indices":[8,7,0,23,0,27,48,0,0,12,0,34,0,4,24,23,0,0,0,25,0,37,23,39,16,0,0,0,0,0,0,0,0,0,0],"split_type":[0,0,0,0,0,0,0,0,0,0,0,0,0,0,0,0,0,0,0,0,0,0,0,0,0,0,0,0,0,0,0,0,0,0,0],"sum_hessian":[2.33E2,2.1E1,2.12E2,1.5E1,6E0,8.7E1,1.25E2,1E1,5E0,8.1E1,6E0,1.15E2,1E1,1.6E1,6.5E1,1.09E2,6E0,5E0,5E0,1.1E1,5E0,3.8E1,2.7E1,9.4E1,1.5E1,6E0,5E0,3.1E1,7E0,2.1E1,6E0,3.2E1,6.2E1,1E1,5E0],"tree_param":{"num_deleted":"0","num_feature":"54","num_nodes":"35","size_leaf_vector":"1"}},{"base_weights":[5.988117E-1,5.192146E1,-6.9593387E0,1.2767023E1,7.185711E1,-1.8850718E1,1.9325311E-1,1.3453177E0,-1.750072E-1,5.3037663E0,4.7904446E1,2.867293E-1,-2.071537E1,2.7222128E1,-3.4942596E0,1.3868312E0,3.0614388E0,-2.1998306E1,-3.1048062E-1,-5.777594E-1,2.3883152E0,1.0860125E0,-5.418743E0,-2.3147861E1,-3.609784E-1,-8.686257E0,1.0493755E1,-9.8104966E-1,-1.5249832E0,8.1200993E-1,-5.5502516E-1,1.3588948E0,-5.6570056E-3],"categories":[],"categories_nodes":[],"categories_segments":[],"categories_sizes":[],"default_left":[0,0,0,0,0,0,0,0,0,0,0,0,0,0,0,0,0,0,0,0,0,0,0,0,0,0,0,0,0,0,0,0,0],"id":20,"left_children":[1,3,5,7,9,11,13,-1,-1,-1,15,-1,17,19,21,-1,-1,23,-1,-1,-1,-1,25,27,-1,29,31,-1,-1,-1,-1,-1,-1],"loss_changes":[8.7639805E4,2.171911E4,1.6759314E4,2.624251E3,1.0491266E4,3.5111816E3,1.2454117E4,0E0,0E0,0E0,1.7951191E3,0E0,1.1474863E3,1.2501672E4,5.455437E3,0E0,0E0,9.0318555E2,0E0,0E0,0E0,0E0,5.4465664E3,9.0543945E2,0E0,5.355632E3,3.1884805E3,0E0,0E0,0E0,0E0,0E0,0E0],"parents":[2147483647,0,0,1,1,2,2,3,3,4,4,5,5,6,6,10,10,12,12,13,13,14,14,17,17,22,22,23,23,25,25,26,26],"right_children":[2,4,6,8,10,12,14,-1,-1,-1,16,-1,18,20,22,-1,-1,24,-1,-1,-1,-1,26,28,-1,30,32,-1,-1,-1,-1,-1,-1],"split_conditions":[1.611E1,7.000932E1,4.1E-1,1.44E1,7.377028E1,1.759E1,7.3539E2,1.3453177E0,-1.750072E-1,5.3037663E0,1.157E1,2.867293E-1,1.0022954E-1,-9.819472E-1,4.047271E0,1.3868312E0,3.0614388E0,3.709E2,-3.1048062E-1,-5.777594E-1,2.3883152E0,1.0860125E0,1.2353E2,7.085E1,-3.609784E-1,9.51E0,5.194E1,-9.8104966E-1,-1.5249832E0,8.1200993E-1,-5.5502516E-1,1.3588948E0,-5.6570056E-3],"split_indices":[8,37,10,5,37,8,13,0,0,0,8,0,49,39,28,0,0,24,0,0,0,0,16,16,0,4,2,0,0,0,0,0,0],"split_type":[0,0,0,0,0,0,0,0,0,0,0,0,0,0,0,0,0,0,0,0,0,0,0,0,0,0,0,0,0,0,0,0,0],"sum_hessian":[2.24E2,2.8E1,1.96E2,1E1,1.8E1,7.3E1,1.23E2,5E0,5E0,6E0,1.2E1,5E0,6.8E1,1.4E1,1.09E2,6E0,6E0,6.2E1,6E0,5E0,9E0,7E0,1.02E2,5.7E1,5E0,8.5E1,1.7E1,4.1E1,1.6E1,7E0,7.8E1,6E0,1.1E1],"tree_param":{"num_deleted":"0","num_feature":"54","num_nodes":"33","size_leaf_vector":"1"}},{"base_weights":[-2.4511746E-1,-6.8308787E0,4.2158382E1,-1.8911667E1,5.267361E-1,1.458649E1,6.881862E1,-2.0923765E1,-1.5685089E-1,-1.806268E1,3.7039628E0,1.8888439E0,-5.1123106E-1,4.411609E0,1.9188017E0,-1.8105368E1,-1.456406E0,-1.1068548E0,-5.537936E-1,2.4398324E0,1.1166036E0,-1.1033102E1,-2.339541E1,1.5848543E1,-3.6259522E0,-8.3207846E-1,3.9328426E-2,-6.805147E-1,-1.3167493E0,1.2499668E-1,2.2785213E0,1.0634835E-1,-1.1939667E0],"categories":[],"categories_nodes":[],"categories_segments":[],"categories_sizes":[],"default_left":[0,0,0,0,0,0,0,0,0,0,0,0,0,0,0,0,0,0,0,0,0,0,0,0,0,0,0,0,0,0,0,0,0],"id":21,"left_children":[1,3,5,7,9,11,13,15,-1,17,19,-1,-1,-1,-1,21,-1,-1,-1,-1,23,25,27,29,31,-1,-1,-1,-1,-1,-1,-1,-1],"loss_changes":[6.647244E4,1.8320434E4,2.2518516E4,2.4100938E3,7.686003E3,1.0167702E4,6.0699766E3,1.0681211E3,0E0,2.9568848E2,1.289599E4,0E0,0E0,0E0,0E0,1.7621562E3,0E0,0E0,0E0,0E0,7.463373E3,1.670346E3,5.044961E2,1.0201469E4,9.488592E3,0E0,0E0,0E0,0E0,0E0,0E0,0E0,0E0],"parents":[2147483647,0,0,1,1,2,2,3,3,4,4,5,5,6,6,7,7,9,9,10,10,15,15,20,20,21,21,22,22,23,23,24,24],"right_children":[2,4,6,8,10,12,14,16,-1,18,20,-1,-1,-1,-1,22,-1,-1,-1,-1,24,26,28,30,32,-1,-1,-1,-1,-1,-1,-1,-1],"split_conditions":[1.5452856E2,4.1E-1,7.069311E1,3.412E2,5.6406666E1,4.1105375E-1,1.726E1,9.939E1,-1.5685089E-1,4.7446667E1,1.4102816E1,1.8888439E0,-5.1123106E-1,4.411609E0,1.9188017E0,2.546E1,-1.456406E0,-1.1068548E0,-5.537936E-1,2.4398324E0,1.15E0,2.942E1,4.536714E1,2.787E1,5.774E1,-8.3207846E-1,3.9328426E-2,-6.805147E-1,-1.3167493E0,1.2499668E-1,2.2785213E0,1.0634835E-1,-1.1939667E0],"split_indices":[33,10,37,14,27,39,7,20,0,27,34,0,0,0,0,4,0,0,0,0,6,2,30,4,9,0,0,0,0,0,0,0,0],"split_type":[0,0,0,0,0,0,0,0,0,0,0,0,0,0,0,0,0,0,0,0,0,0,0,0,0,0,0,0,0,0,0,0,0],"sum_hessian":[2.36E2,2.05E2,3.1E1,7.7E1,1.28E2,1.6E1,1.5E1,6.8E1,9E0,1.8E1,1.1E2,8E0,8E0,8E0,7E0,5.3E1,1.5E1,1E1,8E0,5E0,1.05E2,2.4E1,2.9E1,2.5E1,8E1,1.6E1,8E0,8E0,2.1E1,1.8E1,7E0,6.3E1,1.7E1],"tree_param":{"num_deleted":"0","num_feature":"54","num_nodes":"33","size_leaf_vector":"1"}},{"base_weights":[-1.342106E0,-7.6817794E0,3.6553146E1,2.5807156E1,-9.672615E0,4.8213345E1,1.2906598E-1,1.8331137E0,6.408016E-1,-1.7958431E1,-4.4742846E0,8.4861547E-1,5.6737038E1,-1.9738745E1,-1.7921543E-2,-8.338879E0,6.3182116E0,3.6723092E0,1.8194498E0,-1.3773788E1,-2.2421791E1,-1.1511468E1,7.252097E0,2.0287766E1,-5.042921E0,-9.592255E-1,-1.3121542E-1,-5.763495E-1,-1.1883919E0,-7.2046715E-1,3.4611386E-1,-4.5777288E-1,1.8061966E0,2.688306E-1,1.6331475E0,2.902401E-1,-1.2234138E0],"categories":[],"categories_nodes":[],"categories_segments":[],"categories_sizes":[],"default_left":[0,0,0,0,0,0,0,0,0,0,0,0,0,0,0,0,0,0,0,0,0,0,0,0,0,0,0,0,0,0,0,0,0,0,0,0,0],"id":22,"left_children":[1,3,5,7,9,11,-1,-1,-1,13,15,-1,17,19,-1,21,23,-1,-1,25,27,29,31,33,35,-1,-1,-1,-1,-1,-1,-1,-1,-1,-1,-1,-1],"loss_changes":[5.8659973E4,1.4183855E4,1.37396875E4,1.2223774E3,8.447988E3,5.9605586E3,0E0,0E0,0E0,2.3742734E3,5.1828477E3,0E0,4.127332E3,7.9546094E2,0E0,4.5846836E3,5.3397383E3,0E0,0E0,1.3974956E3,4.0061523E2,4.1595645E3,7.910191E3,2.5923076E3,4.14573E3,0E0,0E0,0E0,0E0,0E0,0E0,0E0,0E0,0E0,0E0,0E0,0E0],"parents":[2147483647,0,0,1,1,2,2,3,3,4,4,5,5,9,9,10,10,12,12,13,13,15,15,16,16,19,19,20,20,21,21,22,22,23,23,24,24],"right_children":[2,4,6,8,10,12,-1,-1,-1,14,16,-1,18,20,-1,22,24,-1,-1,26,28,30,32,34,36,-1,-1,-1,-1,-1,-1,-1,-1,-1,-1,-1,-1],"split_conditions":[1.5245143E2,7.3509E2,9.711868E2,3.5146446E1,4.1E-1,3.8E-1,1.2906598E-1,1.8331137E0,6.408016E-1,4.050636E1,7.426E2,8.4861547E-1,1.3029E2,-9.4911104E-1,-1.7921543E-2,1E0,1.943E2,3.6723092E0,1.8194498E0,6.433E1,1.1254E2,8.0286586E-1,-4.5763212E-1,3.065E1,2.2028536E1,-9.592255E-1,-1.3121542E-1,-5.763495E-1,-1.1883919E0,-7.2046715E-1,3.4611386E-1,-4.5777288E-1,1.8061966E0,2.688306E-1,1.6331475E0,2.902401E-1,-1.2234138E0],"split_indices":[33,13,50,34,10,10,0,0,0,31,13,0,12,40,0,44,24,0,0,7,12,49,48,8,28,0,0,0,0,0,0,0,0,0,0,0,0],"split_type":[0,0,0,0,0,0,0,0,0,0,0,0,0,0,0,0,0,0,0,0,0,0,0,0,0,0,0,0,0,0,0,0,0,0,0,0,0],"sum_hessian":[2.42E2,2.08E2,3.4E1,1.1E1,1.97E2,2.5E1,9E0,5E0,6E0,7.5E1,1.22E2,6E0,1.9E1,6.8E1,7E0,9E1,3.2E1,9E0,1E1,2.3E1,4.5E1,7.5E1,1.5E1,1.4E1,1.8E1,1.5E1,8E0,6E0,3.9E1,6.5E1,1E1,1E1,5E0,7E0,7E0,1.2E1,6E0],"tree_param":{"num_deleted":"0","num_feature":"54","num_nodes":"37","size_leaf_vector":"1"}},{"base_weights":[1.5315232E0,-3.9873052E0,6.0588898E1,-1.5238856E1,2.823824E0,1.489395E0,7.386169E1,-1.7520947E1,-1.2518255E0,-5.5942196E-1,3.3554657E1,4.5620956E0,1.7740535E0,-1.9187271E1,-7.451523E0,-9.5412254E-1,6.1388105E-1,1.5843225E0,-3.264458E0,4.9006906E-1,2.283094E0,-1.1851405E1,-2.0891657E1,-3.0441348E-2,-6.126094E-1,-6.3633513E0,1.5703217E1,-8.084306E-1,-1.7001806E-1,-5.778749E-1,-1.1494342E0,2.4688612E-1,-5.221588E-1,-3.87796E-1,1.4602097E0],"categories":[],"categories_nodes":[],"categories_segments":[],"categories_sizes":[],"default_left":[0,0,0,0,0,0,0,0,0,0,0,0,0,0,0,0,0,0,0,0,0,0,0,0,0,0,0,0,0,0,0,0,0,0,0],"id":23,"left_children":[1,3,5,7,9,-1,11,13,15,17,19,-1,-1,21,23,-1,-1,-1,25,-1,-1,27,29,-1,-1,31,33,-1,-1,-1,-1,-1,-1,-1,-1],"loss_changes":[8.009383E4,1.728608E4,6.3849375E3,2.6912363E3,1.4678535E4,0E0,6.1015312E3,1.0818867E3,3.3703877E3,1.1268399E4,3.5786562E3,0E0,0E0,5.275996E2,3.8673444E2,0E0,0E0,0E0,7.0946025E3,0E0,0E0,4.5580933E2,6.934336E2,0E0,0E0,4.800525E3,5.610767E3,0E0,0E0,0E0,0E0,0E0,0E0,0E0,0E0],"parents":[2147483647,0,0,1,1,2,2,3,3,4,4,6,6,7,7,8,8,9,9,10,10,13,13,14,14,18,18,21,21,22,22,25,25,26,26],"right_children":[2,4,6,8,10,-1,12,14,16,18,20,-1,-1,22,24,-1,-1,-1,26,-1,-1,28,30,-1,-1,32,34,-1,-1,-1,-1,-1,-1,-1,-1],"split_conditions":[9.159778E-1,1.829E2,8.899632E2,1.88E0,5.3404253E-3,1.489395E0,4.085E2,7.4213E2,1.786E2,1.855E2,1.2944E2,4.5620956E0,1.7740535E0,3.874E1,2.1182293E-2,-9.5412254E-1,6.1388105E-1,1.5843225E0,7.1406685E1,4.9006906E-1,2.283094E0,1.980582E1,1.828E1,-3.0441348E-2,-6.126094E-1,7.3E1,9.1260724E-2,-8.084306E-1,-1.7001806E-1,-5.778749E-1,-1.1494342E0,2.4688612E-1,-5.221588E-1,-3.87796E-1,1.4602097E0],"split_indices":[40,21,50,6,48,0,14,13,25,21,12,0,0,15,49,0,0,0,34,0,0,34,4,0,0,20,40,0,0,0,0,0,0,0,0],"split_type":[0,0,0,0,0,0,0,0,0,0,0,0,0,0,0,0,0,0,0,0,0,0,0,0,0,0,0,0,0,0,0,0,0,0,0],"sum_hessian":[2.44E2,2.24E2,2E1,8.4E1,1.4E2,7E0,1.3E1,7.2E1,1.2E1,1.27E2,1.3E1,8E0,5E0,6.1E1,1.1E1,5E0,7E0,9E0,1.18E2,5E0,8E0,1.3E1,4.8E1,5E0,6E0,1.02E2,1.6E1,8E0,5E0,1E1,3.8E1,2.7E1,7.5E1,6E0,1E1],"tree_param":{"num_deleted":"0","num_feature":"54","num_nodes":"35","size_leaf_vector":"1"}},{"base_weights":[1.3303863E0,-3.9986227E0,5.3591095E1,3.0558655E1,-6.001982E0,1.4074464E0,6.6118835E1,1.896541E0,9.9370664E-1,-7.499814E0,1.5909802E0,1.3679622E0,4.230602E0,-1.7238647E1,-3.3420212E0,-1.801036E1,-3.7100586E-1,-2.6591895E-2,-1.328755E1,-5.03914E-1,-9.4886523E-1,-4.0318915E-1,4.568169E-1,5.4418724E-2,-8.1497043E-1],"categories":[],"categories_nodes":[],"categories_segments":[],"categories_sizes":[],"default_left":[0,0,0,0,0,0,0,0,0,0,0,0,0,0,0,0,0,0,0,0,0,0,0,0,0],"id":24,"left_children":[1,3,5,7,9,-1,11,-1,-1,13,-1,-1,-1,15,17,19,-1,21,23,-1,-1,-1,-1,-1,-1],"loss_changes":[6.6218266E4,1.5137233E4,5.150953E3,1.9137598E2,1.1851969E4,0E0,7.720121E3,0E0,0E0,7.9598135E3,0E0,0E0,0E0,3.1341016E2,4.615965E3,2.2291406E2,0E0,7.87996E3,1.5331792E3,0E0,0E0,0E0,0E0,0E0,0E0],"parents":[2147483647,0,0,1,1,2,2,3,3,4,4,6,6,9,9,13,13,14,14,15,15,17,17,18,18],"right_children":[2,4,6,8,10,-1,12,-1,-1,14,-1,-1,-1,16,18,20,-1,22,24,-1,-1,-1,-1,-1,-1],"split_conditions":[9.159778E-1,7.3509E2,8.899632E2,1.79E2,8.600413E1,1.4074464E0,1.7047917E2,1.896541E0,9.9370664E-1,7.171333E1,1.5909802E0,1.3679622E0,4.230602E0,8.092E1,3.424E1,3.521E1,-3.7100586E-1,1.3165E2,1.3165E2,-5.03914E-1,-9.4886523E-1,-4.0318915E-1,4.568169E-1,5.4418724E-2,-8.1497043E-1],"split_indices":[40,13,50,25,34,0,20,0,0,29,0,0,0,9,8,19,0,12,12,0,0,0,0,0,0],"split_type":[0,0,0,0,0,0,0,0,0,0,0,0,0,0,0,0,0,0,0,0,0,0,0,0,0],"sum_hessian":[2.36E2,2.15E2,2.1E1,1.1E1,2.04E2,8E0,1.3E1,5E0,6E0,1.97E2,7E0,5E0,8E0,5.8E1,1.39E2,5.3E1,5E0,1.05E2,3.4E1,7E0,4.6E1,5.6E1,4.9E1,6E0,2.8E1],"tree_param":{"num_deleted":"0","num_feature":"54","num_nodes":"25","size_leaf_vector":"1"}},{"base_weights":[4.7759932E-1,3.2333305E1,-4.318539E0,4.534942E1,1.3288783E1,1.838019E1,-8.292073E0,5.4942657E1,1.3245019E0,1.497325E0,-3.8235018E-1,-3.362127E0,4.1796135E1,-1.2498891E1,6.32358E0,1.7076811E0,3.3287294E0,-1.2225522E0,6.9226086E-1,3.0988183E0,1.2754191E0,-1.516495E1,-1.5786972E0,2.8381086E1,-5.3478518E0,-1.6767317E1,-4.7030954E0,-7.9293404E0,6.354627E-1,1.999696E0,7.33611E-1,5.633735E-1,-1.4281484E1,-8.7247276E-1,-2.8495333E-1,4.931779E-1,-6.110495E-1,-5.8537704E-1,1.4188589E-1,9.2689626E-2,-1.1251802E0],"categories":[],"categories_nodes":[],"categories_segments":[],"categories_sizes":[],"default_left":[0,0,0,0,0,0,0,0,0,0,0,0,0,0,0,0,0,0,0,0,0,0,0,0,0,0,0,0,0,0,0,0,0,0,0,0,0,0,0,0,0],"id":25,"left_children":[1,3,5,7,9,11,13,15,-1,-1,-1,17,19,21,23,-1,-1,-1,-1,-1,-1,25,27,29,31,33,35,37,-1,-1,-1,-1,39,-1,-1,-1,-1,-1,-1,-1,-1],"loss_changes":[3.6196742E4,7.0818164E3,1.873241E4,1.8011758E3,5.1113936E3,1.5923149E4,1.0900467E4,3.8622266E2,0E0,0E0,0E0,6.5075615E3,3.3494414E3,3.9646582E3,1.0449486E4,0E0,0E0,0E0,0E0,0E0,0E0,1.7651543E3,2.641431E3,1.6419844E3,4.1686655E3,6.1781445E2,1.8727112E3,8.4682495E2,0E0,0E0,0E0,0E0,2.4297083E3,0E0,0E0,0E0,0E0,0E0,0E0,0E0,0E0],"parents":[2147483647,0,0,1,1,2,2,3,3,4,4,5,5,6,6,7,7,11,11,12,12,13,13,14,14,21,21,22,22,23,23,24,24,25,25,26,26,27,27,32,32],"right_children":[2,4,6,8,10,12,14,16,-1,-1,-1,18,20,22,24,-1,-1,-1,-1,-1,-1,26,28,30,32,34,36,38,-1,-1,-1,-1,40,-1,-1,-1,-1,-1,-1,-1,-1],"split_conditions":[1.611E1,3.8365E2,-9.358349E-1,3.434E1,2.5107E2,-9.819472E-1,1.5673E2,7.4125E2,1.3245019E0,1.497325E0,-3.8235018E-1,6.3986E1,7.61E0,2.989E2,1.7351E2,1.7076811E0,3.3287294E0,-1.2225522E0,6.9226086E-1,3.0988183E0,1.2754191E0,1.2119346E-1,8.7240404E-1,9.8E-1,6.944521E-1,1.2251E2,8.7826164E1,3.614E2,6.354627E-1,1.999696E0,7.33611E-1,5.633735E-1,2.302E2,-8.7247276E-1,-2.8495333E-1,4.931779E-1,-6.110495E-1,-5.8537704E-1,1.4188589E-1,9.2689626E-2,-1.1251802E0],"split_indices":[8,32,39,4,18,39,32,13,0,0,0,7,5,25,32,0,0,0,0,0,0,40,39,6,39,18,36,0,0,0,0,0,14,0,0,0,0,0,0,0,0],"split_type":[0,0,0,0,0,0,0,0,0,0,0,0,0,0,0,0,0,0,0,0,0,0,0,0,0,0,0,0,0,0,0,0,0,0,0,0,0,0,0,0,0],"sum_hessian":[2.35E2,3E1,2.05E2,1.7E1,1.3E1,3E1,1.75E2,1E1,7E0,7E0,6E0,1.6E1,1.4E1,1.36E2,3.9E1,5E0,5E0,7E0,9E0,5E0,9E0,1.09E2,2.7E1,1.3E1,2.6E1,9.4E1,1.5E1,1.9E1,8E0,6E0,7E0,9E0,1.7E1,8.8E1,6E0,5E0,1E1,1.4E1,5E0,6E0,1.1E1],"tree_param":{"num_deleted":"0","num_feature":"54","num_nodes":"41","size_leaf_vector":"1"}},{"base_weights":[-2.231071E-1,-4.707316E0,5.0859444E1,-1.0477766E1,4.8224907E0,2.6995356E1,3.865757E0,-2.0248539E1,-5.640407E0,-6.6156864E0,1.4784159E1,6.1623245E-1,1.8583418E0,-2.6995552E1,-1.6293137E1,-1.0575702E1,1.5469705E-1,-1.2401926E1,2.6975932E0,-1.6820847E0,2.3077354E1,-1.638482E0,-6.917581E-1,-4.620207E-1,-1.7377436E1,-1.3586169E1,1.8223691E-1,-1.0817165E1,7.6093755E0,-1.5583232E1,-3.9551035E-2,-5.174517E-1,9.5432293E-1,6.100343E-1,-6.146448E-1,-3.0460867E-1,2.9683434E1,-4.5717403E-1,-9.531515E-1,-3.827779E-1,-9.7129977E-1,4.262204E-1,-9.7932607E-1,-3.419157E-1,6.803914E-1,-3.7744784E-1,-1.0627879E0,1.9992472E0,2.684994E-1],"categories":[],"categories_nodes":[],"categories_segments":[],"categories_sizes":[],"default_left":[0,0,0,0,0,0,0,0,0,0,0,0,0,0,0,0,0,0,0,0,0,0,0,0,0,0,0,0,0,0,0,0,0,0,0,0,0,0,0,0,0,0,0,0,0,0,0,0,0],"id":26,"left_children":[1,3,5,7,9,11,-1,13,15,17,19,-1,-1,21,23,25,27,29,31,33,35,-1,-1,-1,37,39,-1,41,43,45,-1,-1,-1,-1,-1,-1,47,-1,-1,-1,-1,-1,-1,-1,-1,-1,-1,-1,-1],"loss_changes":[5.1091805E4,1.132374E4,9.276988E3,5.9356777E3,8.985387E3,1.1833833E3,0E0,6.8101953E2,2.4898828E3,2.0273433E3,5.774246E3,0E0,0E0,6.1047656E2,6.119629E1,2.0615967E3,3.4357717E3,8.3724414E2,3.4048176E3,2.3595938E3,5.576331E3,0E0,0E0,0E0,1.5879639E2,1.201999E3,0E0,3.0503872E3,2.259649E3,6.5988477E2,0E0,0E0,0E0,0E0,0E0,0E0,5.5459785E3,0E0,0E0,0E0,0E0,0E0,0E0,0E0,0E0,0E0,0E0,0E0,0E0],"parents":[2147483647,0,0,1,1,2,2,3,3,4,4,5,5,7,7,8,8,9,9,10,10,13,13,14,14,15,15,16,16,17,17,18,18,19,19,20,20,24,24,25,25,27,27,28,28,29,29,36,36],"right_children":[2,4,6,8,10,12,-1,14,16,18,20,-1,-1,22,24,26,28,30,32,34,36,-1,-1,-1,38,40,-1,42,44,46,-1,-1,-1,-1,-1,-1,48,-1,-1,-1,-1,-1,-1,-1,-1,-1,-1,-1,-1],"split_conditions":[9.089405E-1,6.9856405E-2,2.3857E2,1.602E2,-2.707419E-1,6.234898E-1,3.865757E0,6.198E1,6.234898E-1,7.4189E2,1.829E2,6.1623245E-1,1.8583418E0,1.1999E2,-9.4911104E-1,3.98E2,2.787E1,1.1582E2,3.196E1,1.2633E2,1.215E2,-1.638482E0,-6.917581E-1,-4.620207E-1,5.703E1,2.3903E2,1.8223691E-1,1.4268E1,1.33E1,6.5E1,-3.9551035E-2,-5.174517E-1,9.5432293E-1,6.100343E-1,-6.146448E-1,-3.0460867E-1,1.1580666E2,-4.5717403E-1,-9.531515E-1,-3.827779E-1,-9.7129977E-1,4.262204E-1,-9.7932607E-1,-3.419157E-1,6.803914E-1,-3.7744784E-1,-1.0627879E0,1.9992472E0,2.684994E-1],"split_indices":[40,49,17,24,40,44,0,9,44,13,21,0,0,19,40,22,4,19,8,12,24,0,0,0,35,0,0,1,5,29,0,0,0,0,0,0,27,0,0,0,0,0,0,0,0,0,0,0,0],"split_type":[0,0,0,0,0,0,0,0,0,0,0,0,0,0,0,0,0,0,0,0,0,0,0,0,0,0,0,0,0,0,0,0,0,0,0,0,0,0,0,0,0,0,0,0,0,0,0,0,0],"sum_hessian":[2.21E2,2.04E2,1.7E1,1.27E2,7.7E1,1E1,7E0,4.1E1,8.6E1,3.6E1,4.1E1,5E0,5E0,1.3E1,2.8E1,4.6E1,4E1,2.2E1,1.4E1,1.4E1,2.7E1,8E0,5E0,5E0,2.3E1,3.8E1,8E0,1.6E1,2.4E1,1.7E1,5E0,8E0,6E0,6E0,8E0,5E0,2.2E1,5E0,1.8E1,2E1,1.8E1,5E0,1.1E1,7E0,1.7E1,8E0,9E0,1.5E1,7E0],"tree_param":{"num_deleted":"0","num_feature":"54","num_nodes":"49","size_leaf_vector":"1"}},{"base_weights":[7.1424913E-1,4.1800674E1,-4.9172897E0,5.9931565E-2,5.1901245E1,1.5479921E0,-6.424289E0,3.6898064E1,3.6403382E0,-1.480137E1,-2.1604807E0,2.3781834E0,1.01435E0,-1.5945204E1,1.2384924E-2,1.4752551E1,-3.7050645E0,-1.2859915E1,-2.153124E1,1.6048161E0,-1.11052215E-1,-1.0944678E1,-1.2542309E-1,-7.674443E-1,-1.8856888E-1,-1.1827463E0,-6.800603E-1,-1.0764184E-1,-7.1392626E-1,5.843275E-1,-4.263842E-1],"categories":[],"categories_nodes":[],"categories_segments":[],"categories_sizes":[],"default_left":[0,0,0,0,0,0,0,0,0,0,0,0,0,0,0,0,0,0,0,0,0,0,0,0,0,0,0,0,0,0,0],"id":27,"left_children":[1,3,5,-1,7,-1,9,11,-1,13,15,-1,-1,17,-1,19,21,23,25,-1,-1,27,29,-1,-1,-1,-1,-1,-1,-1,-1],"loss_changes":[5.758774E4,1.2240906E4,1.2039527E4,0E0,4.8411523E3,0E0,7.504577E3,1.869748E3,0E0,1.2261172E3,3.738086E3,0E0,0E0,8.6058984E2,0E0,3.6039207E3,3.3676062E3,9.60063E2,4.876367E1,0E0,0E0,1.2296182E3,8.83342E3,0E0,0E0,0E0,0E0,0E0,0E0,0E0,0E0],"parents":[2147483647,0,0,1,1,2,2,4,4,6,6,7,7,9,9,10,10,13,13,15,15,16,16,17,17,18,18,21,21,22,22],"right_children":[2,4,6,-1,8,-1,10,12,-1,14,16,-1,-1,18,-1,20,22,24,26,-1,-1,28,30,-1,-1,-1,-1,-1,-1,-1,-1],"split_conditions":[1.611E1,5.4759872E1,7.3507E2,5.9931565E-2,2.388E2,1.5479921E0,3.8E-1,1.85E0,3.6403382E0,3.911E2,4.047271E0,2.3781834E0,1.01435E0,7.725E1,1.2384924E-2,7.3557E2,1.4505617E1,5.629E1,4.3388373E-1,1.6048161E0,-1.11052215E-1,1.2238932E1,2.245183E1,-7.674443E-1,-1.8856888E-1,-1.1827463E0,-6.800603E-1,-1.0764184E-1,-7.1392626E-1,5.843275E-1,-4.263842E-1],"split_indices":[8,34,13,0,17,0,10,6,0,21,28,0,0,20,0,13,28,27,43,0,0,31,28,0,0,0,0,0,0,0,0],"split_type":[0,0,0,0,0,0,0,0,0,0,0,0,0,0,0,0,0,0,0,0,0,0,0,0,0,0,0,0,0,0,0],"sum_hessian":[2.47E2,2.9E1,2.18E2,6E0,2.3E1,8E0,2.1E2,1.5E1,8E0,7E1,1.4E2,8E0,7E0,6.5E1,5E0,1.1E1,1.29E2,4.4E1,2.1E1,5E0,6E0,4.2E1,8.7E1,3.4E1,1E1,1.5E1,6E0,1.2E1,3E1,3.6E1,5.1E1],"tree_param":{"num_deleted":"0","num_feature":"54","num_nodes":"31","size_leaf_vector":"1"}},{"base_weights":[8.483111E-1,4.6066647E1,-3.610876E0,5.4886456E1,1.0923039E0,-1.41044445E1,1.7792507E0,3.5634835E0,1.6845169E0,-1.565471E1,2.391227E-1,-6.6040826E0,7.4496713E0,-1.2778971E0,-1.378357E1,-1.5158193E1,-8.748325E-1,1.857959E0,5.006162E0,-9.951221E0,-1.6553167E1,-2.2037899E1,-1.3860919E-1,-5.4801745E0,6.263346E-1,1.4499816E0,1.3503286E0,-2.705126E-1,-8.337874E-1,-9.3969727E-1,-6.0024333E-1,-1.4955422E0,-6.197168E-1,1.9390984E-1,-6.3007635E-1,-1.3581815E-1,1.1150215E0],"categories":[],"categories_nodes":[],"categories_segments":[],"categories_sizes":[],"default_left":[0,0,0,0,0,0,0,0,0,0,0,0,0,0,0,0,0,0,0,0,0,0,0,0,0,0,0,0,0,0,0,0,0,0,0,0,0],"id":28,"left_children":[1,3,5,7,-1,9,11,-1,-1,13,-1,15,17,-1,19,21,23,-1,25,27,29,31,-1,33,-1,-1,35,-1,-1,-1,-1,-1,-1,-1,-1,-1,-1],"loss_changes":[4.492976E4,3.0733633E3,1.1507114E4,2.4605469E3,0E0,2.095167E3,6.466697E3,0E0,0E0,8.3366113E2,0E0,2.6822146E3,5.6942075E3,0E0,4.2966406E2,1.8135732E3,2.1670813E3,0E0,6.627267E3,7.037124E2,9.0325195E1,6.922007E2,0E0,1.7816221E3,0E0,0E0,5.7688145E3,0E0,0E0,0E0,0E0,0E0,0E0,0E0,0E0,0E0,0E0],"parents":[2147483647,0,0,1,1,2,2,3,3,5,5,6,6,9,9,11,11,12,12,14,14,15,15,16,16,18,18,19,19,20,20,21,21,23,23,26,26],"right_children":[2,4,6,8,-1,10,12,-1,-1,14,-1,16,18,-1,20,22,24,-1,26,28,30,32,-1,34,-1,-1,36,-1,-1,-1,-1,-1,-1,-1,-1,-1,-1],"split_conditions":[1.278E1,1.726E1,4.1E-1,3.479E1,1.0923039E0,5.919446E1,2.31035E2,3.5634835E0,1.6845169E0,2.878E1,2.391227E-1,6.508E1,4.419E1,-1.2778971E0,-9.4911104E-1,1.029E1,3.025E2,1.857959E0,4.954E1,3.368E1,2.354E1,7.2E1,-1.3860919E-1,-2.2252093E-1,6.263346E-1,1.4499816E0,4.028E2,-2.705126E-1,-8.337874E-1,-9.3969727E-1,-6.0024333E-1,-1.4955422E0,-6.197168E-1,1.9390984E-1,-6.3007635E-1,-1.3581815E-1,1.1150215E0],"split_indices":[8,7,10,4,0,34,0,0,0,7,0,18,19,0,40,5,22,0,2,4,5,2,0,44,0,0,25,0,0,0,0,0,0,0,0,0,0],"split_type":[0,0,0,0,0,0,0,0,0,0,0,0,0,0,0,0,0,0,0,0,0,0,0,0,0,0,0,0,0,0,0,0,0,0,0,0,0],"sum_hessian":[2.21E2,1.9E1,2.02E2,1.3E1,6E0,6.8E1,1.34E2,6E0,7E0,6.3E1,5E0,5.4E1,8E1,8E0,5.5E1,2.1E1,3.3E1,5E0,7.5E1,2.5E1,3E1,1.3E1,8E0,2.5E1,8E0,9E0,6.6E1,1.6E1,9E0,1.8E1,1.2E1,6E0,7E0,1.1E1,1.4E1,5.6E1,1E1],"tree_param":{"num_deleted":"0","num_feature":"54","num_nodes":"37","size_leaf_vector":"1"}},{"base_weights":[-1.4865955E0,-8.248957E0,1.2145256E1,-1.4096293E1,-2.8714952E0,6.9210734E0,3.327714E1,-1.7914248E1,-7.1841464E0,-6.9403653E0,2.4022154E1,1.14902315E1,-1.3455367E1,2.933771E0,7.355231E-1,-1.422996E1,-1.2791106E0,-7.264029E-1,-3.520179E0,-2.0238756E1,-3.0857234E0,3.891656E-1,1.8128653E0,-2.7237458E0,2.2004606E1,-1.1559228E0,3.0399323E-3,-3.640774E-1,-1.545885E1,-3.657585E-1,-3.8058758E-1,-1.2961781E0,-4.613177E-1,8.109053E-1,-7.0430684E0,-1.273757E1,7.1343E-1,8.923878E0,3.022932E1,-4.8239824E-1,-8.650403E-1,-2.2570086E-1,1.6083609E-1,4.9973765E-1,-5.0978696E-1,-2.0236969E-1,-1.2549134E0,-1.7213689E-1,8.5416776E-1,1.9782467E0,6.807093E-1],"categories":[],"categories_nodes":[],"categories_segments":[],"categories_sizes":[],"default_left":[0,0,0,0,0,0,0,0,0,0,0,0,0,0,0,0,0,0,0,0,0,0,0,0,0,0,0,0,0,0,0,0,0,0,0,0,0,0,0,0,0,0,0,0,0,0,0,0,0,0,0],"id":29,"left_children":[1,3,5,7,9,11,13,15,17,19,21,23,25,-1,-1,27,-1,-1,29,31,33,-1,-1,35,37,-1,-1,-1,39,-1,41,-1,-1,-1,43,45,-1,47,49,-1,-1,-1,-1,-1,-1,-1,-1,-1,-1,-1,-1],"loss_changes":[2.1394576E4,4.8333154E3,8.270242E3,1.8241816E3,9.139718E3,6.0201055E3,6.2102812E3,9.637627E2,7.0227856E2,3.6283071E3,1.9033291E3,7.831391E3,1.5687007E3,0E0,0E0,1.7775635E2,0E0,0E0,2.3551036E2,7.624741E2,4.468564E3,0E0,0E0,4.09539E3,2.957796E3,0E0,0E0,0E0,1.3277734E2,0E0,1.9295105E2,0E0,0E0,0E0,2.6802063E3,1.5096672E3,0E0,1.37058E3,2.253379E3,0E0,0E0,0E0,0E0,0E0,0E0,0E0,0E0,0E0,0E0,0E0,0E0],"parents":[2147483647,0,0,1,1,2,2,3,3,4,4,5,5,6,6,7,7,8,8,9,9,10,10,11,11,12,12,15,15,18,18,19,19,20,20,23,23,24,24,28,28,30,30,34,34,35,35,37,37,38,38],"right_children":[2,4,6,8,10,12,14,16,18,20,22,24,26,-1,-1,28,-1,-1,30,32,34,-1,-1,36,38,-1,-1,-1,40,-1,42,-1,-1,-1,44,46,-1,48,50,-1,-1,-1,-1,-1,-1,-1,-1,-1,-1,-1,-1],"split_conditions":[2.857E2,1.829E2,9.159778E-1,-3.2716033E-1,6.849E1,1.6463E2,1.606E0,6.85E1,8.24E-1,8.20913E1,1.29E0,1.1999E2,4.0651897E1,2.933771E0,7.355231E-1,-8.660254E-1,-1.2791106E0,-7.264029E-1,2.0373665E1,4.17E1,1.04E0,3.891656E-1,1.8128653E0,3.034E2,2.452E2,-1.1559228E0,3.0399323E-3,-3.640774E-1,3.685E1,-3.657585E-1,1.495E2,-1.2961781E0,-4.613177E-1,8.109053E-1,5.605E1,9.531E1,7.1343E-1,1.1886E2,3.175E2,-4.8239824E-1,-8.650403E-1,-2.2570086E-1,1.6083609E-1,4.9973765E-1,-5.0978696E-1,-2.0236969E-1,-1.2549134E0,-1.7213689E-1,8.5416776E-1,1.9782467E0,6.807093E-1],"split_indices":[24,21,40,39,9,16,6,29,6,36,6,29,28,0,0,41,0,0,31,2,6,0,0,14,25,0,0,0,27,0,22,0,0,0,2,17,0,12,21,0,0,0,0,0,0,0,0,0,0,0,0],"split_type":[0,0,0,0,0,0,0,0,0,0,0,0,0,0,0,0,0,0,0,0,0,0,0,0,0,0,0,0,0,0,0,0,0,0,0,0,0,0,0,0,0,0,0,0,0,0,0,0,0,0,0],"sum_hessian":[2.3E2,1.54E2,7.6E1,7.3E1,8.1E1,6.2E1,1.4E1,4.6E1,2.7E1,7.1E1,1E1,5.1E1,1.1E1,5E0,9E0,3.3E1,1.3E1,8E0,1.9E1,1.5E1,5.6E1,5E0,5E0,2.2E1,2.9E1,6E0,5E0,6E0,2.7E1,8E0,1.1E1,9E0,6E0,9E0,4.7E1,1.4E1,8E0,1.2E1,1.7E1,8E0,1.9E1,5E0,6E0,7E0,4E1,9E0,5E0,5E0,7E0,1E1,7E0],"tree_param":{"num_deleted":"0","num_feature":"54","num_nodes":"51","size_leaf_vector":"1"}},{"base_weights":[-6.945109E-1,-4.47271E0,4.321316E1,-5.809205E0,1.2936326E0,5.146852E-1,5.508267E1,-1.4121158E1,-5.3387094E-1,1.4797107E0,3.6351087E0,-1.577389E1,-2.6205237E0,-6.7774267E0,7.958014E0,-1.254264E0,-1.3928334E1,-5.937218E-1,3.5350713E-1,-1.0772614E1,1.1644297E0,1.518306E1,-8.235204E0,-3.0930373E-1,-7.886731E-1,7.361476E-2,-7.2263926E-1,5.817241E-1,-3.2956186E-1,4.5956936E-1,1.7876974E0,-8.0859405E-1,4.505341E-1],"categories":[],"categories_nodes":[],"categories_segments":[],"categories_sizes":[],"default_left":[0,0,0,0,0,0,0,0,0,0,0,0,0,0,0,0,0,0,0,0,0,0,0,0,0,0,0,0,0,0,0,0,0],"id":30,"left_children":[1,3,5,7,-1,-1,9,11,13,-1,-1,15,17,19,21,-1,23,-1,-1,25,27,29,31,-1,-1,-1,-1,-1,-1,-1,-1,-1,-1],"loss_changes":[3.768486E4,8.626593E3,6.4662773E3,8.805974E3,0E0,0E0,3.6866602E3,1.441248E3,6.6283604E3,0E0,0E0,8.191621E2,1.0703962E3,2.2970466E3,6.3258623E3,0E0,7.452656E2,0E0,0E0,2.1843188E3,2.1067412E3,4.2317705E3,2.4725947E3,0E0,0E0,0E0,0E0,0E0,0E0,0E0,0E0,0E0,0E0],"parents":[2147483647,0,0,1,1,2,2,3,3,6,6,7,7,8,8,11,11,12,12,13,13,14,14,16,16,19,19,20,20,21,21,22,22],"right_children":[2,4,6,8,-1,-1,10,12,14,-1,-1,16,18,20,22,-1,24,-1,-1,26,28,30,32,-1,-1,-1,-1,-1,-1,-1,-1,-1,-1],"split_conditions":[9.159778E-1,5.864274E-1,2.0147E2,8.20913E1,1.2936326E0,5.146852E-1,7.10705E1,8.495E1,1.5673E2,1.4797107E0,3.6351087E0,2.979E1,4.429E1,2.834E2,1.6463E2,-1.254264E0,4.759E1,-5.937218E-1,3.5350713E-1,7.666636E1,1.002E2,1.9086234E2,1.2199E2,-3.0930373E-1,-7.886731E-1,7.361476E-2,-7.2263926E-1,5.817241E-1,-3.2956186E-1,4.5956936E-1,1.7876974E0,-8.0859405E-1,4.505341E-1],"split_indices":[40,48,16,36,0,0,37,2,32,0,0,7,18,14,16,0,7,0,0,33,1,36,1,0,0,0,0,0,0,0,0,0,0],"split_type":[0,0,0,0,0,0,0,0,0,0,0,0,0,0,0,0,0,0,0,0,0,0,0,0,0,0,0,0,0,0,0,0,0],"sum_hessian":[2.25E2,2.08E2,1.7E1,2E2,8E0,5E0,1.2E1,7.7E1,1.23E2,6E0,6E0,6.7E1,1E1,7.1E1,5.2E1,9E0,5.8E1,5E0,5E0,4.7E1,2.4E1,3.6E1,1.6E1,1.2E1,4.6E1,1.1E1,3.6E1,1E1,1.4E1,2.9E1,7E0,1.1E1,5E0],"tree_param":{"num_deleted":"0","num_feature":"54","num_nodes":"33","size_leaf_vector":"1"}},{"base_weights":[-3.875773E-1,-2.821404E0,2.4200937E1,-1.08020315E1,1.7177854E0,1.9087E-1,1.5166104E0,-8.854595E0,-1.6185467E0,-1.6794468E0,3.1442198E1,-1.1045532E1,6.5338796E-1,2.139865E0,-1.06146E1,2.4943025E0,5.686776E-1,-1.2744617E1,1.4329576E-1,-1.1072177E1,6.781974E0,3.25352E-2,-1.2815972E1,-4.5196435E-1,-1.0341178E0,4.345902E-1,-8.522525E-1,1.3239995E0,2.1649864E-1,-7.573528E-1,-2.8930536E-2],"categories":[],"categories_nodes":[],"categories_segments":[],"categories_sizes":[],"default_left":[0,0,0,0,0,0,0,0,0,0,0,0,0,0,0,0,0,0,0,0,0,0,0,0,0,0,0,0,0,0,0],"id":31,"left_children":[1,3,5,7,9,-1,-1,11,-1,13,15,17,-1,19,21,-1,-1,23,-1,25,27,-1,29,-1,-1,-1,-1,-1,-1,-1,-1],"loss_changes":[1.3952131E4,7.698378E3,2.5087256E3,2.9476826E3,1.3786186E4,0E0,0E0,3.6025361E3,0E0,4.2202285E3,4.614622E3,1.5965503E3,0E0,5.410952E3,9.2590674E2,0E0,0E0,1.5483516E3,0E0,2.8632505E3,3.0248137E3,0E0,8.7555176E2,0E0,0E0,0E0,0E0,0E0,0E0,0E0,0E0],"parents":[2147483647,0,0,1,1,2,2,3,3,4,4,7,7,9,9,10,10,11,11,13,13,14,14,17,17,19,19,20,20,22,22],"right_children":[2,4,6,8,10,-1,-1,12,-1,14,16,18,-1,20,22,-1,-1,24,-1,26,28,-1,30,-1,-1,-1,-1,-1,-1,-1,-1],"split_conditions":[2.388E2,6.512E1,5.7692165E1,2.8959242E1,1.5547E2,1.9087E-1,1.5166104E0,2.0868547E1,-1.6185467E0,6E0,5.703E1,8.0286586E-1,6.5338796E-1,1.208E2,1.2238932E1,2.4943025E0,5.686776E-1,1.614E2,1.4329576E-1,3.1407288E1,4.1105375E-1,3.25352E-2,5.837234E1,-4.5196435E-1,-1.0341178E0,4.345902E-1,-8.522525E-1,1.3239995E0,2.1649864E-1,-7.573528E-1,-2.8930536E-2],"split_indices":[19,18,34,28,11,0,0,28,0,45,19,49,0,12,31,0,0,23,0,34,39,0,31,0,0,0,0,0,0,0,0],"split_type":[0,0,0,0,0,0,0,0,0,0,0,0,0,0,0,0,0,0,0,0,0,0,0,0,0,0,0,0,0,0,0],"sum_hessian":[2.31E2,2.11E2,2E1,7.6E1,1.35E2,5E0,1.5E1,7.1E1,5E0,1.22E2,1.3E1,6.5E1,6E0,8.6E1,3.6E1,6E0,7E0,5.8E1,7E0,2.2E1,6.4E1,6E0,3E1,4.1E1,1.7E1,5E0,1.7E1,6E0,5.8E1,2.5E1,5E0],"tree_param":{"num_deleted":"0","num_feature":"54","num_nodes":"31","size_leaf_vector":"1"}},{"base_weights":[1.3312532E0,-2.354185E0,4.374071E1,-1.1512333E1,2.4956305E0,2.4944519E1,3.6199627E0,-9.615543E0,-1.3216553E0,5.788182E-1,1.4061517E0,1.7772125E0,6.938328E-1,-1.0448951E1,4.3836404E-2,1.9257477E1,-1.7415016E0,-1.2775497E1,-7.200515E0,2.4373715E-1,1.7499247E0,-3.5506356E0,1.3561354E1,-4.6103463E-1,-8.321355E-1,-1.5150945E-1,-7.410558E-1,-8.811385E-1,-7.307318E-2,1.2014694E0,-1.3281263E-1],"categories":[],"categories_nodes":[],"categories_segments":[],"categories_sizes":[],"default_left":[0,0,0,0,0,0,0,0,0,0,0,0,0,0,0,0,0,0,0,0,0,0,0,0,0,0,0,0,0,0,0],"id":32,"left_children":[1,3,5,7,9,11,-1,13,-1,15,-1,-1,-1,17,-1,19,21,23,25,-1,-1,27,29,-1,-1,-1,-1,-1,-1,-1,-1],"loss_changes":[3.7145465E4,9.7556875E3,8.428793E3,1.896751E3,7.0574224E3,1.0318779E3,0E0,6.125205E2,0E0,5.884499E3,0E0,0E0,0E0,3.9169873E2,0E0,3.225374E3,3.3980264E3,3.414414E2,8.7672034E2,0E0,0E0,3.178748E3,2.2707922E3,0E0,0E0,0E0,0E0,0E0,0E0,0E0,0E0],"parents":[2147483647,0,0,1,1,2,2,3,3,4,4,5,5,7,7,9,9,13,13,15,15,16,16,17,17,18,18,21,21,22,22],"right_children":[2,4,6,8,10,12,-1,14,-1,16,-1,-1,-1,18,-1,20,22,24,26,-1,-1,28,30,-1,-1,-1,-1,-1,-1,-1,-1],"split_conditions":[9.159778E-1,1.79E2,2.388E2,1.00142054E-1,1.9968212E-1,1.5E0,3.6199627E0,1.185E2,-1.3216553E0,1.855E2,1.4061517E0,1.7772125E0,6.938328E-1,-3.2716033E-1,4.3836404E-2,2.2821E2,6.068684E1,4.8282856E1,1.1233E2,2.4373715E-1,1.7499247E0,9.960966E2,2.0795E2,-4.6103463E-1,-8.321355E-1,-1.5150945E-1,-7.410558E-1,-8.811385E-1,-7.307318E-2,1.2014694E0,-1.3281263E-1],"split_indices":[40,21,17,48,48,6,0,29,0,21,0,0,0,39,0,0,31,30,20,0,0,50,15,0,0,0,0,0,0,0,0],"split_type":[0,0,0,0,0,0,0,0,0,0,0,0,0,0,0,0,0,0,0,0,0,0,0,0,0,0,0,0,0,0,0],"sum_hessian":[2.36E2,2.18E2,1.8E1,7.5E1,1.43E2,1.2E1,6E0,6.8E1,7E0,1.34E2,9E0,5E0,7E0,6.3E1,5E0,1.4E1,1.2E2,3.5E1,2.8E1,8E0,6E0,1.08E2,1.2E1,2E1,1.5E1,1.9E1,9E0,1.3E1,9.5E1,7E0,5E0],"tree_param":{"num_deleted":"0","num_feature":"54","num_nodes":"31","size_leaf_vector":"1"}},{"base_weights":[6.2417126E-1,-2.770498E0,3.6406723E1,-1.1480098E1,1.0145347E0,4.0926185E-1,4.791699E1,-1.2428957E1,-1.1814531E-2,-5.3914948E0,8.427112E0,3.2343652E0,1.0952817E0,-6.460701E0,-1.5323943E1,-8.589001E0,5.326233E0,1.9123793E1,-1.9093947E0,-3.0390985E0,-7.2540957E-1,-2.4966171E-1,-1.6696304E1,-4.9042706E0,-2.0872053E1,1.6671835E1,-4.5662078E-1,-2.3863494E0,2.8185783E1,-7.5539813E0,1.1605936E1,-3.308208E-1,2.0129167E-1,-9.391495E-1,-4.9049807E-1,-4.5121527E-1,3.599616E-1,-5.516286E-1,-1.6076301E0,1.3234385E0,2.04813E-1,-3.583384E-1,1.395897E-1,1.7740465E0,7.212243E-1,-5.5648917E-1,3.110163E-1,-6.972822E-2,1.1336057E0],"categories":[],"categories_nodes":[],"categories_segments":[],"categories_sizes":[],"default_left":[0,0,0,0,0,0,0,0,0,0,0,0,0,0,0,0,0,0,0,0,0,0,0,0,0,0,0,0,0,0,0,0,0,0,0,0,0,0,0,0,0,0,0,0,0,0,0,0,0],"id":33,"left_children":[1,3,5,7,9,-1,11,13,-1,15,17,-1,-1,19,21,23,25,27,29,31,-1,-1,33,35,37,39,-1,41,43,45,47,-1,-1,-1,-1,-1,-1,-1,-1,-1,-1,-1,-1,-1,-1,-1,-1,-1,-1],"loss_changes":[2.803895E4,6.967498E3,6.1045254E3,6.798662E2,7.073243E3,0E0,4.690043E3,9.203994E2,0E0,2.7873462E3,7.66559E3,0E0,0E0,5.341499E2,4.695537E2,2.7037412E3,3.2690535E3,6.694701E3,2.8340557E3,4.310127E2,0E0,0E0,3.0430664E2,2.5084436E3,1.1992012E3,1.2468003E3,0E0,2.9229874E2,1.897584E3,1.3498403E3,1.6141421E3,0E0,0E0,0E0,0E0,0E0,0E0,0E0,0E0,0E0,0E0,0E0,0E0,0E0,0E0,0E0,0E0,0E0,0E0],"parents":[2147483647,0,0,1,1,2,2,3,3,4,4,6,6,7,7,9,9,10,10,13,13,14,14,15,15,16,16,17,17,18,18,19,19,22,22,23,23,24,24,25,25,27,27,28,28,29,29,30,30],"right_children":[2,4,6,8,10,-1,12,14,-1,16,18,-1,-1,20,22,24,26,28,30,32,-1,-1,34,36,38,40,-1,42,44,46,48,-1,-1,-1,-1,-1,-1,-1,-1,-1,-1,-1,-1,-1,-1,-1,-1,-1,-1],"split_conditions":[9.159778E-1,-7.7653664E-1,2.9E1,2.6190035E1,2.217E2,4.0926185E-1,7.318527E1,2.222E1,-1.1814531E-2,3.022E2,1.022E2,3.2343652E0,1.0952817E0,9.531E1,4.6581793E0,8.71E1,3.899E1,2.215725E2,2.74E0,2.711E1,-7.2540957E-1,-2.4966171E-1,2.123E1,8.17973E1,1.1047E2,1.4050333E2,-4.5662078E-1,1.005E2,2.782E2,2.597E1,3.422E2,-3.308208E-1,2.0129167E-1,-9.391495E-1,-4.9049807E-1,-4.5121527E-1,3.599616E-1,-5.516286E-1,-1.6076301E0,1.3234385E0,2.04813E-1,-3.583384E-1,1.395897E-1,1.7740465E0,7.212243E-1,-5.5648917E-1,3.110163E-1,-6.972822E-2,1.1336057E0],"split_indices":[40,40,4,31,25,0,37,4,0,22,3,0,0,20,28,27,1,0,6,2,0,0,5,36,20,27,0,11,14,5,26,0,0,0,0,0,0,0,0,0,0,0,0,0,0,0,0,0,0],"split_type":[0,0,0,0,0,0,0,0,0,0,0,0,0,0,0,0,0,0,0,0,0,0,0,0,0,0,0,0,0,0,0,0,0,0,0,0,0,0,0,0,0,0,0,0,0,0,0,0,0],"sum_hessian":[2.29E2,2.1E2,1.9E1,6.3E1,1.47E2,6E0,1.3E1,5.8E1,5E0,7.9E1,6.8E1,7E0,6E0,2E1,3.8E1,6.1E1,1.8E1,3.3E1,3.5E1,1.5E1,5E0,5E0,3.3E1,4.8E1,1.3E1,1E1,8E0,1E1,2.3E1,2.5E1,1E1,1E1,5E0,2.4E1,9E0,3.6E1,1.2E1,8E0,5E0,5E0,5E0,5E0,5E0,1.4E1,9E0,2E1,5E0,5E0,5E0],"tree_param":{"num_deleted":"0","num_feature":"54","num_nodes":"49","size_leaf_vector":"1"}},{"base_weights":[-3.097972E-1,-2.8357022E0,2.7624405E1,-4.8565793E0,1.773504E1,4.2892616E1,2.946941E-1,-8.73081E0,2.6719637E0,2.706555E0,8.6994255E-1,1.1105775E0,2.821246E0,-1.0619759E1,2.565307E0,-7.5855236E0,8.713993E0,-9.9877656E-1,9.500494E-1,-1.2093089E1,2.4163055E-1,-6.4214665E-1,1.4938839E1,2.7892974E-1,-1.2036223E1,1.518829E0,2.464791E1,-4.836006E-1,-1.1023544E0,-5.1508605E-1,4.7184297E-1,1.0866479E0,2.8274563E-1,-8.748066E-1,-2.0128222E-1,6.84297E-1,-3.6764544E-1,1.678549E0,4.3212494E-1],"categories":[],"categories_nodes":[],"categories_segments":[],"categories_sizes":[],"default_left":[0,0,0,0,0,0,0,0,0,0,0,0,0,0,0,0,0,0,0,0,0,0,0,0,0,0,0,0,0,0,0,0,0,0,0,0,0,0,0],"id":34,"left_children":[1,3,5,7,9,11,-1,13,15,-1,17,-1,-1,19,21,23,25,-1,-1,27,29,-1,31,-1,33,35,37,-1,-1,-1,-1,-1,-1,-1,-1,-1,-1,-1,-1],"loss_changes":[1.6165819E4,8.81603E3,6.051134E3,5.6234536E3,1.1615549E4,1.8252012E3,0E0,2.7371406E3,4.156519E3,0E0,5.670858E3,0E0,0E0,1.7471855E3,3.814291E3,1.5318838E3,4.777744E3,0E0,0E0,2.1003008E3,1.4544954E3,0E0,5.7093945E2,0E0,7.6057056E2,3.3389338E3,1.5664893E3,0E0,0E0,0E0,0E0,0E0,0E0,0E0,0E0,0E0,0E0,0E0,0E0],"parents":[2147483647,0,0,1,1,2,2,3,3,4,4,5,5,7,7,8,8,10,10,13,13,14,14,15,15,16,16,19,19,20,20,22,22,24,24,25,25,26,26],"right_children":[2,4,6,8,10,12,-1,14,16,-1,18,-1,-1,20,22,24,26,-1,-1,28,30,-1,32,-1,34,36,38,-1,-1,-1,-1,-1,-1,-1,-1,-1,-1,-1,-1],"split_conditions":[9.159778E-1,1.9968212E-1,1.501E1,2.681E2,7.61E0,3.757E2,2.946941E-1,1.1999E2,5.4671127E-1,2.706555E0,2.273E1,1.1105775E0,2.821246E0,3.345E2,1.208E2,-4.3388373E-1,1.22972855E2,-9.9877656E-1,9.500494E-1,8.71E1,4.4E-1,-6.4214665E-1,3.5731E2,2.7892974E-1,-3.4211278E-1,3.7510918E1,3.175E2,-4.836006E-1,-1.1023544E0,-5.1508605E-1,4.7184297E-1,1.0866479E0,2.8274563E-1,-8.748066E-1,-2.0128222E-1,6.84297E-1,-3.6764544E-1,1.678549E0,4.3212494E-1],"split_indices":[40,48,5,25,5,23,0,16,39,0,4,0,0,24,12,43,30,0,0,27,10,0,0,0,48,37,21,0,0,0,0,0,0,0,0,0,0,0,0],"split_type":[0,0,0,0,0,0,0,0,0,0,0,0,0,0,0,0,0,0,0,0,0,0,0,0,0,0,0,0,0,0,0,0,0,0,0,0,0,0,0],"sum_hessian":[2.27E2,2.09E2,1.8E1,1.91E2,1.8E1,1E1,8E0,1.26E2,6.5E1,5E0,1.3E1,5E0,5E0,1.08E2,1.8E1,2.4E1,4.1E1,6E0,7E0,9.5E1,1.3E1,8E0,1E1,6E0,1.8E1,2.9E1,1.2E1,7.8E1,1.7E1,6E0,7E0,5E0,5E0,1E1,8E0,1.2E1,1.7E1,7E0,5E0],"tree_param":{"num_deleted":"0","num_feature":"54","num_nodes":"39","size_leaf_vector":"1"}},{"base_weights":[5.543545E-1,-1.8599205E0,3.2357956E1,-9.493919E0,1.9973409E0,2.644035E0,5.260095E-1,-1.2600801E1,1.1162219E0,-3.4528816E-1,2.3272997E1,-9.957206E0,-2.226998E1,-1.0743572E1,1.2324886E0,-4.8992524E0,7.607273E0,2.1115768E0,4.0240407E-1,3.0098274E-1,-1.2104805E1,-1.4788705E0,-5.625443E-1,-7.437925E-1,-2.833412E-1,-8.076311E0,5.353443E0,1.8459414E1,-5.563769E0,-2.2274016E-1,-7.612139E-1,-1.307552E-1,-6.1852795E-1,7.348993E-1,-5.25031E-1,1.5197943E0,3.0285078E-1,-1.3012037E0,9.923978E-2],"categories":[],"categories_nodes":[],"categories_segments":[],"categories_sizes":[],"default_left":[0,0,0,0,0,0,0,0,0,0,0,0,0,0,0,0,0,0,0,0,0,0,0,0,0,0,0,0,0,0,0,0,0,0,0,0,0,0,0],"id":35,"left_children":[1,3,5,7,9,-1,-1,11,13,15,17,19,21,23,-1,25,27,-1,-1,-1,29,-1,-1,-1,-1,31,33,35,37,-1,-1,-1,-1,-1,-1,-1,-1,-1,-1],"loss_changes":[1.7413062E4,6.2321387E3,6.61442E3,2.354542E3,7.035613E3,0E0,0E0,1.1841309E3,5.0095786E3,4.672877E3,3.701108E3,1.6169019E3,5.529619E2,1.674436E2,0E0,2.714256E3,6.8206025E3,0E0,0E0,0E0,8.867378E2,0E0,0E0,0E0,0E0,1.4451118E3,3.1173174E3,3.664956E3,3.4494634E3,0E0,0E0,0E0,0E0,0E0,0E0,0E0,0E0,0E0,0E0],"parents":[2147483647,0,0,1,1,2,2,3,3,4,4,7,7,8,8,9,9,10,10,11,11,12,12,13,13,15,15,16,16,20,20,25,25,26,26,27,27,28,28],"right_children":[2,4,6,8,10,-1,-1,12,14,16,18,20,22,24,-1,26,28,-1,-1,-1,30,-1,-1,-1,-1,32,34,36,38,-1,-1,-1,-1,-1,-1,-1,-1,-1,-1],"split_conditions":[9.159778E-1,1.698E2,1.535E1,7.555E1,1.4652E2,2.644035E0,5.260095E-1,9.939E1,5.727E1,1.3593E2,3.611E2,3.045E1,2.7E2,-2.2252093E-1,1.2324886E0,7.4302E2,1.4246E2,2.1115768E0,4.0240407E-1,3.0098274E-1,4.590143E1,-1.4788705E0,-5.625443E-1,-7.437925E-1,-2.833412E-1,1.766E1,8.997714E1,3.332326E1,-2.2252093E-1,-2.2274016E-1,-7.612139E-1,-1.307552E-1,-6.1852795E-1,7.348993E-1,-5.25031E-1,1.5197943E0,3.0285078E-1,-1.3012037E0,9.923978E-2],"split_indices":[40,24,7,9,11,0,0,29,15,29,24,7,21,44,0,13,15,0,0,0,30,0,0,0,0,5,30,28,44,0,0,0,0,0,0,0,0,0,0],"split_type":[0,0,0,0,0,0,0,0,0,0,0,0,0,0,0,0,0,0,0,0,0,0,0,0,0,0,0,0,0,0,0,0,0,0,0,0,0,0,0],"sum_hessian":[2.25E2,2.1E2,1.5E1,7E1,1.4E2,7E0,8E0,5.4E1,1.6E1,1.27E2,1.3E1,4.4E1,1E1,1.1E1,5E0,8.1E1,4.6E1,5E0,8E0,5E0,3.9E1,5E0,5E0,5E0,6E0,6.2E1,1.9E1,2.5E1,2.1E1,1.2E1,2.7E1,2.8E1,3.4E1,1.2E1,7E0,1.2E1,1.3E1,5E0,1.6E1],"tree_param":{"num_deleted":"0","num_feature":"54","num_nodes":"39","size_leaf_vector":"1"}},{"base_weights":[1.484918E0,-1.2093191E0,2.9126362E1,-1.0721986E1,1.9495355E0,2.3094716E0,1.2479939E1,-9.8419875E-1,-8.237807E0,-1.1948419E1,4.920581E0,-5.617055E-2,1.3135263E0,-1.0745724E1,-2.0961483E0,-2.1262775E-1,-1.3771141E1,2.5473607E0,2.0204992E1,-1.2747699E1,-1.3977306E-2,2.5616562E-1,-3.3381087E-1,-3.170215E-1,-1.5482982E1,4.665157E0,-1.230585E1,-1.1854108E-2,2.8085566E1,-7.3918605E-1,-2.5546956E-1,-9.463013E-1,-4.406712E-1,1.3072059E-1,1.0882801E0,-1.2092392E0,5.5565834E-2,2.311364E0,5.4842925E-1],"categories":[],"categories_nodes":[],"categories_segments":[],"categories_sizes":[],"default_left":[0,0,0,0,0,0,0,0,0,0,0,0,0,0,0,0,0,0,0,0,0,0,0,0,0,0,0,0,0,0,0,0,0,0,0,0,0,0,0],"id":36,"left_children":[1,3,5,7,9,-1,11,-1,13,15,17,-1,-1,19,21,-1,23,25,27,29,-1,-1,-1,-1,31,33,35,-1,37,-1,-1,-1,-1,-1,-1,-1,-1,-1,-1],"loss_changes":[1.761076E4,6.5115156E3,5.388379E3,1.0400591E3,6.7893E3,0E0,2.280691E3,0E0,6.55197E2,3.482329E2,4.8454224E3,0E0,0E0,6.4598E2,4.971231E2,0E0,1.94396E2,3.769225E3,2.9063735E3,3.2881006E2,0E0,0E0,0E0,0E0,2.4654102E2,3.5902366E3,2.4176018E3,0E0,3.5298594E3,0E0,0E0,0E0,0E0,0E0,0E0,0E0,0E0,0E0,0E0],"parents":[2147483647,0,0,1,1,2,2,3,3,4,4,6,6,8,8,9,9,10,10,13,13,14,14,16,16,17,17,18,18,19,19,24,24,25,25,26,26,28,28],"right_children":[2,4,6,8,10,-1,12,-1,14,16,18,-1,-1,20,22,-1,24,26,28,30,-1,-1,-1,-1,32,34,36,-1,38,-1,-1,-1,-1,-1,-1,-1,-1,-1,-1],"split_conditions":[9.159778E-1,-8.488827E-1,1.535E1,2.979E1,5.1786667E1,2.3094716E0,2.495E2,-9.8419875E-1,2.16E2,5.703E1,1.4652E2,-5.617055E-2,1.3135263E0,2.4263706E3,1.7118008E1,-2.1262775E-1,3.65E1,4.123E2,-2.2252093E-1,7.818315E-1,-1.3977306E-2,2.5616562E-1,-3.3381087E-1,-3.170215E-1,2.511912E3,8.057015E1,4.196E1,-1.1854108E-2,5.688E1,-7.3918605E-1,-2.5546956E-1,-9.463013E-1,-4.406712E-1,1.3072059E-1,1.0882801E0,-1.2092392E0,5.5565834E-2,2.311364E0,5.4842925E-1],"split_indices":[40,40,7,7,27,0,27,0,24,35,11,0,0,50,31,0,27,14,44,43,0,0,0,0,50,34,4,0,2,0,0,0,0,0,0,0,0,0,0],"split_type":[0,0,0,0,0,0,0,0,0,0,0,0,0,0,0,0,0,0,0,0,0,0,0,0,0,0,0,0,0,0,0,0,0,0,0,0,0,0,0],"sum_hessian":[2.35E2,2.15E2,2E1,5.3E1,1.62E2,9E0,1.1E1,1E1,4.3E1,2.8E1,1.34E2,6E0,5E0,3E1,1.3E1,6E0,2.2E1,1.17E2,1.7E1,2.5E1,5E0,5E0,8E0,5E0,1.7E1,1.03E2,1.4E1,5E0,1.2E1,1.9E1,6E0,1E1,7E0,9.3E1,1E1,7E0,7E0,5E0,7E0],"tree_param":{"num_deleted":"0","num_feature":"54","num_nodes":"39","size_leaf_vector":"1"}},{"base_weights":[-1.4079843E0,-3.1832123E0,2.1126251E1,-1.0590326E1,4.6567276E-1,2.1149542E0,5.7320614E0,6.073308E-2,-1.3444373E1,-8.779618E0,3.0567572E0,-3.1169307E-1,8.37132E-1,3.67004E-1,-2.5204417E-1,-1.9705235E1,-9.12485E0,6.3631594E-2,-1.2768439E1,-7.3076516E-1,1.2375547E1,-4.3627015E-1,-2.663547E1,-1.1748466E1,-1.2006675E-2,-1.5803289E1,-7.679078E-2,4.2485185E0,-9.503141E0,2.0347527E1,-3.271041E0,-1.5936702E0,-7.6061565E-1,-2.8385505E-1,-6.606402E-1,-4.2297503E-1,-9.385113E-1,-1.7026275E-2,6.595289E-1,-6.741242E-1,6.400223E-2,1.4356942E0,3.7182537E-1,-4.5532385E-1,1.09902635E-1],"categories":[],"categories_nodes":[],"categories_segments":[],"categories_sizes":[],"default_left":[0,0,0,0,0,0,0,0,0,0,0,0,0,0,0,0,0,0,0,0,0,0,0,0,0,0,0,0,0,0,0,0,0,0,0,0,0,0,0,0,0,0,0,0,0],"id":37,"left_children":[1,3,5,7,9,-1,11,13,15,17,19,-1,-1,-1,-1,21,23,-1,25,27,29,-1,31,33,-1,35,-1,37,39,41,43,-1,-1,-1,-1,-1,-1,-1,-1,-1,-1,-1,-1,-1,-1],"loss_changes":[9.308035E3,5.8158887E3,5.2984956E3,2.1591187E3,3.50036E3,0E0,1.5536404E3,6.311834E2,1.3346523E3,1.2993416E3,4.0326882E3,0E0,0E0,0E0,0E0,1.4416367E3,8.130315E2,0E0,7.597837E2,3.6221465E3,4.182789E3,0E0,2.9297168E2,1.6503369E2,0E0,2.3340723E2,0E0,2.1793735E3,1.3045579E3,2.16287E3,4.0299103E2,0E0,0E0,0E0,0E0,0E0,0E0,0E0,0E0,0E0,0E0,0E0,0E0,0E0,0E0],"parents":[2147483647,0,0,1,1,2,2,3,3,4,4,6,6,7,7,8,8,9,9,10,10,15,15,16,16,18,18,19,19,20,20,22,22,23,23,25,25,27,27,28,28,29,29,30,30],"right_children":[2,4,6,8,10,-1,12,14,16,18,20,-1,-1,-1,-1,22,24,-1,26,28,30,-1,32,34,-1,36,-1,38,40,42,44,-1,-1,-1,-1,-1,-1,-1,-1,-1,-1,-1,-1,-1,-1],"split_conditions":[9.159778E-1,1.698E2,1.535E1,4.530971E0,6.1E1,2.1149542E0,4.2017E2,5.075E1,5.212E1,6.367E1,1.5197715E3,-3.1169307E-1,8.37132E-1,3.67004E-1,-2.5204417E-1,7.085E1,1.8217472E1,6.3631594E-2,9.4532007E-1,4.3388373E-1,3.413E1,-4.3627015E-1,8.5394E1,5.703E1,-1.2006675E-2,3.145E1,-7.679078E-2,1.3751E2,9.419E1,1.08700714E2,2.572E2,-1.5936702E0,-7.6061565E-1,-2.8385505E-1,-6.606402E-1,-4.2297503E-1,-9.385113E-1,-1.7026275E-2,6.595289E-1,-6.741242E-1,6.400223E-2,1.4356942E0,3.7182537E-1,-4.5532385E-1,1.09902635E-1],"split_indices":[40,24,7,28,17,0,35,7,7,18,50,0,0,0,0,17,28,0,39,43,8,0,36,32,0,7,0,12,1,33,0,0,0,0,0,0,0,0,0,0,0,0,0,0,0],"split_type":[0,0,0,0,0,0,0,0,0,0,0,0,0,0,0,0,0,0,0,0,0,0,0,0,0,0,0,0,0,0,0,0,0,0,0,0,0,0,0,0,0,0,0,0,0],"sum_hessian":[2.3E2,2.14E2,1.6E1,7E1,1.44E2,6E0,1E1,1.5E1,5.5E1,3.1E1,1.13E2,5E0,5E0,6E0,9E0,2.1E1,3.4E1,9E0,2.2E1,8.1E1,3.2E1,9E0,1.2E1,2.6E1,8E0,1.7E1,5E0,5.2E1,2.9E1,2.1E1,1.1E1,7E0,5E0,6E0,2E1,6E0,1.1E1,3.5E1,1.7E1,2.1E1,8E0,1.2E1,9E0,5E0,6E0],"tree_param":{"num_deleted":"0","num_feature":"54","num_nodes":"45","size_leaf_vector":"1"}},{"base_weights":[7.905059E-1,-2.1283164E0,2.8675306E1,-8.2236185E0,2.9267132E0,4.3346237E1,1.4055649E1,-9.773245E0,6.880223E-1,-7.9850087E0,7.282846E0,3.147983E0,8.25422E-1,4.968885E-2,1.1047548E0,-6.5482116E0,-1.6775967E1,2.5089756E-1,-1.2023588E1,2.9667612E1,3.6525824E0,-8.9915495E0,6.144964E-1,-2.1141195E1,-1.8253872E-3,1.6776581E-1,-1.6577337E1,8.195344E-1,1.8404801E0,1.274695E0,1.0673199E0,-5.13674E-1,-1.8326086E-1,-4.3867669E-1,-1.2044619E0,-1.2910066E0,-5.579439E-1,-9.5279E-2,9.398994E-1],"categories":[],"categories_nodes":[],"categories_segments":[],"categories_sizes":[],"default_left":[0,0,0,0,0,0,0,0,0,0,0,0,0,0,0,0,0,0,0,0,0,0,0,0,0,0,0,0,0,0,0,0,0,0,0,0,0,0,0],"id":38,"left_children":[1,3,5,7,9,11,13,15,-1,17,19,-1,-1,-1,-1,21,23,-1,25,27,29,31,-1,33,-1,-1,35,-1,-1,-1,37,-1,-1,-1,-1,-1,-1,-1,-1],"loss_changes":[1.9757598E4,6.802694E3,4.323873E3,3.5411914E3,5.8096367E3,4.750826E3,1.3431755E3,2.0130449E3,0E0,1.8983057E3,6.9614824E3,0E0,0E0,0E0,0E0,3.148349E3,2.1183042E3,0E0,1.9464778E3,5.345498E2,4.264171E3,3.6519678E2,0E0,6.272412E2,0E0,0E0,7.6359326E2,0E0,0E0,0E0,3.6729146E3,0E0,0E0,0E0,0E0,0E0,0E0,0E0,0E0],"parents":[2147483647,0,0,1,1,2,2,3,3,4,4,5,5,6,6,7,7,9,9,10,10,15,15,16,16,18,18,19,19,20,20,21,21,23,23,26,26,30,30],"right_children":[2,4,6,8,10,12,14,16,-1,18,20,-1,-1,-1,-1,22,24,-1,26,28,30,32,-1,34,-1,-1,36,-1,-1,-1,38,-1,-1,-1,-1,-1,-1,-1,-1],"split_conditions":[9.159778E-1,4.6E-1,3.844E2,6.728422E1,1.829E2,7.318527E1,2.1886E2,8.115E1,6.880223E-1,7.7E-1,5.18E1,3.147983E0,8.25422E-1,4.968885E-2,1.1047548E0,7.286E1,2.74E0,2.5089756E-1,4.452E1,4.793E1,1.933E2,-1.0574505E-2,6.144964E-1,-2.2267698E-1,-1.8253872E-3,1.6776581E-1,-9.4175893E-1,8.195344E-1,1.8404801E0,1.274695E0,4.28E2,-5.13674E-1,-1.8326086E-1,-4.3867669E-1,-1.2044619E0,-1.2910066E0,-5.579439E-1,-9.5279E-2,9.398994E-1],"split_indices":[40,10,14,34,21,37,20,15,0,10,19,0,0,0,0,15,6,0,3,1,21,49,0,49,0,0,39,0,0,0,25,0,0,0,0,0,0,0,0],"split_type":[0,0,0,0,0,0,0,0,0,0,0,0,0,0,0,0,0,0,0,0,0,0,0,0,0,0,0,0,0,0,0,0,0,0,0,0,0,0,0],"sum_hessian":[2.41E2,2.19E2,2.2E1,9.9E1,1.2E2,1E1,1.2E1,9.3E1,6E0,3.4E1,8.6E1,5E0,5E0,5E0,7E0,6.5E1,2.8E1,8E0,2.6E1,1.1E1,7.5E1,5.8E1,7E0,2.2E1,6E0,6E0,2E1,5E0,6E0,7E0,6.8E1,4.6E1,1.2E1,5E0,1.7E1,6E0,1.4E1,5.9E1,9E0],"tree_param":{"num_deleted":"0","num_feature":"54","num_nodes":"39","size_leaf_vector":"1"}},{"base_weights":[1.3283792E0,-1.495843E0,2.816213E1,1.1683035E1,-3.488993E0,2.4453225E0,1.6029839E1,-5.192419E0,3.602263E1,-4.6245456E0,1.1532422E0,1.2378651E0,6.360299E-2,-1.3459377E1,4.860642E-1,2.320853E0,8.9460105E-1,-8.290706E0,-7.033259E-1,-1.4731394E-1,-1.0273918E0,-8.996423E0,1.838417E-1,1.0864019E1,-5.8332043E0,-3.4213063E-1,-8.615761E-1,9.630734E-1,-9.6884936E-2,6.70001E-1,-4.2383218E-1],"categories":[],"categories_nodes":[],"categories_segments":[],"categories_sizes":[],"default_left":[0,0,0,0,0,0,0,0,0,0,0,0,0,0,0,0,0,0,0,0,0,0,0,0,0,0,0,0,0,0,0],"id":39,"left_children":[1,3,5,7,9,-1,11,13,15,17,-1,-1,-1,19,-1,-1,-1,21,23,-1,-1,25,-1,27,29,-1,-1,-1,-1,-1,-1],"loss_changes":[1.8306188E4,5.79334E3,5.004586E3,1.2098554E4,5.8659414E3,0E0,2.0292749E3,2.35008E3,1.4309932E3,2.6393198E3,0E0,0E0,0E0,8.337202E2,0E0,0E0,0E0,8.354199E2,5.403889E3,0E0,0E0,1.4784067E3,0E0,3.0473718E3,3.316624E3,0E0,0E0,0E0,0E0,0E0,0E0],"parents":[2147483647,0,0,1,1,2,2,3,3,4,4,6,6,7,7,8,8,9,9,13,13,17,17,18,18,21,21,23,23,24,24],"right_children":[2,4,6,8,10,-1,12,14,16,18,-1,-1,-1,20,-1,-1,-1,22,24,-1,-1,26,-1,28,30,-1,-1,-1,-1,-1,-1],"split_conditions":[9.159778E-1,-9.5785236E-1,0E0,-9.850557E-1,7.846326E1,2.4453225E0,1.501E1,4.445E2,1.0370634E2,5.3222716E-1,1.1532422E0,1.2378651E0,6.360299E-2,2.2630105E3,4.860642E-1,2.320853E0,8.9460105E-1,1.3338E2,-4.159484E-1,-1.4731394E-1,-1.0273918E0,7.725E1,1.838417E-1,2.76E0,9.834E0,-3.4213063E-1,-8.615761E-1,9.630734E-1,-9.6884936E-2,6.70001E-1,-4.2383218E-1],"split_indices":[40,39,43,39,34,0,5,23,36,39,0,0,0,50,0,0,0,1,40,0,0,16,0,6,4,0,0,0,0,0,0],"split_type":[0,0,0,0,0,0,0,0,0,0,0,0,0,0,0,0,0,0,0,0,0,0,0,0,0,0,0,0,0,0,0],"sum_hessian":[2.4E2,2.18E2,2.2E1,2.8E1,1.9E2,7E0,1.5E1,1.7E1,1.1E1,1.83E2,7E0,9E0,6E0,1.1E1,6E0,6E0,5E0,9.4E1,8.9E1,5E0,6E0,8.9E1,5E0,2.7E1,6.2E1,7.2E1,1.7E1,1.6E1,1.1E1,7E0,5.5E1],"tree_param":{"num_deleted":"0","num_feature":"54","num_nodes":"31","size_leaf_vector":"1"}},{"base_weights":[2.1251503E-1,-2.1735852E0,3.0096445E1,-3.5501423E0,1.2936347E1,2.1455638E0,2.8296825E-1,-4.3838634E0,9.793302E-1,2.7802544E1,-4.560859E-1,-5.0830144E-1,-8.684396E0,2.0763009E0,4.7226578E-1,-4.937736E0,7.9854245E0,-9.969294E0,5.4828614E-1,-4.4243398E-1,2.7041316E-1,6.392912E-1,-3.651523E-1,-3.5879064E-1,-8.8213176E-1],"categories":[],"categories_nodes":[],"categories_segments":[],"categories_sizes":[],"default_left":[0,0,0,0,0,0,0,0,0,0,0,0,0,0,0,0,0,0,0,0,0,0,0,0,0],"id":40,"left_children":[1,3,5,7,9,-1,-1,11,-1,13,-1,15,17,-1,-1,19,21,23,-1,-1,-1,-1,-1,-1,-1],"loss_changes":[1.6394504E4,4.476259E3,5.0808193E3,3.8666267E3,6.156159E3,0E0,0E0,3.1623118E3,0E0,2.3789492E3,0E0,3.8392927E3,2.3816763E3,0E0,0E0,2.7588516E3,2.6620527E3,1.6954033E3,0E0,0E0,0E0,0E0,0E0,0E0,0E0],"parents":[2147483647,0,0,1,1,2,2,3,3,4,4,7,7,9,9,11,11,12,12,15,15,16,16,17,17],"right_children":[2,4,6,8,10,-1,-1,12,-1,14,-1,16,18,-1,-1,20,22,24,-1,-1,-1,-1,-1,-1,-1],"split_conditions":[9.159778E-1,1.00142054E-1,1.726E1,8.380229E1,1.14E0,2.1455638E0,2.8296825E-1,5.775E1,9.793302E-1,4.4573E2,-4.560859E-1,2.7426592E1,1.3242E2,2.0763009E0,4.7226578E-1,3.161E1,2.913E1,2.834E2,5.4828614E-1,-4.4243398E-1,2.7041316E-1,6.392912E-1,-3.651523E-1,-3.5879064E-1,-8.8213176E-1],"split_indices":[40,48,7,34,10,0,0,9,0,0,0,31,2,0,0,5,5,26,0,0,0,0,0,0,0],"split_type":[0,0,0,0,0,0,0,0,0,0,0,0,0,0,0,0,0,0,0,0,0,0,0,0,0],"sum_hessian":[2.28E2,2.12E2,1.6E1,1.95E2,1.7E1,1E1,6E0,1.89E2,6E0,1E1,7E0,1E2,8.9E1,5E0,5E0,6.6E1,3.4E1,8.4E1,5E0,4.8E1,1.8E1,2.6E1,8E0,6.3E1,2.1E1],"tree_param":{"num_deleted":"0","num_feature":"54","num_nodes":"25","size_leaf_vector":"1"}},{"base_weights":[1.4869645E0,-1.1105523E0,2.1286308E1,-7.4726057E0,2.5197449E0,2.10877E0,1.2314926E1,-8.658603E0,7.2901666E-2,-1.4632928E1,3.985569E0,1.6201066E0,-4.3114252E-2,-6.72742E0,-1.5764862E1,-1.174713E0,-1.6663876E-1,-8.43064E0,6.3851466E0,-5.7413554E-1,3.7940368E-1,-2.7819057E0,-9.3930235E0,-5.4574347E-1,-1.0206188E0,-6.1282612E-2,-1.1945587E1,1.8635937E1,1.8071967E0,-3.3054414E-1,2.1671323E-1,-7.0173854E-1,-2.6170585E-1,-2.960247E-1,-7.862173E-1,1.2391843E0,1.1102652E-1,-8.954721E-2,6.632004E-1],"categories":[],"categories_nodes":[],"categories_segments":[],"categories_sizes":[],"default_left":[0,0,0,0,0,0,0,0,0,0,0,0,0,0,0,0,0,0,0,0,0,0,0,0,0,0,0,0,0,0,0,0,0,0,0,0,0,0,0],"id":41,"left_children":[1,3,5,7,9,-1,11,13,-1,15,17,-1,19,21,23,-1,-1,25,27,-1,-1,29,31,-1,-1,-1,33,35,37,-1,-1,-1,-1,-1,-1,-1,-1,-1,-1],"loss_changes":[1.241806E4,4.9614043E3,4.727925E3,8.387783E2,3.5028843E3,0E0,5.2144062E3,8.408638E2,0E0,1.0231775E3,3.8376252E3,0E0,1.3092997E3,5.6283154E2,9.276758E1,0E0,0E0,5.1718726E2,5.967256E3,0E0,0E0,6.82597E2,5.635923E2,0E0,0E0,0E0,2.2564722E2,2.871584E3,3.2803894E3,0E0,0E0,0E0,0E0,0E0,0E0,0E0,0E0,0E0,0E0],"parents":[2147483647,0,0,1,1,2,2,3,3,4,4,6,6,7,7,9,9,10,10,12,12,13,13,14,14,17,17,18,18,21,21,22,22,26,26,27,27,28,28],"right_children":[2,4,6,8,10,-1,12,14,-1,16,18,-1,20,22,24,-1,-1,26,28,-1,-1,30,32,-1,-1,-1,34,36,38,-1,-1,-1,-1,-1,-1,-1,-1,-1,-1],"split_conditions":[2.8984E2,-6.9831014E-1,3.141771E2,1.7643E2,4.0364E1,2.10877E0,1.069E1,7.725E1,7.2901666E-2,9.406107E1,5.5923332E1,1.6201066E0,3.732E1,2.222E1,1.739E1,-1.174713E0,-1.6663876E-1,7.9257197E0,1.7509E2,-5.7413554E-1,3.7940368E-1,6.5E1,2.226E1,-5.4574347E-1,-1.0206188E0,-6.1282612E-2,4.72E1,1.107E2,1.6147E2,-3.3054414E-1,2.1671323E-1,-7.0173854E-1,-2.6170585E-1,-2.960247E-1,-7.862173E-1,1.2391843E0,1.1102652E-1,-8.954721E-2,6.632004E-1],"split_indices":[32,40,32,35,11,0,5,16,0,33,27,0,4,4,5,0,0,28,38,0,0,27,1,0,0,0,7,3,11,0,0,0,0,0,0,0,0,0,0],"split_type":[0,0,0,0,0,0,0,0,0,0,0,0,0,0,0,0,0,0,0,0,0,0,0,0,0,0,0,0,0,0,0,0,0,0,0,0,0,0,0],"sum_hessian":[2.4E2,2.13E2,2.7E1,7.7E1,1.36E2,7E0,2E1,6.8E1,9E0,1E1,1.26E2,7E0,1.3E1,5.5E1,1.3E1,5E0,5E0,2E1,1.06E2,5E0,8E0,2.3E1,3.2E1,8E0,5E0,7E0,1.3E1,2.8E1,7.8E1,1.5E1,8E0,1.4E1,1.8E1,6E0,7E0,2E1,8E0,6E1,1.8E1],"tree_param":{"num_deleted":"0","num_feature":"54","num_nodes":"39","size_leaf_vector":"1"}},{"base_weights":[1.192185E0,-1.4671168E0,2.599904E1,-9.710044E0,2.838825E0,1.14855585E1,2.36497E0,-6.476868E0,-1.872835E1,-7.037896E0,5.660593E0,1.0015382E0,1.7815569E-1,6.0599667E-1,-8.537729E0,-1.2256998E0,-3.8544187E-1,1.2607834E-1,-9.34091E0,8.913917E0,-5.3181143E0,-9.829723E0,-7.081159E-2,-1.1027122E1,-9.4117545E-2,-4.2185445E0,1.2957367E1,-9.05568E0,4.324859E-1,-2.6267356E-1,-5.928897E-1,-2.3051703E-1,-6.6432387E-1,-3.7084946E-1,1.6189575E-1,8.9493555E-1,1.4704993E-1,-8.1176805E-1,2.3275224E-2],"categories":[],"categories_nodes":[],"categories_segments":[],"categories_sizes":[],"default_left":[0,0,0,0,0,0,0,0,0,0,0,0,0,0,0,0,0,0,0,0,0,0,0,0,0,0,0,0,0,0,0,0,0,0,0,0,0,0,0],"id":42,"left_children":[1,3,5,7,9,11,-1,13,15,17,19,-1,-1,-1,21,-1,-1,-1,23,25,27,29,-1,31,-1,33,35,37,-1,-1,-1,-1,-1,-1,-1,-1,-1,-1,-1],"loss_changes":[1.5672776E4,7.658681E3,6.5670156E3,2.036374E3,3.9973525E3,9.4411194E2,0E0,2.2497007E3,1.0223701E3,7.280521E2,4.0120237E3,0E0,0E0,0E0,4.5532617E2,0E0,0E0,0E0,3.0623755E2,4.621301E3,1.435677E3,3.367871E2,0E0,2.4319873E2,0E0,5.248462E2,3.2139863E3,1.4430983E3,0E0,0E0,0E0,0E0,0E0,0E0,0E0,0E0,0E0,0E0,0E0],"parents":[2147483647,0,0,1,1,2,2,3,3,4,4,5,5,7,7,8,8,9,9,10,10,14,14,18,18,19,19,20,20,21,21,23,23,25,25,26,26,27,27],"right_children":[2,4,6,8,10,12,-1,14,16,18,20,-1,-1,-1,22,-1,-1,-1,24,26,28,30,-1,32,-1,34,36,38,-1,-1,-1,-1,-1,-1,-1,-1,-1,-1,-1],"split_conditions":[9.159778E-1,1.698E2,3.914E2,6.951667E1,-8.644082E-1,1.535E1,2.36497E0,-9.296339E-1,5.5254574E1,1.2238932E1,1.4246E2,1.0015382E0,1.7815569E-1,6.0599667E-1,-1.8369701E-16,-1.2256998E0,-3.8544187E-1,1.2607834E-1,2.646665E1,2.1859E2,8.208681E1,4.5692856E1,-7.081159E-2,6.064E1,-9.4117545E-2,1.2296E2,9.0668607E-1,4.085E2,4.324859E-1,-2.6267356E-1,-5.928897E-1,-2.3051703E-1,-6.6432387E-1,-3.7084946E-1,1.6189575E-1,8.9493555E-1,1.4704993E-1,-8.1176805E-1,2.3275224E-2],"split_indices":[40,24,23,27,40,7,0,39,37,31,15,0,0,0,42,0,0,0,34,0,37,30,0,16,0,29,39,22,0,0,0,0,0,0,0,0,0,0,0],"split_type":[0,0,0,0,0,0,0,0,0,0,0,0,0,0,0,0,0,0,0,0,0,0,0,0,0,0,0,0,0,0,0,0,0,0,0,0,0,0,0],"sum_hessian":[2.36E2,2.14E2,2.2E1,7.3E1,1.41E2,1.4E1,8E0,5.5E1,1.8E1,3.1E1,1.1E2,6E0,8E0,5E0,5E1,1.1E1,7E0,6E0,2.5E1,8.5E1,2.5E1,4.2E1,8E0,2E1,5E0,2E1,6.5E1,2E1,5E0,1.4E1,2.8E1,6E0,1.4E1,1.4E1,6E0,4.3E1,2.2E1,1.1E1,9E0],"tree_param":{"num_deleted":"0","num_feature":"54","num_nodes":"39","size_leaf_vector":"1"}},{"base_weights":[-1.8455626E-2,-3.8607242E0,8.0451565E0,-5.4918184E0,9.680333E-1,-5.1638994E0,1.1675509E1,-7.3179107E0,-5.7506865E-1,3.9233387E-1,-1.1791133E1,1.5769965E1,-5.6733376E-1,-1.5060495E1,-5.702308E0,2.204972E0,-8.116394E-1,-1.0976509E0,1.679713E-2,1.1582098E1,1.9483408E0,7.322586E-1,-6.168123E-1,-3.2889456E-1,-9.0233785E-1,-6.9036994E0,3.4371102E-1,-3.7579653E0,9.1481495E0,2.2375195E1,6.155204E0,-2.6749542E-1,-7.190323E-1,-4.1698548E-1,-5.0089907E-2,-1.2966451E-1,8.226172E-1,7.088947E-1,1.4104756E0,-3.5633135E-1,5.711798E-1],"categories":[],"categories_nodes":[],"categories_segments":[],"categories_sizes":[],"default_left":[0,0,0,0,0,0,0,0,0,0,0,0,0,0,0,0,0,0,0,0,0,0,0,0,0,0,0,0,0,0,0,0,0,0,0,0,0,0,0,0,0],"id":43,"left_children":[1,3,5,7,-1,9,11,13,15,-1,17,19,21,23,25,27,-1,-1,-1,29,-1,-1,-1,-1,-1,31,-1,33,35,37,39,-1,-1,-1,-1,-1,-1,-1,-1,-1,-1],"loss_changes":[6.8162417E3,5.74989E3,3.4649927E3,1.2527734E3,0E0,1.4721072E3,2.8161025E3,1.1900322E3,1.7334277E3,0E0,1.3629487E3,3.6287861E3,2.866186E3,3.1192163E2,1.3468604E3,1.4420372E3,0E0,0E0,0E0,2.029477E3,0E0,0E0,0E0,0E0,0E0,8.4085645E2,0E0,2.3157828E2,1.4148536E3,1.7395654E2,1.9007329E3,0E0,0E0,0E0,0E0,0E0,0E0,0E0,0E0,0E0,0E0],"parents":[2147483647,0,0,1,1,2,2,3,3,5,5,6,6,7,7,8,8,10,10,11,11,12,12,13,13,14,14,15,15,19,19,25,25,27,27,28,28,29,29,30,30],"right_children":[2,4,6,8,-1,10,12,14,16,-1,18,20,22,24,26,28,-1,-1,-1,30,-1,-1,-1,-1,-1,32,-1,34,36,38,40,-1,-1,-1,-1,-1,-1,-1,-1,-1,-1],"split_conditions":[1.3593E2,1.9968212E-1,-2.2252093E-1,7.42E2,9.680333E-1,3.649E1,7.4196E2,2.243E1,2.34E0,3.9233387E-1,3.613E2,7.4143E2,1.6106E2,6.735E1,1.4075E2,1.78E2,-8.116394E-1,-1.0976509E0,1.679713E-2,4.104552E1,1.9483408E0,7.322586E-1,-6.168123E-1,-3.2889456E-1,-9.0233785E-1,3.541E1,3.4371102E-1,1.5186E2,1.115751E3,1.4093E2,5.7692165E1,-2.6749542E-1,-7.190323E-1,-4.1698548E-1,-5.0089907E-2,-1.2966451E-1,8.226172E-1,7.088947E-1,1.4104756E0,-3.5633135E-1,5.711798E-1],"split_indices":[29,48,44,13,0,1,13,8,6,0,24,13,38,17,20,21,0,0,0,34,0,0,0,0,0,8,0,0,50,15,34,0,0,0,0,0,0,0,0,0,0],"split_type":[0,0,0,0,0,0,0,0,0,0,0,0,0,0,0,0,0,0,0,0,0,0,0,0,0,0,0,0,0,0,0,0,0,0,0,0,0,0,0,0,0],"sum_hessian":[2.18E2,1.48E2,7E1,1.39E2,9E0,1.5E1,5.5E1,1.01E2,3.8E1,5E0,1E1,4.1E1,1.4E1,1.6E1,8.5E1,3.3E1,5E0,5E0,5E0,3.6E1,5E0,6E0,8E0,5E0,1.1E1,7.8E1,7E0,1.8E1,1.5E1,1.1E1,2.5E1,6.6E1,1.2E1,6E0,1.2E1,6E0,9E0,6E0,5E0,7E0,1.8E1],"tree_param":{"num_deleted":"0","num_feature":"54","num_nodes":"41","size_leaf_vector":"1"}},{"base_weights":[1.1249607E0,-1.8700291E0,2.1153894E1,1.4273769E1,-3.248689E0,5.2260716E-2,3.3367878E1,1.7485275E0,-8.206776E-2,-7.863332E0,1.109451E-2,4.2705902E-1,-3.6157113E-1,1.7088799E1,2.4778497E0,-8.97635E0,7.717561E-2,-5.6722445E0,3.7432709E0,4.503716E-1,1.1161016E0,-7.047975E0,-9.251711E-1,-8.942785E0,4.952358E0,1.3956291E1,-8.281555E-3,-4.2311436E-1,-4.0169764E-2,-1.1803887E-1,-6.4524716E-1,-2.0985107E-1,6.638172E-1,-1.386388E-1,1.1275945E0,7.2553784E-1,-9.7198464E-2],"categories":[],"categories_nodes":[],"categories_segments":[],"categories_sizes":[],"default_left":[0,0,0,0,0,0,0,0,0,0,0,0,0,0,0,0,0,0,0,0,0,0,0,0,0,0,0,0,0,0,0,0,0,0,0,0,0],"id":44,"left_children":[1,3,5,7,9,11,13,-1,-1,15,17,-1,-1,19,-1,21,-1,23,25,-1,-1,27,-1,29,31,33,35,-1,-1,-1,-1,-1,-1,-1,-1,-1,-1],"loss_changes":[1.3836442E4,4.519989E3,7.7303086E3,5.327669E3,2.7980366E3,8.037322E2,4.160463E3,0E0,0E0,8.200449E2,2.3544675E3,0E0,0E0,2.641443E2,0E0,1.1372407E3,0E0,1.5732086E3,2.5671992E3,0E0,0E0,5.1427686E2,0E0,8.56219E2,8.934735E2,2.6508652E3,1.4334247E3,0E0,0E0,0E0,0E0,0E0,0E0,0E0,0E0,0E0,0E0],"parents":[2147483647,0,0,1,1,2,2,3,3,4,4,5,5,6,6,9,9,10,10,13,13,15,15,17,17,18,18,21,21,23,23,24,24,25,25,26,26],"right_children":[2,4,6,8,10,12,14,-1,-1,16,18,-1,-1,20,-1,22,-1,24,26,-1,-1,28,-1,30,32,34,36,-1,-1,-1,-1,-1,-1,-1,-1,-1,-1],"split_conditions":[1.5245143E2,7.3534E2,7.10705E1,8.937143E1,4.1E-1,2.3595334E2,2.388E2,1.7485275E0,-8.206776E-2,4.050636E1,7.366E1,4.2705902E-1,-3.6157113E-1,5.5094654E1,2.4778497E0,3.333216E1,7.717561E-2,7.4189E2,1.7509E2,4.503716E-1,1.1161016E0,2.0888018E1,-9.251711E-1,1.4102816E1,2.42E1,2.222E2,9.174E1,-4.2311436E-1,-4.0169764E-2,-1.1803887E-1,-6.4524716E-1,-2.0985107E-1,6.638172E-1,-1.386388E-1,1.1275945E0,7.2553784E-1,-9.7198464E-2],"split_indices":[33,13,37,30,10,27,17,0,0,31,17,0,0,31,0,37,0,13,38,0,0,34,0,34,5,22,29,0,0,0,0,0,0,0,0,0,0],"split_type":[0,0,0,0,0,0,0,0,0,0,0,0,0,0,0,0,0,0,0,0,0,0,0,0,0,0,0,0,0,0,0,0,0,0,0,0,0],"sum_hessian":[2.29E2,2E2,2.9E1,1.5E1,1.85E2,1.1E1,1.8E1,6E0,9E0,7.6E1,1.09E2,5E0,6E0,1E1,8E0,6.8E1,8E0,4.3E1,6.6E1,5E0,5E0,5.8E1,1E1,3.3E1,1E1,1.7E1,4.9E1,4.7E1,1.1E1,1.3E1,2E1,5E0,5E0,6E0,1.1E1,5E0,4.4E1],"tree_param":{"num_deleted":"0","num_feature":"54","num_nodes":"37","size_leaf_vector":"1"}},{"base_weights":[6.225979E-1,-1.4677252E0,1.4762767E1,-5.987926E0,1.9065378E0,-1.8005962E0,2.3962646E1,-4.6426053E0,-1.295948E1,-1.1062492E0,1.813867E1,5.1068074E-1,-7.758538E-1,2.0260446E0,9.547077E0,2.6887248E0,-6.609655E0,-9.682886E-1,-1.8933247E-1,-2.728609E0,8.0707884E-1,2.0260608E0,7.2505307E0,-6.932542E-2,1.0355874E0,-3.4356124E0,7.244639E-1,-9.734077E0,-3.8421993E0,5.628542E0,-5.476429E0,6.78388E-1,-1.7168671E-1,-5.514551E-2,-2.792248E-1,-2.5856626E-1,-6.671854E-1,-8.715468E-3,-3.9788404E-1,-7.406249E-2,1.0016642E0,-9.488109E-1,-1.6233389E-1],"categories":[],"categories_nodes":[],"categories_segments":[],"categories_sizes":[],"default_left":[0,0,0,0,0,0,0,0,0,0,0,0,0,0,0,0,0,0,0,0,0,0,0,0,0,0,0,0,0,0,0,0,0,0,0,0,0,0,0,0,0,0,0],"id":45,"left_children":[1,3,5,7,9,11,13,15,17,19,21,-1,-1,-1,23,25,27,-1,-1,29,-1,-1,31,-1,-1,33,-1,35,37,39,41,-1,-1,-1,-1,-1,-1,-1,-1,-1,-1,-1,-1],"loss_changes":[7.1154727E3,3.2144092E3,4.7669565E3,7.839424E2,5.937445E3,2.1359976E3,4.387073E3,1.1281954E3,7.493623E2,2.9262087E3,4.336581E3,0E0,0E0,0E0,1.4935555E3,1.2783793E3,4.9004858E2,0E0,0E0,2.2123992E3,0E0,0E0,9.915173E2,0E0,0E0,5.3993286E1,0E0,3.9215112E2,5.1184738E2,2.4876274E3,2.1056743E3,0E0,0E0,0E0,0E0,0E0,0E0,0E0,0E0,0E0,0E0,0E0,0E0],"parents":[2147483647,0,0,1,1,2,2,3,3,4,4,5,5,6,6,7,7,8,8,9,9,10,10,14,14,15,15,16,16,19,19,22,22,25,25,27,27,28,28,29,29,30,30],"right_children":[2,4,6,8,10,12,14,16,18,20,22,-1,-1,-1,24,26,28,-1,-1,30,-1,-1,32,-1,-1,34,-1,36,38,40,42,-1,-1,-1,-1,-1,-1,-1,-1,-1,-1,-1,-1],"split_conditions":[1.5245143E2,2.2419E2,2.7899637E1,2.3959E2,1.6147E2,2.2550143E2,2.4192143E2,4.521E1,3.303E1,1.32E0,5.819E1,5.1068074E-1,-7.758538E-1,2.0260446E0,4.187E2,5.379E1,1.453E2,-9.682886E-1,-1.8933247E-1,2.034E2,8.0707884E-1,2.0260608E0,6.69E1,-6.932542E-2,1.0355874E0,1.3844E2,7.244639E-1,2.0197002E1,6.512E1,3.565E2,1.948E1,6.78388E-1,-1.7168671E-1,-5.514551E-2,-2.792248E-1,-2.5856626E-1,-6.671854E-1,-8.715468E-3,-3.9788404E-1,-7.406249E-2,1.0016642E0,-9.488109E-1,-1.6233389E-1],"split_indices":[33,0,28,11,11,30,30,20,8,10,2,0,0,0,22,16,24,0,0,14,0,0,7,0,0,12,0,37,15,26,7,0,0,0,0,0,0,0,0,0,0,0,0],"split_type":[0,0,0,0,0,0,0,0,0,0,0,0,0,0,0,0,0,0,0,0,0,0,0,0,0,0,0,0,0,0,0,0,0,0,0,0,0,0,0,0,0,0,0],"sum_hessian":[2.39E2,2.09E2,3E1,8.9E1,1.2E2,1.1E1,1.9E1,7.6E1,1.3E1,1.02E2,1.8E1,6E0,5E0,8E0,1.1E1,1.6E1,6E1,7E0,6E0,9.4E1,8E0,5E0,1.3E1,6E0,5E0,1.1E1,5E0,2.7E1,3.3E1,2.3E1,7.1E1,8E0,5E0,6E0,5E0,1.3E1,1.4E1,1.8E1,1.5E1,1.6E1,7E0,9E0,6.2E1],"tree_param":{"num_deleted":"0","num_feature":"54","num_nodes":"43","size_leaf_vector":"1"}},{"base_weights":[9.873163E-1,-1.5703354E0,1.7661125E1,-6.2980294E0,1.2927041E0,2.9324314E1,2.4878912E0,-7.3278437E0,7.702366E-2,3.0300207E0,-1.344273E1,1.5534274E1,2.7157676E0,-3.369803E-1,6.998202E-1,-5.4276595E0,-1.7026318E1,8.000949E-1,1.828884E1,-1.0693655E0,3.572973E-2,1.2107838E0,6.8501346E-2,-3.2062068E0,-8.626246E0,-5.221312E-1,-1.0386146E0,-1.209848E0,1.7903234E1,2.0747921E0,1.2678772E-1,-3.737184E-1,3.9772455E-2,-2.7500072E-1,-7.095605E-1,-2.3149979E-1,1.8660776E-1,1.106438E0,5.346919E-1],"categories":[],"categories_nodes":[],"categories_segments":[],"categories_sizes":[],"default_left":[0,0,0,0,0,0,0,0,0,0,0,0,0,0,0,0,0,0,0,0,0,0,0,0,0,0,0,0,0,0,0,0,0,0,0,0,0,0,0],"id":46,"left_children":[1,3,5,7,9,11,13,15,-1,17,19,21,-1,-1,-1,23,25,27,29,-1,-1,-1,-1,31,33,-1,-1,35,37,-1,-1,-1,-1,-1,-1,-1,-1,-1,-1],"loss_changes":[1.0262726E4,2.8370767E3,5.5900293E3,6.489922E2,3.3943472E3,5.359544E3,1.687252E3,1.1976091E3,0E0,4.0004392E3,1.589919E3,1.5653752E3,0E0,0E0,0E0,3.9867297E2,5.4368896E1,3.5967993E3,5.378506E3,0E0,0E0,0E0,0E0,6.378949E2,3.394851E2,0E0,0E0,1.6061039E3,9.845703E1,0E0,0E0,0E0,0E0,0E0,0E0,0E0,0E0,0E0,0E0],"parents":[2147483647,0,0,1,1,2,2,3,3,4,4,5,5,6,6,7,7,9,9,10,10,11,11,15,15,16,16,17,17,18,18,23,23,24,24,27,27,28,28],"right_children":[2,4,6,8,